tree
version=v4
num_class=6
num_tree_per_iteration=6
label_index=0
max_feature_idx=81
objective=multiclass num_class:6
feature_names=Column_0 Column_1 Column_2 Column_3 Column_4 Column_5 Column_6 Column_7 Column_8 Column_9 Column_10 Column_11 Column_12 Column_13 Column_14 Column_15 Column_16 Column_17 Column_18 Column_19 Column_20 Column_21 Column_22 Column_23 Column_24 Column_25 Column_26 Column_27 Column_28 Column_29 Column_30 Column_31 Column_32 Column_33 Column_34 Column_35 Column_36 Column_37 Column_38 Column_39 Column_40 Column_41 Column_42 Column_43 Column_44 Column_45 Column_46 Column_47 Column_48 Column_49 Column_50 Column_51 Column_52 Column_53 Column_54 Column_55 Column_56 Column_57 Column_58 Column_59 Column_60 Column_61 Column_62 Column_63 Column_64 Column_65 Column_66 Column_67 Column_68 Column_69 Column_70 Column_71 Column_72 Column_73 Column_74 Column_75 Column_76 Column_77 Column_78 Column_79 Column_80 Column_81
feature_infos=none [-0.97829753160476685:2.9870493412017822] [-1.3920965194702148:1.4269504547119141] [-1.4503970146179199:1.6017783880233765] [-2.8588864803314209:4.8926000595092773] [-3.6003413200378418:3.2035384178161621] [-1.8694056272506714:3.6146993637084961] [-2.0079987049102783:3.3195643424987793] [-2.8167946338653564:3.0128631591796875] [-3.1801962852478027:4.6699013710021973] [-1.3115469217300415:9.9590444564819336] [-6.7631840705871582:4.1228904724121094] [-0.80819958448410034:2.5079028606414795] none [-4.6296424865722656:4.718299388885498] [-0.23276343941688538:4.2962074279785156] [-2.5920979976654053:5.009188175201416] [-3.242412805557251:3.279883861541748] [-1.713068962097168:3.7898833751678467] [-1.869293212890625:3.332247257232666] [-2.44138503074646:3.0243673324584961] [-3.2013812065124512:4.6931052207946777] [-1.4000277519226074:10.679275512695312] [-6.5892024040222168:3.8247110843658447] [-0.75531834363937378:6.8539834022521973] [-3.1124308109283447:11.595115661621094] [-4.3488283157348633:4.1100296974182129] [-0.24568614363670349:4.0702338218688965] [-2.5812065601348877:5.0360069274902344] [-3.2261393070220947:3.2924647331237793] [-1.70088791847229:3.7956171035766602] [-2.0030937194824219:2.856104850769043] [-2.8041117191314697:2.2632968425750732] [-3.1767659187316895:4.6714024543762207] [-1.3307762145996094:9.9779567718505859] [-6.5489006042480469:3.7943258285522461] [-0.76924508810043335:6.5556125640869141] [-2.9090738296508789:8.1827287673950195] [-4.6350650787353516:4.4442763328552246] [-0.24588385224342346:4.0669612884521484] [-2.3188149929046631:4.7638301849365234] [-2.9636096954345703:3.0298142433166504] [-1.5919474363327026:3.7517635822296143] [-2.0075039863586426:3.3470385074615479] [-2.815326452255249:3.0317456722259521] [-3.1868109703063965:4.6827278137207031] [-1.6874262094497681:10.071569442749023] [-5.8774509429931641:3.4059979915618896] [-0.77272367477416992:6.0068702697753906] [-6.8339405059814453:4.3430166244506836] [-4.7206015586853027:4.9256033897399902] [-0.24476191401481628:4.0856027603149414] [-2.0842430591583252:4.545076847076416] [-2.5718169212341309:2.8324680328369141] [-1.4897009134292603:3.7342658042907715] [-2.0020411014556885:3.3515298366546631] [-2.8068838119506836:3.0343308448791504] [-3.2036564350128174:4.6973772048950195] [-1.2792888879776001:10.63649845123291] [-4.3305425643920898:2.6419596672058105] [-0.72457098960876465:5.5897765159606934] [-7.9283814430236816:2.0054905414581299] [-4.4691777229309082:4.4326586723327637] [-0.23882177472114563:4.1872224807739258] [-1.8474061489105225:4.1811351776123047] [-2.1733055114746094:2.55120849609375] [-1.3824012279510498:3.6030230522155762] [-2.0083198547363281:3.3709557056427002] [-2.8176560401916504:3.0522582530975342] [-3.1800408363342285:4.659203052520752] [-1.8607293367385864:9.9588108062744141] [-3.2249736785888672:2.1913034915924072] [-0.70773530006408691:4.6524734497070312] [-7.574409008026123:0.30111774802207947] [-4.6779580116271973:4.2309651374816895] [-0.24263916909694672:4.1213459968566895] [-0.68120002746582031:0.58329999446868896] [-0.68120002746582031:0.58329999446868896] [-0.68120002746582031:0.58329999446868896] [-0.68120002746582031:0.58329999446868896] [-0.68120002746582031:0.58329999446868896] [-0.68120002746582031:0.58329999446868896]
tree_sizes=3379 3325 3322 3312 3028 1690 3408 3429 3410 3396 2792 1833 3422 3411 3410 3418 2776 1721 3438 3421 3406 3410 2575 1719 3444 3421 3405 3415 2797 1837 3424 3412 3415 3404 2785 1734 3436 3423 3426 3411 2672 1615 3445 3416 3415 3408 2566 1613 3443 3415 3429 3403 2782 1627 3431 3423 3426 3424 2571 1612 3432 3421 3408 3417 2685 1621 3434 3416 3424 3409 2783 1404 3432 3412 3419 3404 2892 1512 3439 3417 3426 3413 2562 1509 3426 3414 3414 3415 2583 1617 3436 3419 3422 3409 2572 1720 3433 3426 3426 3433 2466 1726 3445 3420 3401 3418 2682 1830 3433 3441 3411 3428 2680 1839 3427 3419 3405 3412 2689 1623 3440 3436 3417 3409 2782 2044

Tree=0
num_leaves=31
num_cat=0
split_feature=4 7 14 10 33 70 65 62 55 80 4 65 73 26 57 76 4 47 42 32 56 16 10 22 42 28 62 74 20 69
split_gain=91.882 17.9649 13.7069 11.8631 13.7086 9.65096 9.42916 9.97313 8.87649 8.52755 7.7653 7.27329 6.56547 6.11867 8.47279 7.08314 7.32108 7.17981 6.05019 5.98281 6.8735 6.83376 5.16721 5.77379 7.85029 5.05861 4.96255 6.06208 4.62762 4.56818
threshold=-0.51638722419738758 0.18772713094949725 0.067698255181312575 -0.34330706298351282 -0.15129699558019635 -0.14365492761135099 -0.52633991837501515 1.1273535490036013 1.1931936144828799 -0.17779999971389768 -0.9462071657180785 0.49817098677158361 1.0000000180025095e-35 -0.39226584136486048 -0.5874267816543578 -0.18075000494718549 0.8164808750152589 -0.34308684617280955 0.056053070351481445 -0.21393778175115583 -0.74277928471565235 1.061840355396271 0.060706742107868202 0.034209384582936771 1.0000000180025095e-35 -1.0977542400360105 0.76245450973510753 -0.32737854123115534 0.29669876396656042 0.05217747017741204
decision_type=2 2 2 2 2 2 2 2 2 2 2 2 2 2 2 2 2 2 2 2 2 2 2 2 2 2 2 2 2 2
left_child=1 8 5 12 6 -3 -5 13 9 -1 28 -7 -2 14 -8 -15 17 -17 -19 21 -21 -6 26 24 -24 -11 -22 -28 -4 -16
right_child=3 2 10 4 19 11 7 -9 -10 25 -12 -13 -14 15 29 16 -18 18 -20 20 22 -23 23 -25 -26 -27 27 -29 -30 -31
leaf_value=-0.49084971629121782 -0.49217739195474958 -0.4350796776805464 -0.56994551530691684 -0.45641725535188121 -0.43832354377206356 -0.46777512277418881 -0.46524084916192865 -0.55165701110947607 -0.48021306528518537 -0.50619778748438371 -0.48854395069613632 -0.53006034337499786 -0.44391358242941903 -0.52544274644411115 -0.56113123338285387 -0.51590141470786022 -0.43869876368346228 -0.44636063141180504 -0.49645458352586774 -0.50538026529892621 -0.4512304442628694 -0.49404623647777779 -0.46377996867067206 -0.45307562086067127 -0.5244089659738933 -0.55174030095667592 -0.45247413363288252 -0.52004029381321626 -0.50502559155091986 -0.49751824041977172
leaf_weight=8.7732150256633741 7.358180344104766 10.75426357984543 7.3581803441047686 19.810485541820526 36.224887847900391 11.037270516157152 5.9431456625461605 5.9431456625461569 7.358180344104766 8.7732150256633741 11.037270516157148 6.7921664714813224 67.638657778501511 6.2261525988578788 6.5091595351695997 10.754263579845423 11.037270516157148 12.735312134027486 9.9052427709102613 10.471256643533705 58.582435816526413 5.9431456625461569 9.056221961975103 10.471256643533705 10.754263579845427 47.545165300369263 5.660138726234436 5.6601387262344343 5.660138726234436 5.660138726234436
leaf_count=31 26 38 26 70 128 39 21 21 26 31 39 24 239 22 23 38 39 45 35 37 207 21 32 37 38 168 20 20 20 20
internal_value=-0.480168 -0.51637 -0.493758 -0.466049 -0.471397 -0.470387 -0.486322 -0.494454 -0.532383 -0.538183 -0.520789 -0.49292 -0.448751 -0.488549 -0.512655 -0.479458 -0.472148 -0.484073 -0.46806 -0.462183 -0.468469 -0.446329 -0.464394 -0.481622 -0.497262 -0.545233 -0.457009 -0.486793 -0.545543 -0.535147
internal_weight=447.434 125.089 52.6393 322.345 247.348 28.5837 94.5243 74.7138 72.4498 65.0916 24.0556 17.8294 74.9968 68.7707 18.1124 50.6582 44.4321 33.3948 22.6406 152.824 110.656 42.168 100.184 30.2817 19.8105 56.3184 69.9027 11.3203 13.0183 12.1693
internal_count=1581 442 186 1139 874 101 334 264 256 230 85 63 265 243 64 179 157 118 80 540 391 149 354 107 70 199 247 40 46 43
is_linear=0
shrinkage=1


Tree=1
num_leaves=31
num_cat=0
split_feature=4 17 76 16 78 81 50 57 8 29 22 22 26 10 10 35 45 69 40 50 50 79 34 2 57 20 42 16 19 58
split_gain=26.4022 23.8483 17.1484 14.0105 15.0014 11.35 11.0271 10.9587 10.4567 9.99197 8.64038 9.03673 7.48555 8.86529 7.03857 5.89715 5.73549 4.85839 4.81109 7.64991 4.46402 4.27617 9.39149 7.03337 10.6827 4.16086 9.11762 12.7599 3.86273 3.53327
threshold=-0.51638722419738758 -0.068340433761477457 -0.0032999999821186061 0.96036323904991161 -0.1288499981164932 0.0012500000302679839 1.2483689785003664 -0.2101524472236633 0.28253568708896643 0.24451333284378055 -0.037862829864025109 -0.28290838003158564 -0.8939879536628722 -0.19006043672561643 0.25574788451194769 1.0000000180025095e-35 0.026420145295560363 0.03992846421897412 0.36869476735591894 -0.13277237117290494 -0.21119680255651471 0.048600001260638244 -0.13263908028602597 0.51576875988394033 0.17354151606559756 0.48714824020862585 -1.4965621829032896 -0.16614743322134015 0.38591682910919195 -0.39637224376201624
decision_type=2 2 2 2 2 2 2 2 2 2 2 2 2 2 2 2 2 2 2 2 2 2 2 2 2 2 2 2 2 2
left_child=1 6 8 12 7 10 14 -5 9 16 11 -4 13 -2 29 -15 -3 -10 19 -6 -20 25 -23 28 -25 -14 27 -27 -24 -1
right_child=3 2 5 4 18 -7 -8 -9 17 -11 -12 -13 21 15 -16 -17 -18 -19 20 -21 -22 22 23 24 -26 26 -28 -29 -30 -31
leaf_value=-2.1063565339883161 -2.1545067411004815 -1.9303428800432947 -2.1137194494209806 -2.1306752350841296 -2.1455052511271955 -2.16181104731587 -2.0472815619223184 -2.0147431541077774 -2.057061818889161 -2.0886387702441827 -2.135270044787946 -1.9862397807243868 -2.1605614030688582 -2.0413851889253087 -2.0890786484479333 -2.1218229488983602 -2.0536653143363597 -2.1420482646868901 -2.1022827003138835 -2.0428974112562064 -2.1646266352733918 -2.1595733517703262 -2.1616445158713482 -2.028641008524346 -2.1371835380535034 -2.1562126723198451 -2.1521988872388551 -2.0199328055334473 -2.0981897603340935 -2.1614145181750994
leaf_weight=2.9094707667827668 5.4394453465938559 3.7949618697166461 2.5299745798110953 2.7829720377922058 3.0359694957733154 5.0599491596221915 2.6564733088016501 5.4394453465938586 2.5299745798110953 3.288966953754425 3.2889669537544242 2.5299745798110962 53.888458549976349 4.0479593276977521 4.5539542436599723 4.1744580566883087 3.288966953754425 2.5299745798110962 3.4154656827449825 2.5299745798110989 8.4754148423671669 13.661862730979921 4.9334504306316358 4.3009567856788626 3.5419644117355347 2.5299745798110962 16.065338581800461 2.6564733088016537 3.1624682247638702 16.950829684734348
leaf_count=23 43 30 20 22 24 40 21 43 20 26 26 20 426 32 36 33 26 20 27 20 67 108 39 34 28 20 127 21 25 134
internal_value=-2.12386 -2.09499 -2.06415 -2.13518 -2.10225 -2.10735 -2.12875 -2.05064 -2.02982 -2.00279 -2.07364 -2.03805 -2.14243 -2.10842 -2.14022 -2.07774 -1.97203 -2.0958 -2.12913 -2.09388 -2.14656 -2.14695 -2.13049 -2.10484 -2.0738 -2.15324 -2.13379 -2.08115 -2.13693 -2.15297
internal_weight=199.994 55.9124 28.8417 144.082 25.6792 13.4089 27.0707 8.22242 15.4328 10.3729 8.34892 5.05995 118.403 13.6619 24.4143 8.22242 7.08393 5.05995 17.4568 5.56594 11.8909 104.741 29.6007 15.9388 7.84292 75.1402 21.2518 5.18645 8.09592 19.8603
internal_count=1581 442 228 1139 203 106 214 65 122 82 66 40 936 108 193 65 56 40 138 44 94 828 234 126 62 594 168 41 64 157
is_linear=0
shrinkage=1


Tree=2
num_leaves=31
num_cat=0
split_feature=28 5 34 16 31 65 34 28 8 5 21 79 59 5 34 23 69 64 50 20 42 5 35 50 44 40 8 28 28 44
split_gain=39.1107 39.9606 17.5683 16.1554 16.0162 15.3207 9.62376 8.44639 8.32795 10.3808 10.8697 8.07185 7.22699 7.07971 4.93134 6.47486 4.92797 9.79103 4.86434 4.14274 3.86916 3.82929 3.75909 6.39309 5.84268 3.6977 3.078 3.04862 5.91029 3.61188
threshold=-0.28195071220397944 -1.1162239313125608 -0.24474548548460004 -0.78603237867355336 0.059923011809587486 -0.28798809647560114 -0.48297159373760218 1.1169505119323733 -0.30556331574916834 0.44130352139472967 0.0062471842393279084 -1.0000000180025095e-35 -0.44203150272369379 -1.7099851369857786 -0.28678537905216211 -0.78144264221191395 -1.0056306123733518 0.48503650724887853 -0.045634118840098374 -0.45765998959541315 -0.96940502524375904 0.4213127493858338 -0.78056240081787098 -0.054347943514585488 0.30184349417686468 1.0000000180025095e-35 -0.63736867904663075 -0.71156150102615345 -0.66738167405128468 0.38541565835475927
decision_type=2 2 2 2 2 2 2 2 2 2 2 2 2 2 2 2 2 2 2 2 2 2 2 2 2 2 2 2 2 2
left_child=6 2 -2 4 7 -6 18 20 9 10 -5 25 -11 -8 15 -10 17 -16 -1 -17 -3 -7 23 -18 -25 -4 -14 -15 -29 -30
right_child=1 3 11 8 5 21 13 -9 14 12 -12 -13 26 27 16 19 22 -19 -20 -21 -22 -23 -24 24 -26 -27 -28 28 29 -31
leaf_value=-2.164765079289606 -1.976827427749434 -2.1198506741200829 -2.1054981517841553 -2.1500101151220927 -2.149079058098204 -2.0108745508136892 -2.1110485694471013 -2.0767931071123003 -2.0827549288929839 -2.0878083085538632 -2.0239192043684393 -2.0542267546411201 -2.1846844506956149 -2.1857707806737072 -2.066859104852298 -2.1054981517841553 -2.1837779120073315 -2.1796480382949093 -2.0884620068730455 -2.1696516982551226 -2.1847815933135606 -2.1054981517841553 -2.1831770939278852 -2.0797577809478782 -2.165603803196356 -2.1777271185453575 -2.1287060098689139 -2.1062222463715612 -2.1874475853300082 -2.1444905126667435
leaf_weight=2.7320789247751236 4.5948600098490706 2.4837081134319297 2.4837081134319297 2.6078935191035297 3.7255621701478949 6.2092702835798246 3.3530059531331053 2.4837081134319297 3.6013767644762984 2.856264330446721 3.4771913588047028 4.4706746041774741 6.7060119062662125 48.059751994907856 2.6078935191035262 2.4837081134319297 5.7125286608934402 3.2288205474615097 4.3464891985058776 8.3204221799969655 6.8301973119378117 2.4837081134319305 24.837081134319309 3.4771913588046974 2.8562643304467201 2.6078935191035271 2.9804497361183131 3.1046351417899158 13.039467595517637 7.5753097459673873
leaf_count=22 37 20 20 21 30 50 27 20 29 23 28 36 54 387 21 20 46 26 35 67 55 20 200 28 23 21 24 25 105 61
internal_value=-2.1437 -2.12482 -2.04915 -2.13637 -2.10169 -2.06433 -2.16981 -2.14414 -2.14785 -2.11962 -2.07123 -2.0964 -2.14671 -2.17508 -2.15731 -2.13257 -2.16571 -2.1254 -2.11689 -2.15292 -2.16684 -2.03119 -2.17241 -2.14887 -2.11619 -2.14202 -2.16768 -2.17848 -2.1626 -2.17243
internal_weight=196.337 114.126 14.1571 99.9693 24.2162 12.4185 82.2107 11.7976 75.7531 18.6278 6.08508 9.56228 12.5427 75.1322 57.1253 14.4055 42.7198 5.83671 7.07857 10.8041 9.31391 8.69298 36.8831 12.046 6.33346 5.0916 9.68646 71.7792 23.7194 20.6148
internal_count=1581 919 114 805 195 100 662 95 610 150 49 77 101 605 460 116 344 47 57 87 75 70 297 97 51 41 78 578 191 166
is_linear=0
shrinkage=1


Tree=3
num_leaves=31
num_cat=0
split_feature=41 4 28 71 57 34 81 38 43 34 62 62 81 19 42 46 69 57 56 33 28 65 21 9 81 43 56 76 28 34
split_gain=52.7381 31.0044 22.9078 20.2192 20.929 14.3806 13.6234 12.7166 11.7596 10.9873 9.46153 7.90705 7.75906 6.90057 7.10484 6.87175 6.16778 7.0397 6.15745 6.15386 5.12024 4.93036 3.39207 6.49341 6.80995 4.52279 2.80377 2.59321 1.8196 0.949414
threshold=0.43556076288223272 0.61920565366745006 0.60316953063011181 0.42059773206710821 0.45550979673862463 0.2317067086696625 -0.16354999691247937 0.43868467211723333 0.32547330856323248 -0.16066568344831464 0.28723733127117163 -0.018259419128298756 0.0296000000089407 0.33987323939800268 0.69008436799049389 -0.6241876184940337 -0.086969207972288118 0.38538803160190588 0.30380901694297796 0.05079327896237374 -0.60035017132759083 -0.42807003855705256 -0.30410467088222498 0.34744140505790716 -0.10254999995231627 0.67490601539611828 -1.2411014437675474 0.099050000309944167 -0.1002800092101097 -0.60909128189086903
decision_type=2 2 2 2 2 2 2 2 2 2 2 2 2 2 2 2 2 2 2 2 2 2 2 2 2 2 2 2 2 2
left_child=5 2 3 7 9 15 -7 8 12 -5 21 -8 20 27 -15 -1 -12 -18 -9 -13 -2 -3 23 25 -25 -17 -24 -4 -26 -28
right_child=1 10 13 4 -6 6 11 18 -10 -11 16 19 -14 14 -16 22 17 -19 -20 -21 -22 -23 26 24 28 -27 29 -29 -30 -31
leaf_value=-2.3530877067751468 -2.3472870850113283 -2.3659871954393368 -2.4360163952747791 -2.3378532281781306 -2.3853075814704638 -2.2933887691265555 -2.4314577338311261 -2.4343552151436381 -2.2453331355737105 -2.1702679208207516 -2.4171756866584309 -2.4131153574301449 -2.3024499733591597 -2.3047119751971055 -2.4131153574301449 -2.4399742651315717 -2.286397432140022 -2.3987911425661945 -2.3440975023809925 -2.3113703758867654 -2.4322471371113767 -2.4367028393712973 -2.3869586711561106 -2.3148573696111789 -2.3776053781182855 -2.3745505240767373 -2.406551918764642 -2.3776053781182855 -2.4307666925346769 -2.4393637587825219
leaf_weight=2.2820289880037299 2.0835916846990585 2.1828103363513973 5.3578071892261487 2.2820289880037308 2.3812476396560669 2.9765595495700827 7.1437429189681998 4.1671833693981162 3.2742155045270911 4.6632766276597959 2.6789035946130753 2.1828103363513938 2.8773408979177475 2.5796849429607391 2.1828103363513947 13.09686201810837 2.4804662913084021 2.2820289880037308 1.9843730330467222 2.3812476396560669 3.1749968528747612 13.692173928022383 2.4804662913084021 2.0835916846990585 1.9843730330467222 2.5796849429607382 2.9765595495700827 1.9843730330467222 2.6789035946130744 49.708544477820396
leaf_count=23 21 22 54 23 24 30 72 42 33 47 27 22 29 26 22 132 25 23 20 24 32 138 25 21 20 26 30 20 27 501
internal_value=-2.39416 -2.35879 -2.33206 -2.30712 -2.24995 -2.41763 -2.37336 -2.34378 -2.31463 -2.21091 -2.40433 -2.40027 -2.35612 -2.39013 -2.3485 -2.42597 -2.36079 -2.33115 -2.40186 -2.35411 -2.39596 -2.42569 -2.42865 -2.41138 -2.37277 -2.42848 -2.43529 -2.41975 -2.40865 -2.43772
internal_weight=156.865 62.3093 38.9929 26.8883 9.32655 94.5554 14.6844 17.5617 11.4101 6.94531 23.3164 11.7078 8.13593 12.1047 4.7625 79.871 7.4414 4.7625 6.15156 4.56406 5.25859 15.875 77.589 22.4234 6.74687 15.6765 55.1656 7.34218 4.66328 52.6851
internal_count=1581 628 393 271 94 953 148 177 115 70 235 118 82 122 48 805 75 48 62 46 53 160 782 226 68 158 556 74 47 531
is_linear=0
shrinkage=1


Tree=4
num_leaves=28
num_cat=0
split_feature=58 80 32 62 33 69 53 46 28 43 44 55 58 80 46 58 9 28 38 43 53 46 16 65 29 31 6
split_gain=6.68469 7.60095 7.87369 6.54995 6.79865 8.11847 8.45711 7.30582 10.8893 8.71008 9.72143 6.87282 8.53817 5.08671 3.61713 3.33105 2.99589 3.39076 3.13906 1.78127 1.76397 1.54253 1.28423 0.867893 0.764461 0.69498 0.580156
threshold=-0.09488844126462935 0.10465000197291376 0.095902316272258772 -0.67168307304382313 -0.55842077732086171 0.58720576763153087 -0.80272424221038807 1.0000000180025095e-35 0.47405779361724859 0.44833539426326757 -0.48948113620281214 0.033455470576882369 -0.23845214396715161 0.12870000302791598 -0.15946086496114728 -0.25280851125717158 -2.1444740295410152 -1.7749245166778562 -0.22672509402036664 0.49271525442600256 1.1830801963806155 -0.018634571228176352 0.27814777195453649 1.0003869831562044 1.0865558981895449 0.74231609702110302 0.39223921298980718
decision_type=2 2 2 2 2 2 2 2 2 2 2 2 2 2 2 2 2 2 2 2 2 2 2 2 2 2 2
left_child=3 16 -3 23 24 6 26 8 9 10 -8 -9 19 -4 -10 -12 18 -18 -2 -13 -19 -22 -15 -1 -5 -7 -6
right_child=1 2 13 4 5 25 7 11 14 -11 15 12 -14 22 -16 -17 17 20 -20 -21 21 -23 -24 -25 -26 -27 -28
leaf_value=-3.5149645556747986 -3.4100620344685906 -3.5083384348009665 -3.3380962127028773 -3.5126263728707716 -3.5078209520019672 -3.5109218333136707 -3.4683043331979895 -3.5099588602265119 -3.5060129402660811 -3.4590451580871147 -3.195725320423918 -3.505306800054012 -3.3307059979199169 -3.4997923662790704 -3.4123608801515459 -3.4206870577872697 -3.4391831838332902 -3.5204523587188241 -3.5027709248040977 -3.4391831838332902 -3.5027709248040977 -3.4391831838332902 -3.4391831838332902 -3.4683043331979895 -3.4683043331979895 -3.4683043331979895 -3.4683043331979895
leaf_weight=4.7319703102111843 0.71696519851684559 2.0433508157730094 0.86035823822021518 3.369736433029181 1.9358060359954898 2.7244677543640132 0.71696519851685159 2.4376816749572754 1.6131716966629031 1.2546890974044798 0.96790301799774736 1.5056269168853766 0.78866171836853016 0.89620649814605691 0.75281345844268788 0.89620649814603726 0.71696519851685536 20.361811637878414 1.1829925775528014 0.71696519851684559 1.1829925775527952 0.7169651985168447 0.7169651985168457 0.71696519851684559 0.71696519851684559 0.71696519851684559 0.71696519851684559
leaf_count=132 20 57 24 94 54 76 20 68 45 35 27 42 22 25 21 25 20 568 33 20 33 20 20 20 20 20 20
internal_value=-3.48011 -3.49638 -3.44217 -3.4626 -3.4505 -3.43748 -3.42164 -3.40445 -3.3707 -3.32746 -3.28706 -3.45377 -3.41203 -3.39493 -3.46513 -3.24559 -3.50728 -3.51233 -3.45592 -3.47809 -3.51632 -3.47316 -3.46775 -3.50805 -3.50418 -3.50153 -3.49701
internal_weight=56.6761 29.3956 4.51688 27.2805 21.8316 17.7449 14.3035 11.6507 6.20175 3.83576 2.58107 5.44894 3.01125 2.47353 2.36599 1.86411 24.8787 22.9787 1.89996 2.22259 22.2618 1.89996 1.61317 5.44894 4.0867 3.44143 2.65277
internal_count=1581 820 126 761 609 495 399 325 173 107 72 152 84 69 66 52 694 641 53 62 621 53 45 152 114 96 74
is_linear=0
shrinkage=1


Tree=5
num_leaves=15
num_cat=0
split_feature=73 46 66 64 29 76 57 81 52 16 46 7 33 7
split_gain=49.5049 19.1452 18.5157 14.4001 24.7736 13.5855 12.9739 18.017 3.43889 3.29142 1.21517 0.435824 0.16787 0.782263
threshold=1.0000000180025095e-35 -0.074965085834264741 0.24209927767515185 0.60982728004455578 -0.18759621679782865 -0.067049998790025697 0.25057666748762136 -0.10254999995231627 -1.8638181686401365 -1.4302413463592527 0.41792690753936773 -0.05768857151269912 0.96412399411201488 -0.45230565965175623
decision_type=2 2 2 2 2 2 2 2 2 2 2 2 2 2
left_child=1 8 -3 12 6 -4 7 -5 -1 -6 -11 -8 -2 -14
right_child=3 2 5 4 9 -7 11 -9 -10 10 -12 -13 13 -15
leaf_value=-3.7391148670972614 -3.8469926238936667 -3.8221376057793974 -3.7899282019883143 -3.8229786739640796 -3.7566330881143024 -3.4872018873450141 -3.7879107200025262 -3.5458999818106514 -3.8316363832627247 -3.8434214077632358 -3.7879107200025262 -3.8245109170127263 -3.7879107200025262 -3.8342295214943136
leaf_weight=0.75652156956493888 22.95651659369469 0.59999986551701967 0.57391291484236728 0.65217376686632622 0.54782596416771312 1.3304344844073053 0.52173901349306107 1.1217388790100806 1.4869561884552238 6.9652158301323643 0.52173901349306095 0.75652156956493832 0.5217390134930614 1.9304343499243248
leaf_count=29 880 23 22 25 21 51 20 43 57 267 20 29 20 74
internal_value=-3.80397 -3.66738 -3.59406 -3.82497 -3.77906 -3.54143 -3.67785 -3.61711 -3.78939 -3.82745 -3.83786 -3.80812 -3.84526 -3.82194
internal_weight=41.2435 4.74783 2.50435 36.4956 11.087 1.90435 3.05217 1.77391 2.24348 8.03478 7.48695 1.27826 25.4087 2.45217
internal_count=1581 182 96 1399 425 73 117 68 86 308 287 49 974 94
is_linear=0
shrinkage=1


Tree=6
num_leaves=31
num_cat=0
split_feature=5 66 10 52 80 73 53 32 10 41 76 44 62 5 18 66 16 45 66 77 46 47 81 57 5 5 22 43 33 45
split_gain=69.7614 12.3378 11.4696 12.5621 8.1766 7.81456 7.90322 7.70535 10.372 7.88154 7.76465 9.07203 7.62958 8.98273 6.89391 7.6667 9.70989 10.6265 8.98142 7.40923 6.69569 5.86066 5.8268 5.89411 5.6883 5.40965 5.19081 5.15906 4.81144 4.77986
threshold=-0.55016908049583424 -0.46159338951110834 0.20002185553312304 -0.4418290108442306 -0.30775000154972071 -2.0615401268005367 1.332238554954529 0.29986186325550085 0.15822731703519824 1.0396977663040163 -0.0032999999821186061 0.28654678165912634 0.15146100521087649 0.013079851865768434 1.4998297095298769 1.053975582122803 -0.94717958569526661 -0.31836411356925959 0.85929474234581005 0.040599999949336059 -0.6241876184940337 1.0851361453533175 -0.053399998694658272 -0.30990293622016901 0.874436914920807 -1.3469946384429929 -0.023448387160897251 0.87391445040702831 0.32302658259868627 0.35940003395080572
decision_type=2 2 2 2 2 2 2 2 2 2 2 2 2 2 2 2 2 2 2 2 2 2 2 2 2 2 2 2 2 2
left_child=4 12 5 -4 -1 -3 14 8 9 10 11 25 21 -14 15 16 17 -7 20 -17 -18 27 23 -15 -25 -6 -5 -2 -12 -22
right_child=1 2 3 26 7 6 -8 -9 -10 -11 28 -13 13 22 -16 19 18 -19 -20 -21 29 -23 -24 24 -26 -27 -28 -29 -30 -31
leaf_value=0.020552505348423195 0.045172762537325876 -0.026225406292258592 -0.061416374721130929 -0.017284849737574152 -0.029117770175443099 0.030987721362698912 -0.031250130829205747 -0.05647516098050856 -0.058591415056284082 -0.062971806610585851 0.035165056332152285 -0.057456357315664945 -0.026664005732617437 0.036379208874111758 -0.024180638634462046 0.05612155578255134 -0.025840461463634379 -0.04195264739018513 -0.021325651404998775 0.0056775035510342143 0.035584080384835813 -0.0094969654271492652 0.043772570214149188 0.0083413646061744461 -0.048044821393947147 0.029746118100177313 0.033330409417961372 0.0032608703653128342 -0.014543509508044009 0.008403085242107108
leaf_weight=5.6936247348785392 51.814789295196533 14.144854336977003 12.253993153572081 12.754358947277067 6.3167234361171705 6.4654826223850277 9.3262610137462598 36.994425356388092 18.352990627288818 6.3240439295768729 11.898399889469149 10.61362251639366 12.459425240755079 9.3149744272232038 10.151599913835524 19.916367202997211 5.642549902200698 14.706307649612425 12.161415964365004 11.5413821041584 53.002978801727295 6.4551452398300162 15.378272384405138 12.953322619199755 5.6528643369674674 7.3734038770198858 7.0202232599258449 8.716989338397978 7.103025257587432 24.172549515962601
leaf_count=20 185 50 43 45 22 23 33 129 64 22 42 37 44 33 36 71 20 52 43 41 189 23 55 46 20 26 25 31 25 86
internal_value=-0.000665074 0.0106855 0.00338077 -0.0237502 -0.0349137 0.00827957 0.0113393 -0.0380875 -0.0274078 -0.0149465 -0.00667011 -0.0249468 0.023247 0.00933848 0.014038 0.0168114 0.0106979 -0.019285 0.0175126 0.0383595 0.0234022 0.0345166 0.0200663 0.00594736 -0.0103664 0.00245264 0.00142363 0.0392882 0.0167851 0.027287
internal_weight=446.676 336.006 213.26 32.0286 110.67 181.232 167.087 104.977 67.9822 49.6292 43.3052 24.3037 122.746 55.7589 157.761 147.609 116.151 21.1718 94.9795 31.4577 82.8181 66.9869 43.2994 27.9212 18.6062 13.6901 19.7746 60.5318 19.0014 77.1755
internal_count=1581 1194 757 113 387 644 594 367 238 174 152 85 437 198 561 525 413 75 338 112 295 239 154 99 66 48 70 216 67 275
is_linear=0
shrinkage=0.05


Tree=7
num_leaves=31
num_cat=0
split_feature=18 5 69 20 78 38 20 54 38 57 43 32 50 45 69 43 66 17 58 5 74 79 44 55 32 10 58 31 44 78
split_gain=34.9486 27.9279 12.9677 10.877 10.3205 12.8568 10.9526 15.1076 9.79278 7.38411 7.36254 6.84993 6.77508 6.86441 10.9672 6.05096 8.08673 5.87596 5.45513 5.40568 4.96694 3.74225 3.5533 2.73844 2.60089 2.37775 2.87664 4.75378 3.03916 3.75305
threshold=0.0099053832236677426 -0.68905252218246449 0.20651247352361682 0.024415326304733757 -0.13755000382661817 0.62254789471626293 -0.047003174200654023 0.24517843127250674 -0.49814225733280176 -0.26249668002128596 -1.0246077775955198 -0.032268972136080258 0.91288667917251598 0.0042870304314419636 -0.12126594036817549 -0.045448740944266312 0.097272623330354704 1.2586442828178408 0.091744385659694686 -1.3280560970306394 1.8624548912048342 0.22939999401569369 0.045903477817773826 0.31463241577148443 0.29391768574714666 -0.022882320918142792 0.063031638041138663 0.090665634721517577 -0.15743079781532285 -0.053399998694658272
decision_type=2 2 2 2 2 2 2 2 2 2 2 2 2 2 2 2 2 2 2 2 2 2 2 2 2 2 2 2 2 2
left_child=12 2 3 -2 8 10 -7 -8 11 -4 -6 -3 20 -14 -15 16 -10 -12 -19 -5 21 25 -22 -11 -17 -1 28 -28 29 -27
right_child=1 4 9 19 5 6 7 -9 15 23 17 -13 13 14 -16 24 -18 18 -20 -21 22 -23 -24 -25 -26 26 27 -29 -30 -31
leaf_value=-0.040046355782309147 0.14254406425975161 0.017189761140757265 0.073940746193392554 0.0067430371883434774 0.044069240570372543 -0.021498795394124554 0.12387810801682614 -0.0059168218078905011 -0.012753933272365651 -0.037488544510395794 -0.032347125773165182 0.12604842212614206 -0.027178210169191686 0.1060123685622479 -0.0069719080991116735 -0.038870880018154468 0.087669489023072644 -0.023305543654253774 0.062159791128166289 0.088279453485617373 0.050715280204000436 0.021925267226105622 -0.020594798096019544 0.021206371667165585 0.011627255735741061 -0.035421764449177266 0.043177724336685708 -0.028056711085238384 -0.041207400903516996 0.031499252419805231
leaf_weight=47.636153042316437 6.0720525756478327 2.8266026899218559 2.6774354577064514 4.4699716940522194 3.3413054272532454 4.7231077998876563 4.2373471483588201 3.7674247026443481 3.2640325799584415 3.6812832877039892 35.834663085639477 3.0165270343422916 6.3432275280356389 2.5669442713260651 5.1143066436052322 4.5660094693303055 3.416187971830368 3.0450801476836196 2.6301897764205933 3.0282327309250832 2.5406544059514991 2.5656523108482352 2.6420502364635468 2.5985873490571976 4.0420803800225258 2.9946606829762459 3.3909196108579627 4.0456013754010201 14.957327798008917 3.4058604910969796
leaf_count=385 44 22 20 34 26 38 33 30 26 28 289 23 51 20 40 36 26 24 21 23 20 20 21 20 32 24 27 32 119 27
internal_value=-0.00145739 0.0190649 0.0668707 0.0961255 0.00471523 -0.00633765 0.0362434 0.0689173 0.0337577 0.0173471 -0.0189482 0.0835956 -0.0225928 0.00904764 0.0386479 0.0107471 0.0433297 -0.0249381 0.0196815 0.0461856 -0.0279085 -0.0310236 0.0169114 -0.0136241 -0.0164164 -0.0330613 -0.0205492 0.00569274 -0.0295322 -0.000367085
internal_weight=199.441 101.238 22.5276 13.5703 78.7106 57.5791 12.7279 8.00477 21.1314 8.95731 44.8512 5.84313 98.2034 14.0245 7.68125 15.2883 6.68022 41.5099 5.67527 7.4982 84.1789 78.9962 5.1827 6.27987 8.60809 76.4305 28.7944 7.43652 21.3578 6.40052
internal_count=1581 795 169 101 626 461 101 63 165 68 360 45 786 111 60 120 52 334 45 57 675 634 41 48 68 614 229 59 170 51
is_linear=0
shrinkage=0.05


Tree=8
num_leaves=31
num_cat=0
split_feature=28 4 17 34 32 65 41 34 36 28 6 69 5 71 53 74 41 50 1 19 30 50 8 28 28 44 6 44 16 35
split_gain=36.1178 32.563 20.0925 15.0497 13.404 13.0195 9.09046 8.96981 8.24337 7.9277 6.82001 7.79313 6.61202 6.26388 7.13455 6.5972 5.71278 5.51988 5.13664 5.0923 4.90361 4.34646 3.23102 3.01954 5.51054 3.52652 4.14833 2.01169 1.98038 1.79015
threshold=-0.28195071220397944 -0.9407810866832732 -0.20416561514139173 -0.24474548548460004 0.21478583663702014 -0.28798809647560114 0.85899618268013012 -0.48297159373760218 -1.0000000180025095e-35 0.93946945667266857 -0.89899328351020802 0.32361114025115972 -1.7099851369857786 -0.41267585754394526 1.3165661096572878 -0.11130390316247939 0.31089754402637487 0.45976775884628301 0.43789788335561758 1.5249166488647463 0.83410039544105541 -0.045634118840098374 -0.77648895978927601 -0.71156150102615345 -0.66738167405128468 0.38541565835475927 -0.21018970012664792 0.37534220516681677 -1.3724715709686277 -1.5761954784393308
decision_type=2 2 2 2 2 2 2 2 2 2 2 2 2 2 2 2 2 2 2 2 2 2 2 2 2 2 2 2 2 2
left_child=7 3 4 16 9 -6 10 21 17 18 11 -5 -9 15 19 -4 -2 -7 -3 22 -11 -1 -15 28 -25 -26 -27 -17 -14 -24
right_child=1 2 13 6 5 8 -8 12 -10 20 -12 -13 23 14 -16 27 -18 -19 -20 -21 -22 -23 29 24 25 26 -28 -29 -30 -31
leaf_value=-0.020899736385036286 0.17145023253904532 -0.037061914739754939 0.079889895230357472 0.027814111774305934 -0.0033917605565186161 -0.0022862770586702216 -0.034445554717306079 0.030100681145191099 0.13668076255376063 0.0023151643897855981 0.010621839409347604 0.14141978504623143 -0.0051659199716973386 0.011556131805137345 0.043251282851949201 0.016952602243007757 0.052909733607012482 0.085304117825000469 0.023714737339171382 0.027567166166612839 0.089690298989951567 0.050739282911937834 0.0041542218888604085 0.035156707881994279 -0.043489609439637533 0.037217918846160741 -0.029317460300953342 -0.033549846659335102 -0.044723085804212123 -0.035603402458560772
leaf_weight=2.703138180077076 3.5430561453104046 8.6207406893372553 2.516408696770668 3.613454282283783 4.6528000161051759 3.3645145893096915 2.6630698442459098 3.4789949357509604 5.2215541973710033 2.9813456907868376 4.9683821350336057 2.6874081045389175 3.7134627476334563 4.0607526302337638 3.3878849595785132 3.6285756528377515 2.9383586347103119 2.7436047047376633 4.5988126918673506 3.6380980461835852 2.6236780136823654 4.5693525671958914 2.8412010893225661 3.2063458114862469 12.574643075466158 3.1120371371507645 4.4449709504842749 2.4651268869638443 42.618025161325932 37.887275233864784
leaf_count=22 25 70 20 28 38 26 21 27 39 24 38 20 31 33 27 29 21 21 37 29 20 35 23 25 105 25 36 20 356 310
internal_value=-4.13273e-05 0.0177974 0.00521339 0.0735181 0.0349372 0.067161 0.0393114 -0.0255971 0.0940603 0.00557074 0.058128 0.089002 -0.0308749 -0.0121986 -0.0187908 0.0253002 0.131965 0.043523 -0.0157381 -0.0239184 0.0506018 0.0248039 -0.0286111 -0.0343026 -0.0184512 -0.028249 -0.000770276 -0.00532699 -0.0417287 -0.0327968
internal_weight=196.067 115.646 95.2324 20.4137 34.8071 15.9825 13.9323 80.421 11.3297 18.8246 11.2692 6.30086 73.1485 60.4253 51.8152 8.61011 6.48141 6.10812 13.2196 48.4273 5.60502 7.27249 44.7892 69.6695 23.338 20.1317 7.55701 6.0937 46.3315 40.7285
internal_count=1581 919 766 153 275 124 107 662 86 151 86 48 605 491 422 69 46 47 107 395 44 57 366 578 191 166 61 49 387 333
is_linear=0
shrinkage=0.05


Tree=9
num_leaves=31
num_cat=0
split_feature=41 4 17 46 38 34 44 28 62 38 58 62 57 32 4 46 22 66 65 45 65 21 9 66 44 57 67 29 7 38
split_gain=48.0863 26.0972 20.8338 16.4365 20.3373 13.5259 9.40289 12.1799 8.75842 8.54522 9.5659 8.34645 8.80956 7.11848 6.84849 6.48724 5.57711 5.24273 4.75859 4.63764 3.93594 3.3384 6.14836 6.64116 2.99513 2.81572 2.62668 1.42723 0.90967 0.802929
threshold=0.43556076288223272 0.61920565366745006 1.0579323172569277 -0.31436978280544275 0.43868467211723333 0.2317067086696625 -0.36337670683860773 0.44244629144668585 0.28723733127117163 0.43868467211723333 -0.1379575505852699 -0.018259419128298756 0.4510654509067536 0.17763473838567737 -0.25012356042861933 -0.6241876184940337 -0.05227727256715297 -0.3409461230039596 -0.42807003855705256 0.61614358425140392 0.35336469113826757 -0.30410467088222498 0.34744140505790716 -0.15498981624841687 0.45630288124084478 0.1537890434265137 -1.2714970707893369 0.02946654707193375 -0.20549570024013517 -0.70827168226242054
decision_type=2 2 2 2 2 2 2 2 2 2 2 2 2 2 2 2 2 2 2 2 2 2 2 2 2 2 2 2 2 2
left_child=5 2 3 4 -2 15 17 9 18 10 -8 19 27 -9 -12 -1 25 -5 -3 -7 -11 22 24 -24 -17 -10 -23 -13 -4 -28
right_child=1 8 28 6 -6 11 7 13 16 20 14 12 -14 -15 -16 21 -18 -19 -20 -21 -22 26 23 -25 -26 -27 29 -29 -30 -31
leaf_value=0.041822807692830817 0.1845574504981192 0.030501909114884648 0.0024545910593874215 0.046521983855696857 0.017352067761330622 -0.032234353349336761 0.045135356143207218 0.057853411799521873 0.098547122937397674 0.065342280457329732 0.21098785120137556 0.033755111272572476 0.12444844182151565 -0.027305447673161398 0.059324746129262362 -0.042081488733942365 -0.012398497519338398 -0.036315396953802197 -0.038867827589687459 0.03830994403874935 -0.016197064762223715 0.0085925561172216555 0.07167129430285217 -0.017101832089409633 0.0077670461158324405 0.015513618104432742 -0.023014878322897989 -0.015026259910897921 -0.036436507053929194 -0.043390013485242698
leaf_weight=2.3694445565342894 5.2619272693991643 2.2179732024669674 2.0160657167434692 2.1956317275762558 2.8799847438931465 6.0710113421082479 3.8801570534706116 3.7756993398070327 2.0838157385587692 2.103560581803321 2.675596259534359 2.0816842764616004 2.2013868391513824 4.1689519509673119 2.2772723212838226 11.711555972695352 3.3477635458111754 3.7573705911636344 13.137137189507483 2.5131178796291351 2.2233834713697433 2.6046122238039962 2.7888810560107231 4.0731573477387419 3.5844946429133406 2.1911361217498779 9.8328985646367055 2.0906395614147186 3.7945580035448065 40.954820670187473
leaf_count=23 48 22 20 21 28 62 36 37 20 20 24 20 21 42 21 122 33 37 138 25 22 27 27 41 36 22 102 20 37 427
internal_value=0.00320531 0.0362486 0.0596891 0.0738917 0.133781 -0.0197035 0.0517447 0.0667703 -0.00633185 0.0946882 0.121041 0.0227253 0.0618399 0.0151096 0.162935 -0.0280331 0.034734 -0.00346594 -0.0275954 -0.00973924 0.0282684 -0.0307416 -0.0135814 0.0235046 -0.0306401 0.0669972 -0.0374826 0.0111327 -0.0245636 -0.0399658
internal_weight=156.866 63.988 41.0102 35.1995 8.14191 92.8777 27.0576 21.1046 22.9778 13.16 8.83303 14.9578 6.37371 7.94465 4.95287 77.9199 7.62272 5.953 15.3551 8.58413 4.32694 75.5504 22.1581 6.86204 15.2961 4.27495 53.3923 4.17232 5.81062 50.7877
internal_count=1581 628 393 336 76 953 260 202 235 123 81 148 61 79 45 805 75 58 160 87 42 782 226 68 158 42 556 40 57 529
is_linear=0
shrinkage=0.05


Tree=10
num_leaves=25
num_cat=0
split_feature=54 68 45 58 69 43 76 33 14 19 81 21 50 19 66 38 26 53 42 45 40 76 4 14
split_gain=12.3893 12.5438 10.4941 7.72298 5.36435 6.35704 7.82773 9.93417 12.3371 5.57485 4.95894 4.94723 6.43322 3.67511 3.44522 2.93362 2.56989 2.39068 1.57607 4.01388 0.968283 0.852176 0.737497 0.707838
threshold=0.93865987658500682 -0.27709791064262385 -0.48903471231460566 -0.10924480855464934 0.11979081481695177 0.46141570806503301 0.014500000048428776 -0.35829250514507288 -0.45578651130199427 0.68450319766998302 -0.043349999934434884 -0.49850653111934656 -0.13277237117290494 -0.71448051929473866 1.4622817635536196 -0.13041578978300092 -0.27783800661563868 1.4459987878799441 0.83409735560417186 -0.47821412980556482 -1.2217132449150083 -0.16955000162124631 -1.0795326828956602 -0.51187413930892933
decision_type=2 2 2 2 2 2 2 2 2 2 2 2 2 2 2 2 2 2 2 2 2 2 2 2
left_child=3 2 -2 4 5 6 9 -8 -9 22 -4 12 -3 -6 18 -16 -10 21 -5 -20 -15 -13 -1 -7
right_child=1 11 10 14 13 23 7 8 16 -11 -12 17 -14 20 15 -17 -18 -19 19 -21 -22 -23 -24 -25
leaf_value=0.010889607790406737 -0.018399964550745034 0.12404595090585686 0.22180935190393072 -0.040810677258266016 0.040152044248818991 0.011370539987837698 -0.022096220339801596 -0.019301245337170231 0.036884804351416105 0.073636950436125365 0.032000417079472793 0.011468465032642259 -0.020733354489817023 0.011340569946167901 0.069698901528294346 -0.022046691097297816 0.21056421183325125 0.040300526780108578 0.053811740617059768 -0.032605188873887955 -0.037441178504703819 -0.034926319851313108 -0.032731658840785764 -0.031612656151091698
leaf_weight=0.72549421340227072 0.74824349582195315 0.7540135346353054 0.86147522181272518 19.0045864135027 1.3211947828531263 0.7107312269508842 1.0584593787789347 0.81276883557438884 0.78923675045371133 1.0827623568475244 0.90637782961130109 0.70769179239869018 0.93139219656586625 0.71149843558669079 0.71260363981127728 1.053883634507655 1.3383310288190835 0.71671225130558003 0.99373949691653241 3.1530726514756671 6.7625196166336519 4.3223101943731299 3.1886915974319008 2.77541784569621
leaf_count=20 21 21 23 544 37 20 30 22 21 29 25 20 26 20 20 30 36 20 28 91 191 120 89 77
internal_value=-0.000232332 0.0476922 0.125631 -0.0113449 0.0105499 0.0306372 0.0513165 0.0956013 0.132825 0.00584554 0.171215 0.00953667 0.0661107 -0.018175 -0.0297262 0.0267795 0.17853 -0.0143951 -0.034968 -0.00546457 -0.0320071 -0.0275794 -0.0240758 -0.0222683
internal_weight=56.1432 9.94822 2.5161 46.195 21.2771 12.4819 8.99574 3.9988 2.94034 4.99695 1.76785 7.43212 1.68541 8.79521 24.9179 1.76649 2.12757 5.74671 23.1514 4.14681 7.47402 5.03 3.91419 3.48615
internal_count=1581 276 69 1305 592 344 247 109 79 138 48 207 47 248 713 50 57 160 663 119 211 140 109 97
is_linear=0
shrinkage=0.05


Tree=11
num_leaves=16
num_cat=0
split_feature=73 68 64 30 74 78 46 35 23 18 44 18 10 62 76
split_gain=43.0217 18.4711 13.9972 17.2738 15.5328 18.4073 13.4217 9.4101 9.08182 3.75863 4.27079 3.21605 1.19636 1.16867 1.13267
threshold=1.0000000180025095e-35 0.16187225282192233 0.60982728004455578 -0.21820556372404096 -0.28582571446895594 -0.17995000630617139 -0.074965085834264741 1.0000000180025095e-35 -0.38090757280588144 -0.48398460447788233 0.13246043026447299 1.6533620953559878 0.39506298303604132 2.2856953144073491 -0.062200000509619706
decision_type=2 2 2 2 2 2 2 2 2 2 2 2 2 2 2
left_child=1 9 13 4 -4 -6 14 -8 -7 10 -1 12 -5 -2 -3
right_child=2 6 3 11 5 8 7 -9 -10 -11 -12 -13 -14 -15 -16
leaf_value=-0.01754142252783562 -0.040858755858660091 0.050707761106841789 -0.024848703311108052 -0.036752459271131355 -0.019862431373068971 0.016483392999747586 0.041408905519255079 0.33807012738697673 0.27582756279955634 -0.025986814461007247 0.11107732385944542 0.049996772478241212 0.018495120940190801 0.011411611135354483 -0.014918479293278344
leaf_weight=0.69582659378647826 23.764731323346499 0.52811181172728539 1.395628606900573 6.2789583411067706 0.87344530969858203 0.56667746230959926 0.69574257917702176 0.68754172138869762 1.0174578167498105 1.5512299202382553 0.57806643657386303 0.53996864706277836 0.51508902199566353 0.71453317813575168 0.53800934739410899
leaf_count=24 946 20 52 244 34 21 23 21 34 54 20 21 19 28 20
internal_value=0.00250997 0.123437 -0.0182521 0.0265073 0.100048 0.157649 0.201562 0.268842 0.225334 0.0207162 0.0640049 -0.0194989 -0.0307283 -0.038945 0.0263984
internal_weight=40.941 5.27453 35.6665 11.1872 3.85321 2.45758 2.44941 1.38328 1.58414 2.82512 1.27389 7.33402 6.79405 24.4793 1.06612
internal_count=1581 182 1399 425 141 89 84 44 55 98 44 284 263 974 40
is_linear=0
shrinkage=0.05


Tree=12
num_leaves=31
num_cat=0
split_feature=5 66 7 14 5 53 70 34 7 77 40 66 31 80 46 62 5 6 33 17 14 53 9 2 45 16 17 81 81 20
split_gain=61.5037 11.2821 9.5828 14.1664 9.16464 10.7167 9.00983 10.4412 8.9903 8.1732 7.4368 7.33848 7.16836 8.56684 7.12973 7.04407 7.62745 6.75056 9.25324 8.45484 6.53398 6.22316 6.49695 6.19734 6.53968 5.73673 7.57174 5.19096 4.6221 6.05111
threshold=-0.55016908049583424 -0.46159338951110834 0.18772713094949725 -0.2781755775213241 0.59281256794929515 1.3484513759613039 -0.28157258033752436 -0.45494498312473292 -0.43045997619628901 -0.0099999997764825804 0.32903200387954717 0.16382808983325961 -1.0253849625587461 -0.17779999971389768 -0.39886556565761561 0.1175169199705124 0.013079851865768434 -1.0147078633308408 -0.29943120479583735 0.3946081697940827 1.2455389499664309 0.621575027704239 -0.072538889944553361 1.0000000180025095e-35 0.021993522532284263 0.89195168018341076 -0.25728541612625117 -0.047800000756978982 -0.053399998694658272 0.51393023133277904
decision_type=2 2 2 2 2 2 2 2 2 2 2 2 2 2 2 2 2 2 2 2 2 2 2 2 2 2 2 2 2 2
left_child=2 15 12 11 6 14 8 9 -3 -8 -10 -4 -1 -14 -6 20 -17 -9 19 -19 -2 22 -5 -16 -25 26 -26 -20 29 -18
right_child=1 4 3 21 5 -7 7 17 10 -11 -12 -13 13 -15 23 16 28 18 27 -21 -22 -23 -24 24 25 -27 -28 -29 -30 -31
leaf_value=0.0050458883734038739 0.038505245354731925 -0.068953660969684305 0.04970363665593882 -0.013009804622022808 -0.017748725346655222 -0.044584137355730878 0.0069748052872492198 -0.034339806755992817 0.010620254538698942 -0.069176374300451898 -0.041289844404430148 -0.013856541165568293 -0.0042838453076751463 -0.058027971071415364 -0.017284643319709189 -0.023690676812987917 0.019021459542753923 0.01538550308682957 0.00022937457920090972 -0.047507273893361845 -0.013919567152947938 0.0088532764250590975 -0.067816273714076711 0.042848280423794682 -0.016199482752225755 -0.020537689725216374 0.041138737860383412 0.039912873868455413 0.039837423704800146 -0.031999373613630415
leaf_weight=6.3046301901340476 57.743069529533386 8.5756826996803266 8.9602851271629351 9.4953782856464439 10.990753442049025 6.2597120702266684 5.9229307174682617 6.5174753069877616 15.401306182146074 7.1298509836196882 11.058677077293394 7.7092579007148734 8.8542902469634992 50.592756778001785 7.5597713887691489 12.803903102874754 22.451048642396927 11.844554305076601 11.250813603401179 8.243915379047392 6.1096976101398459 5.9964491724967948 13.601571649312971 37.175074458122253 7.6087108254432705 8.9617693126201612 18.0456203520298 29.921147227287296 15.671732693910601 6.7541963458061209
leaf_count=22 209 30 32 33 39 22 21 23 55 25 39 27 31 174 27 45 80 42 40 29 22 21 47 134 27 32 65 107 57 24
internal_value=-0.000809942 0.0099342 -0.0327924 -0.0147648 0.00295098 0.0142494 -0.00651018 0.00272725 -0.0273061 -0.036584 -0.0117886 0.021188 -0.0449304 -0.0502264 0.0187694 0.0220187 0.00911845 0.0107197 0.0159881 -0.0114533 0.0333517 -0.035384 -0.0467597 0.0239854 0.028509 0.0123389 0.0241633 0.0293314 0.0187916 0.00655329
internal_weight=445.516 334.001 111.515 45.7629 212.468 96.6014 115.866 80.8307 35.0357 13.0528 26.46 16.6695 65.7517 59.447 90.3417 121.534 57.6809 67.7779 61.2604 20.0885 63.8528 29.0934 23.0969 79.3509 71.7912 34.6161 25.6543 41.172 44.877 29.2052
internal_count=1581 1194 387 160 757 346 411 287 124 46 94 59 227 205 324 437 206 241 218 71 231 101 80 285 258 124 92 147 161 104
is_linear=0
shrinkage=0.05


Tree=13
num_leaves=31
num_cat=0
split_feature=18 4 17 30 45 31 38 76 66 43 64 14 66 53 7 30 43 42 18 17 17 42 77 14 66 41 62 74 64 45
split_gain=32.3976 22.0459 13.9122 12.439 12.83 8.05315 7.26025 11.1233 8.31692 6.1996 11.8167 5.94776 5.43017 5.12099 5.08323 5.73499 7.04632 6.20386 4.41009 5.76228 4.28335 3.71071 8.52903 3.53973 3.26958 2.46148 3.85833 2.10375 2.09963 2.09888
threshold=0.0099053832236677426 -0.02571798954159021 -0.32250833511352534 0.43258067965507513 0.94174569845199596 1.4866603612899782 0.42117388546466833 0.059450000524520881 0.10649568215012552 -0.76720482110977162 0.2939316332340241 1.8531550765037539 -0.15498981624841687 -0.59898269176483143 -0.72467979788780201 -0.39684203267097468 0.39928403496742254 -0.26563835144042963 1.4533298015594485 1.1100435853004458 -0.77133643627166737 -0.26563835144042963 -0.014899999834597109 -1.8953694105148313 0.27325817942619329 -1.3969286084175108 -0.18797983974218366 -0.41879475116729731 1.3163722753524782 0.92895781993865978
decision_type=2 2 2 2 2 2 2 2 2 2 2 2 2 2 2 2 2 2 2 2 2 2 2 2 2 2 2 2 2 2
left_child=11 2 13 4 6 9 7 24 -8 10 -3 14 -5 -2 15 -1 17 -17 20 -20 -11 22 -22 -16 -4 26 -25 -24 29 -23
right_child=1 5 3 12 -6 -7 8 -9 -10 18 -12 -13 -14 -15 23 16 -18 -19 19 -21 21 28 27 25 -26 -27 -28 -29 -30 -31
leaf_value=-0.03350671320296917 0.035661327822994762 -0.020524106842894036 0.15768020338118213 0.056880159339336711 -0.021225967143415486 0.062559045159595233 -0.023142384351953121 0.034454909321371727 0.077760776771402723 0.033567759253053629 0.092232403548696523 0.027252626371569305 -0.016130709040221628 -0.039792637660098246 0.020725400341639777 -0.0075104479143345698 -0.034579959482224067 0.084186944606106109 -0.022667737087742931 0.063760132927880728 0.059574136448458596 -0.042868329066520404 0.010117230023278693 0.029384691789827579 0.070680536599138533 -0.035254249333918165 -0.036387599211413282 -0.0403700588079276 0.0068018805246118155 0.00065052283689890017
leaf_weight=6.124253846704959 2.5759507864713669 4.4717495292425147 6.7451503872871488 2.7987402006983757 2.6758242174983016 3.5163052678108206 2.9522560536861411 5.0523276627063742 3.7386393547058105 2.6830646321177474 3.2643186748027802 4.9881803318858138 6.8399358168244344 5.2826157435774794 2.6334928944706908 2.7103257849812499 2.7320631295442581 3.9117744714021674 2.9630869925022116 3.0172861739993095 3.1803428679704657 22.030561745166789 2.4437538906931868 3.5267515629529953 4.4496544227004051 66.408510990440845 3.4035694748163214 5.9908673018217042 2.6448896378278723 3.1157904565334311
leaf_count=50 20 35 46 21 20 27 22 38 26 22 24 39 52 42 21 22 22 30 24 23 25 181 20 28 32 546 28 49 21 25
internal_value=-0.00135513 0.0181415 0.0449115 0.0580256 0.0756736 -0.00173519 0.0873919 0.105233 0.0360186 -0.00681632 0.0321661 -0.0220372 0.00842297 -0.013826 -0.0249914 0.00108482 0.024781 0.0505951 -0.0136176 0.0238252 -0.0193672 -0.023713 0.000131577 -0.0302492 0.131732 -0.0323338 -0.00343216 -0.0262205 -0.0333369 -0.0376574
internal_weight=198.872 102.433 43.1111 35.2525 25.6139 59.322 22.938 16.2471 6.6909 55.8057 7.73607 96.4389 9.63868 7.85857 91.4507 15.4784 9.35416 6.6221 48.0696 5.98037 42.0893 39.4062 11.615 75.9723 11.1948 73.3388 6.93032 8.43462 27.7912 25.1464
internal_count=1581 795 319 257 184 476 164 116 48 449 59 786 73 62 747 124 74 52 390 47 343 321 94 623 78 602 56 69 227 206
is_linear=0
shrinkage=0.05


Tree=14
num_leaves=31
num_cat=0
split_feature=28 4 40 11 17 57 16 43 6 65 22 46 34 28 5 19 8 59 5 74 3 29 52 59 28 28 44 40 40 16
split_gain=33.536 27.8021 12.3509 12.9342 9.9116 9.51306 12.0897 8.88942 11.2287 9.22998 8.7308 8.57178 8.40274 6.45289 6.16579 5.6477 5.00213 6.00547 8.14396 4.1355 3.99365 3.42725 4.11938 3.41495 2.97848 5.18208 3.38767 4.34807 2.50435 1.95942
threshold=-0.28195071220397944 -0.56638428568840016 0.8156096637248994 1.4013720750808718 -0.02093611657619476 0.034285815432667739 -0.76930955052375782 0.11058139428496362 -0.017149229533970353 -0.60665652155876149 0.077452719211578383 -0.074965085834264741 -0.48297159373760218 0.93946945667266857 -1.7099851369857786 -0.081961359828710542 -0.33011393249034876 -0.44203150272369379 0.65068054199218761 0.35408765077590948 1.0000000180025095e-35 -0.036391483619809144 1.6364628076553347 0.63066121935844432 -0.71156150102615345 -0.66738167405128468 0.38541565835475927 -0.04705656319856643 -0.51274043321609486 -1.3724715709686277
decision_type=2 2 2 2 2 2 2 2 2 2 2 2 2 2 2 2 2 2 2 2 2 2 2 2 2 2 2 2 2 2
left_child=12 2 3 5 7 6 -2 8 28 -10 11 -11 19 23 -14 -7 17 -6 -19 -1 -4 -18 -23 -9 29 -26 -27 -28 -3 -16
right_child=1 4 20 -5 16 15 -8 13 9 10 -12 -13 14 -15 24 -17 21 18 -20 -21 -22 22 -24 -25 25 26 27 -29 -30 -31
leaf_value=0.047994039114273981 0.07339292907169663 0.021395539302569447 -0.037199866621842874 0.13792058038503888 0.06716240421853506 0.11905161008835695 -0.02370169004882727 -0.041902420859836857 -0.0076400100347169906 -0.020754417441681435 0.1464020003597547 0.088834338645438715 0.027723161441162759 0.038306486870782183 -0.0049378326777765429 0.036960872049870995 0.02340803943254811 0.049560053158309275 -0.039959568505993276 -0.02129652197465072 0.032746113614351431 -0.030662391049061308 0.023460999695194759 0.016361853930714237 0.033336607922152275 -0.04314183102256014 0.030682169068330573 -0.036761236119527002 -0.036048020400445545 -0.044393112063914268
leaf_weight=4.7252428755164138 4.3185072168707865 2.5874181240797043 3.6044084727764121 4.8840533494949332 2.8982526734471312 4.6569332107901573 7.2244344949722326 7.8922361955046636 2.739665836095809 2.6557171642780286 3.6215565726161003 3.0104955583810824 3.6066511124372473 4.7801949381828299 3.6909417435526839 5.4467752203345281 3.2203135713934889 3.0945802554488164 5.7299365028738976 2.7159879058599472 2.692878745496273 32.586921967566013 3.1943993717432013 2.8814701214432716 3.2924145907163647 12.11031035333872 4.0985953286290169 3.4988560304045668 3.1712464615702638 41.003239057958126
leaf_count=36 30 20 28 33 22 32 55 64 23 21 27 23 27 36 31 40 27 24 48 21 20 273 25 23 25 105 33 28 25 356
internal_value=1.37599e-05 0.016953 0.0552303 0.0696926 0.00153177 0.0488882 0.0155791 0.0223396 0.0455028 0.0712674 0.0930233 0.0420625 -0.0250297 -0.00529659 -0.0303116 0.0821118 -0.0123122 0.0153912 -0.00671766 0.0231767 -0.00690064 -0.0208157 -0.025324 -0.0262533 -0.0337622 -0.0179772 -0.0277457 -0.00104072 -0.0108913 -0.0413142
internal_weight=195.635 116.892 32.828 26.5307 84.0644 21.6467 11.5429 33.34 17.7861 12.0274 9.28777 5.66621 78.7422 15.5539 71.301 10.1037 50.7244 11.7228 8.82452 7.44123 6.29729 39.0016 35.7813 10.7737 67.6944 23.0002 19.7078 7.59745 5.75866 44.6942
internal_count=1581 919 238 190 681 157 85 262 139 94 71 44 662 123 605 72 419 94 72 57 48 325 298 87 578 191 166 61 45 387
is_linear=0
shrinkage=0.05


Tree=15
num_leaves=31
num_cat=0
split_feature=41 18 10 30 34 81 26 57 81 11 55 32 19 26 62 54 6 34 77 17 65 38 43 38 22 62 76 69 62 38
split_gain=43.7036 22.975 14.6555 13.2199 12.7919 11.6625 10.2444 11.0327 10.9959 9.15738 8.71764 8.61275 9.37194 7.32636 7.14634 6.37503 6.19771 6.53267 5.21299 4.65669 4.25816 4.12723 6.45584 3.05384 2.69062 3.87792 2.23448 1.81264 1.42223 0.777734
threshold=0.43556076288223272 0.0099053832236677426 -0.32937556505203242 0.29984001815319067 0.2317067086696625 -0.19810000061988828 -0.2426294460892677 0.59328392148017894 -0.093450002372264848 -1.0000000180025095e-35 -0.72693651914596547 -0.032268972136080258 0.098027613013982787 -0.69153872132301319 -0.018259419128298756 -0.19311243295669553 0.5002761483192445 0.049533812329173095 0.048999998718500144 -1.8959283232688902 0.65360751748085033 -1.7107639908790586 -1.0000000180025095e-35 1.892079830169678 -0.095520600676536546 0.041142731904983527 0.20115000009536746 0.11979081481695177 -2.5343648195266719 -1.0847534537315366
decision_type=2 2 2 2 2 2 2 2 2 2 2 2 2 2 2 2 2 2 2 2 2 2 2 2 2 2 2 2 2 2
left_child=4 2 20 10 19 -6 7 8 -3 27 -4 -12 -13 -10 -7 -16 17 24 -19 -1 -2 22 -21 26 -8 -26 28 -5 -23 -30
right_child=1 6 3 9 5 14 16 -9 13 -11 11 12 -14 -15 15 -17 -18 18 -20 21 -22 23 -24 -25 25 -27 -28 -29 29 -31
leaf_value=0.026343954216649642 0.035869653271561094 -0.018105732618937536 0.014889217445818335 -0.034279931495541802 0.098822837809293171 -0.033517260792296541 -0.038373652439948655 -0.025967362277660888 0.020584004992422699 0.084928261154351606 0.0554471740555081 0.20668020920643948 0.063726119683003069 0.13122745606978509 -0.018886635126345239 0.076713393008496333 -0.041373066425552232 0.093017567080203353 0.0015105552884979335 -0.033752937119268266 -0.035048770200932125 0.0030421766906960708 0.062890267670662123 0.020153786671460994 -0.030684117172131209 0.049516123632752811 0.0068487537010265102 0.017905699611056935 -0.0098682367979352013 -0.03974994073206458
leaf_weight=3.1023364290595046 3.2189998105168369 2.4392071068286887 2.2107408344745663 2.92802544683218 2.7613282576203337 6.8784628659486762 5.0050219893455479 3.8041189908981314 2.6799886524677268 3.1587340384721738 4.3550282046198863 4.3111118227243388 3.045611560344696 4.3233900517225266 2.5045734569430351 3.0331775173544875 9.4633383601903898 2.1994051709771147 3.0962221920490265 2.8445667028427124 3.2476750612258911 1.9918661117553629 2.1802833303809157 1.9748904854059208 2.0093678534030959 2.0949004590511322 2.7289878726005545 2.0597175508737564 3.0674940571188847 58.145144872367396
leaf_count=32 31 24 21 29 25 72 49 38 25 29 39 37 27 39 23 28 98 20 29 30 33 21 22 21 20 20 29 20 32 618
internal_value=0.00315017 0.0339786 0.0669031 0.0855507 -0.0191664 0.0216875 0.00757354 0.0412239 0.0681876 0.0298834 0.113938 0.129993 0.162206 0.0967496 -0.00155449 0.0372007 -0.0120088 0.0087155 0.0482539 -0.027497 0.000329233 -0.0301125 0.011659 -0.0333277 -0.0167694 0.0119327 -0.0352068 -0.0133383 -0.037101 -0.0384352
internal_weight=156.864 65.6506 28.5356 22.069 91.2131 15.1775 37.115 13.2467 9.44259 8.14648 13.9225 11.7118 7.35672 7.00338 12.4162 5.53775 23.8683 14.4049 5.29563 76.0356 6.46667 72.9332 5.02485 67.9084 9.10929 4.10427 65.9335 4.98774 63.2045 61.2126
internal_count=1581 628 266 202 953 148 362 126 88 78 124 103 64 64 123 51 236 138 49 805 64 773 52 721 89 40 700 49 671 650
is_linear=0
shrinkage=0.05


Tree=16
num_leaves=25
num_cat=0
split_feature=54 46 21 62 69 58 79 69 42 34 80 43 45 7 69 80 44 10 74 4 79 77 41 44
split_gain=11.68 9.71368 11.7956 12.4281 8.89733 7.4368 6.67032 8.04953 9.58362 7.10441 7.1016 7.63885 6.44856 3.7233 2.76875 4.53464 4.41272 2.71988 2.55505 2.12308 1.19176 1.01817 0.603037 0.361313
threshold=0.93865987658500682 -0.24395664036273954 0.2682455331087113 -0.43407446146011347 -0.060021754354238503 -0.10924480855464934 0.049750000238418586 0.15016801655292514 0.90463432669639599 0.21769341081380847 -0.026549999602138993 0.15262551605701449 0.33038090169429785 0.53818789124488842 0.51322302222251903 -0.0013499999768100677 0.1126866862177849 -0.45475915074348444 0.08814962208271028 -0.34081596136093134 -0.38419999182224268 -0.23615000396966931 0.59618452191352855 0.13246043026447299
decision_type=2 2 2 2 2 2 2 2 2 2 2 2 2 2 2 2 2 2 2 2 2 2 2 2
left_child=5 -2 3 -3 18 6 9 8 12 17 11 -11 -8 -6 20 -16 -17 -1 -5 -4 -7 -19 -9 -10
right_child=1 2 19 4 13 14 7 22 23 10 -12 -13 -14 -15 15 16 -18 21 -20 -21 -22 -23 -24 -25
leaf_value=0.033253191737174885 -0.030722110148133593 -0.022096027616870434 0.039184110485062505 -0.020024664834693132 0.23940901477304521 0.0126601678642718 0.17615841165204854 -0.028118791097748938 0.011499892816501857 0.14552866756677504 -0.025971170021996066 -0.018631964315768197 0.0072837934825323086 0.038460648037198321 -0.032864960623258659 -0.022070449531375141 0.085872481593465472 0.010498277144537159 0.068917877669348301 -0.02962819139184146 -0.0406510877699994 -0.03901321940940896 0.012217768574502429 -0.020817561482701932
leaf_weight=0.87486003339290519 2.498440470546484 1.0556511878967283 0.73949490487575564 0.87084532156586669 1.2761529795825466 0.67195011675358074 1.4768148511648176 1.896889675408602 0.706650700420141 1.0836872681975367 1.5229367539286602 0.76593982428312291 0.84845059737563122 0.75459781661629666 3.2711095232516527 1.0581626035273068 1.2736568935215471 0.73753531649708648 0.72361074015498161 2.2156014963984489 17.926872875541452 9.7796251103281993 0.68501118570566166 0.93808890134096146
leaf_count=24 69 29 20 24 33 20 39 55 20 28 42 22 23 20 97 31 36 20 19 62 529 273 20 26
internal_value=0.000140838 0.0461387 0.0719325 0.114123 0.149991 -0.010872 0.0104422 0.048754 0.086329 -0.00857314 0.0468397 0.0948662 0.13526 0.202067 -0.0293147 0.0014312 0.0449664 -0.0274339 0.0313455 -0.00685493 -0.0381773 -0.0349311 -0.0169938 -0.00783441
internal_weight=55.6526 10.1344 7.63595 4.68086 3.62521 45.5182 21.3165 6.55191 3.97001 14.7646 3.37256 1.84963 2.32527 2.03075 24.2018 5.60293 2.33182 11.392 1.59446 2.9551 18.5988 10.5172 2.5819 1.64474
internal_count=1581 276 207 125 96 1305 592 183 108 409 92 50 62 53 713 164 67 317 43 82 549 293 75 46
is_linear=0
shrinkage=0.05


Tree=17
num_leaves=15
num_cat=0
split_feature=65 28 1 69 61 69 5 18 64 16 54 56 17 46
split_gain=27.0439 22.1845 18.0896 16.4233 16.2005 13.3942 4.92008 3.01044 3.94959 2.85093 1.78687 1.46791 0.744632 0.468957
threshold=0.25958307087421423 -0.82048767805099476 1.0000000180025095e-35 0.043848177418112762 1.012103349901736 0.16878609359264377 -1.5658411383628843 1.2868654131889345 1.0869863629341128 -1.4302413463592527 -1.0245067477226255 1.5300467014312746 0.37309120595455175 -0.17354349046945569
decision_type=2 2 2 2 2 2 2 2 2 2 2 2 2 2
left_child=11 2 10 12 6 13 -3 9 -9 -8 -2 -1 -4 -6
right_child=1 4 3 -5 5 -7 7 8 -10 -11 -12 -13 -14 -15
leaf_value=-0.040446009823282086 0.043771171614775888 0.068149778356423593 0.29030096764501917 0.0060073530287178883 0.01646228313341095 0.18505327694968232 0.030671418473471958 -0.023044064359867989 0.085607005687760362 -0.038812438972228878 -0.024408196215057149 0.020189411970155644 0.050234980040637436 -0.02069617804947612
leaf_weight=19.183359503746036 0.64843674935400475 0.73829621076584295 1.0792198944836857 0.90165878273546685 0.56727044284343719 1.1619463358074424 0.94526910036802547 1.1794573124498136 0.50165881030261505 10.301965653896323 1.3290791045874382 0.47464134730398555 0.53524564206600178 0.93472400493919783
leaf_count=787 20 27 33 31 21 35 35 47 18 413 46 19 19 30
internal_value=0.00300184 0.0417466 0.128777 0.196849 0.0117501 0.105306 -0.0124227 -0.0215865 0.0292151 -0.0309452 0.00514032 -0.0380755 0.260368 -0.00569168
internal_weight=40.4822 20.8242 4.49364 2.51612 16.3306 2.66394 13.6666 12.9284 1.68112 11.2472 1.97752 19.658 1.61447 1.50199
internal_count=1581 775 149 83 626 86 540 513 65 448 66 806 52 51
is_linear=0
shrinkage=0.05


Tree=18
num_leaves=31
num_cat=0
split_feature=5 7 81 64 65 31 53 81 10 52 42 26 41 19 40 70 61 77 65 52 17 45 6 20 33 28 57 45 6 58
split_gain=54.2869 14.9309 9.46401 9.14761 8.98279 8.48922 7.75588 7.42318 6.92559 7.03779 6.91823 6.64216 6.50134 6.49764 5.58833 5.53018 5.43699 7.76864 5.27666 6.4488 5.27304 7.24461 5.16097 6.04074 6.29934 4.96679 5.00054 4.67688 4.56541 4.89431
threshold=-0.074248220771551118 -0.44440402090549463 0.093949999660253539 -0.024073839187622067 -0.75358897447586048 -0.93269130587577809 1.3697983026504519 0.13500000536441806 0.0467752292752266 -0.48558257520198816 0.82795220613479625 0.76961687207221996 -0.81286942958831776 0.40963639318943029 0.58117413520812999 0.11838855594396593 1.012103349901736 -0.013449999969452618 1.2042496204376223 -0.90455558896064747 0.28298950195312506 0.30283764004707342 0.24471675604581836 0.60989889502525341 -0.018859124742448326 -0.97549796104431141 -0.01953998394310474 -0.20671502500772473 1.0064589977264407 0.091744385659694686
decision_type=2 2 2 2 2 2 2 2 2 2 2 2 2 2 2 2 2 2 2 2 2 2 2 2 2 2 2 2 2 2
left_child=1 2 5 11 14 -1 7 8 16 13 -9 12 -3 -10 20 25 -6 -18 19 -5 -2 -22 23 24 27 -14 -27 -21 29 -11
right_child=4 3 -4 18 6 -7 -8 10 9 28 -12 -13 15 -15 -16 -17 17 -19 -20 22 21 -23 -24 -25 -26 26 -28 -29 -30 -31
leaf_value=-0.0043787458729622961 0.04930792766373978 0.032962077531757498 -0.00031234802870209381 -0.056015494542073385 0.022223590204569175 -0.070236915520961174 -0.032773879076611147 -0.037292372991016773 -0.0031278177324430647 0.030123776823104288 0.025206515877640841 0.031822555601845576 0.011200199847362037 -0.067170143936447296 -0.0020278598804222758 0.012377207890725578 0.022724648439384761 -0.049073695609631963 0.0060028318654630868 -0.035924571762506734 0.046621732206752822 -0.025495271612464527 0.018709430584450105 0.013803546378878959 -0.058051273283560315 -0.010769046175616172 -0.060996045788114822 0.021447167558900374 -0.022772606525958729 -0.01586545919590206
leaf_weight=6.0156676173210135 31.177995890378952 6.9579760730266562 8.3891981542110425 18.308563441038132 127.01669025421143 28.911599934101105 10.009668499231337 13.509654045104982 9.8644565939903242 21.912140637636188 5.551396131515502 12.322013318538664 5.5896734893321982 5.7361350357532492 10.278781175613402 10.826551407575606 7.3020570576190948 5.9682360887527448 10.494392573833464 6.6692227125167847 5.6853378415107709 6.3401616811752319 6.4945895075798026 6.5706433951854697 15.360107511281969 9.1678887605667114 11.279986590147022 5.7125842571258527 7.5647648572921744 7.0313695371150962
leaf_count=21 115 25 29 63 460 99 35 48 35 79 20 44 20 20 37 38 26 21 37 23 21 23 23 23 53 32 39 20 27 25
internal_value=-0.000924188 -0.023142 -0.0481661 -0.0142104 0.0127723 -0.0593315 0.00825378 0.010341 0.0133042 -0.00223526 -0.0187409 0.000838375 -0.00838944 -0.0293031 0.0309881 -0.0168588 0.0190513 -0.0107423 -0.0261879 -0.0319073 0.0387113 0.00956145 -0.0200098 -0.0276607 -0.0376201 -0.0290235 -0.0400286 -0.00983033 0.00980415 0.0187947
internal_weight=444.02 169.071 43.3165 125.754 274.949 34.9273 221.467 211.457 192.396 52.1089 19.0611 56.1441 43.8221 15.6006 53.4823 36.8641 140.287 13.2703 69.6101 59.1157 43.2035 12.0255 40.8071 34.3126 27.7419 26.0375 20.4479 12.3818 36.5083 28.9435
internal_count=1581 589 149 440 992 120 796 761 693 186 68 198 154 55 196 129 507 47 242 205 159 44 142 119 96 91 71 43 131 104
is_linear=0
shrinkage=0.05


Tree=19
num_leaves=31
num_cat=0
split_feature=18 5 30 22 69 26 69 62 81 54 33 14 14 64 78 31 14 22 35 20 77 31 18 10 46 34 22 65 44 67
split_gain=29.7949 19.4204 10.1907 15.4727 9.60418 8.17148 6.99283 6.01798 8.74187 6.78509 5.91144 5.54481 4.72524 4.40312 4.32595 6.24951 4.24224 4.1107 7.19265 3.95555 3.52725 3.27636 2.98851 4.16135 2.95953 4.32605 2.50339 2.14162 1.62563 3.04518
threshold=0.0099053832236677426 -0.68905252218246449 -1.060544967651367 -0.12434949725866316 0.20651247352361682 0.42633333802223211 -0.54311516880989064 -0.40861639380455012 -0.10014999657869338 -0.78995060920715321 -0.15620212256908414 1.8531550765037539 -2.1991776227951045 -0.18684443831443784 -0.10864999890327452 -0.0094808775465935451 -0.24078381806612012 -0.3549805879592895 -0.38274605572223658 0.024415326304733757 0.015649999491870407 1.4340253472328188 0.13317155092954638 -0.17612894624471662 -0.58193972706794728 0.049533812329173095 0.23601159453392032 -0.4464955329895019 0.54621765017509472 -0.046118596568703644
decision_type=2 2 2 2 2 2 2 2 2 2 2 2 2 2 2 2 2 2 2 2 2 2 2 2 2 2 2 2 2 2
left_child=11 4 3 6 5 19 -3 8 -4 -10 -6 12 -1 -8 15 -9 -11 18 -14 -2 -5 22 23 -16 25 -19 28 -20 -24 -30
right_child=1 2 7 20 10 -7 13 14 9 16 -12 -13 17 -15 21 -17 -18 24 27 -21 -22 -23 26 -25 -26 -27 -28 -29 29 -31
leaf_value=0.032476307950894484 0.12767661291519491 0.0075152613421212754 -0.037117783856299554 0.028100577375096799 0.054387694704874125 0.011699815714855054 0.040962395602649776 -0.0277696002636456 0.086920771075227471 -0.033917580893596325 -0.018531068279891778 0.025645193080917256 0.046393059923640408 0.14297516287266529 -0.033458591940568182 0.047875335046817138 0.036865184915217612 0.038384783102182018 0.010509993987941779 0.053468805348595563 -0.032263002664778183 0.021684544779543596 -0.044688384969096079 0.041936945208766827 -0.033911774136139355 -0.035205467081312218 0.0049129925999850874 -0.040427369924075862 0.025287635541342352 -0.037163093099516549
leaf_weight=2.7145495116710654 5.7438923865556735 2.5841085687279701 3.7939040064811698 2.9213074967265111 3.829157367348671 3.9435534700751296 2.9147237911820412 3.9789755716919899 4.1725573018193236 2.5650389567017546 5.7145398929715139 5.1058327332139006 4.2990282252430907 3.1610653847455996 2.4866142719984055 5.2419135570526105 4.3087214976549149 3.0465834513306609 2.4206037744879714 5.8363461717963219 5.5150391757488251 3.2887430712580672 18.855959221720703 2.8879747912287703 67.989190123975277 2.9464643746614456 3.7530258893966666 6.0692621245980254 2.4150403067469597 3.7559834197163573
leaf_count=21 34 20 32 22 26 27 22 32 31 21 42 39 34 21 21 39 34 24 20 40 45 25 156 23 574 24 31 50 20 31
internal_value=-0.00126994 0.0171675 0.00470177 0.0376994 0.0545747 0.0777308 0.0809761 -0.0049269 0.0218717 0.0435313 0.0131092 -0.0214448 -0.0243853 0.106742 -0.0137295 0.0157099 0.00949857 -0.0265139 -0.000290307 0.0974996 -0.0105977 -0.0211994 -0.0258281 0.00727774 -0.0309827 0.00234377 -0.0320473 -0.0263272 -0.0375656 -0.0126047
internal_weight=198.26 103.668 78.6007 17.0962 25.0675 15.5238 8.6599 61.5045 14.8402 11.0463 9.5437 94.5915 89.4857 6.07579 46.6642 9.22089 6.87376 86.7711 12.7889 11.5802 8.43635 37.4433 34.1546 5.37459 73.9822 5.99305 28.78 8.48987 25.027 6.17102
internal_count=1581 795 626 130 169 101 63 496 118 86 68 786 747 43 378 71 55 726 104 74 67 307 282 44 622 48 238 70 207 51
is_linear=0
shrinkage=0.05


Tree=20
num_leaves=31
num_cat=0
split_feature=29 5 34 34 42 40 35 8 10 17 31 52 73 43 44 57 40 7 34 16 74 79 11 5 58 44 31 34 77 18
split_gain=31.1166 26.1382 16.6993 9.09765 11.72 8.6045 13.4565 8.30776 6.91753 6.62578 7.81438 6.543 5.83416 5.89132 7.32966 8.28321 5.62381 5.46134 5.69434 5.14529 4.7486 4.31279 4.00462 3.73867 3.52957 2.94426 2.77783 2.6787 2.40283 1.52221
threshold=-0.67884355783462513 -0.49861399829387659 -0.034545981325209134 -0.21671888232231137 -0.66668388247489918 0.8156096637248994 -1.0000000180025095e-35 0.29629902541637426 -0.10647137463092803 -0.12146010249853133 0.15447982400655749 0.1896137669682503 1.0000000180025095e-35 -0.19353704154491422 -0.46672275662422175 0.22637985646724704 1.3861169219017031 -0.62381771206855763 -0.20270557701587674 -0.71306002140045155 0.054907368496060378 0.027950000017881397 0.56398186087608349 -0.26959671080112452 -0.6260741353034972 0.18469313532114032 0.19081196933984759 0.11960032209753992 0.081099998205900206 1.1635992527008059
decision_type=2 2 2 2 2 2 2 2 2 2 2 2 2 2 2 2 2 2 2 2 2 2 2 2 2 2 2 2 2 2
left_child=17 2 5 4 7 6 11 8 -3 10 -6 25 20 14 27 26 28 18 -1 -4 -5 -21 -8 -15 -25 -2 -16 -14 -11 -26
right_child=1 3 19 12 9 -7 22 -9 -10 16 -12 -13 13 23 15 -17 -18 -19 -20 21 -22 -23 -24 24 29 -27 -28 -29 -30 -31
leaf_value=0.046142862262166226 0.068241868561608909 -0.034537548384121562 0.044117866893255135 0.056621404966374946 -0.014335385630415368 0.0065695741584293893 -0.021617967756415325 0.10722514432987265 0.054918875369900692 -0.043048777188325511 0.067945694183702735 0.05346402236778202 -0.040762344720121774 0.024628047256772364 -0.034968802527808242 0.080162399777335344 0.038541155250118697 -0.041853709539248801 -0.02667903306876725 -0.031356764578962276 -0.020218735456205492 0.028678439505228068 0.049581842077789887 0.016797156150622033 -0.040616275687533676 0.16977898223511914 0.023631816563749301 0.010415416076229606 0.0074828618174241947 -0.010310396919270333
leaf_weight=3.249732717871666 3.2562335655093229 2.767646923661232 4.9399334937334087 4.2519045174121848 5.0023152902722359 4.4611429348587981 2.7104734405875215 4.1500899717211723 4.3206117525696737 10.815136782824991 5.0032422766089439 5.3215354904532433 6.7490171417593974 2.4399955272674552 2.9329010471701604 4.0773711875081062 2.464969977736474 39.785384021699429 6.2884805500507337 8.1396148130297643 2.5940856859087944 3.5343017056584349 3.5536305457353592 2.8683734163641921 29.979457557201385 4.6903722360730171 3.1942999064922333 3.3045885786414146 2.6033365800976744 5.7313072904944411
leaf_count=26 22 23 36 33 41 33 20 32 32 90 36 35 58 20 25 33 20 349 54 64 21 26 24 24 252 29 26 28 21 48
internal_value=4.29663e-05 0.0116698 0.04522 -0.00157813 0.0180454 0.0710578 0.0847495 0.0583654 0.0200385 -0.000977017 0.0292442 0.111755 -0.0123794 -0.0173483 0.00458978 0.0328977 -0.020619 -0.0338882 0.000156119 0.0059899 0.0286391 -0.0123523 0.0200389 -0.0280342 -0.031903 0.140451 -0.0053892 -0.02452 -0.033406 -0.0361658
internal_weight=195.181 145.858 40.6072 105.251 37.1273 23.9934 19.5322 11.2383 7.08826 25.889 10.0056 13.2681 68.1233 61.2773 20.2582 10.2046 15.8834 49.3236 9.53821 16.6139 6.84599 11.6739 6.2641 41.0191 38.5791 7.94661 6.1272 10.0536 13.4185 35.7108
internal_count=1581 1152 289 863 295 163 130 87 55 208 77 86 568 514 170 84 131 429 80 126 54 90 44 344 324 51 51 86 111 300
is_linear=0
shrinkage=0.05


Tree=21
num_leaves=31
num_cat=0
split_feature=40 18 50 3 18 6 44 31 40 28 40 45 81 76 74 81 1 19 76 62 4 81 38 22 62 62 22 80 38 5
split_gain=39.3167 22.1161 12.9482 13.8771 11.6027 9.11065 8.98534 8.81974 10.1123 8.50585 8.24604 8.2016 6.87013 6.69522 5.60391 4.43352 4.33784 6.55658 6.98882 4.23062 3.65615 3.59866 3.28246 5.07003 2.94927 3.40217 2.44246 2.43213 1.29912 1.2635
threshold=0.34673860669136053 -0.37502616643905634 -0.27219356596469874 -1.0000000180025095e-35 -1.148190915584564 -0.11065321415662764 0.53204017877578746 0.15447982400655749 -0.77763134241104115 -0.771356701850891 0.77134311199188244 1.177831828594208 -0.056599998846650117 0.25069999694824224 0.15463412553071978 -0.013049999717622994 0.43789788335561758 0.40963639318943029 0.0045999998692423114 0.23632121086120608 -0.64002341032028187 -0.005649999948218464 1.4105332493782046 -0.066691713407635675 2.1329469680786137 -2.5343648195266719 0.16393937915563586 0.17554999887943271 0.57877090573310863 1.2318160533905032
decision_type=2 2 2 2 2 2 2 2 2 2 2 2 2 2 2 2 2 2 2 2 2 2 2 2 2 2 2 2 2 2
left_child=6 4 3 21 9 -6 13 8 -8 -2 -7 16 -10 22 -14 -5 17 20 -19 -11 -4 -3 24 -24 25 -1 -9 29 -22 -27
right_child=1 2 11 15 5 10 7 26 12 19 -12 -13 14 -15 -16 -17 -18 18 -20 -21 28 -23 23 -25 -26 27 -28 -29 -30 -31
leaf_value=0.019776143706266902 0.093377328837859097 -0.034818161897972134 0.027725658009012312 0.026634952050468265 0.15001624902465688 -0.017848677965181518 -0.027067501309462672 -0.035810822884049007 0.11680776599496484 -0.028760878238585315 0.089526660229025001 0.059063386663266618 -0.021709741807228275 0.043634299327427364 0.060777480750651147 0.12399056017388031 -0.041448426836665525 0.06985030147478398 -0.03027509809590815 0.038274494478497692 -0.040988200950161591 0.029498502285138197 -0.034786577717033945 0.045065772976866009 0.017033479341949095 -0.043604459816878466 0.017507650110032628 0.0035617559798570247 0.0019481875368379644 -0.0057977859401026326
leaf_weight=1.9795323833823193 2.5299287140369415 3.1542873978614807 2.3084755837917372 2.3692693561315536 5.3212456628680229 2.4122095406055433 4.1505349054932585 8.7216515913605672 2.6508045122027388 4.5578661933541316 3.7442632988095284 3.2283003553748122 2.9846650287508991 2.3022059500217429 3.6439104527235031 4.2312279194593412 9.3954704478383047 4.127682425081729 1.9420520588755605 3.0825278460979462 8.5297795981168765 3.5660656690597534 3.176794022321701 2.7998455837368956 2.1102739572525016 47.981773816049099 2.0965384989976874 2.9793228432536116 2.0532836765050897 2.6620187833905211
leaf_count=20 20 32 20 22 44 24 44 92 24 45 33 30 31 23 36 34 96 38 20 28 88 34 33 28 21 517 22 32 21 29
internal_value=0.00310207 0.031998 0.0114025 0.0508636 0.0723306 0.105157 -0.0183264 0.00747946 0.0334561 0.0291865 0.0508399 -0.00629029 0.0605271 -0.0277787 0.0256587 0.0971467 -0.015489 -0.00119387 0.0380636 -0.000415771 -0.021087 -0.00128913 -0.0309947 0.00371907 -0.0345917 -0.0368173 -0.0248707 -0.0392303 -0.0332088 -0.041768
internal_weight=156.794 66.5539 44.9059 13.3209 21.648 11.4777 90.2399 24.2481 13.4299 10.1703 6.15647 31.585 9.27938 65.9918 6.62858 6.6005 28.3567 18.9613 6.06973 7.64039 12.8915 6.72035 63.6896 5.97664 57.7129 55.6026 10.8182 53.6231 10.5831 50.6438
internal_count=1581 629 435 122 194 101 952 249 135 93 57 313 91 703 67 56 283 187 58 73 129 66 680 61 619 598 114 578 109 546
is_linear=0
shrinkage=0.05


Tree=22
num_leaves=23
num_cat=0
split_feature=53 34 67 33 7 53 28 22 52 61 5 80 40 34 67 16 22 10 43 57 46 33
split_gain=6.11108 6.72956 10.0604 7.8493 5.86828 5.31142 7.48336 5.23915 12.6478 6.07098 6.45201 4.86252 4.54523 4.7052 5.00896 2.89556 2.08035 2.09439 1.14686 3.83923 1.09974 0.667014
threshold=-0.80272424221038807 0.1896668076515198 0.41709415614604956 -0.55842077732086171 -0.28265285491943354 -1.0000000180025095e-35 0.40550291538238531 -0.45588168501853937 0.68714419007301342 1.0000000180025095e-35 -0.087575446814298616 0.28014999628067022 -1.1207855343818662 -0.16066568344831464 -0.3352158516645431 1.7748408913612368 0.52430045604705822 0.39506298303604132 0.81785586476326 -0.30101424455642695 0.36159640550613409 0.69336214661598217
decision_type=2 2 2 2 2 2 2 2 2 2 2 2 2 2 2 2 2 2 2 2 2 2
left_child=20 7 3 -3 -5 -6 -7 8 21 10 -9 12 13 14 -11 16 17 18 -14 -20 -1 -2
right_child=1 2 -4 4 5 6 -8 9 -10 11 -12 -13 15 -15 -16 -17 -18 -19 19 -21 -22 -23
leaf_value=-0.03856943496026978 -0.029072954577500316 -0.023301909235627513 -0.030621212970615333 0.00024775475689400997 0.020293669044844594 0.20000471767420092 0.0095370367157291708 0.12167692229916538 0.13770013048770813 -0.019556717191189569 -0.021183572696975669 0.068757188419731594 -0.040780375890408255 -0.026940508435934991 0.10451208476327954 0.041749251643358826 0.022945805182465639 0.019097852717013877 0.046131724271238836 -0.034211221671610337 0.013339971390735601 0.013207021938176525
leaf_weight=8.8252580203115905 2.0989613570272923 1.187427809461951 2.483267879113555 1.1494516078382728 1.2596129607409237 1.6440885420888651 0.77025434747338284 0.77833591401576996 1.1736133135855196 0.83505575917661246 0.97222011163830646 0.72588107362389465 18.778124183416388 1.6833665780723084 1.3237876649945974 0.68690099008381267 1.1667919289320696 1.3010798078030337 1.1652190834283827 3.9226351287215939 0.65111298859119493 0.6549187097698449
leaf_count=258 62 35 72 32 36 41 22 20 30 24 28 19 546 49 35 19 32 35 33 115 19 19
internal_value=0.000454686 0.00817988 0.0457619 0.0771849 0.101676 0.126567 0.15983 -0.00135807 0.0468935 -0.00824233 0.0634794 -0.0140429 -0.0180871 0.0278148 0.0655228 -0.0253738 -0.028588 -0.0317627 -0.035192 -0.0112559 -0.0340699 -0.0181784
internal_weight=55.2374 45.761 8.4941 6.01084 4.82341 3.67396 2.41434 37.2669 3.92749 33.3394 1.75056 31.5888 30.863 3.84221 2.15884 27.0208 26.3339 25.1671 23.866 5.08785 9.47637 2.75388
internal_count=1581 1304 238 166 131 99 63 1066 111 955 48 907 888 108 59 780 761 729 694 148 277 81
is_linear=0
shrinkage=0.05


Tree=23
num_leaves=15
num_cat=0
split_feature=73 70 65 29 68 57 66 40 18 16 53 17 62 78
split_gain=35.5677 14.7989 11.8598 15.1477 11.8502 9.57772 11.1751 7.13854 4.10708 3.13567 2.30166 1.26367 1.2105 0.621962
threshold=1.0000000180025095e-35 0.17355561256408694 0.57210955023765575 -0.18759621679782865 0.16187225282192233 0.25057666748762136 0.39290824532508856 1.0000000180025095e-35 -0.48398460447788233 -1.3899544477462766 0.158157654106617 1.5548374652862551 2.2856953144073491 0.026700000278651718
decision_type=2 2 2 2 2 2 2 2 2 2 2 2 2 2
left_child=1 4 12 5 8 6 -4 -6 -1 -5 -8 -11 -2 -7
right_child=2 -3 3 9 7 13 10 -9 -10 11 -12 -13 -14 -15
leaf_value=0.080082636526461914 -0.040607665396641048 -0.024747728511342083 -0.018303479840123038 0.047397232032155442 0.25888511686275723 -0.023125528704100437 0.20980211385301392 0.047212415187140103 -0.02333690341661096 -0.037047247940055289 0.037281394021297452 0.019878809714856144 0.012919664736548398 0.01938457597613541
leaf_weight=0.97507650218904007 21.27362324111164 1.372900817543268 0.7513346113264564 0.58384037390351284 1.2937475536018612 1.1804770771414039 1.1466550063341854 1.1381623353809116 1.1991604361683124 6.7443894613534194 0.78134449943900097 0.48250051587820042 0.66777460649609466 0.49357668124139298
leaf_count=31 910 47 28 21 31 42 29 33 40 281 23 20 26 19
internal_value=0.00342814 0.106446 -0.0171496 0.0213374 0.142988 0.0865351 0.131743 0.202443 0.0336609 -0.0206984 0.176497 -0.0312923 -0.0384864 -0.00802988
internal_weight=40.0846 5.97905 34.1055 12.1641 4.60615 4.35339 2.67933 2.43191 2.17424 7.81073 1.928 7.22689 21.9414 1.67405
internal_count=1581 182 1399 463 135 141 80 64 71 322 52 301 936 61
is_linear=0
shrinkage=0.05


Tree=24
num_leaves=31
num_cat=0
split_feature=5 7 66 65 64 9 6 33 46 10 32 32 81 45 50 76 64 8 31 65 21 9 64 40 8 70 7 34 43 16
split_gain=47.8784 13.3655 8.61486 8.36424 8.22051 6.83614 6.65185 6.44658 10.5555 7.02371 6.69068 6.82351 6.40668 6.29905 6.30791 5.71235 6.1038 5.74314 5.57776 5.51664 5.35614 6.44783 5.31932 5.15997 4.90693 6.29609 5.91899 7.70973 8.32751 7.26611
threshold=-0.074248220771551118 -0.44440402090549463 1.0435062050819399 -0.75358897447586048 -0.67033341526985157 0.69628015160560619 -0.26311132311820978 -0.17974660545587537 -0.51152661442756642 -0.34330706298351282 -0.36254213750362391 -0.06124677695333957 0.085549999028444304 0.53646457195281994 -0.38547331094741816 -0.13769999891519544 0.98811823129653942 0.43951110541820532 -0.96110498905181874 -1.9663717746734617 0.1172635927796364 0.17866417765617373 0.73944088816642772 0.58117413520812999 -0.33011393249034876 0.077013280242681517 -0.0037715181242674585 -0.31481197476387018 -1.0000000180025095e-35 0.91057476401329052
decision_type=2 2 2 2 2 2 2 2 2 2 2 2 2 2 2 2 2 2 2 2 2 2 2 2 2 2 2 2 2 2
left_child=1 2 18 23 5 19 15 8 -5 -10 -11 -12 24 14 -13 22 17 -17 -1 -3 -14 -22 -6 -2 25 -9 -26 28 -28 -29
right_child=3 4 -4 7 6 -7 -8 12 9 10 11 13 20 -15 -16 16 -18 -19 -20 -21 21 -23 -24 -25 26 -27 27 29 -30 -31
leaf_value=-0.0074467151243424864 0.037181096225757208 -0.0061160857664956233 0.007402586183509665 -0.050954685296959207 0.016769123326319607 -0.036638079736178865 -0.0045129996117361333 -0.017802764412187821 0.027940368433511456 0.02263073035886122 -0.051584880728230448 0.044070481363799222 0.013377198609741346 -0.046538974329811883 -0.0080393593771744716 -0.070671177411684744 -0.004029677599452274 -0.023771904816140724 -0.062395556708966085 0.039531377393174423 -0.058364053368274972 0.010123017958686871 -0.035361124012662205 -0.0020344704002943563 0.046204140210630025 0.036555570914413749 0.021092889658453427 0.037912712286251898 -0.051624101527832138 -0.0072444366731410428
leaf_weight=5.7241265773773184 42.446377217769623 11.292583912611011 6.3602825403213492 9.1463876664638502 9.7033850252628344 5.743939906358718 38.666107684373856 15.853945404291155 20.112499088048935 14.588566541671751 9.1180556714534742 6.8809414207935289 14.464201837778093 6.1797877550125113 21.246221363544471 17.360237360000614 8.4363532066345197 12.391162842512129 31.531852304935455 14.225015699863434 7.0613638162612897 5.5441724061965942 8.0827122330665571 10.270851522684096 23.881762772798538 6.7889796197414389 7.1959302723407745 33.746678084135056 6.7291491627693159 11.595068484544752
leaf_count=20 159 40 22 32 34 20 136 57 74 53 32 25 52 22 76 59 29 43 107 51 25 20 28 37 87 25 26 124 24 42
internal_value=-0.00102175 -0.0218184 -0.0453967 0.0119314 -0.0133568 0.00866661 -0.0206462 0.00757445 -0.00296742 0.00322352 -0.00567372 -0.0154779 0.0144695 -0.00469223 0.005784 -0.031516 -0.0422045 -0.0525463 -0.0543684 0.0198617 -0.00703175 -0.029712 -0.0075422 0.0296451 0.0199855 -0.000647814 0.0255453 0.0165922 -0.0151513 0.0264577
internal_weight=442.369 169.518 43.6163 272.851 125.901 31.2615 94.64 220.134 87.2725 78.1261 58.0136 43.425 132.861 34.307 28.1272 55.9739 38.1878 29.7514 37.256 25.5176 27.0697 12.6055 17.7861 52.7172 105.792 22.6429 83.1486 59.2668 13.9251 45.3417
internal_count=1581 589 149 992 440 111 329 796 314 282 208 155 482 123 101 193 131 102 127 91 97 45 62 196 385 82 303 216 50 166
is_linear=0
shrinkage=0.05


Tree=25
num_leaves=31
num_cat=0
split_feature=18 5 30 22 17 6 30 80 14 50 22 45 62 81 54 52 74 77 45 78 19 19 29 52 79 9 10 30 21 79
split_gain=27.4405 16.3899 9.18383 13.5172 8.32532 7.67447 7.45068 11.5421 7.32565 6.5036 7.65889 5.82088 5.55676 8.00615 5.73672 5.54593 4.75511 4.20554 4.0716 4.03366 6.14333 3.86575 3.85853 6.35062 3.52403 3.42706 2.33455 3.43505 4.4382 2.54825
threshold=0.0099053832236677426 -0.68905252218246449 -1.060544967651367 -0.10993504896759985 -0.28283648192882532 0.63024938106536876 0.43258067965507513 -0.026549999602138993 -0.025781166739761826 0.91288667917251598 -0.023448387160897251 0.0042870304314419636 -0.40861639380455012 -0.10014999657869338 -0.78995060920715321 -0.16074585169553754 1.8624548912048342 0.015649999491870407 0.099705304950475707 -0.10864999890327452 0.33987323939800268 0.40312501788139349 0.02946654707193375 0.42628048360347753 0.22939999401569369 0.11537291109561922 -0.022882320918142792 -0.47324341535568232 0.59241285920143139 -0.085149999707937227
decision_type=2 2 2 2 2 2 2 2 2 2 2 2 2 2 2 2 2 2 2 2 2 2 2 2 2 2 2 2 2 2
left_child=9 4 3 5 -2 -3 7 8 -6 16 11 -11 13 -4 -15 -8 24 -5 -16 20 -14 -9 23 -21 26 -18 -1 -28 29 -29
right_child=1 2 12 17 6 -7 15 21 -10 10 -12 -13 19 14 18 -17 25 -19 -20 22 -22 -23 -24 -25 -26 -27 27 28 -30 -31
leaf_value=-0.038937708205085235 -0.023114206214920698 0.09782982822822256 -0.036690306571918699 0.028721760810585154 -0.026270198038876032 0.0023719427226427873 -0.035630596817670383 0.13214690755464395 0.062358548259221158 -0.0099831924518114304 -0.027242724930747399 0.074482300593545075 -0.017645036816323671 0.079384974894374863 -0.019611073007603622 0.048382591418367815 -0.019969386719929025 -0.038916252345322526 0.049611137575302444 -0.021746656059256908 0.057574473393335796 0.044644655871707899 -0.033755508229978998 0.043450275278515541 0.021581814042419666 0.050498890231730459 -0.03905818591831528 0.010901586314594997 0.044775729154373167 -0.031580789467033459
leaf_weight=43.875912308692932 2.9461856782436397 6.8097269013524073 3.6699043810367575 2.8789039775729171 3.3761457726359367 2.9520644620060921 2.8075743913650513 6.368361219763754 4.3278396129608216 2.9745757952332497 6.4368926510214788 4.290731780230999 5.6105947867035848 4.456619791686534 4.3291949853301039 3.1016433164477339 2.5724200755357733 4.8538936600089073 2.576112687587738 10.753804415464399 3.7106290385127068 3.2498025596141815 21.496356301009655 4.4754646718502036 2.5783364549279204 2.543336421251297 11.341301620006563 4.9795866161584881 2.7681676745414725 8.4732877761125547
leaf_count=385 22 45 32 21 23 23 20 36 26 25 54 32 44 31 35 21 21 41 20 90 27 21 181 36 20 20 96 41 22 70
internal_value=-0.00119113 0.0162789 0.00464012 0.0355237 0.0497573 0.0718652 0.0595713 0.0753575 0.0249626 -0.0208671 0.010324 0.0428764 -0.00463551 0.0208795 0.0409384 0.0090867 -0.0263294 -0.0133294 0.00922213 -0.0132316 0.0149757 0.10957 -0.020598 -0.00109034 -0.0295592 0.0175932 -0.0316774 -0.0191614 -0.00378981 -0.0161896
internal_weight=197.585 104.751 78.5733 17.4946 26.1776 9.76179 23.2314 17.3221 7.70399 92.8345 13.7022 7.26531 61.0787 15.0318 11.3619 5.90922 79.1323 7.7328 6.90531 46.0468 9.32122 9.61816 36.7256 15.2293 74.0166 5.11576 71.4383 27.5623 16.221 13.4529
internal_count=1581 795 626 130 169 68 147 106 49 786 111 57 496 118 86 41 675 62 55 378 71 57 307 126 634 41 614 229 133 111
is_linear=0
shrinkage=0.05


Tree=26
num_leaves=31
num_cat=0
split_feature=29 4 79 17 32 40 53 29 29 6 57 65 78 67 53 4 77 72 31 33 14 4 7 59 58 59 71 8 65 3
split_gain=28.9955 23.2417 9.26865 8.14976 11.57 7.4878 9.45841 6.28766 6.25973 6.3755 6.71807 6.15071 5.67134 5.46845 6.4511 5.39849 6.07265 6.50196 6.43069 5.85029 7.83513 9.6906 5.31553 5.27005 4.83898 4.60622 4.24848 3.67752 2.67876 2.67042
threshold=-0.67884355783462513 -0.56638428568840016 0.12350000068545343 -0.62878721952438343 0.55991947650909435 0.8156096637248994 0.31839470565319067 1.2307041287422182 0.047947101294994361 -0.89899328351020802 0.07033425942063333 -0.28798809647560114 -0.0042999999132007352 0.32323138415813452 1.3165661096572878 1.0319722890853884 -0.19415000081062314 -1.0000000180025095e-35 0.23087057471275332 0.60359865427017223 0.077046193182468428 0.46727646887302404 -0.62381771206855763 0.63066121935844432 0.10610074922442438 0.36248809099197393 -0.41267585754394526 0.17912552505731585 0.69329336285591137 1.0000000180025095e-35
decision_type=2 2 2 2 2 2 2 2 2 2 2 2 2 2 2 2 2 2 2 2 2 2 2 2 2 2 2 2 2 2
left_child=22 2 5 4 7 6 8 23 25 -10 -11 -6 27 14 15 16 17 -5 19 20 21 -18 24 28 -1 -2 -15 -8 -3 -7
right_child=1 3 -4 13 11 29 12 -9 9 10 -12 -13 -14 26 -16 -17 18 -19 -20 -21 -22 -23 -24 -25 -26 -27 -28 -29 -30 -31
leaf_value=-0.021910360827183135 0.051476924599921529 -0.038364569649609839 0.095620006721635148 -0.0015053119532104963 0.0058295542884849805 -0.038064358541751331 0.061134984593619657 0.060511595536956675 0.11732982961369864 -0.0130784909483154 0.079757860507672029 0.099328253132461131 -0.027015356942328612 0.014455769043442224 0.05982431782307749 -0.03192943570700512 0.0051030018828476659 0.095924081934269739 -0.033836578196635214 -0.035646812824955826 -0.018143388076956236 0.11946873777879237 -0.041456153511804275 0.030150379249502136 0.047722886758951713 -0.023393890922989487 -0.035201821945582489 -0.0084021128428706134 0.010408210196509098 0.018810003259714179
leaf_weight=6.8806390911340696 3.4832225292921128 10.214239053428182 5.8730404227972022 3.325027197599411 2.7305774912238121 4.0022632107138625 3.9681514054536819 2.6562961190938941 5.8543851599097261 3.159895367920396 3.2362051904201508 4.7143879383802405 5.9435528665781003 4.6036512479186085 3.1531421169638625 12.321767568588255 3.7300531491637283 2.465479925274848 10.19014824926853 3.2120361030101767 4.108703576028347 2.8724368885159492 38.321470208466053 4.7626490592956534 2.6507390514016151 2.9783627986907959 24.576732583343983 2.7300669401884079 3.2730142399668685 2.7118801549077034
leaf_count=59 25 86 37 28 23 31 26 19 35 22 20 31 43 36 23 108 31 19 86 28 35 22 349 38 21 22 212 20 26 20
internal_value=6.03982e-05 0.0110948 0.0410943 -0.0019867 0.020394 0.03045 0.0404962 0.000421768 0.0621651 0.0820868 0.0383263 0.0697869 0.00621656 -0.0106542 0.000308681 -0.00541675 0.00618737 0.0479953 -0.00536362 0.0163462 0.0336502 0.0640281 -0.033336 -0.0110135 0.000147764 0.0184563 -0.0271482 0.0353832 -0.0266272 -0.015632
internal_weight=194.704 146.851 43.941 102.91 28.3512 38.068 31.3538 20.9062 18.7121 12.2505 6.3961 7.44497 12.6418 74.5592 45.3788 42.2257 29.9039 5.79051 24.1134 13.9232 10.7112 6.60249 47.8528 18.2499 9.53138 6.46159 29.1804 6.69822 13.4873 6.71414
internal_count=1581 1152 301 851 223 264 213 169 124 77 42 54 89 628 380 357 249 47 202 116 88 53 429 150 80 47 248 46 112 51
is_linear=0
shrinkage=0.05


Tree=27
num_leaves=31
num_cat=0
split_feature=40 18 50 81 46 40 50 44 38 1 34 38 19 26 76 11 16 17 36 16 30 38 18 62 62 80 80 14 38 34
split_gain=35.7358 18.74 11.6327 11.3438 9.41433 9.46438 10.6763 8.56313 7.7879 7.78481 7.3501 9.19545 7.21174 10.5323 6.33654 6.06143 6.63167 6.00289 5.63686 4.41465 3.95785 3.20244 4.80899 2.8221 3.01011 2.65305 2.57563 1.82359 1.29931 0.874326
threshold=0.34673860669136053 -0.37502616643905634 -0.27219356596469874 -0.032700000330805772 0.12219172343611719 0.75682368874549877 0.42491246759891516 0.53204017877578746 -0.19170353561639783 0.43789788335561758 0.24572000652551654 -0.72578248381614674 0.38591682910919195 0.030236951075494293 0.25069999694824224 -1.0000000180025095e-35 -0.15094488114118573 0.042269682511687286 -1.0000000180025095e-35 -1.1269499659538267 0.29049594700336462 1.4105332493782046 0.051727781072258956 2.1329469680786137 -2.4282895326614375 -0.048250000923871987 0.17554999887943271 0.20791737735271457 0.41241848468780523 -0.37086518108844752
decision_type=2 2 2 2 2 2 2 2 2 2 2 2 2 2 2 2 2 2 2 2 2 2 2 2 2 2 2 2 2 2
left_child=7 4 3 27 5 8 15 14 -2 12 11 -9 17 -14 21 16 -7 -4 20 -13 -5 23 -23 24 -1 -6 -26 -3 -19 -21
right_child=1 2 9 18 25 6 -8 10 -10 -11 -12 19 13 -15 -16 -17 -18 28 -20 29 -22 22 -24 -25 26 -27 -28 -29 -30 -31
leaf_value=0.015281793268692166 0.075818586524008025 -0.034054086140978788 0.035243307032143852 0.063244502315277284 -0.031917151743971632 0.1071715900793397 0.0086731378806908337 0.054663606289066524 -0.024464109297092269 -0.04140098216462465 0.061175884590501828 0.024384860930509535 0.089169109998918389 -0.015665702122410526 0.041376408342266448 0.16410531171466392 -0.0015910475749095314 -0.040523855478242693 0.11923850057478046 -0.0071191804132967884 -0.015439373977436938 0.043286600667547546 -0.034478393849123046 0.016015536166902201 -0.041473248114372634 0.032781413073747968 0.0059043522672550365 0.018626902583091375 0.0028151886958579881 -0.041513194829147525
leaf_weight=2.1957840994000426 2.6329295933246613 2.8354402333497992 3.8374696448445382 3.0322363004088393 2.2510304003953934 2.527230620384219 2.5450334921479216 3.9257144406437936 3.3813295215368333 9.5917618349194509 4.068725422024726 3.2055153697729173 4.4864046573638898 3.7967796325683594 2.3818539530038825 5.1117820441722825 2.2777416035532951 7.7112312763929349 3.7752224802970877 2.7701094895601335 2.1104210242629051 2.8703874498605719 3.096429817378521 2.1568839326500884 48.840388081967831 2.0912222787737837 2.7971045076847068 2.0277156755328178 2.0027466267347336 10.342312797904002
leaf_count=22 22 28 35 24 22 19 22 39 32 101 37 32 39 37 23 37 22 80 30 29 20 28 33 21 546 18 30 20 21 112
internal_value=0.00305189 0.030076 0.0109 0.0475047 0.0660146 0.0808575 0.104483 -0.017789 0.023988 -0.00612178 0.00727692 -0.00592589 0.0105104 0.0446046 -0.0272273 0.126025 0.0642215 -0.0119624 0.0782813 -0.0228171 0.0336978 -0.03048 0.00377469 -0.0341327 -0.0363974 -0.000454676 -0.0388435 -0.0126579 -0.0321598 -0.0352665
internal_weight=156.677 68.0257 45.2074 13.781 22.8183 18.476 12.4618 88.6512 6.01426 31.4264 24.3124 20.2437 21.8346 8.28318 64.3388 9.91675 4.80497 13.5514 8.91788 16.3179 5.14266 61.957 5.96682 55.9902 53.8333 4.34225 51.6375 4.86316 9.71398 13.1124
internal_count=1581 629 435 122 194 154 100 952 54 313 249 212 212 76 703 78 41 136 74 173 44 680 61 619 598 40 576 48 101 141
is_linear=0
shrinkage=0.05


Tree=28
num_leaves=25
num_cat=0
split_feature=58 62 76 14 74 26 26 76 77 14 21 2 50 45 33 46 17 70 22 41 26 21 16 57
split_gain=5.58072 5.97547 7.27801 8.34299 8.2871 9.15207 10.7362 11.9135 5.55694 4.23914 3.39993 8.33622 7.45314 4.43483 5.13035 4.83561 2.88925 3.30206 1.16421 2.42127 2.42514 0.869376 0.697157 0.61305
threshold=-0.09488844126462935 -0.67168307304382313 -0.01214999984949827 -0.78296440839767445 0.5535411834716798 0.98967036604881298 0.19747763872146609 0.056699998676776893 -0.021650000475347039 -0.18469617515802381 -0.63665992021560658 0.51576875988394033 0.076359439641237273 -0.47821412980556482 -1.0000000180025095e-35 -0.089047718793153749 -0.85538664460182179 0.13218032568693164 -0.32615169882774347 -0.32650309801101679 -0.0049716166686266652 0.92743518948555004 1.000269949436188 0.59328392148017894
decision_type=2 2 2 2 2 2 2 2 2 2 2 2 2 2 2 2 2 2 2 2 2 2 2 2
left_child=1 21 3 -3 5 6 7 8 -4 -8 11 -2 -13 14 15 -12 17 -5 19 20 -15 -1 -9 -6
right_child=10 2 4 16 23 -7 9 22 -10 -11 13 12 -14 18 -16 -17 -18 -19 -20 -21 -22 -23 -24 -25
leaf_value=-0.0351653211773819 -0.032454991538198828 0.081265678980854683 0.0043584319831206295 -0.023886233238234501 -0.02902138629014496 -0.025846222573756739 0.031842938935724027 -0.030815624848371539 0.15278011664986055 0.20599054661101779 0.11577413384318068 0.12455305603614575 -0.021367734472828102 -0.02008217553910676 -0.02770574782194532 -0.017736035347822806 -0.037537073469574737 0.070571579003674931 -0.039987108324722673 -0.032250081894118113 0.065547229615657565 0.011650297833313868 0.012048076707572353 0.011511654574080474
leaf_weight=4.5265027098357704 3.0957055836915996 1.3565054479986418 0.95853437297046218 1.2491947915405024 2.0707384217530485 1.5086597651243208 0.90890280529856715 2.526507362723351 1.2593096774071399 1.3792315721511839 0.84476060792803764 1.3434970043599608 0.99247724190354336 0.88119987212121487 1.8268846068531335 0.70606672763824485 6.9362534880638185 0.69713075086474408 13.846084889024487 3.0225448645651403 0.77649988420307614 0.70067184790968884 0.68849544413387764 0.70420303754508484
leaf_count=133 91 36 25 35 57 43 24 71 29 32 23 34 30 27 56 22 202 17 426 90 21 19 19 19
internal_value=0.000783392 0.0164044 0.0276021 -0.00359071 0.0524378 0.0734562 0.0935984 0.0412547 0.109923 0.167537 -0.0149398 0.0180962 0.0747353 -0.0235643 0.0239842 0.0718656 -0.0234614 0.0224159 -0.0330176 -0.00898929 0.0295993 -0.0280268 -0.0209557 -0.0184106
internal_weight=54.8066 27.4708 22.2437 10.2391 12.0046 9.22964 7.72098 5.43285 2.21784 2.28813 27.3357 5.43168 2.33597 21.904 3.37771 1.55083 8.88258 1.94633 18.5263 4.68024 1.6577 5.22717 3.215 2.77494
internal_count=1581 761 609 290 319 243 200 144 54 56 820 155 64 665 101 45 254 52 564 138 48 152 90 76
is_linear=0
shrinkage=0.05


Tree=29
num_leaves=16
num_cat=0
split_feature=73 64 29 70 74 74 69 40 20 16 70 78 62 17 70
split_gain=31.4289 13.0552 16.0696 12.3096 8.66262 7.52516 7.48309 6.62226 4.12568 2.95234 1.28736 1.22962 1.13523 0.415315 0.36493
threshold=1.0000000180025095e-35 0.60982728004455578 -0.18759621679782865 0.17355561256408694 -0.36893135309219355 -0.2941362857818603 0.045808034017682082 -0.023683702573180195 -0.029892510734498497 -1.4302413463592527 -0.58499136567115773 0.045300001278519637 2.2856953144073491 0.24802457541227343 -0.1022796407341957
decision_type=2 2 2 2 2 2 2 2 2 2 2 2 2 2 2
left_child=3 12 5 4 -1 13 14 8 -6 -4 -11 -9 -2 -3 -7
right_child=1 2 9 -5 7 6 -8 11 -10 10 -12 -13 -14 -15 -16
leaf_value=0.0008244608318159597 -0.04057260504842837 -0.018932821500004259 0.045490281803366166 -0.024493954050986016 0.24952234379658891 0.19906994828056945 0.0049290030282970526 0.0017099221052279249 0.051491158372806684 0.021145621161146919 -0.036640654894720175 0.071696077423191285 0.010919010454838944 0.016466650439839161 0.041258163151727652
leaf_weight=1.1190099790692327 21.245458910241727 0.79045289568603017 0.61767007596790779 1.3417941629886625 1.1947496924549343 1.0335767585784195 0.94110411405563343 1.0813926625996821 1.0377813726663587 0.45306135341525067 6.2387243751436454 0.68165086582303036 0.7298857755959024 0.56548645906150341 0.69747954048216376
leaf_count=32 946 25 21 47 25 23 29 33 26 19 268 19 28 19 21
internal_value=0.00374798 -0.0165617 0.0255633 0.0967066 0.127309 0.0947289 0.131919 0.155476 0.201875 -0.0193656 -0.0304878 0.0449239 -0.0384616 -0.00344661 0.173874
internal_weight=39.7693 33.3129 11.3376 6.45638 5.11458 4.0281 2.67216 3.99557 2.23253 7.30946 6.69179 1.76304 21.9753 1.35594 1.73106
internal_count=1581 1399 425 182 135 117 73 103 51 308 287 52 974 44 44
is_linear=0
shrinkage=0.05


Tree=30
num_leaves=31
num_cat=0
split_feature=4 66 10 2 7 33 5 69 28 28 16 38 31 24 62 46 29 29 17 53 7 79 26 57 81 58 10 6 58 20
split_gain=53.7343 12.3351 9.79708 10.4368 8.88126 7.58907 7.05166 7.03753 6.71271 7.42013 7.75166 7.17085 7.59174 6.14451 5.73447 5.74598 5.96622 6.04848 5.35671 5.34326 5.25985 6.58725 4.98172 4.60855 4.53932 4.47614 7.59522 6.59714 6.59229 5.55901
threshold=-0.50553512573242176 -0.46159338951110834 0.3254054337739945 1.0000000180025095e-35 -0.56385818123817433 0.9337122142314912 0.78254938125610363 0.49852444231510168 -1.1232718229293821 -1.3277940750122068 -0.025903683155775067 -0.48063147068023676 -0.93269130587577809 1.0000000180025095e-35 0.1175169199705124 -0.384782925248146 -0.75410997867584217 0.88830962777137767 1.3359705805778506 1.3697983026504519 0.41687448322772985 -0.033649999648332589 -0.2426294460892677 -0.11879673227667807 -0.0032999999821186061 -0.20973940938711164 1.0000000180025095e-35 0.5323581099510194 -0.1379575505852699 0.098437760025262847
decision_type=2 2 2 2 2 2 2 2 2 2 2 2 2 2 2 2 2 2 2 2 2 2 2 2 2 2 2 2 2 2
left_child=8 14 3 7 6 18 -5 22 9 10 -1 12 -10 24 -2 -16 -17 -18 19 25 -13 -22 -3 -8 -14 29 28 -28 -27 -6
right_child=1 2 -4 4 5 -7 23 -9 11 -11 -12 20 13 -15 15 16 17 -19 -20 -21 21 -23 -24 -25 -26 26 27 -29 -30 -31
leaf_value=0.015882819393578662 0.032843964513133192 -0.077742057062662392 -0.037115031154089734 -0.033696160366609974 0.05340074464225511 0.045623042788393922 -0.023060763411245001 0.017539018510047542 0.028772979304501851 0.038717275599122608 -0.057229889216490672 -0.052089544516001209 -0.032606280243000517 -0.061758155728287224 -0.028333449907706827 -0.012512558221501137 0.038552442396706584 -0.015000863028287304 -0.02351720592738989 -0.030480327338531163 -0.049910367807717133 0.0034097061543682536 -0.018732811064838515 0.03084436550091765 0.012120393481137387 -0.028781220123252346 -0.048703146852716539 0.017542669192128685 0.023366385002021574 0.010757962096808259
leaf_weight=6.1631716191768655 56.370069712400436 5.9549828469753274 14.562676459550856 18.85275587439537 14.150559276342394 15.990768998861311 5.4382179081439981 5.5281569957733145 6.8606669008731833 6.2371768355369559 6.754120647907258 52.402833998203278 10.824171960353853 7.9010765552520743 7.5434209406375876 12.044856682419775 24.943028002977375 6.0394024252891532 10.147531598806379 5.7209445834159842 9.838579863309862 12.186398625373839 9.1816497147083282 9.5978374183177912 10.136574894189836 6.066477894783012 8.5168269574642164 5.5310019254684439 47.333076179027564 16.719453036785126
leaf_count=22 212 21 51 67 52 59 20 20 24 22 23 178 37 27 27 44 92 22 36 20 34 43 33 35 35 22 30 20 173 61
internal_value=-0.00304274 0.00837586 0.000997564 0.00418572 0.00844721 0.0143691 -0.0140603 -0.0284761 -0.0299423 -0.00247054 -0.0237112 -0.0346542 -0.0156335 -0.0267993 0.0219893 0.00948757 0.0166112 0.0279707 0.00963417 0.0130607 -0.0434551 -0.0215416 -0.045327 0.0111258 -0.0114096 0.0158757 0.0084307 -0.0231879 0.017022 0.0313673
internal_weight=435.538 306.234 199.293 184.73 164.065 130.177 33.8888 20.6648 129.305 19.1545 12.9173 110.15 35.7225 28.8618 106.941 50.5707 43.0273 30.9824 114.186 104.038 74.4278 22.025 15.1366 15.0361 20.9607 98.3174 67.4474 14.0478 53.3996 30.87
internal_count=1562 1117 720 669 595 473 122 74 445 67 45 378 123 99 397 185 158 114 414 378 255 77 54 55 72 358 245 50 195 113
is_linear=0
shrinkage=0.05


Tree=31
num_leaves=31
num_cat=0
split_feature=16 5 44 22 64 8 44 29 28 79 56 16 21 46 20 76 69 43 43 31 22 55 44 14 14 57 79 76 55 72
split_gain=20.4463 20.0458 12.2122 18.639 8.99526 8.30624 7.47877 9.92111 11.474 8.00901 7.01573 9.93594 6.75372 6.6087 6.50216 5.98309 5.82906 5.52423 10.6735 7.66555 5.06048 5.35876 5.01067 4.61006 4.23622 3.46387 3.33248 5.21152 2.87743 3.87332
