tree
version=v4
num_class=6
num_tree_per_iteration=6
label_index=0
max_feature_idx=81
objective=multiclass num_class:6
feature_names=Column_0 Column_1 Column_2 Column_3 Column_4 Column_5 Column_6 Column_7 Column_8 Column_9 Column_10 Column_11 Column_12 Column_13 Column_14 Column_15 Column_16 Column_17 Column_18 Column_19 Column_20 Column_21 Column_22 Column_23 Column_24 Column_25 Column_26 Column_27 Column_28 Column_29 Column_30 Column_31 Column_32 Column_33 Column_34 Column_35 Column_36 Column_37 Column_38 Column_39 Column_40 Column_41 Column_42 Column_43 Column_44 Column_45 Column_46 Column_47 Column_48 Column_49 Column_50 Column_51 Column_52 Column_53 Column_54 Column_55 Column_56 Column_57 Column_58 Column_59 Column_60 Column_61 Column_62 Column_63 Column_64 Column_65 Column_66 Column_67 Column_68 Column_69 Column_70 Column_71 Column_72 Column_73 Column_74 Column_75 Column_76 Column_77 Column_78 Column_79 Column_80 Column_81
feature_infos=none [-1.5447756052017212:4.1200060844421387] [-1.3920965194702148:1.4269504547119141] [-1.4503970146179199:1.6017783880233765] [-2.8588864803314209:2.5454502105712891] [-3.8107707500457764:2.1289463043212891] [-1.8694056272506714:3.6146993637084961] [-3.0407893657684326:5.0932497978210449] [-3.6433324813842773:3.7962512969970703] [-3.1801962852478027:4.1792702674865723] [-1.1443687677383423:10.307332992553711] [-6.7631840705871582:4.1228904724121094] [-0.80819958448410034:7.4820561408996582] none [-4.797905445098877:3.9143760204315186] [-0.23276343941688538:4.2962074279785156] [-2.5920979976654053:2.7075188159942627] [-3.4441332817077637:2.2497644424438477] [-1.713068962097168:3.7898833751678467] [-3.0320124626159668:5.1070218086242676] [-3.6316945552825928:3.8077397346496582] [-3.2013812065124512:4.199699878692627] [-1.1982254981994629:10.434229850769043] [-6.5892024040222168:3.8247110843658447] [-0.75531834363937378:9.8977041244506836] [-3.1124308109283447:11.595115661621094] [-4.4632563591003418:4.3916988372802734] [-0.24568614363670349:4.0702338218688965] [-2.5812065601348877:2.7295148372650146] [-3.4277455806732178:2.2629284858703613] [-1.70088791847229:3.7956171035766602] [-3.0380957126617432:5.1133589744567871] [-3.6296088695526123:3.8006091117858887] [-3.1767659187316895:4.1808919906616211] [-1.428869366645813:10.272235870361328] [-6.5489006042480469:3.7943258285522461] [-0.76924508810043335:9.4855546951293945] [-5.6820244789123535:8.1827287673950195] [-4.8627047538757324:4.3217010498046875] [-0.24588385224342346:4.0669612884521484] [-2.3188149929046631:2.6192054748535156] [-2.9636096954345703:2.1116218566894531] [-1.5919474363327026:3.7517635822296143] [-3.0455248355865479:5.1297063827514648] [-3.6443333625793457:3.8174741268157959] [-3.1868109703063965:4.1908817291259766] [-1.3776082992553711:10.465882301330566] [-5.8774509429931641:3.4059979915618896] [-0.77272367477416992:8.7187070846557617] [-6.8339405059814453:4.3430166244506836] [-4.154202938079834:3.6620988845825195] [-0.24476191401481628:4.0856027603149414] [-2.0842430591583252:2.5377187728881836] [-2.5718169212341309:2.0045316219329834] [-1.4897009134292603:3.7342658042907715] [-3.0398736000061035:5.1338739395141602] [-3.6350600719451904:3.8192720413208008] [-3.2036564350128174:4.2035627365112305] [-1.4084963798522949:10.291946411132812] [-4.3305425643920898:2.6419596672058105] [-0.72457098960876465:8.1155157089233398] [-7.9283814430236816:2.0054905414581299] [-4.4606919288635254:4.4072003364562988] [-0.23882177472114563:4.1872224807739258] [-1.8474061489105225:2.3556928634643555] [-2.1733055114746094:1.8274129629135132] [-1.3824012279510498:3.6030230522155762] [-3.0511353015899658:5.1618576049804688] [-3.6499016284942627:3.8410561084747314] [-3.1800408363342285:4.16925048828125] [-1.3780176639556885:9.6415996551513672] [-3.2249736785888672:2.1913034915924072] [-0.70773530006408691:6.7965569496154785] [-7.574409008026123:0.30111774802207947] [-4.4701943397521973:4.1395487785339355] [-0.24263916909694672:4.1213459968566895] [-0.63380002975463867:0.57599997520446777] [-0.62709999084472656:0.58799999952316284] [-0.63380002975463867:0.58799999952316284] [-0.63380002975463867:0.58799999952316284] [-0.63380002975463867:0.58799999952316284] [-0.63380002975463867:0.57599997520446777]
tree_sizes=3375 3307 3325 3320 2791 2494 3416 3407 3407 3408 2984 2461 3434 3428 3413 3421 3099 2475 3428 3409 3419 3420 3096 2364 3429 3416 3414 3409 3311 2366 3433 3410 3407 3410 3190 2580 3444 3411 3403 3406 3424 2255 3423 3424 3416 3409 3083 2252 3432 3418 3419 3412 3408 2679 3438 3395 3428 3428 3321 2892 3436 3394 3406 3407 3084 2459 3448 3429 3410 3413 2782 2258 3429 3424 3417 3433 3315 2558 3442 3417 3414 3428 3188 2462 3431 3421 3422 3422 3401 2355 3436 3411 3424 3406 3302 2453 3452 3421 3419 3424 3315 2670 3437 3412 3423 3408 3328 2570 3432 3412 3428 3420 3102 2774 3440 3414 3413 3423 3103 2469 3444 3403 3413 3423 3420 2053 3451 3409 3427 3425 3334 2259 3459 3412 3428 3420 3210 2463 3434 3427 3421 3428 3431 2265 3432 3421 3423 3441 3432 2044 3442 3425 3428 3416 3426 2790 3433 3423 3419 3418 3424 2245 3431 3424 3408 3422 3413 2148 3437 3430 3431 3417 3423 2365 3426 3420 3440 3415 3219 2258 3427 3418 3436 3428 3326 2577 3437 3428 3425 3414 3200 2789 3439 3424 3419 3432 3419 3118 3444 3436 3425 3432 3430 2588 3449 3430 3428 3428 3437 2690 3444 3419 3431 3417 3431 2682 3456 3427 3440 3421 3416 2461 3452 3420 3432 3431 3427 2145 3461 3411 3419 3443 3421 2262 3447 3432 3418 3419 3434 2780 3440 3421 3435 3437 3448 3132 3445 3418 3445 3439 3432 2800 3435 3430 3420 3421 3425 2789 3459 3431 3434 3439 3432 2787 3435 3424 3427 3440 3406 2607 3434 3425 3437 3420 3426 2472 3435 3423 3424 3432 3226 2803 3440 3429 3423 3446 3113 2910 3423 3436 3433 3430 3428 3337 3451 3412 3418 3437 3322 2709

Tree=0
num_leaves=31
num_cat=0
split_feature=4 10 31 30 43 4 56 10 28 34 34 20 8 77 17 54 52 43 32 74 30 14 20 31 70 20 42 3 38 54
split_gain=101.935 18.8049 12.385 14.5248 10.0412 8.89682 8.28359 7.94233 7.57181 7.40478 7.30119 7.79799 9.33864 7.45333 7.188 6.92731 6.60704 10.4969 6.33901 6.09739 6.08614 6.07581 6.07514 6.00402 5.85193 9.38183 5.61217 6.56105 7.27239 5.84102
threshold=-0.22841949760913846 -0.17612894624471662 -0.03044179547578096 -0.67441549897193898 1.2518438696861269 0.095980178564786925 -0.55455729365348805 0.49258355796337133 -0.75688394904136647 0.1896668076515198 0.09157371893525125 0.50351509451866161 0.057488454505801208 -0.0095999999903142435 -0.89136013388633717 -0.93491575121879567 1.1160612702369692 -0.054791720584034913 -0.49925802648067469 -0.16116727888584134 -0.17918036878108975 -1.152208089828491 0.21821270138025287 -0.68395552039146412 -0.15744669735431668 0.21523699909448626 -0.026774460449814793 0.61524417623877536 0.22855527698993686 0.91802528500556957
decision_type=2 2 2 2 2 2 2 2 2 2 2 2 2 2 2 2 2 2 2 2 2 2 2 2 2 2 2 2 2 2
left_child=2 5 3 15 7 8 19 9 -2 10 11 26 13 -13 20 -1 21 -18 23 -4 -8 -7 -6 -5 25 -11 29 28 -28 -3
right_child=1 4 6 18 22 16 14 -9 -10 24 -12 12 -14 -15 -16 -17 17 -19 -20 -21 -22 -23 -24 -25 -26 -27 27 -29 -30 -31
leaf_value=-0.57544056465973692 -0.58431251050376043 -0.54526954318612231 -0.52158631059344718 -0.57190237711212855 -0.60203129058834159 -0.53926174397507121 -0.60051385884188857 -0.56899086533306653 -0.52002109582699563 -0.56422786213889387 -0.49035678348430761 -0.60296366298437876 -0.52228648875514305 -0.53665861736742726 -0.61155923231001108 -0.51953832045704085 -0.57798525448949079 -0.4946591835603022 -0.55648011816500809 -0.58283284863992435 -0.54474011094396957 -0.49328076730987219 -0.54038871282872802 -0.62155987372364474 -0.58037328303433222 -0.49648455190322099 -0.55610938988725322 -0.49716647749524423 -0.49465918356030225 -0.49823997045325136
leaf_weight=6.4274538755416897 5.8431398868560818 31.845112383365624 6.4274538755416861 16.652948677539829 7.5960818529129011 8.180395841598509 8.4725528359413165 12.562750756740568 12.854907751083372 11.101965785026556 13.43922173976898 9.0568668246269244 15.192163705825804 7.0117678642272976 39.14903724193573 21.327460587024689 6.719610869884491 6.4274538755416852 21.035303592681885 8.180395841598509 10.225494801998137 71.286306619644165 7.3039248585700989 10.809808790683745 10.225494801998137 7.8882388472557059 12.854907751083383 33.013740360736847 6.4274538755416861 7.303924858570098
leaf_count=22 20 109 22 57 26 28 29 43 44 38 46 31 52 24 134 73 23 22 72 28 35 244 25 37 35 27 44 113 22 25
internal_value=-0.542425 -0.525847 -0.57622 -0.561783 -0.535367 -0.509572 -0.590954 -0.53202 -0.541176 -0.529074 -0.524195 -0.528299 -0.549705 -0.575338 -0.599356 -0.533153 -0.503282 -0.536691 -0.578041 -0.556222 -0.571636 -0.497905 -0.573533 -0.593512 -0.551686 -0.535155 -0.520991 -0.51041 -0.534239 -0.535592
internal_weight=452.843 304.135 148.708 76.253 192.824 111.312 72.4549 177.924 18.698 165.361 136.145 122.706 31.2608 16.0686 57.8471 27.7549 92.6138 13.1471 48.4981 14.6078 18.698 79.4667 14.9 27.4628 29.2157 18.9902 91.4451 52.2961 19.2824 39.149
internal_count=1550 1041 509 261 660 381 248 609 64 566 466 420 107 55 198 95 317 45 166 50 64 272 51 94 100 65 313 179 66 134
is_linear=0
shrinkage=1


Tree=1
num_leaves=31
num_cat=0
split_feature=17 4 22 44 28 20 45 40 10 5 79 35 40 55 50 22 4 38 34 16 55 76 76 68 58 33 20 45 69 68
split_gain=29.8862 34.8749 20.3728 12.5922 12.2843 10.7529 12.2748 10.7403 10.5416 8.64662 7.28538 6.09148 12.1682 6.21365 5.90149 4.90641 15.2664 4.69581 4.61966 4.44973 3.62801 3.2092 2.57 2.27467 2.0615 1.79376 4.25239 1.49135 2.36257 1.00563
threshold=0.42654728889465338 -0.33616511523723597 -0.13876393437385556 -0.4536644965410232 1.0323995351791384 0.57567754387855541 0.42776642739772802 -0.16781558841466901 0.17215882986783984 -1.215476334095001 -0.020250000059604641 -0.38274605572223658 1.0829796195030215 -0.62044426798820485 1.9411180615425112 -0.3549805879592895 -0.35128048062324518 0.57001551985740673 0.3017732053995133 0.032246110960841186 1.1184620857238772 -0.0049000000581145278 0.1909499987959862 -0.47972816228866572 0.27837719023227697 0.816970854997635 0.20519374310970309 1.0740524530410769 0.15702733397483828 1.2975015640258791
decision_type=2 2 2 2 2 2 2 2 2 2 2 2 2 2 2 2 2 2 2 2 2 2 2 2 2 2 2 2 2 2
left_child=5 2 21 4 8 14 9 -8 17 -7 -4 20 13 -13 15 16 -1 -3 23 -11 24 -2 25 -15 -5 27 -27 29 -29 -17
right_child=1 3 10 11 -6 6 7 -9 -10 19 -12 12 -14 18 -16 22 -18 -19 -20 -21 -22 -23 -24 -25 -26 26 -28 28 -30 -31
leaf_value=-2.0803065902558853 -1.9503001645236964 -2.1797140258313394 -2.0734004242880406 -2.1874327443391275 -2.0199737665634112 -2.0870845900519108 -2.0285226110069385 -2.1404780829342189 -2.0556495489899769 -2.1862387885401717 -2.1624973802134706 -2.1013129870630531 -2.066502002339444 -2.1370021959738699 -2.111447851773288 -2.1887051151373575 -2.1806589168304891 -2.1082453907672498 -2.1200899677249607 -2.1315227412117403 -2.1226237933705598 -2.0736624253542106 -2.1383877944281946 -2.1860939090176572 -2.1424767328143157 -2.1794025310134195 -2.1219740223022865 -2.1825266295730161 -2.1273510841450101 -2.15419541354041
leaf_weight=4.7071319222450265 3.0967973172664642 5.9458508491516096 3.9639005661010742 14.493011444807054 2.7251816391944876 2.7251816391944947 3.2206692099571228 4.5832600295543662 2.6013097465038291 12.015573590993883 3.7161567807197553 3.8400286734104183 4.0877724587917319 2.4774378538131741 3.2206692099571219 48.433910042047501 10.281367093324658 2.4774378538131714 3.7161567807197562 4.5832600295543662 2.4774378538131705 2.7251816391944885 3.4684129953384391 11.767829805612569 2.8490535318851462 9.2903919517993909 3.8400286734104148 3.2206692099571219 2.7251816391944885 2.7251816391944876
leaf_count=38 25 48 32 117 22 22 26 37 21 97 30 31 33 20 26 391 83 20 30 37 20 22 28 95 23 75 31 26 22 22
internal_value=-2.14709 -2.12208 -2.05254 -2.13917 -2.09898 -2.16249 -2.13515 -2.08612 -2.12741 -2.15694 -2.11339 -2.15202 -2.13617 -2.15216 -2.1706 -2.17311 -2.14697 -2.15686 -2.16485 -2.17114 -2.17223 -1.9889 -2.17835 -2.17749 -2.18023 -2.18041 -2.16206 -2.18429 -2.15812 -2.18705
internal_weight=192.001 72.9605 13.502 59.4585 13.7498 119.041 27.1279 7.80393 11.0246 19.324 7.68006 45.7087 25.8892 21.8015 91.9129 88.6923 14.9885 8.42329 17.9614 16.5988 19.8195 5.82198 73.7038 14.2453 17.3421 70.2354 13.1304 57.1049 5.94585 51.1591
internal_count=1550 589 109 480 111 961 219 63 89 156 62 369 209 176 742 716 121 68 145 134 160 47 595 115 140 567 106 461 48 413
is_linear=0
shrinkage=1


Tree=2
num_leaves=31
num_cat=0
split_feature=16 28 43 65 34 30 58 9 55 76 64 42 5 21 31 65 5 52 6 76 58 40 21 29 58 50 81 40 71 16
split_gain=28.0249 24.8107 13.7686 24.7025 12.1883 10.3503 9.74584 11.5884 12.0383 12.3509 9.07511 7.65501 7.65484 5.88381 8.97722 8.2935 5.67884 5.45467 4.86533 4.54625 4.56178 5.69832 4.16389 3.56656 2.80926 2.77473 2.63752 2.26154 2.19628 1.78552
threshold=-0.10647742077708243 0.31066854298114782 0.32080179452896124 0.44124059379100805 -0.048559280112385743 1.8699167966842654 0.091744385659694686 -0.99198165535926808 0.57292279601097118 -0.024799999780952927 -0.15519461780786512 -0.65572926402091969 -0.11633409932255744 -0.23798843473196027 -0.026249612681567665 0.77290138602256786 -1.3203401565551756 0.34805434942245489 -0.75860020518302906 -0.099149998277425752 -1.0000000180025095e-35 0.31734555959701544 0.065455868840217604 -0.033703465014696114 -0.58300507068634022 -0.13277237117290494 -0.035400001332163804 -1.2079020738601682 0.42059773206710821 0.77033093571662914
decision_type=2 2 2 2 2 2 2 2 2 2 2 2 2 2 2 2 2 2 2 2 2 2 2 2 2 2 2 2 2 2
left_child=1 4 3 10 6 13 7 -1 18 -10 26 -8 -4 14 28 17 -6 29 -9 20 -15 -22 -5 -20 -18 -24 -3 -26 -2 -16
right_child=5 2 12 22 16 -7 11 8 9 -11 -12 -13 -14 19 15 -17 24 -19 23 -21 21 -23 25 -25 27 -27 -28 -29 -30 -31
leaf_value=-2.1175131855628466 -2.2637948508763706 -2.1212279285945268 -2.1691863600452348 -2.1680123871736092 -2.1942953232367568 -2.1657382586351051 -2.1846096491691358 -2.1820290120001191 -2.0825564199822701 -2.2283140317219448 -2.0272781393736308 -2.265449923961345 -2.26204182114631 -2.2538693405965828 -2.2629526584183388 -2.1421559676688591 -2.2112703847167121 -2.1805616221956745 -2.2651167033251483 -2.2633362101443995 -2.1513972857156882 -2.2391036217219304 -2.1966513213974306 -2.2037086911346804 -2.2173631230564022 -2.2590849237294224 -2.2015097855464529 -2.2639880719228525 -2.2222352557191538 -2.2198890192724714
leaf_weight=4.5135119408369091 12.267493993043901 2.3146215081214905 2.8932768851518631 3.8191254884004575 4.1663187146186855 3.2404701113700858 3.5876633375883102 2.8932768851518658 2.430352583527565 2.4303525835275641 3.7033944129943901 7.2910577505826932 4.166318714618682 7.5225199013948441 4.7449740916490537 3.2404701113700858 3.1247390359640184 3.9348565638065329 6.8281334489583978 43.74634650349617 2.3146215081214887 3.5876633375883102 2.3146215081214931 2.6618147343397114 2.6618147343397203 2.8932768851518604 2.5460836589336395 19.674282819032662 4.0505876392126074 3.8191254884004593
leaf_count=39 106 20 25 33 36 28 31 25 21 21 32 63 36 65 41 28 27 34 59 378 20 31 20 23 23 25 22 170 35 33
internal_value=-2.2237 -2.20344 -2.16205 -2.13948 -2.22055 -2.24277 -2.19983 -2.18115 -2.20275 -2.14367 -2.08322 -2.23769 -2.22186 -2.24618 -2.22883 -2.20258 -2.24344 -2.22318 -2.23023 -2.25567 -2.22972 -2.19912 -2.2016 -2.24757 -2.25231 -2.23134 -2.15221 -2.25837 -2.25395 -2.24529
internal_weight=179.383 86.914 24.6507 17.5911 62.2633 92.4691 32.6362 21.7574 17.2439 4.86071 8.5641 10.8787 7.0596 89.2287 32.0575 15.7394 29.6272 12.499 12.3832 57.1712 13.4248 5.90228 9.02702 9.48995 25.4608 5.2079 4.86071 22.3361 16.3181 8.5641
internal_count=1550 751 213 152 538 799 282 188 149 42 74 94 61 771 277 136 256 108 107 494 116 51 78 82 220 45 42 193 141 74
is_linear=0
shrinkage=1


Tree=3
num_leaves=31
num_cat=0
split_feature=4 41 46 30 54 62 52 7 41 29 74 64 41 76 38 4 38 31 78 58 40 64 74 81 34 31 9 19 55 41
split_gain=27.5144 51.2795 21.723 15.7864 15.1818 15.5853 13.9202 9.98697 7.71384 9.19998 7.05372 7.25596 11.2371 8.2811 7.41437 5.51149 3.60376 3.3581 3.19349 4.20244 7.12835 3.24553 1.97239 1.75286 5.69859 1.74671 1.72175 1.71955 1.32676 3.97733
threshold=-0.079203434288501726 0.53475195169448864 -0.44111345708370203 -0.057707602158188813 0.73283568024635326 -1.0000000180025095e-35 -0.35332764685153956 0.05014553293585778 -0.39003334939479822 -1.2638378739356992 -0.47696864604949946 0.68970549106597911 0.21799952536821368 0.064699999988079085 -0.23548048734664914 -1.2396009564399717 -0.20921431481838224 -0.13384878635406491 0.074450001120567336 -0.26716488599777216 0.63996008038520824 -0.096114888787269578 0.8942742943763734 0.14134999364614489 -0.034545981325209134 1.3785953521728518 0.24097435176372531 -1.0000000180025095e-35 -0.96794542670249928 0.4646288007497788
decision_type=2 2 2 2 2 2 2 2 2 2 2 2 2 2 2 2 2 2 2 2 2 2 2 2 2 2 2 2 2 2
left_child=1 8 3 6 5 7 -2 -3 9 15 -10 12 13 14 -12 -1 -5 -8 23 20 27 -21 -11 25 -25 28 -13 -20 29 -4
right_child=2 4 18 16 -6 -7 17 -9 10 22 11 26 -14 -15 -16 -17 -18 -19 19 21 -22 -23 -24 24 -26 -27 -28 -29 -30 -31
leaf_value=-2.268101010766868 -2.3564385820362359 -2.3695874860276951 -2.3887172347395924 -2.3220488660276297 -2.3426922893323292 -2.1695366725765806 -2.3006901859643683 -2.2481332758374069 -2.3753347599454515 -2.3919444032852075 -2.2609867624577551 -2.3846877788374217 -2.3640756558412366 -2.1934931427378248 -2.3695874860276951 -2.3606521179481166 -2.3888747650766509 -2.1777298629913795 -2.3856563050838298 -2.33401464992654 -2.2723095414700505 -2.3887797444902641 -2.3493857977700423 -2.388553606708741 -2.3038361009629407 -2.3505607986449255 -2.333279361161869 -2.3353626604558309 -2.391204057880294 -2.3169847735631186
leaf_weight=2.0685036480426788 2.5856295600533485 2.4822043776512137 4.4472828432917586 2.2753540128469467 3.5164562016725531 5.7918102145194998 2.0685036480426788 2.9993302896618843 5.6883850321173695 17.375430643558506 2.2753540128469467 2.6890547424554816 3.4130310192704201 2.1719288304448128 2.4822043776512128 2.999330289661887 4.5507080256938917 2.1719288304448128 2.9993302896618843 2.895905107259753 2.1719288304448128 10.445943422615523 3.1027554720640174 4.3438576608896255 2.1719288304448119 3.2061806544661513 2.0685036480426788 2.1719288304448154 48.609835729002953 2.0685036480426788
leaf_count=20 25 24 43 22 34 56 20 29 55 168 22 26 33 21 24 29 44 21 29 28 21 101 30 42 21 31 20 21 470 20
internal_value=-2.35256 -2.32641 -2.36876 -2.31213 -2.24859 -2.22232 -2.26351 -2.2975 -2.35289 -2.37095 -2.3308 -2.31357 -2.29172 -2.25895 -2.31101 -2.31542 -2.36573 -2.21664 -2.37815 -2.36046 -2.33172 -2.37653 -2.38572 -2.38356 -2.35778 -2.38628 -2.36312 -2.3654 -2.38833 -2.36443
internal_weight=160.309 61.1243 99.1847 13.6521 14.7898 11.2733 6.82606 5.48153 46.3345 25.546 20.7885 15.1001 10.3425 6.92949 4.75756 5.06783 6.82606 4.24043 85.5326 20.685 7.34319 13.3418 20.4782 64.8476 6.51579 58.3318 4.75756 5.17126 55.1256 6.51579
internal_count=1550 591 959 132 143 109 66 53 448 247 201 146 100 67 46 49 66 41 827 200 71 129 198 627 63 564 46 50 533 63
is_linear=0
shrinkage=1


Tree=4
num_leaves=26
num_cat=0
split_feature=52 28 8 6 29 42 14 42 53 33 33 9 58 50 45 9 67 38 19 79 69 70 81 7 33
split_gain=26.3536 33.4523 15.6531 18.7547 13.7784 12.0855 9.34291 8.4722 10.6707 9.67578 8.09223 8.82085 7.08478 6.34004 6.12043 5.90526 4.1635 5.1046 3.47505 1.9586 1.94062 0.615823 0.567339 0.546342 0.506791
threshold=0.4703653752803803 0.4359715878963471 0.12742044031620028 1.0144109725952151 -1.0497992038726804 -0.80802500247955311 0.6005309820175172 -0.30571618676185602 -0.14151005446910855 1.2702024579048159 -0.17287949472665784 -0.30706049501895899 -0.15231391787528989 0.80396389961242687 -0.38820628821849817 -1.3535767197608946 0.31947696208953863 0.088469009846448912 1.0630846023559573 -0.13804999738931653 1.1913174390792849 0.57351669669151317 -0.29274998605251307 1.2098271846771242 -2.065759420394897
decision_type=2 2 2 2 2 2 2 2 2 2 2 2 2 2 2 2 2 2 2 2 2 2 2 2 2
left_child=7 2 3 4 -2 -6 16 8 15 21 19 -12 -13 18 -7 -1 -4 -18 23 -10 22 24 -17 -3 -9
right_child=1 13 6 -5 5 14 -8 9 10 -11 11 12 -14 -15 -16 20 17 -19 -20 -21 -22 -23 -24 -25 -26
leaf_value=-2.7877077769502088 -2.8154301269468918 -2.8673615840982754 -2.8619927450854941 -2.8394594675057259 -2.7942670512169081 -2.7663021487843227 -2.7232298410304643 -2.8346279236965795 -2.8047174895531786 -2.7706891754840455 -2.8394594675057259 -2.6686042332766449 -2.7991223440269928 -2.7663021487843227 -2.5752001565024347 -2.8304855013803198 -2.7449076979189906 -2.8524069781976982 -2.7998749932048983 -2.8594003901203884 -2.812432108653482 -2.8304855013803198 -2.8677913503303278 -2.8304855013803198 -2.8695784383636318
leaf_weight=2.540403872728354 1.60446560382843 11.766081094741823 4.0111640095710737 2.0055820047855377 1.5376128703355787 1.3370546698570245 1.6713183373212812 1.6044656038284291 1.9387292712926862 1.9387292712926854 2.0055820047855377 1.9387292712926862 2.4066984057426435 1.337054669857024 3.2089312076568626 1.3370546698570311 1.3370546698570254 1.4039074033498762 1.7381710708141316 2.8746675401926041 1.4707601368427266 1.337054669857024 13.5711048990488 1.337054669857024 34.362305015325546
leaf_count=38 24 176 60 30 23 20 25 24 29 29 30 29 36 20 48 20 20 21 26 43 22 20 203 20 514
internal_value=-2.82835 -2.79308 -2.7482 -2.70772 -2.67582 -2.64576 -2.80246 -2.84603 -2.82597 -2.86103 -2.78909 -2.75598 -2.72224 -2.84497 -2.61041 -2.84853 -2.83287 -2.79216 -2.85541 -2.83741 -2.85965 -2.86706 -2.8649 -2.86415 -2.86828
internal_weight=103.622 34.2955 18.1171 9.69365 7.68806 6.0836 8.42344 69.3263 30.0837 39.2426 11.1644 6.35101 4.34543 16.1784 4.54599 18.9193 6.75213 2.74096 14.8413 4.8134 16.3789 37.3038 14.9082 13.1031 35.9668
internal_count=1550 513 271 145 115 91 126 1037 450 587 167 95 65 242 68 283 101 41 222 72 245 558 223 196 538
is_linear=0
shrinkage=1


Tree=5
num_leaves=23
num_cat=0
split_feature=64 52 4 42 31 19 79 33 57 21 31 55 61 29 81 28 67 46 8 38 21 6
split_gain=32.1412 30.2406 19.3763 13.1814 14.3301 16.0211 9.69626 6.97314 7.35483 5.03959 7.475 4.99336 4.8264 4.53777 2.92808 4.66744 2.24066 1.49134 1.38627 1.32884 0.838617 0.594225
threshold=0.42836818099021917 -0.95129227638244618 -0.21717980504035947 0.74352148175239574 0.23878904432058337 0.15895415842533114 -0.015149999875575302 0.057169968262314803 -0.47779986262321467 -0.20838409662246701 0.27977925539016729 0.16610390692949298 1.012103349901736 -0.31427219510078425 -0.12310000136494635 -1.0132031440734861 -0.15265277773141858 -0.65235283970832814 -0.19954930245876309 1.0000000180025095e-35 -0.9499724507331847 1.0144109725952151
decision_type=2 2 2 2 2 2 2 2 2 2 2 2 2 2 2 2 2 2 2 2 2 2
left_child=12 6 3 4 5 16 -2 8 11 10 -10 -4 14 -14 15 -1 -3 18 -16 -6 -9 -17
right_child=1 2 7 -5 19 -7 -8 20 9 -11 -12 -13 13 -15 17 21 -18 -19 -20 -21 -22 -23
leaf_value=-3.1703360461911503 -3.1821091659322747 -3.1723661575567768 -3.2265139094144404 -3.255955790756385 -3.2523949682059854 -3.2158907536662449 -2.9887951129000223 -3.2222602424400728 -3.2537549165672748 -3.263000503256055 -3.117759698754762 -3.0916345628334345 -3.1438848346760899 -3.2520209040670451 -3.1961351065187453 -3.2614528596010297 -2.9858732536741646 -3.2696377325245534 -3.2531006575599615 -3.1961351065187449 -3.2669779488845743 -3.2222602424400728
leaf_weight=1.4164917431771753 1.7363447174429896 0.95955892279744137 1.0966387689113619 1.8734245635569093 1.3251051791012289 1.5992648713290689 1.2794118970632578 0.91386564075947241 1.5078783072531226 4.386555075645445 0.91386564075946797 0.91386564075946797 0.91386564075946841 1.2794118970632542 0.91386564075946841 3.5183827169239512 1.7820379994809683 29.609246760606766 1.416491743177178 0.91386564075946797 9.6412825100123811 0.91386564075946797
leaf_count=31 38 21 24 41 29 35 28 20 33 96 20 20 20 28 20 77 39 648 31 20 211 20
internal_value=-3.22729 -3.18961 -3.20884 -3.1501 -3.12021 -3.0757 -3.06104 -3.23702 -3.20553 -3.23348 -3.18531 -3.14038 -3.25658 -3.19484 -3.26091 -3.22822 -3.01892 -3.2667 -3.228 -3.22679 -3.26297 -3.25386
internal_weight=70.8246 30.843 27.8272 8.45326 6.57983 4.34086 3.01576 19.374 8.8188 6.8083 2.42174 2.0105 39.9816 2.19328 37.7883 5.84874 2.7416 31.9396 2.33036 2.23897 10.5551 4.43225
internal_count=1550 675 609 185 144 95 66 424 193 149 53 44 875 48 827 128 60 699 51 49 231 97
is_linear=0
shrinkage=1


Tree=6
num_leaves=31
num_cat=0
split_feature=5 10 32 68 62 11 46 64 5 57 70 18 68 29 64 46 6 28 78 6 41 52 10 56 60 28 45 55 1 52
split_gain=76.3024 17.9681 11.2124 10.2344 10.45 9.93828 9.07839 8.48704 9.41783 8.28752 8.65101 7.76582 7.17678 6.41474 6.353 6.29036 6.22165 6.25275 5.90836 6.91783 5.85914 5.84964 5.64869 5.64706 5.1819 4.95843 4.65499 5.78233 4.2386 6.10035
threshold=-0.16788931936025617 -0.31544405221939081 0.17800632864236834 0.28097848594188696 -0.3577002733945846 0.56398186087608349 -0.28620453178882593 -1.3970741033554075 -0.37446069717407221 -1.1859301328659055 0.31147325038909918 -0.067961387336254106 0.66376647353172313 0.13161377608776095 0.13990249484777453 0.43200954794883734 0.19152098149061206 -0.55845549702644337 0.070599999278783812 1.1449326276779177 0.69537577033042919 -0.15378509461879727 0.088569760322570815 -0.11624261364340781 -1.0000000180025095e-35 0.034163760021328933 0.0278954366222024 0.23849973827600482 0.43789788335561758 0.35435228049755102
decision_type=2 2 2 2 2 2 2 2 2 2 2 2 2 2 2 2 2 2 2 2 2 2 2 2 2 2 2 2 2 2
left_child=2 15 7 5 14 9 20 -1 26 22 18 -10 21 -7 -5 16 17 -2 -11 23 -6 -8 -3 -20 -25 -12 27 -9 29 -28
right_child=1 3 -4 4 6 13 12 8 11 10 25 -13 -14 -15 -16 -17 -18 -19 19 -21 -22 -23 -24 24 -26 -27 28 -29 -30 -31
leaf_value=0.024376828374725133 -0.011009612643313002 0.016048857277564263 -0.045837604710643888 0.00017004025670310752 0.0042272422629633499 -0.035351510009361188 -0.043443806155098158 -0.03041709654378906 -0.020181531751721944 0.038802855795764389 0.018531951218560491 0.048688952083656201 0.032102583056350935 0.017695121507517488 -0.050505342503874208 -0.0065189735810447227 0.055132984034086965 0.041150669807581725 0.032769800697666045 0.049795293814395042 -0.051632538072005824 0.012837604365250839 -0.042671913462386656 0.012580691923808354 -0.045167900315702419 -0.037368268988304837 -0.011288111267248317 0.015591449630329161 -0.072842721874372102 -0.066024441511175355
leaf_weight=9.9415920972824079 9.0112732052803057 7.5622866153717023 58.815498888492584 9.8836763799190539 9.0248671174049395 13.162730723619463 6.1314323842525509 21.449903219938282 7.8998598158359528 71.69906947016716 6.9890300631523115 6.6853390932083112 29.079394280910492 8.7343618869781476 15.496344685554503 6.9873754680156699 37.287634402513504 13.333233118057249 6.1020973622798982 7.2466081082820883 8.4776568412780744 12.220285147428511 7.0256210267543793 6.1292618811130568 8.1716448068618703 7.0004158914089203 15.28039756417275 9.0798082947731 9.1051270663738233 7.0609371066093436
leaf_count=34 31 26 200 34 31 45 21 73 27 247 24 23 100 30 53 24 129 46 21 25 29 42 24 21 28 24 52 31 31 24
internal_value=0.000624087 0.0147553 -0.0291028 0.00830481 -0.00495823 0.0162797 0.00574136 -0.0173306 -0.0229909 0.021592 0.0261402 0.0124848 0.0170454 -0.0143434 -0.0315126 0.0375401 0.0427251 0.0205445 0.0312883 0.0111277 -0.0241577 -0.00723966 -0.0131547 -0.00429092 -0.0212127 -0.0100677 -0.0314052 -0.0166732 -0.0447531 -0.0306749
internal_weight=452.075 306.756 145.318 240.137 90.3137 149.823 64.9336 86.503 76.5614 127.926 113.338 14.5852 47.4311 21.8971 25.38 66.6195 59.6321 22.3445 99.3487 27.6496 17.5025 18.3517 14.5879 20.403 14.3009 13.9894 61.9762 30.5297 31.4465 22.3413
internal_count=1550 1055 495 825 310 515 223 295 261 440 390 50 163 75 87 230 206 77 342 95 60 63 50 70 49 48 211 104 107 76
is_linear=0
shrinkage=0.05


Tree=7
num_leaves=31
num_cat=0
split_feature=17 5 10 20 45 81 40 53 20 5 69 11 74 50 78 29 20 55 9 14 76 74 58 16 66 80 53 5 56 20
split_gain=27.8178 21.8997 15.5695 10.1136 10.9042 9.45166 8.15399 9.51938 9.17553 7.82428 7.42789 7.41526 7.98726 7.93776 9.25008 6.03521 11.1635 4.98011 5.123 4.9516 4.6505 6.56156 9.80204 4.2716 4.22756 3.22231 5.24235 3.15195 2.68487 2.10598
threshold=0.42654728889465338 -0.73289179801940907 0.42292600870132452 0.57567754387855541 0.42776642739772802 -0.043950000777840607 -1.060937166213989 1.2641444802284243 -0.13516043126583097 -1.215476334095001 0.12812010943889621 0.56398186087608349 -0.20272008329629895 -0.13277237117290494 -0.03649999946355819 -0.24807808548212049 0.78993335366249096 0.28147040307521826 -1.0000000180025095e-35 0.43226797878742224 -0.040249999612569802 0.30422426760196691 -0.0087502139504067582 0.032246110960841186 1.5587497949600222 0.07400000095367433 -0.48657366633415217 0.089886620640754714 -0.48933187127113337 0.32906025648117071
decision_type=2 2 2 2 2 2 2 2 2 2 2 2 2 2 2 2 2 2 2 2 2 2 2 2 2 2 2 2 2 2
left_child=3 19 6 11 9 -6 8 15 -3 -5 -9 24 13 -13 -15 16 17 -8 -19 -2 -17 28 -23 -11 25 -1 -27 -14 -22 -4
right_child=1 2 29 4 5 -7 7 10 -10 23 -12 12 27 14 -16 20 -18 18 -20 -21 21 22 -24 -25 -26 26 -28 -29 -30 -31
leaf_value=-0.041076972802781962 0.1389781811993325 -0.0079890880962775798 0.11799240362270501 0.054569005720346814 0.10751173654025264 0.0048788534445703621 -0.026521946507653056 0.10540749666978817 0.10915304840423144 -0.039314603603637664 -0.0050835565403699089 -0.018916056243790644 -0.038135952239875072 0.12173145568285321 0.0062049765362443042 -0.04045565352796273 0.091114922064266482 -0.019184337484693517 0.066831814821222982 0.041118794788971597 0.014961443363499164 -0.017998831727020933 0.088636533254140684 0.014340645071294279 0.016352034056949679 0.029854541931285679 -0.032440865469691618 0.011056524261616286 -0.034430126866518106 0.035707818962491859
leaf_weight=48.977044746279716 3.5362307503819457 2.7490925863385201 2.6088796332478514 2.890707314014441 3.4986586570739746 4.6741772741079313 8.538125120103361 2.5802404806017867 2.8149031400680533 11.660288020968439 2.4919573441147804 4.2064036056399345 9.8656624481081945 2.5326812490820885 3.6245172172784823 13.578774280846114 2.949792504310607 2.4706594794988632 2.9169085025787345 3.4734889417886734 2.9765996187925294 4.0500071942806244 3.0251919627189627 4.6366253197193137 3.6804932802915564 4.1598286256194106 9.0787019208073598 4.1139515638351432 10.572307795286187 2.5752852112054825
leaf_count=405 26 22 20 22 27 36 69 20 22 97 20 34 81 20 29 111 23 20 23 26 24 33 24 37 30 34 75 34 86 20
internal_value=-0.000451416 0.0234048 0.013827 -0.0155153 0.0108162 0.0557453 0.00614446 -1.94145e-05 0.0588752 -0.0101344 0.0592261 -0.0235301 9.54486e-05 0.031702 0.064094 -0.00692691 0.0169006 -0.00387103 0.0305581 0.101674 -0.0188294 -0.00337843 0.0329261 -0.0241026 -0.0321288 -0.03521 -0.0121443 -0.0238878 -0.0232966 0.0895005
internal_weight=191.508 73.9084 66.8987 117.6 27.3605 8.17284 61.7146 56.1506 5.564 19.1876 5.0722 90.2393 24.3432 10.3636 6.1572 51.0784 16.8755 13.9257 5.38757 7.00972 34.2029 20.6241 7.0752 16.2969 65.8961 62.2156 13.2385 13.9796 13.5489 5.18416
internal_count=1550 589 537 961 219 63 497 453 44 156 40 742 198 83 49 413 135 112 43 52 278 167 57 134 544 514 109 115 110 40
is_linear=0
shrinkage=0.05


Tree=8
num_leaves=31
num_cat=0
split_feature=16 28 43 65 34 30 58 9 55 76 5 4 41 21 31 65 38 53 52 6 76 33 38 22 76 21 62 57 9 71
split_gain=25.564 21.6944 11.564 19.4822 11.2102 9.55577 8.70205 9.37146 10.4744 10.1614 6.96959 6.64512 5.98139 5.65498 8.3131 7.30688 5.53898 5.33517 4.80868 4.47178 4.45675 5.22877 6.50497 3.76786 3.20277 2.95966 2.64899 2.31492 5.16879 2.12326
threshold=-0.10647742077708243 0.31066854298114782 0.32080179452896124 0.44124059379100805 -0.048559280112385743 1.8699167966842654 0.091744385659694686 -0.99198165535926808 0.57292279601097118 -0.024799999780952927 -0.11633409932255744 -1.0291479825973509 -0.65104705095291127 -0.23798843473196027 -0.026249612681567665 0.77290138602256786 0.17602293193340304 0.44134216010570532 0.66825053095817577 -0.75860020518302906 -0.099149998277425752 0.12927507609128955 -0.14792657643556592 0.063038270920515074 0.075300000607967391 0.18337992578744891 0.15994702279567721 -0.19632560759782788 0.50640575587749492 0.42059773206710821
decision_type=2 2 2 2 2 2 2 2 2 2 2 2 2 2 2 2 2 2 2 2 2 2 2 2 2 2 2 2 2 2
left_child=1 4 3 18 6 13 7 -1 19 -10 -4 16 -8 14 29 17 -6 -16 25 -9 21 -15 -23 -5 -21 -3 -25 28 -13 -2
right_child=5 2 10 23 11 -7 12 8 9 -11 -12 27 -14 20 15 -17 -18 -19 -20 24 -22 22 -24 26 -26 -27 -28 -29 -30 -31
leaf_value=0.094988327783480347 -0.03895841500123387 0.079050408569003291 0.050851522982692479 0.052550612682924824 -0.016963248034979284 0.05489409587890183 0.029528935256690359 0.039598686622574937 0.12543231791948634 -0.0040910263548895693 -0.037262861530454931 -0.032702445622749834 -0.040458841019014931 -0.033999146370689133 -0.020905423073464338 0.07556708683436783 0.06314808797817989 0.042936281981453502 0.044973709923732487 -0.040360934475332511 -0.038496917295743588 0.064319365077367227 -0.02369044446736035 -0.034625240234795067 0.01739688426220452 0.18946508681624186 0.026341690693285638 -0.04347698902322461 0.043571635411925248 0.0020585058775940204
leaf_weight=4.9524802640080479 11.816363528370859 3.721989527344709 3.054482527077198 3.9990046471357328 3.9095585942268398 3.3863674253225318 4.199447438120842 3.0076870620250729 2.7429145127534866 2.4402012005448332 4.0292293429374686 5.9706080034375244 6.5839324593543989 6.6365305185317975 8.5802661180496234 3.4582131206989279 3.0626022890210152 3.9707817062735549 2.763111837208271 6.4688657969236356 42.265688009560108 3.4728194400668144 3.2072879076004028 2.8310115784406662 2.8517085537314415 2.9972734972834587 2.371365986764431 14.020861767232413 2.2879104539752007 4.0570265129208556
leaf_count=39 106 29 25 34 33 28 36 25 21 21 36 53 58 58 75 28 26 33 22 57 378 30 28 24 25 23 20 124 20 35
internal_value=0.000718933 0.0197698 0.0574388 0.0771559 0.00357934 -0.0178036 0.0231195 0.0402782 0.0205098 0.0736536 0.00232234 -0.01866 -0.0130101 -0.0212069 -0.00422271 0.0205795 0.0217336 0.00097021 0.124004 -0.00568293 -0.0307024 -0.00500251 0.024481 0.0214538 -0.022716 0.146467 -0.00706861 -0.0316915 -0.00914793 -0.0289743
internal_weight=179.118 88.2662 25.7675 18.6838 62.4988 90.8513 33.2472 22.4639 17.5114 5.18312 7.08371 29.2515 10.7834 87.465 31.8827 16.0093 6.97216 12.551 9.48237 12.3283 55.5823 13.3166 6.68011 9.20138 9.32057 6.71926 5.20238 22.2794 8.25852 15.8734
internal_count=1550 751 213 152 538 799 282 188 149 42 61 256 94 771 277 136 59 108 74 107 494 116 58 78 82 52 44 197 73 141
is_linear=0
shrinkage=0.05


Tree=9
num_leaves=31
num_cat=0
split_feature=41 4 46 44 14 54 35 46 2 54 58 66 77 32 9 45 59 5 29 17 41 16 16 78 55 52 78 74 4 31
split_gain=25.1184 41.0077 24.0071 12.2647 10.5501 10.1786 8.05914 17.5186 7.53276 6.28534 7.9711 6.63501 5.75817 5.76538 7.95388 5.24407 5.56396 4.24415 2.68918 4.15772 2.7395 3.22157 6.10088 4.09287 5.48199 2.4506 2.28146 1.47605 1.42953 1.40435
threshold=0.51377496123313915 -0.088117629289627061 -0.44111345708370203 0.45481048524379736 2.2644644975662236 -0.33468194305896753 1.2085195779800417 -0.25803926587104792 0.51576875988394033 -0.043445754796266549 -0.066175697371363626 0.1314228028059006 -0.14970000088214871 -0.12886175140738484 0.099672731012105956 -2.2493520975112911 -0.97837808728218068 0.083223074674606337 -1.6408416628837583 -0.5282631218433379 -0.73165854811668385 -1.0646194219589231 -1.3781725764274595 0.13679999858140948 0.22495480626821521 -0.36194576323032374 0.029849999584257606 -0.61824822425842274 -1.0930978059768675 1.4740839600563052
decision_type=2 2 2 2 2 2 2 2 2 2 2 2 2 2 2 2 2 2 2 2 2 2 2 2 2 2 2 2 2 2
left_child=4 3 8 12 6 -5 15 -8 -3 10 11 25 -2 -14 -15 17 -17 -1 19 -18 -20 22 -22 28 -25 -4 -9 -11 -23 -30
right_child=1 2 9 5 -6 -7 7 26 -10 27 -12 -13 13 14 -16 16 18 -19 20 -21 21 23 -24 24 -26 -27 -28 -29 29 -31
leaf_value=0.064208878304767833 -0.016536621699192965 0.11849019836762245 0.032582157211611992 0.20126597948542005 0.063640283488475904 0.052364520324116273 0.11900035726792824 -0.037563257611216205 0.013093069817560633 0.0026721303308751905 -0.031827761207819709 0.09946916302601147 0.010140530908053461 0.13676530842201082 0.013474739384418472 0.028879260107594642 -0.032529567700373796 -0.018144531889295875 -0.044262927522079054 0.047238602549488078 -0.030344829031478289 -0.0035202052753494587 0.044400832134636886 -0.033226655662695684 0.055523194542577994 -0.030632289177123524 0.017976726467039367 -0.041080216375513845 -0.04011681909315884 0.0016163331902893175
leaf_weight=2.1345267146825782 2.2209209725260743 3.5293635278940192 2.1314301863312721 2.8162462785840034 3.0624129995703688 3.0098497346043578 2.3032621219754219 4.4704532325267774 3.1536559909582138 2.0042149052023879 5.816421687602995 2.0651080682873726 3.3499938771128654 3.0709278658032417 2.2814300358295441 3.6169157102704039 2.3954712152481079 2.4471394419670105 26.553091868758194 2.1730439662933341 5.1257319003343582 3.5968655645847241 3.9304584562778384 2.6183574199676505 2.4048975184559822 2.0067662000656128 2.0620515942573547 18.877409711480144 32.499200560152552 2.0642152577638617
leaf_count=20 20 33 21 24 29 27 21 44 30 20 58 20 30 27 21 35 23 24 263 21 50 34 38 26 23 20 20 188 320 20
internal_value=-0.00130541 0.0252952 -0.0029473 0.0884471 -0.0158931 0.143282 -0.0189229 0.0246699 0.0769319 -0.0209633 0.00751605 0.0437033 0.0496362 0.0664879 0.0946071 -0.0233508 -0.0261436 0.0248524 -0.0288449 0.00708213 -0.0309907 -0.0235398 0.00328476 -0.0291123 0.0114265 0.00193154 -0.0199724 -0.0369507 -0.0346042 -0.037649
internal_weight=159.792 56.3337 39.5844 16.7494 103.458 5.8261 100.396 8.83577 6.68302 32.9014 12.0197 6.2033 10.9233 8.70235 5.35236 91.5599 86.9782 4.58167 83.3613 4.56852 78.7928 52.2397 9.05619 43.1835 5.02325 4.1382 6.5325 20.8816 38.1603 34.5634
internal_count=1550 539 390 149 1011 51 982 85 63 327 119 61 98 78 48 897 853 44 818 44 774 511 88 423 49 41 64 208 374 340
is_linear=0
shrinkage=0.05


Tree=10
num_leaves=27
num_cat=0
split_feature=52 28 7 55 29 5 78 42 53 33 33 9 17 66 50 53 52 9 19 26 40 26 81 33 47 38
split_gain=24.5509 28.8879 11.5873 13.2745 11.4659 19.9716 8.96942 8.14441 9.85116 9.19005 7.10585 7.38496 6.95329 6.38304 6.00234 5.8109 5.99064 5.58454 3.34081 2.05595 1.8152 1.07416 0.638962 0.587104 0.584081 0.577108
threshold=0.4703653752803803 0.4359715878963471 0.76036328077316295 0.7915121614933015 -1.0497992038726804 1.0217375755310061 0.045350000262260444 -0.30571618676185602 -0.14151005446910855 1.2702024579048159 -0.17287949472665784 -0.30706049501895899 -0.0011002606115653177 -1.0000000180025095e-35 0.80396389961242687 1.2706295251846316 0.8459163010120393 -1.3535767197608946 1.0630846023559573 -1.2328703403472898 -0.54000860452651966 0.17987336963415149 -0.37614999711513514 -2.065759420394897 -0.70014253258705128 0.71010181307792675
decision_type=2 2 2 2 2 2 2 2 2 2 2 2 2 2 2 2 2 2 2 2 2 2 2 2 2 2
left_child=7 2 3 4 -2 6 15 8 17 22 20 -12 -8 -13 18 16 -6 -1 25 -19 -10 -4 -9 -24 -21 -3
right_child=1 14 21 -5 5 -7 12 9 10 -11 11 13 -14 -15 -16 -17 -18 19 -20 24 -22 -23 23 -25 -26 -27
leaf_value=0.036571827122321869 0.0088402864867348652 -0.040592780365540058 -0.029284139979281955 -0.016045796199049413 0.084436321555010907 -0.026730850965853054 0.11340028563944092 -0.0031559080140507369 -0.0324907040655791 0.052325050449192959 -0.012567644811907556 0.017093293142360001 -0.01057465904341328 0.13534413173530266 0.057593643314373139 0.052612092880289098 0.26575810341084805 0.016440781575452656 0.02555394763664012 -0.0033793089844322659 0.020123666431500931 0.016767310416800976 -0.0057986373183550747 -0.042888440712318267 -0.041125989880691376 -0.0028972015567688379
leaf_weight=2.6357315033674285 2.6539391055703154 11.320331010967491 1.948112674057483 2.3304814398288718 2.057524189352991 1.5127816423773754 1.4965284466743471 1.2951209247112263 2.7640004009008408 2.0425881445407859 1.9751065000891683 2.1567179262638092 1.7840000465512273 2.5819850116968137 1.3959209471940983 1.5141296312212942 2.5263475179672241 1.3771171942353291 1.779916688799857 1.3068558797240282 2.0157123766839504 1.3616790473461149 1.4510941505432118 33.204690620303154 13.300187155604354 1.2816960066556919
leaf_count=38 39 176 29 34 28 22 20 20 42 29 30 30 25 35 20 20 34 21 26 20 30 20 22 516 204 20
internal_value=-0.00158367 0.0319359 0.0716465 0.0884676 0.106316 0.127328 0.152359 -0.0190044 0.000511147 -0.0340887 0.0351992 0.0649963 0.0592607 0.0938817 -0.0177436 0.187038 0.214067 -0.0216035 -0.0283247 -0.0327849 -0.0106593 -0.0108437 -0.0402816 -0.0415416 -0.0381818 -0.0372538
internal_weight=103.07 34.9634 19.1855 15.8757 13.5453 10.8913 9.37853 68.1069 30.1134 37.9935 11.4935 6.71381 3.28053 4.7387 15.7779 6.098 4.58387 18.6199 14.3819 15.9842 4.77971 3.30979 35.9509 34.6558 14.607 12.602
internal_count=1550 513 271 222 188 149 127 1037 450 587 167 95 45 65 242 82 62 283 222 245 72 49 558 538 224 196
is_linear=0
shrinkage=0.05


Tree=11
num_leaves=22
num_cat=0
split_feature=64 53 4 14 19 41 11 50 68 8 33 61 81 30 8 33 41 46 8 34 77
split_gain=30.1644 24.4278 17.1069 14.4828 12.1625 16.6961 11.2625 9.56186 5.43178 11.3432 12.2399 4.65046 2.89459 3.73017 4.32951 2.86127 2.569 1.47969 1.32583 0.848013 0.307337
threshold=0.42836818099021917 -0.72706425189971913 -0.21717980504035947 0.38552823662757879 0.15895415842533114 0.34955514967441564 -0.27340865507721895 -0.24605209380388257 0.22367271035909655 0.12742044031620028 0.044416589662432678 1.012103349901736 -0.12310000136494635 -0.5177650749683379 0.37962228059768682 -0.056628456339240067 -0.42689290642738337 -0.65235283970832814 -0.19954930245876309 0.42789289355278021 0.027900000102818016
decision_type=2 2 2 2 2 2 2 2 2 2 2 2 2 2 2 2 2 2 2 2 2
left_child=11 3 4 6 5 7 -2 -3 19 10 -10 12 13 14 -1 -6 -13 18 -14 -4 -12
right_child=1 2 8 -5 15 -7 -8 -9 9 -11 20 16 17 -15 -16 -17 -18 -19 -20 -21 -22
leaf_value=0.076711930119855443 0.024572363494776844 0.020676649817239788 -0.039130231059964153 0.0079695395837850336 0.042019249263817324 -0.024994550753472282 0.23878731436230827 0.20240653466144798 0.14445127192159524 -0.035049423256144581 -0.023446324480225048 -0.020916990297160699 0.030450145849659077 -0.032894988695598822 -0.024026941180800704 -0.030593978980843047 0.061718750753087553 -0.041845750700058429 -0.025191305187881059 0.0058907076794734699 0.0062893017460197891
leaf_weight=1.4423925057053568 1.1079801991581917 1.2331129759550097 9.2788488343358004 1.7855525277554987 1.263621333986521 1.3498381190001962 1.8099095001816776 2.4281050190329605 1.6262755505740636 4.2264086715877056 1.1766989752650263 0.9293165318667892 0.94121027365326915 3.1441494002938262 1.2401713691651819 2.3892342001199722 1.3148961327970017 28.464827824383974 1.3873074091970945 0.8956901393830784 0.88107724115252484
leaf_count=31 23 24 208 36 27 28 35 46 35 95 26 20 20 70 27 52 28 648 31 20 20
internal_value=0.000692177 0.0364731 0.0158086 0.130617 0.0696133 0.113343 0.184479 0.158766 -0.0122644 0.0176176 0.0726217 -0.0284534 -0.0328759 -0.00040804 0.0362617 -0.00184284 0.0316 -0.0388134 -0.000309223 -0.0349944 -0.0128214
internal_weight=70.3166 31.4524 26.7489 4.70344 8.66391 5.01106 2.91789 3.66122 18.085 7.91046 3.68405 38.8643 36.6201 5.82671 2.68256 3.65286 2.24421 30.7933 2.32852 10.1745 2.05778
internal_count=1550 675 581 94 177 98 58 70 404 176 81 875 827 128 58 79 48 699 51 228 46
is_linear=0
shrinkage=0.05


Tree=12
num_leaves=31
num_cat=0
split_feature=5 32 9 68 46 62 11 40 21 29 11 5 66 16 45 70 9 59 7 67 77 23 46 9 81 48 56 34 23 68
split_gain=67.9185 10.0754 9.79945 8.01281 12.3777 14.2276 9.07676 8.30135 7.19699 7.00816 7.32773 6.56664 8.9569 8.19161 7.41103 6.26604 7.85623 6.50831 6.0797 6.01211 8.42427 5.51982 6.31137 7.0815 5.31013 5.22004 4.49517 4.36806 4.29566 4.19722
threshold=-0.0062094710301607839 0.17800632864236834 0.24097435176372531 0.28097848594188696 -0.39886556565761561 -0.89231958985328663 0.56398186087608349 1.046149790287018 -0.30361135303974146 0.56271520256996166 1.0000000180025095e-35 -0.42321011424064631 -0.1764271482825279 -0.93235707283020008 -0.1624488830566406 0.49076616764068609 -1.211784243583679 1.0000000180025095e-35 -0.051646269857883446 -0.29814010858535761 -0.011599999852478502 1.0000000180025095e-35 -0.28620453178882593 -0.46651569008827204 0.01970000006258488 1.0000000180025095e-35 0.29859086871147161 -0.06257257983088492 1.0000000180025095e-35 1.0000000180025095e-35
decision_type=2 2 2 2 2 2 2 2 2 2 2 2 2 2 2 2 2 2 2 2 2 2 2 2 2 2 2 2 2 2
left_child=1 2 11 6 8 -6 15 9 -5 10 -7 12 13 -1 -13 16 17 -2 -8 -4 28 -3 -23 -24 25 -25 -22 -20 -21 -18
right_child=3 21 19 4 5 7 18 -9 -10 -11 -12 14 -14 -15 -16 -17 29 -19 27 20 26 22 23 24 -26 -27 -28 -29 -30 -31
leaf_value=0.020833066092221911 -0.035033207030536903 -0.054046988717158143 0.024054917693635491 0.0077258229953193957 -0.043638707292074676 0.026308925456328427 -0.033189264457494122 -0.018045159558252057 -0.057579484490812786 0.05004542264361677 -0.019811367176302955 -0.037145450120118419 -0.066217336599119742 -0.041111549971727057 0.017895127442779095 -0.013165246820615102 0.026543901324721977 0.026688183231242554 -0.012737994727471265 -0.013929826793277209 -0.061183568358823881 -0.057414481282160049 -0.045587546635035801 0.019039808197159849 0.038449794908685747 -0.041667302829140163 -0.0037672558533697279 0.044684839390195977 0.039464861029130299 0.046841327104092341
leaf_weight=8.1835467815399188 7.5960374772548658 31.350402891635895 19.26615571975708 6.400621414184573 9.078327000141142 32.615986764431 10.548771023750307 11.603806555271147 10.273907214403151 20.692360997200012 10.758763730525969 9.6694924533367175 16.560538113117218 12.128202855587004 13.387605100870131 8.7238974869251233 87.756080210208893 7.50958451628685 5.8115217685699463 6.1666056513786334 7.6678494215011579 9.7655107080936414 9.1599656045436877 5.8748185038566607 6.7687090039253226 6.5033326148986816 5.8475955426692963 5.7657783925533277 7.3112596273422241 40.181002795696259
leaf_count=28 26 106 66 22 31 113 36 40 35 72 37 33 56 41 46 30 305 26 20 21 26 33 31 20 23 22 20 20 25 140
internal_value=0.000419712 -0.0237995 -0.0139055 0.0158982 0.00466526 0.012476 0.0223858 0.0196895 -0.0334928 0.0266962 0.0146805 -0.0270816 -0.0399028 -0.0163478 -0.0057719 0.026726 0.0292334 -0.00459724 -0.00725297 0.00337598 -0.0117154 -0.0385209 -0.0246801 -0.0118133 0.00580522 -0.0135855 -0.0383127 0.017139 0.0157601 0.0332325
internal_weight=450.928 175.612 106.189 275.316 101.424 84.7492 173.893 75.6709 16.6745 64.0671 43.3748 59.9294 36.8723 20.3117 23.0571 151.767 143.043 15.1056 22.1261 46.2595 26.9933 69.4227 38.0723 28.3068 19.1469 12.3782 13.5154 11.5773 13.4779 127.937
internal_count=1550 597 362 953 350 293 603 262 57 222 150 204 125 69 79 527 497 52 76 158 92 235 129 96 65 42 46 40 46 445
is_linear=0
shrinkage=0.05


Tree=13
num_leaves=31
num_cat=0
split_feature=17 4 76 44 20 59 14 53 11 41 45 77 3 38 43 21 38 57 57 70 78 66 9 76 79 80 53 52 81 9
split_gain=25.9836 23.8667 14.7755 11.0237 9.55879 10.4735 8.75599 7.48517 7.46969 7.73472 7.23675 9.65633 6.45582 6.24333 5.07414 5.05624 6.95417 6.1981 6.42014 5.73169 4.88851 4.13314 3.99956 3.75082 3.24694 3.07089 4.86135 2.87962 3.42521 2.48111
threshold=0.42654728889465338 -0.33616511523723597 0.020350000821053985 -0.4536644965410232 0.54666367173194896 0.89883431792259227 0.56313917040824901 0.88854661583900463 0.56398186087608349 -0.86830866336822499 0.58073079586029064 0.048550000414252288 0.61524417623877536 0.62692558765411388 -0.61351042985916127 -0.68945434689521778 0.83267727494239818 -0.51384833455085743 -0.96519494056701649 -0.14365492761135099 -0.022750000469386574 1.5587497949600222 -0.64903041720390309 -0.10565000027418135 0.081599999219179167 0.08104999735951425 -0.48657366633415217 -0.31852367520332331 -0.0088999997824430448 0.42005458474159246
decision_type=2 2 2 2 2 2 2 2 2 2 2 2 2 2 2 2 2 2 2 2 2 2 2 2 2 2 2 2 2 2
left_child=4 2 6 7 8 10 -2 13 21 12 14 -12 -10 20 -6 -5 17 18 -17 -18 -3 25 -19 -11 -25 -1 -27 28 -16 -24
right_child=1 3 -4 15 5 -7 -8 -9 9 23 11 -13 -14 -15 27 16 19 22 -20 -21 -22 -23 29 24 -26 26 -28 -29 -30 -31
leaf_value=-0.040775946744043598 0.13461130948159195 0.031487611477220644 -0.0021874328998152861 -0.037014302917439325 0.031343623401222397 0.077561226389147697 0.032670367794506883 0.10021884401730984 -0.010971595611370797 0.021006571593275285 -0.021835478056308529 0.094251178207138617 0.079089546097912744 0.074169964477800207 -0.033686033961329021 -0.018874718483627841 -0.0060169297385603247 0.032709539805396377 0.078104634509927717 0.087106997004087847 -0.03789977469603379 0.015498847561608907 -0.036753013789989623 -0.042817337562783081 0.01132094018557539 0.034386566603463335 -0.030665426483822374 -0.043121413347877328 0.035713546623822472 -0.0031164850795286358
leaf_weight=48.225298814475536 7.1754621714353544 4.0371897444128972 4.4071037992835036 8.6319893971085531 3.4118117988109669 3.7730010524392119 3.9226338341832161 3.3734656795859328 3.0667180269956615 4.0890229493379637 2.7758571952581397 2.8528886586427689 3.7197953686118126 2.6709917038679114 2.5289632230997086 2.4395530372858047 2.5781717225909233 2.7184818610548964 2.9595896750688508 3.0679795965552321 4.128521665930748 3.7369703426957122 13.440926045179379 10.005761928856368 3.2227990180253991 3.2525950968265525 8.0894335582852346 10.832476623356333 2.5847840160131534 9.1595636382698995
leaf_count=412 49 32 32 71 27 29 28 25 25 33 21 21 29 20 21 20 21 22 23 24 34 30 113 82 26 26 69 89 21 75
internal_value=-0.000322463 0.0225089 0.0757038 0.00755203 -0.0150729 0.00968048 0.104259 0.0443664 -0.0232348 0.000483572 -0.00315971 0.0423446 0.0422099 0.0199816 -0.0178211 -0.00478603 0.00365006 -0.00619325 0.0381835 0.0500771 -0.00390158 -0.032133 -0.0167476 -0.01728 -0.0297593 -0.0353277 -0.0107356 -0.0295691 0.00149639 -0.0238304
internal_weight=190.88 74.7116 15.5052 59.2064 116.168 28.7598 11.0981 14.2102 87.4084 24.1041 24.9868 5.62875 6.78651 10.8367 19.358 44.9963 36.3643 30.7181 5.39914 5.64615 8.16571 63.3043 25.319 17.3176 13.2286 59.5673 11.342 15.9462 5.11375 22.6005
internal_count=1550 589 109 480 961 229 77 111 732 195 200 42 54 86 158 369 298 253 43 45 66 537 210 141 108 507 95 131 42 188
is_linear=0
shrinkage=0.05


Tree=14
num_leaves=31
num_cat=0
split_feature=16 28 34 20 44 34 5 32 30 43 52 7 4 8 30 4 29 80 62 10 81 31 26 16 76 5 41 52 80 21
split_gain=23.1291 19.1584 10.4626 11.2626 10.8147 10.2087 10.168 8.99754 8.73852 7.59227 8.63057 7.55501 6.70231 6.76529 6.38012 6.25245 5.50537 5.47696 7.20813 7.95473 6.56768 6.28296 5.18864 6.02286 4.08706 5.69184 3.22763 3.6208 2.18628 1.50553
threshold=-0.10647742077708243 0.31066854298114782 -0.27277208864688868 0.38708789646625524 0.27125009894371038 -0.048559280112385743 0.034824306145310409 -0.55907130241394032 1.8699167966842654 0.5861462950706483 -0.31852367520332331 0.31740681827068334 -1.0756569504737852 0.60987749695777904 -0.68568333983421315 -1.1981303691864011 -0.86129727959632862 -0.096850000321865068 -0.094633609056472764 -0.16219743341207501 0.22195000201463702 0.033838296309113509 -0.2250251695513725 -0.80617576837539662 -0.17095000296831128 0.14284459501504901 -0.8497290015220641 -0.35332764685153956 -0.2732000052928924 -0.23798843473196027
decision_type=2 2 2 2 2 2 2 2 2 2 2 2 2 2 2 2 2 2 2 2 2 2 2 2 2 2 2 2 2 2
left_child=1 5 3 6 7 9 -3 -4 17 12 -11 -9 14 22 -1 16 -7 18 19 -2 24 -21 23 -14 25 -19 27 -17 -20 -26
right_child=8 2 4 -5 -6 15 -8 11 -10 10 -12 -13 13 -15 -16 26 -18 20 28 21 -22 -23 -24 -25 29 -27 -28 -29 -30 -31
leaf_value=-0.0071268703905155275 -0.033088951177780622 0.16315376146172109 -0.020259635902407744 -0.0042523480189011528 -0.025784817174497002 0.062876591765397657 0.042076866124984957 0.11049402296852158 0.051028630009495229 -0.0058067837877291088 0.10538224297119475 0.0065551557577264892 -0.020397401153986881 0.049778066471291342 0.088266232291633717 0.042207621171009201 -0.021972286078966743 0.054271292125546648 0.0085500183364732966 -0.0037088205790039778 0.043008765875061035 0.092933681409129526 -0.038557337097049345 0.063243867128607509 -0.022691322478200646 -0.024874860413355761 -0.038859114154450744 -0.032162296411335292 -0.035971067134441738 -0.042227596604430186
leaf_weight=2.6778111979365349 2.4969376847147942 4.1999412700533885 2.6029015555977848 2.4296423420310012 5.9353654310107222 3.0647198855876923 3.9997445642948151 4.9901249334216109 3.5470173060894004 2.5581602603197098 3.8918781355023375 2.6560658439993858 4.5264864191412926 3.6149272993206969 3.410601586103442 2.3345025703310966 2.87897461652756 2.4247323274612409 3.4617610797286025 2.4273727089166659 2.3137256726622573 3.979240395128727 10.655107617378233 2.593632332980639 19.7703687697649 5.7514203265309334 18.369691595435139 2.2397269383072915 8.2349521964788419 34.75417610257864
leaf_count=22 23 31 21 20 50 25 32 38 28 21 31 21 38 30 28 20 24 20 30 22 21 33 91 21 175 51 167 20 75 321
internal_value=0.000761203 0.0185946 0.0531462 0.0897885 0.0252565 0.00324422 0.115087 0.0544796 -0.0171733 0.0215535 0.0664232 0.0793227 0.00905865 -0.00469485 0.0512239 -0.0182617 0.0245324 -0.0205554 0.00186455 0.0337573 -0.02758 0.0607602 -0.0178342 0.0141068 -0.0308191 0.00195333 -0.0299092 0.00655595 -0.023159 -0.0356801
internal_weight=178.792 89.63 26.8138 10.6293 16.1845 62.8162 8.19969 10.2491 89.1617 33.9286 6.45004 7.64619 27.4786 21.3902 6.08841 28.8876 5.94369 85.6147 20.6003 8.90355 65.0144 6.40661 17.7752 7.12012 62.7007 8.17615 22.9439 4.57423 11.6967 54.5245
internal_count=1550 751 213 83 130 538 63 80 799 282 52 59 230 180 50 256 49 771 183 78 588 55 150 59 567 71 207 40 105 496
is_linear=0
shrinkage=0.05


Tree=15
num_leaves=31
num_cat=0
split_feature=41 4 54 22 35 77 65 74 45 43 28 26 34 76 5 4 55 9 55 69 69 62 45 10 28 16 34 22 22 76
split_gain=23.2148 34.3682 10.4677 9.45054 7.50579 7.48812 7.03833 6.11404 5.91996 6.91211 4.87 4.71643 7.29642 6.04063 5.24667 4.36565 5.47028 3.45644 3.41604 4.46947 4.91979 2.77296 2.41387 2.02976 4.01013 1.78637 1.50389 5.22584 2.07305 3.42773
threshold=0.51377496123313915 -0.088117629289627061 0.90757742524147045 0.3080838024616242 1.2085195779800417 -0.089549999684095369 0.69400200247764599 -1.0000000180025095e-35 -2.2493520975112911 0.061062963679432876 0.45234875380992895 0.030236951075494293 0.28775990009307867 0.013150000013411047 0.57703036069870006 -0.70281040668487538 0.59534218907356273 0.71050828695297252 -0.48265828192234034 -0.48726060986518854 0.28931461274623876 -1.0000000180025095e-35 -0.21064978837966916 0.38113147020339971 0.21012120693922046 -0.61994424462318409 0.21769341081380847 -0.28290838003158564 0.32249824702739721 0.039799999445676811
decision_type=2 2 2 2 2 2 2 2 2 2 2 2 2 2 2 2 2 2 2 2 2 2 2 2 2 2 2 2 2 2
left_child=4 2 5 11 8 -2 -5 25 9 -1 21 17 13 -13 -15 16 18 -3 19 -10 -21 -7 -9 26 -25 -6 28 -28 -17 -30
right_child=1 3 -4 6 7 10 -8 22 15 -11 -12 12 -14 14 -16 23 -18 -19 -20 20 -22 -23 -24 24 -26 -27 27 -29 29 -31
leaf_value=-0.031113436134021139 0.032348956289126866 -0.042520680840634734 -0.0076812362732386263 0.089160786914376913 0.017870612645659849 0.073291306728786892 -0.015360259807815425 0.014267488394008043 -0.033284288203392388 0.071769953552889787 0.036848825875826337 -0.032078065584537824 0.072074725996306557 0.065926939333364062 -0.019432408309265837 -0.038450653701775694 0.044057490061526511 0.011672663613940657 -0.032783243760174767 0.079178997999311912 -0.014508005370281105 0.17021847511494076 0.08958925434224857 -0.034220828373790223 0.039657027712482112 -0.034079214195738311 0.032084223247940351 -0.038688693226653754 -0.029163355933524367 0.037255110877222358
leaf_weight=2.1044100373983374 4.6332908943295488 12.893246777355673 2.7752431184053412 3.4018418937921515 2.0652224346995354 3.9677522778511038 2.1348714083433151 2.2415520772337914 2.596979983150959 2.7750630974769592 2.5392895564436921 9.5608889535069483 2.3475925102829924 2.9828719049692145 2.6350077167153358 45.924189895391464 3.9400907084345809 3.2631250247359267 10.003583826124668 2.1577662527561232 2.0471362769603729 4.0341364890336981 2.2767033055424672 2.9223809838294974 2.4547154009342194 2.8569950386881828 3.4327882677316666 5.46609368175268 4.7474820390343657 1.9596768468618391
leaf_count=21 39 131 25 32 20 34 21 21 25 25 21 96 22 29 27 466 37 32 97 20 20 30 20 29 24 28 34 56 48 20
internal_value=-0.00114811 0.0241094 0.0794021 -0.00254164 -0.0154049 0.0948189 0.0526747 0.0252039 -0.0197731 0.0296535 0.117095 -0.0128751 0.0050979 -0.00907555 0.0290035 -0.022828 -0.00262064 -0.0315328 -0.0154242 0.0110355 0.0395437 0.135638 0.0615786 -0.0289628 0.000435405 -0.0129455 -0.0314977 -0.0109045 -0.0347114 -0.00744149
internal_weight=159.142 57.1692 17.9497 39.2194 101.973 15.1745 5.53671 9.44047 92.5324 4.87947 10.5412 33.6827 17.5264 15.1788 5.61788 87.6529 20.7456 16.1564 16.8055 6.80188 4.2049 8.00189 4.51826 66.9073 5.3771 4.92222 61.5302 8.89888 52.6313 6.70716
internal_count=1550 539 149 390 1011 124 53 89 922 46 85 337 174 152 56 876 199 163 162 65 40 64 41 677 53 48 624 90 534 68
is_linear=0
shrinkage=0.05


Tree=16
num_leaves=28
num_cat=0
split_feature=54 29 29 77 5 80 67 4 21 50 34 56 58 30 44 58 56 58 9 54 77 20 38 9 78 78 42
split_gain=20.4197 25.442 18.7629 17.7797 19.0606 12.0229 15.046 11.9732 7.70517 7.19837 6.64116 4.34327 6.17807 3.66362 5.0847 3.79816 3.79676 3.55932 3.81633 3.00068 2.4096 2.16089 1.16977 0.996396 0.99626 0.544832 0.334179
threshold=0.72343251109123241 -0.036727437749505036 -1.0497992038726804 -0.11214999854564665 0.23473200947046283 -0.22895000129938123 0.12189586088061334 0.12814891710877421 1.2881146073341372 0.66018575429916393 -0.076585881412029252 -0.31937319040298456 -0.15231391787528989 -1.6459228396415708 0.67232224345207225 -0.23845214396715161 0.48494917154312139 -0.3389467447996139 0.63789489865303051 0.19241625815629962 -0.10990000143647193 0.18733897805213931 1.2879577279090884 0.20466756820678714 -0.040750000625848763 0.15720000118017199 0.66363304853439342
decision_type=2 2 2 2 2 2 2 2 2 2 2 2 2 2 2 2 2 2 2 2 2 2 2 2 2 2 2
left_child=5 2 24 -4 -5 6 7 -1 13 11 -10 12 -3 14 16 17 -7 20 19 -19 -15 -9 -17 -24 -2 -13 -8
right_child=1 9 3 4 -6 8 26 21 10 -11 -12 25 -14 15 -16 22 -18 18 -20 -21 -22 -23 23 -25 -26 -27 -28
leaf_value=0.14212691045786105 0.017814960770356051 0.06971957847329581 -0.007667536042377689 0.23482440731402418 0.02497702601690362 -0.037021517453809237 -0.03477208381853316 -0.027230745610772645 -0.027249121795681664 0.059146261008583438 0.086059479148085274 -0.039535382419396803 -0.030694335795469686 0.012426002230960794 0.061026505789367282 -0.042919789428064348 0.039153574395106194 -0.033466250312385294 0.064629778921330344 0.037383672911255807 -0.039441888587998304 0.039200776393402414 -0.027029754229343235 0.018648010537625461 -0.027538060409416511 -0.002368047844951089 -0.0032507353040344372
leaf_weight=2.7202136404812318 1.323708660900593 2.0139013975858688 1.5641717240214346 3.2679491452872771 1.7999856397509573 5.1099073104560357 3.6333441808819771 1.6043308563530447 1.6074252650141718 2.8008734472095957 2.0235014371573916 8.4231158755719644 2.2678220756351974 2.4264189153909692 1.791236203163862 33.989450417459011 1.3282813802361486 3.1261708848178378 1.700133044272661 1.3764463476836679 8.2444925084710121 1.3270095959305761 1.5699085257947438 1.2939383983612058 1.6357554793357847 1.2491710186004628 1.2986759170889852
leaf_count=38 20 28 22 39 26 78 54 25 25 38 30 130 35 37 26 531 20 49 25 20 127 20 24 20 24 19 20
internal_value=-0.00137396 0.0357657 0.0964263 0.137903 0.176692 -0.0145171 0.0328449 0.0825439 -0.0225382 -0.00243544 0.0408452 -0.0179248 0.0207933 -0.0268425 0.00382493 -0.0315239 -0.0181546 -0.0110096 0.0173908 -0.00894977 -0.0275937 0.00516432 -0.0403776 -0.00690675 -0.00787652 -0.0354069 -0.0284192
internal_weight=102.517 26.3465 9.59157 6.63211 5.06793 76.1709 10.5836 5.65155 65.5873 16.7549 3.63093 13.954 4.28172 61.9564 8.22942 53.727 6.43819 16.8737 6.20275 4.50262 10.6709 2.93134 36.8533 2.86385 2.95946 9.67229 4.93202
internal_count=1550 381 131 87 65 1169 157 83 1012 250 55 212 63 957 124 833 98 258 94 69 164 45 575 44 44 149 74
is_linear=0
shrinkage=0.05


Tree=17
num_leaves=22
num_cat=0
split_feature=70 61 46 64 54 70 68 58 40 35 69 26 81 81 62 57 10 20 45 54 58
split_gain=33.4124 21.7457 19.6822 12.3439 11.6454 12.9199 12.5809 7.79351 6.87555 4.43442 3.96364 2.9279 6.82841 2.44846 3.04869 2.02334 1.57213 0.997794 1.01257 0.936188 0.684901
threshold=-0.83324310183525074 1.012103349901736 -0.14537823200225827 0.52331775426864635 -0.39527992904186243 -0.14365492761135099 -0.19619557261466977 0.12045711278915407 -1.2280876040458677 1.0000000180025095e-35 1.2265940904617312 0.87524256110191356 -0.11969999969005583 0.1155500002205372 0.049628753215074546 0.60661694407463085 -1.0000000180025095e-35 1.7689629197120669 1.7887048721313479 1.7293073534965517 0.20659533888101581
decision_type=2 2 2 2 2 2 2 2 2 2 2 2 2 2 2 2 2 2 2 2 2
left_child=7 3 -3 11 5 6 -5 -1 -6 -8 13 17 -13 19 -15 -7 -4 18 -2 -10 -14
right_child=1 2 16 4 8 15 9 -9 10 -11 -12 12 20 14 -16 -17 -18 -19 -20 -21 -22
leaf_value=0.025132089646885705 -0.041864066088434654 0.17890225418141198 -0.028177944859252249 -0.02275811233791647 0.064217240805546597 -0.031532778332390307 0.038896403733300569 0.21833296888888196 -0.040152171678240214 0.19108271528220713 0.044070779077472082 0.08046824272985173 -0.034603537468728233 -0.02618245253640876 0.058569231199842066 0.03314560270100677 0.030386614077678439 0.0073894082131247601 0.0062726003391061231 0.0068501101779144778 0.0071020935289119354
leaf_weight=1.0905381590127938 29.415299896150835 1.8912705257534979 1.8365378230810163 1.0915747433900831 1.7231168858707011 2.6406473070383103 1.3462709411978724 1.0743676684796808 12.343409862369295 1.7399890683591364 1.2086084559559811 0.9640819840133189 3.9878509119153014 1.5106743238866323 0.89567022398114193 0.87121040746569622 0.94261062517762129 0.84151642024516959 0.88156170770525832 0.86045053228736001 0.85168909281492222
leaf_count=23 683 36 38 22 35 56 27 20 272 31 25 20 93 32 19 18 20 20 20 20 20
internal_value=0.000865029 -0.00644962 0.0875343 -0.0146536 0.0113443 0.0592021 0.109549 0.159702 -0.0105171 0.150462 -0.021348 -0.0329265 -0.000205801 -0.0287612 0.0132965 -0.0116975 -0.00552994 -0.0388289 -0.0403077 -0.0368226 -0.0273046
internal_weight=70.0089 67.844 4.67042 63.1736 26.2316 7.68969 4.17783 2.16491 18.5419 3.08626 16.8188 36.942 5.80362 15.6102 2.40634 3.51186 2.77915 31.1384 30.2969 13.2039 4.83954
internal_count=1550 1507 94 1413 557 154 80 43 403 58 368 856 133 343 51 74 58 723 703 292 113
is_linear=0
shrinkage=0.05


Tree=18
num_leaves=31
num_cat=0
split_feature=5 10 43 32 44 18 10 64 5 60 52 43 52 52 45 42 45 31 19 45 68 16 79 60 19 6 57 52 21 21
split_gain=60.2436 16.2122 11.0725 8.92478 7.04979 7.72044 9.16473 6.53698 7.78517 9.10764 5.96636 9.24067 5.83024 8.35271 8.2087 5.30781 5.20681 5.19037 5.14808 7.56532 5.47401 5.35812 5.27533 5.04645 5.85517 5.04253 5.00502 4.68284 4.37399 5.17738
threshold=-0.13913052529096601 -0.17612894624471662 1.2518438696861269 0.166489452123642 -0.17011588066816327 -0.3948367834091186 0.088569760322570815 -1.3970741033554075 -0.37446069717407221 1.0000000180025095e-35 1.1160612702369692 -0.054791720584034913 -0.7520812153816222 -0.2495787441730499 0.79812669754028331 0.091588746756315245 0.18036785721778872 0.88671338558197033 -0.6902959644794463 -0.59133872389793385 -0.49658285081386561 -0.44663493335247034 0.02400000020861626 1.0000000180025095e-35 0.46033096313476568 0.50548601150512706 -0.62298139929771412 -0.31852367520332331 0.37038043141365057 -0.12845238298177716
decision_type=2 2 2 2 2 2 2 2 2 2 2 2 2 2 2 2 2 2 2 2 2 2 2 2 2 2 2 2 2 2
left_child=3 10 4 7 5 16 -7 -1 18 -10 -2 -12 -6 25 17 -16 -3 26 -9 -20 -21 22 -22 24 27 -14 -15 -5 29 -8
right_child=1 2 -4 23 12 6 28 8 9 -11 11 -13 13 14 15 -17 -18 -19 19 20 21 -23 -24 -25 -26 -27 -28 -29 -30 -31
leaf_value=0.022177839895809324 0.033443531864211791 -0.04605074205377474 -0.035531274648886432 0.025979474468067761 0.040581503236887945 0.02995579869445826 0.00032531078412891744 -0.053650611346273185 0.05300740031731177 -0.018843377686146454 -0.038074761512168959 0.036291408645442481 -0.039684030902774323 0.0052484563419352521 -0.048651475909875161 0.0106825792332251 -0.0012414060526144141 -0.0059277765029032868 0.012151052484501247 0.004590704581040472 0.012893722509622516 -0.063321573080519486 -0.046456705777588966 -0.051465719255621482 -0.05724128391864091 0.01211542631130467 0.041698126420804768 -0.024669392043230279 0.018718896863287485 -0.056335162732153235
leaf_weight=9.586503326892851 91.553067207336426 13.471434921026232 14.91148656606674 6.7670839726924941 18.675263792276382 22.36272594332695 7.8102244734764108 14.230052113533018 6.321218580007554 10.211903601884842 7.3202988803386688 7.3894914388656598 10.796798735857012 13.01774299144744 5.8294939994811994 7.7731402218341827 11.847197830677031 10.385607928037642 13.215972334146498 7.9609450697898785 6.7723137438297218 13.389845073223126 6.5310544371604919 37.741686642169952 6.5661777555942527 7.1844822168350211 36.341491848230369 10.100306898355484 6.0920218229293814 7.3084847033023843
leaf_count=33 322 46 51 23 65 78 27 48 22 35 25 26 37 45 20 27 41 36 45 27 23 45 22 127 22 25 127 34 21 25
internal_value=0.000233623 0.0131422 0.00448523 -0.0256092 0.00799969 -0.00450636 0.0082428 -0.0151589 -0.0199321 0.0100843 0.0287422 -0.000784666 0.0158019 0.0103502 0.0178164 -0.0163358 -0.0259272 0.0257331 -0.0279566 -0.0193772 -0.0314046 -0.0419179 -0.0174542 -0.0401932 -0.0206745 -0.0194395 0.0323802 -0.00403266 -0.0149675 -0.0288605
internal_weight=449.466 300.07 193.808 149.395 178.896 68.8921 43.5735 88.2198 78.6333 16.5331 106.263 14.7098 110.004 91.3288 73.3475 13.6026 25.3186 59.7448 62.1002 47.8701 34.6542 26.6932 13.3034 61.1753 23.4336 17.9813 49.3592 16.8674 21.2107 15.1187
internal_count=1550 1044 671 506 620 238 151 300 267 57 373 51 382 317 255 47 87 208 210 162 117 90 45 206 79 62 172 57 73 52
is_linear=0
shrinkage=0.05


Tree=19
num_leaves=31
num_cat=0
split_feature=16 4 22 10 5 44 22 4 64 33 20 31 77 80 28 77 53 5 46 74 8 14 52 56 20 67 42 67 59 46
split_gain=21.413 21.555 19.6011 9.36693 17.7099 12.8473 8.53369 15.5405 13.5074 7.53219 7.46334 6.69826 6.75757 6.60774 5.62113 5.1645 3.84995 3.65537 6.37152 6.10802 4.0683 3.63407 3.76707 3.30892 6.79108 3.79003 2.49708 5.30077 1.26663 1.12319
threshold=0.2625651359558106 -0.33616511523723597 -0.13876393437385556 -0.022882320918142792 1.1202887892723086 -0.64879074692726124 -0.36939501762390131 -0.35128048062324518 0.030484441667795185 0.80176493525505077 0.069795921444892897 -0.05186843499541282 -0.075950000435113893 0.14530000090599063 0.16403710097074511 0.068649999797344222 0.27461992204189306 -0.76165059208869923 0.26301801204681402 -0.31075739860534662 0.15085516870021823 -1.184925854206085 1.1591517329216006 0.47302225232124334 0.68503716588020336 1.1013538837432864 -1.0434154868125913 -0.13716541975736615 0.89883431792259227 0.26301801204681402
decision_type=2 2 2 2 2 2 2 2 2 2 2 2 2 2 2 2 2 2 2 2 2 2 2 2 2 2 2 2 2 2
left_child=6 2 -2 9 5 -5 7 8 -1 13 -6 12 -7 21 16 -9 -4 18 19 20 -8 -3 -23 26 25 29 27 -19 -28 -25
right_child=1 3 14 4 10 11 17 15 -10 -11 -12 -13 -14 -15 -16 -17 -18 23 -20 -21 -22 22 -24 24 -26 -27 28 -29 -30 -31
leaf_value=-0.0057698514272238304 0.12374788558934602 0.023737340511867978 0.076590571777031421 0.074257432943847235 0.022696426654265661 -0.033581344421948559 0.052810613353702199 -0.041577864014264165 0.11813816256144255 0.048338026823592214 0.1441798014261611 -0.035457726002127071 0.057952432316411867 0.04343287161883036 -0.02713329632990177 0.028085644872561672 0.0011662457918910814 0.029901028615651932 0.050463309525851811 -0.03548605119516015 -0.020265907477622823 -0.040570540541937011 0.0086046492101507967 -0.04220980393079557 0.044471860403972246 0.026180646503287594 -0.041447664362583563 -0.035144336854437817 -0.009984111187338154 -0.0025100582559889335
leaf_weight=3.7097816988825825 7.3563140034675625 2.4818791896104875 2.9767793118953687 4.3001222610473695 2.5250398889183989 2.4636791348457336 3.4500463455915513 8.1316855922341329 4.1018999293446541 3.6783663406968108 2.8903090283274651 11.646778181195252 4.1925482153892597 2.8285755515098563 3.6881820037961006 2.9448731169104567 2.9993404373526573 4.1628782600164413 3.5685496628284445 11.703270763158796 2.6032844111323357 22.204146534204487 4.3046338558197013 9.2676633372902888 3.8676570355892173 2.376175455749034 36.144023463129997 7.1263468563556653 4.320529416203498 2.3150869458913794
leaf_count=28 46 20 20 32 20 20 26 71 30 30 21 96 33 23 27 24 21 35 28 97 21 188 34 80 31 20 313 59 36 20
internal_value=-0.000241529 0.0192073 0.0674848 0.00542473 0.0265577 0.00549729 -0.0145524 0.0154198 0.0653172 -0.0115263 0.0999026 -0.0136673 0.0241118 -0.0197087 0.0170702 -0.0222648 0.0443295 -0.02088 -0.00260956 -0.0153974 0.0229659 -0.0271121 -0.0325627 -0.0263632 -0.00726913 -0.0236198 -0.0326777 -0.0106776 -0.03841 -0.035105
internal_weight=190.33 80.5367 17.0206 63.5161 28.0185 22.6031 109.794 18.8882 7.81168 35.4976 5.41535 18.303 6.65623 31.8192 9.6643 11.0766 5.97612 90.9055 21.3252 17.7566 6.05333 28.9907 26.5088 69.5804 17.8266 13.9589 51.7538 11.2892 40.4646 11.5828
internal_count=1550 631 114 517 222 181 919 153 58 295 41 149 53 265 68 95 41 766 172 144 47 242 222 594 151 120 443 94 349 100
is_linear=0
shrinkage=0.05


Tree=20
num_leaves=31
num_cat=0
split_feature=16 28 34 44 52 58 56 16 26 42 52 38 9 41 58 8 28 6 10 55 38 62 69 34 18 5 14 16 10 28
split_gain=21.108 17.016 9.33583 9.32423 7.79677 7.38862 9.09229 9.92272 6.9235 6.89271 6.75645 9.72284 5.69076 5.38185 5.16885 6.91725 5.06307 6.76312 8.0887 9.54083 12.516 8.50961 5.79656 6.74737 6.01948 5.11689 4.99297 4.35633 3.84351 2.964
threshold=-0.10647742077708243 0.31066854298114782 -0.048559280112385743 0.82640862464904796 -0.45939673483371729 0.091744385659694686 -0.15425971895456311 -0.80617576837539662 0.25909265875816351 -0.65572926402091969 0.77001067996025097 -0.051617264747619622 -0.96156248450279225 0.066665478050708785 -0.43944133818149561 0.0091310455463826674 -0.55845549702644337 0.60282883048057567 -0.30151253938674921 0.16610390692949298 -0.18294814229011533 -0.086147587746381746 -0.19622864574193952 -0.076585881412029252 0.47573034465312963 -0.27135026454925532 -0.025781166739761826 -0.25584255158901209 -0.17612894624471662 0.58336478471755993
decision_type=2 2 2 2 2 2 2 2 2 2 2 2 2 2 2 2 2 2 2 2 2 2 2 2 2 2 2 2 2 2
left_child=1 2 5 4 26 6 12 8 -8 -7 11 -6 -1 -13 15 -4 -2 18 -18 20 29 -22 23 24 -19 -21 -3 -16 -12 -20
right_child=16 3 14 -5 10 9 7 -9 -10 -11 28 13 -14 -15 27 -17 17 22 19 25 21 -23 -24 -25 -26 -27 -28 -29 -30 -31
leaf_value=0.044169442166786518 -0.034127635813728532 -0.034743132004354887 -0.032818266040277787 -0.024110439236292445 0.1287045792552324 0.035371850630043673 -0.021193400330309402 0.10041614440903433 0.059957144568195425 -0.040693984301063801 -0.019431627311593497 0.076635205010584559 -0.032519319057760704 -0.01082526916195295 -0.035183910485557114 0.065531469448558199 -0.039937684110415782 0.077695837893379777 -0.035280031724272069 0.034452024806377705 0.13111917667328285 0.023859333435430081 -0.041368910778035728 -0.037275953898867301 -0.017381524025422718 -0.031537352371598402 0.044402892492911204 0.028823327514393333 0.054474239541286384 0.024505683175592163
leaf_weight=2.7719004452228546 27.243581265211105 2.7422558143734932 2.4138302281498936 3.2537237405776969 7.4510821029543939 3.8111467137932777 4.6607417985796911 6.4071027636528024 4.0818775966763496 7.0107037499546987 2.4910238981246948 2.5987322852015451 5.7830075398087502 3.0197633504867554 20.839490845799453 2.972542330622673 6.2475054562091819 2.9905676543712616 3.1716317608952513 3.255078747868537 3.7522081658244124 3.920166008174423 18.578811913728714 4.1550842374563235 2.334203764796257 8.8454296141862851 3.3110965490341249 2.2666802704334215 2.8899900689721099 3.1584046185016632
leaf_count=20 250 22 22 28 52 31 38 49 31 63 20 20 50 24 189 25 58 26 29 27 31 35 174 39 22 81 25 20 22 27
internal_value=0.000800516 0.0176043 0.00301131 0.0494784 0.059812 0.0202309 0.0353999 0.0574943 0.0189605 -0.0131797 0.0752695 0.0938171 -0.00564904 0.0350948 -0.0178334 0.0232198 -0.0166045 -0.00827471 0.00725255 0.0196039 0.046341 0.0853858 -0.0258105 0.00571919 0.0398587 -0.0125112 0.00870614 -0.0279697 0.0225776 -0.00617606
internal_weight=178.429 90.7767 63.019 27.7577 24.5039 34.5265 23.7046 15.1497 8.74262 10.8219 18.4506 13.0696 8.55491 5.6185 28.4925 5.38637 87.6527 60.4091 32.3504 26.1029 14.0024 7.67237 28.0587 9.47986 5.32477 12.1005 6.05335 23.1062 5.38101 6.33004
internal_count=1550 751 538 213 185 282 188 118 69 94 138 96 70 44 256 47 799 549 288 230 122 66 261 87 48 108 47 209 42 56
is_linear=0
shrinkage=0.05


Tree=21
num_leaves=31
num_cat=0
split_feature=4 40 62 34 66 5 29 40 65 21 16 79 58 80 80 77 74 22 74 78 54 69 65 57 18 65 79 43 3 59
split_gain=19.7885 28.9925 10.1956 14.5795 11.7233 8.00213 7.76506 7.15271 9.43723 7.72144 7.57526 6.82427 6.39602 5.56457 9.43984 5.00973 4.66475 4.43431 5.43252 6.47608 3.7208 3.60431 3.16615 3.12442 2.94873 2.71539 2.82331 2.5944 2.13358 3.51588
threshold=-0.036957681179046624 -0.30061519145965571 0.015684666112065319 -0.27277208864688868 0.82090696692466747 -0.76165059208869923 -1.2638378739356992 0.46997661888599401 0.19840060174465182 -0.96033394336700428 -0.069610994309186922 -0.058250000700354569 -0.26716488599777216 0.0025000000605359678 -0.054349999874830239 -0.016950000077486035 1.1435911655426028 0.13511049002408984 0.17956581711769107 -0.080449998378753648 -0.41147419810295099 0.17613545805215838 0.22367674857378009 1.0100635886192324 -1.3636315464973447 1.1359802484512331 -0.26444999873638148 -0.080485358834266649 1.3782880306243899 1.0000000180025095e-35
decision_type=2 2 2 2 2 2 2 2 2 2 2 2 2 2 2 2 2 2 2 2 2 2 2 2 2 2 2 2 2 2
left_child=1 6 13 21 5 -5 11 17 10 -10 -9 -1 -12 14 20 -13 23 28 24 -20 -3 -4 -16 -8 -19 26 -11 -15 -2 -30
right_child=7 2 3 4 -6 -7 16 8 9 25 12 15 -14 27 22 -17 -18 18 19 -21 -22 -23 -24 -25 -26 -27 -28 -29 29 -31
leaf_value=-0.032167199039097809 -0.042603171824013394 0.030132912229518912 0.039347018252200286 0.053817525648882127 0.020274983396910806 0.17448643818803095 -0.04126149743045468 0.084255734897749041 0.056077917246816447 0.016258316870532329 0.062418961686345989 0.098492235412953433 -0.023870739338891538 0.019997058138735282 0.12028726219079496 0.00051494563245410303 0.033352276593374398 0.020687976668633565 -0.030243947348521469 0.068284910880042363 -0.034628971025210474 -0.033197414452223038 0.027937127013291263 0.0074359925112818543 -0.040090713929770733 0.0094780748166575501 -0.038242394232587046 -0.036531062304762767 0.024382100227337035 -0.037076896515053241
leaf_weight=2.2672315165400505 30.351500421762466 4.1550874561071405 2.4265044927597073 3.4215611144900322 3.407454937696456 4.8325348421931249 19.733412846922882 3.9530692994594574 2.3841300606727627 2.1457771286368432 2.1818118765950203 2.4191242158412933 5.6301749348640424 2.7014821842312813 2.5644811615347871 2.1267861202359191 2.0957131385803214 1.9439955502748478 1.9714282900094984 3.3330468013882628 2.8967801854014397 2.43058792501688 2.3115315437316895 3.5866620913147917 7.2222658544778815 4.3335827365517607 18.407636545598507 3.7418174743652335 3.2144965007901183 4.3452340140938759
leaf_count=21 319 36 20 28 29 36 198 38 23 21 20 21 57 24 21 20 20 20 21 32 26 21 21 34 76 43 190 35 33 46
internal_value=-0.00102373 0.0194301 0.0503881 0.0779714 0.106228 0.135686 -0.0145917 -0.0160886 0.000173351 -0.0159429 0.0358528 0.0298561 0.00457765 0.0228416 0.0418996 0.061012 -0.0271859 -0.0279836 -0.00405392 0.0326774 0.00253312 0.00357448 0.0887126 -0.033774 -0.0264336 -0.024742 -0.0320622 -0.0133281 -0.0367786 -0.0111483
internal_weight=158.537 67.1188 34.8898 16.5186 11.6616 8.2541 32.2289 91.4182 39.0362 27.2711 11.7651 6.81314 7.81199 18.3712 11.9279 4.54591 25.4158 52.382 14.4707 5.30448 7.05187 4.85709 4.87601 23.3201 9.16626 24.887 20.5534 6.4433 37.9112 7.55973
internal_count=1550 611 297 134 93 64 314 939 392 277 115 62 77 163 104 41 252 547 149 53 62 41 42 232 96 254 211 59 398 79
is_linear=0
shrinkage=0.05


Tree=22
num_leaves=28
num_cat=0
split_feature=52 28 8 6 42 57 4 44 33 33 29 11 22 38 17 45 80 58 6 58 6 50 70 21 69 33 8
split_gain=21.6616 22.8811 10.1055 11.654 7.87009 9.42685 14.1531 9.02071 8.72894 7.62173 7.29301 7.14635 6.26087 4.71982 4.59042 7.84755 3.04732 2.11832 1.97965 1.97675 4.97133 1.82195 0.626304 0.619248 0.571129 0.502978 0.364946
threshold=0.4703653752803803 0.4359715878963471 0.12742044031620028 1.0144109725952151 -0.30571618676185602 1.1433933377265932 -0.14392828196287152 0.82640862464904796 1.2702024579048159 0.015476648695766928 -1.0497992038726804 0.9826769530773164 -0.54236832261085499 -0.27925746142864222 0.57447558641433727 -0.11523160338401793 0.1803499981760979 -0.36765947937965388 0.56114962697029125 -0.19538303464651105 -0.94231775403022755 1.0435940623283388 0.57351669669151317 1.0216755867004397 0.97671827673912059 -2.065759420394897 1.0034313797950747
decision_type=2 2 2 2 2 2 2 2 2 2 2 2 2 2 2 2 2 2 2 2 2 2 2 2 2 2 2
left_child=4 2 3 10 5 7 -7 16 22 -9 -2 13 -3 -4 15 -12 19 18 -14 20 -1 -22 25 -21 -19 -6 -15
right_child=1 12 11 -5 8 6 -8 9 -10 -11 14 -13 17 26 -16 -17 -18 24 -20 23 21 -23 -24 -25 -26 -27 -28
leaf_value=0.057549605211202996 0.0096658934526611812 0.061540857468068082 0.044642048501976533 -0.013103009031338764 -0.0077732815206162272 0.1436850329562597 -0.027911694378335201 -0.025595553054603384 0.049244615991146538 0.10194139921224943 0.046029997852738397 0.09265673825099624 -0.025009272953215436 -0.03552413154380208 0.037307611349213475 0.18802568334543157 0.033027268657945606 -0.040103845495129943 0.041325947826858313 -0.040873603598425873 -0.037174251076132557 0.017796125891223074 -0.0031755148317728168 -0.0020847470189866244 -0.0024591144800662022 -0.04266161823948119 -0.0029771967785655641
leaf_weight=1.395869832485914 1.6700064018368692 1.3082276880741108 2.2936947904527187 2.0178846754133692 1.5831188298761798 1.6242200285196307 1.7158619128167618 1.3721163943409913 2.138825222849845 2.0312705598771572 2.2415271326899489 1.5052061192691324 1.3012812696397298 3.9802110940217954 1.9745753183960912 3.8956273198127822 1.5094981715083111 10.039388224482535 1.2710892558097837 12.340200100094082 5.2395483590662577 1.3234417848289011 1.2953598909080017 1.2350673004984845 1.2581671364605416 31.183907128870491 1.2773350998759267
leaf_count=20 24 20 30 30 24 21 27 21 29 27 28 19 20 58 24 39 22 162 20 193 80 20 20 19 20 514 19
internal_value=-0.00119908 0.0294995 0.0623357 0.0911707 -0.0181528 0.000967695 0.0694127 -0.00989049 -0.0334886 0.0563876 0.111902 0.0194367 -0.0166844 -0.00428715 0.129579 0.149879 -0.0216174 -0.0277051 0.0101618 -0.0267435 -0.00588478 -0.025202 -0.0399398 -0.0377298 -0.0364524 -0.0412561 -0.0293562
internal_weight=102.023 36.0342 20.8561 11.7996 65.9883 29.7871 3.34008 26.447 36.2012 3.40339 9.78174 9.05645 15.1782 7.55124 8.11173 6.13715 23.0436 13.8699 2.57237 21.5341 7.95886 6.56299 34.0624 13.5753 11.2976 32.767 5.25755
internal_count=1550 513 271 145 1037 450 48 402 587 48 115 126 242 107 91 67 354 222 40 332 120 100 558 212 182 538 77
is_linear=0
shrinkage=0.05


Tree=23
num_leaves=21
num_cat=0
split_feature=70 61 46 65 70 62 54 10 40 79 41 81 68 78 80 46 8 56 81 57
split_gain=29.0974 19.525 15.6291 10.4656 11.3079 11.0024 13.2889 9.34229 6.06305 5.99218 2.46061 2.29054 1.9444 1.83456 1.59167 1.52599 1.1932 0.958549 0.918024 0.735102
threshold=-0.83324310183525074 1.012103349901736 -0.14537823200225827 0.41123990714550024 -0.40569843351840967 -0.077661566436290727 0.2148794308304787 0.36719995737075811 -1.5779702067375181 0.0052499999292194852 -2.4227030277252193 0.21244999766349795 1.0746454000473025 0.10730000212788583 0.0054500000551342973 -0.63827022910118092 -0.19954930245876309 1.3477880358695986 -0.30934999883174891 0.16810971498489383
decision_type=2 2 2 2 2 2 2 2 2 2 2 2 2 2 2 2 2 2 2 2
left_child=19 3 -3 10 5 6 -5 8 -6 -9 -2 12 17 -7 -4 16 -12 -10 -17 -1
right_child=1 2 14 4 7 13 -8 9 11 -11 15 -13 -14 -15 -16 18 -18 -19 -20 -21
leaf_value=0.045898151663818013 0.023083266861795307 0.1549529584827152 -0.028116395513161752 0.15892748845937243 0.054272369679369561 -0.030222327821598977 -0.022781717149160871 -0.0063962652420225391 -0.040912934818749302 0.12012382070090299 0.03072128095287165 0.025196979064526205 0.013434791901379745 0.031936779070744763 0.030966997261852522 0.0039992779041884063 -0.023328882314782251 0.006335427352978317 -0.041672632056810821 0.17209604708148227
leaf_weight=1.1585043780505651 1.1575023680925394 2.234927773475647 1.8269179426133626 2.4202906712889676 1.4867276586592257 2.2816065810620816 1.1062633506953714 1.5182886682450765 16.59353830665351 1.0959453098475931 0.93424793332815204 1.0863861814141262 1.5215268060564984 0.90327080339193333 0.92778016254305828 0.97166556492448464 1.1720698177814508 0.87879001721739669 26.895150858908888 1.2853357233107088
leaf_count=21 26 36 38 44 29 49 25 32 373 20 20 22 33 20 20 22 28 20 650 22
internal_value=0.00119494 -0.00600146 0.0803851 -0.0141163 0.00647086 0.0592887 0.109486 -0.00996091 -0.0215577 0.0652048 -0.0341116 -0.0294804 -0.0337116 -0.00917433 -0.00526945 -0.0369943 0.00281704 -0.0383222 -0.0399968 0.142971
internal_weight=69.4567 67.0129 4.98963 62.0233 30.8926 6.71143 3.52655 24.1812 21.567 2.61423 31.1306 20.0802 18.9939 3.18488 2.7547 29.9731 2.10632 17.4723 27.8668 2.44384
internal_count=1550 1507 94 1413 667 138 69 529 477 52 746 448 426 69 58 720 48 393 672 43
is_linear=0
shrinkage=0.05


Tree=24
num_leaves=31
num_cat=0
split_feature=5 10 10 32 9 64 62 74 46 64 67 34 5 16 32 40 43 5 45 40 34 46 14 55 50 6 28 38 67 18
split_gain=53.6001 13.1988 10.2524 8.28076 8.78974 10.1687 7.38071 11.1863 8.55037 7.99141 8.76523 7.85307 7.12979 7.09068 6.77956 6.70406 6.65705 6.53816 5.86944 5.55909 5.42192 5.31764 5.14624 6.80395 5.90215 5.0374 6.50604 5.0245 6.98475 5.42819
threshold=-0.0062094710301607839 -0.31544405221939081 0.49258355796337133 0.17800632864236834 0.24097435176372531 -0.74749878048896778 -0.41710242629051203 -0.30244684219360346 -0.35661768913269037 0.013604543171823026 -0.66842874884605397 -0.076585881412029252 0.52968382835388195 -0.61728379130363453 0.43657788634300237 0.32726137340068823 0.17504897713661197 -0.42321011424064631 -0.07096546888351439 -1.0000000180025095e-35 0.31578651070594793 0.43200954794883734 0.19856943935155871 0.35993838310241705 -0.21119680255651471 0.19152098149061206 -0.55845549702644337 -0.39307755231857294 0.27160692214965826 0.20691101998090747
decision_type=2 2 2 2 2 2 2 2 2 2 2 2 2 2 2 2 2 2 2 2 2 2 2 2 2 2 2 2 2 2
left_child=3 21 6 4 5 -1 12 9 14 -8 -11 -12 15 -14 16 -3 -9 -7 -19 -13 22 25 23 24 -6 26 -2 28 29 -5
right_child=1 2 -4 27 20 17 7 8 -10 10 11 19 13 -15 -16 -17 -18 18 -20 -21 -22 -23 -24 -25 -26 -27 -28 -29 -30 -31
leaf_value=0.012390041763726909 -0.018731437515699122 -0.047736912518426072 -0.033636267213879016 -0.0074341644279110651 0.013269326595085 -0.050877098614635678 0.022125680861820769 -0.046339086637587699 0.034454618794187812 0.031103021778031523 -0.060335058564067671 0.029473503024987455 0.051837373418174341 -0.0039004526854962821 0.036508587457707624 0.012520461036367418 0.010516987730877198 -0.041206024437823036 0.012642143430018488 -0.033402199979706788 -0.037123335085761051 -0.0077866050477862466 0.03289067982393689 0.03674713944204331 -0.041492352560574097 0.050323585443662167 0.039696688926004559 -0.04418937511749562 0.019703005382301419 -0.066670759009348948
leaf_weight=13.655125975608824 7.1669068932533291 13.188007324934008 12.866481035947798 8.8588143289089221 7.8494686186313656 27.714351922273632 17.853865593671799 8.1093434393405968 73.987891018390656 6.0151387751102474 11.624671339988714 5.7322887778282192 6.4995416104793575 23.360041439533234 8.5991332530975324 6.3228833973407736 11.173008263111113 8.2457795441150683 10.414106816053392 6.3708190023898998 5.9045603275299063 6.3265712261199942 15.074268341064451 6.6944224238395682 10.666646510362627 35.581408351659775 10.896429687738417 46.105912923812866 8.5244981348514539 6.2841593623161307
leaf_count=47 25 45 44 30 27 93 63 28 261 21 40 20 23 81 30 22 39 28 36 22 20 22 52 23 36 128 39 155 29 21
internal_value=6.76511e-05 0.0139754 0.00802815 -0.0213591 -0.0123816 -0.0248406 0.010879 0.0163884 0.025664 -0.00358339 -0.0192336 -0.032736 -0.00579436 0.00951864 0.00195127 -0.028551 -0.0145001 -0.0358335 -0.0120389 -0.00364627 0.00399393 0.0344938 0.0107737 -0.00320108 -0.018787 0.0395313 0.0167479 -0.0346578 -0.015051 -0.0346239
internal_weight=447.667 271.674 211.703 175.992 106.219 60.0294 198.837 149.466 101.869 47.5968 29.7429 23.7278 49.3705 29.8596 27.8815 19.5109 19.2824 46.3742 18.6599 12.1031 46.1894 59.9713 40.2848 25.2105 18.5161 53.6447 18.0633 69.7734 23.6675 15.143
internal_count=1550 953 739 597 362 204 695 524 358 166 103 82 171 104 97 67 67 157 64 42 158 214 138 86 63 192 64 235 80 51
is_linear=0
shrinkage=0.05


Tree=25
num_leaves=31
num_cat=0
split_feature=17 4 76 20 52 44 28 14 67 11 22 45 10 17 41 35 64 40 67 10 56 20 62 66 62 80 79 34 78 44
split_gain=22.3743 16.3631 11.4976 8.80023 9.08951 8.6696 8.91197 7.20421 7.06827 6.91095 8.36485 13.0513 6.8034 6.78904 6.54993 5.5803 9.56112 10.5628 4.66756 5.39208 4.53937 4.21082 4.14245 3.8465 3.81808 3.10693 3.39289 3.09387 2.28947 2.10971
threshold=0.42654728889465338 -0.37337221205234522 0.020350000821053985 0.54666367173194896 -0.2495787441730499 -0.4536644965410232 1.0323995351791384 0.56313917040824901 0.29084879159927374 0.56398186087608349 -0.23966502398252484 -0.10145987570285796 0.17215882986783984 -0.32654270529747004 -0.30372814834117884 -0.38274605572223658 0.46664942800998693 0.62508657574653637 0.58651649951934826 -0.022882320918142792 -0.63804587721824635 0.21523699909448626 -0.78200134634971608 1.5587497949600222 -0.31527017056941981 0.08104999735951425 -0.038100000470876687 -0.14665237814188001 0.0053499999921768912 -0.3935969322919845
decision_type=2 2 2 2 2 2 2 2 2 2 2 2 2 2 2 2 2 2 2 2 2 2 2 2 2 2 2 2 2 2
left_child=3 2 7 9 8 6 12 -2 13 23 11 -11 21 14 -5 18 24 28 -7 -20 -6 -3 -12 25 -17 -1 27 -27 -18 -22
right_child=1 5 -4 4 20 15 -8 -9 -10 10 22 -13 -14 -15 -16 16 17 -19 19 -21 29 -23 -24 -25 -26 26 -28 -29 -30 -31
leaf_value=-0.04012200412972157 0.11568893934357381 -0.032502715298240337 -0.0037783780128625623 0.060973476712261436 0.034804568129321527 -0.037034936012507805 0.1017276609477603 0.027232440155446222 -0.016831643068959467 0.10257208824026656 0.030831331853413892 -0.024510079189722648 0.066756445806839163 0.098477478790511497 -0.034235941620151512 0.023126937431790548 0.024306937926152676 0.092543069097743333 -0.033163695707693709 0.053244835931691763 0.0094735442841779594 0.03476030321277207 -0.028168016334285041 0.014354495530734451 -0.026908767085018461 -0.018586895974879263 -0.032756362465362128 0.048979252680387449 -0.033447087467403679 -0.038317710453585091
leaf_weight=45.627379544079304 7.4016696959733981 5.6623443290591222 4.5356737896800032 2.6539067775011054 2.6065602079033861 14.032175645232202 3.306613788008689 4.2302668988704681 3.8094460740685454 3.2987261414527893 2.795398205518727 3.2231899723410633 3.309268817305564 4.4277208000421551 2.6623535007238388 4.6306212097406378 2.4515496641397458 5.0355105921626091 2.4247317835688591 2.9385438933968535 2.4745547249913225 2.6206497773528099 14.789839267730709 3.8095408007502547 11.335314102470877 2.4309679344296455 5.9367297142744047 2.614898718893528 2.4410912469029427 10.198007270693774
leaf_count=412 42 47 31 20 20 121 22 28 30 24 22 25 22 31 22 37 20 38 21 23 20 21 124 30 96 21 52 22 20 86
internal_value=-0.000168097 0.0206013 0.0636954 -0.0142157 0.00939657 0.00817371 0.0399452 0.0882219 0.0378581 -0.0222856 0.000385043 0.0448581 0.0156431 0.0588158 0.0154217 -0.00291529 0.0121082 0.0482558 -0.0225827 0.0151071 -0.016625 -0.00976941 -0.017635 -0.0311901 -0.0118891 -0.034451 -0.00950863 0.0187374 -0.00529438 -0.0289752
internal_weight=189.715 76.356 16.1676 113.359 28.8325 60.1884 14.8989 11.6319 13.5534 84.5267 24.1072 6.52192 11.5923 9.74398 5.31626 45.2895 25.8941 9.92815 19.3955 5.36328 15.2791 8.28299 17.5852 60.4195 15.9659 56.61 10.9826 5.04587 4.89264 12.6726
internal_count=1550 589 101 961 229 488 112 70 103 732 195 49 90 73 42 376 211 78 165 44 126 68 146 537 133 507 95 43 40 106
is_linear=0
shrinkage=0.05


Tree=26
num_leaves=31
num_cat=0
split_feature=16 29 57 4 38 70 6 43 10 26 45 53 17 31 6 45 21 79 33 43 80 58 14 40 6 22 41 55 14 43
split_gain=19.218 12.2297 9.81155 8.36666 9.67956 8.21019 10.6035 6.78703 5.97128 7.1785 6.95058 5.50222 9.97416 10.8669 9.38574 13.4909 6.75636 4.71542 4.41769 3.9464 3.94209 3.57431 4.12907 2.99043 2.70296 3.90708 2.60812 2.08524 1.91568 1.50042
threshold=-0.10647742077708243 0.058027390390634544 -1.1859301328659055 -1.0291479825973509 0.71010181307792675 0.31147325038909918 -0.98207744956016529 0.93277618288993847 0.15822731703519824 -0.56830871105194081 0.15233264118433001 0.31893503665924078 0.87033244967460643 0.033838296309113509 0.43693469464778906 -0.12851147353649137 1.0000000180025095e-35 -0.0548500008881092 0.25533626973629003 0.6235189437866212 -0.26610000431537623 -0.22409577667713163 0.095742076635360732 -1.3201619386672971 -1.0169015526771543 0.077452719211578383 1.491901755332947 -0.66481605172157276 -0.7362246811389922 -1.3553542494773863
decision_type=2 2 2 2 2 2 2 2 2 2 2 2 2 2 2 2 2 2 2 2 2 2 2 2 2 2 2 2 2 2
left_child=1 3 -3 4 18 6 17 21 9 -8 -10 20 13 19 15 -15 -16 -4 -1 -13 -2 22 28 -23 25 -22 -14 -11 -5 -26
right_child=11 2 5 7 -6 -7 8 -9 10 27 -12 12 26 14 16 -17 -18 -19 -20 -21 24 23 -24 -25 29 -27 -28 -29 -30 -31
leaf_value=-0.023823228672243589 0.02688315344160171 0.095046209150050909 0.0059971206585618074 0.012494402139099593 0.097550941003384559 0.083588502248301777 0.049627069714042446 0.03859430797204199 -0.012429056314327105 0.010024632114315764 0.084819733348504095 -0.035398024244966651 -0.037391814431875246 -0.0071704274321982972 0.054771814524317113 0.12749411653937145 -0.03678540260507842 0.088831231515173886 0.036517149065943749 0.030385368535944486 -0.028523937057683958 0.0096774546180521098 0.036546941479286554 -0.039039468726780352 -0.0055164317530978051 0.040018816695426188 0.015310980764087099 -0.036583385685672376 -0.037942191513535568 -0.040238905342442538
leaf_weight=5.2554632648825628 2.3546100184321395 5.271017186343669 2.6588803008198738 2.3126992210745811 3.1159175112843505 4.288032427430152 2.5696141198277536 4.7793526872992507 3.1784293279051772 2.4437269419431749 2.7384917661547661 7.9774902537465113 15.342279948294165 2.6782526969909668 2.405665747821331 4.41336392611265 3.934707023203373 4.8011084794998196 4.9234212338924408 2.2057617008686066 4.3425098732113829 3.3388353735208502 4.3232282698154449 18.553001955151565 3.8156716078519812 2.4057904705405235 2.1804769262671462 13.079604320228091 4.2739459127187676 32.179967731237411
leaf_count=42 21 39 20 20 24 31 20 39 25 20 20 77 143 22 20 35 38 33 39 20 39 27 35 169 36 20 20 111 37 308
internal_value=0.000791863 0.0166127 0.0365718 0.000121941 0.0327946 0.025601 0.0153687 -0.0119869 -0.00152916 -0.0158911 0.0383355 -0.016066 -0.00270401 0.0182176 0.046342 0.0820352 0.000682432 0.0635063 0.00601859 -0.019706 -0.0279315 -0.0202805 0.00300867 -0.0315112 -0.0314966 -0.00207706 -0.0303611 -0.0290836 -0.0209203 -0.0368068
internal_weight=178.141 91.9048 41.0289 50.8759 13.2948 35.7579 31.4699 37.5811 24.0099 18.0929 5.91692 86.2365 41.138 23.6152 13.432 7.09162 6.34037 7.45999 10.1789 10.1833 45.0985 32.8017 10.9099 21.8918 42.7439 6.7483 17.5228 15.5233 6.58665 35.9956
internal_count=1550 751 319 432 105 280 249 327 196 151 45 799 375 212 115 57 58 53 81 97 424 288 92 196 403 59 163 131 57 344
is_linear=0
shrinkage=0.05


Tree=27
num_leaves=31
num_cat=0
split_feature=40 46 58 52 40 53 44 28 40 58 42 26 76 11 78 32 10 22 42 43 30 7 16 45 44 40 62 32 20 54
split_gain=17.9564 13.9638 15.8194 15.5534 10.5954 8.75965 7.21718 6.79056 8.20444 6.04634 5.99702 5.69868 10.1796 7.27244 5.4044 6.95607 5.14493 4.92015 4.82209 4.45796 4.30417 4.26238 3.65921 3.24644 2.3719 2.07352 1.58734 1.07719 1.88551 0.335979
threshold=-0.35727636516094202 -0.44111345708370203 -0.037462955340743058 0.018577188253402713 0.74301272630691539 -0.18933798372745511 0.2033476606011391 -0.8288666009902953 -1.2882900238037107 -0.066175697371363626 0.74833083152771007 0.21508193761110309 0.026499999687075618 0.9826769530773164 0.093199998140335097 -0.57578930258750904 0.13036429882049563 0.034209384582936771 -1.2862871289253233 -0.62892648577690113 0.19018479436635974 -0.66239628195762623 0.24090148508548739 -2.2493520975112911 0.26341523230075842 0.12151047214865686 -1.7536506652832029 0.90839678049087536 0.26024554669857031 0.75347036123275768
decision_type=2 2 2 2 2 2 2 2 2 2 2 2 2 2 2 2 2 2 2 2 2 2 2 2 2 2 2 2 2 2
left_child=7 2 17 4 5 14 19 8 18 -7 25 13 16 27 15 -3 -13 -2 -1 -6 -14 -10 -12 -9 -11 -4 -25 -5 -29 -28
right_child=1 3 10 11 6 9 -8 23 21 24 22 12 20 -15 -16 -17 -18 -19 -20 -21 -22 -23 -24 26 -26 -27 29 28 -30 -31
leaf_value=0.0027453051237098852 0.028002229985440233 0.035360266887124167 0.015351357144619588 -0.041619980211051948 0.067162279101115649 0.083102935181231866 0.108570857255588 0.01910076846228221 0.024476108095240083 0.031924505448821063 0.080336970672776981 -0.040622403327475062 0.09531474757234154 0.043487970608946137 0.03809733667050557 -0.038922543314466811 0.029518714149580641 0.13080787239548017 0.091684574968020405 -0.0080543213568468001 0.0076641308422971581 -0.036512640604561844 -0.001172656634498979 0.0031836986267367072 -0.030443553805959318 -0.03757627534046333 -0.044072206199232328 0.019766021240562971 -0.033927895340549789 -0.021859379201130475
leaf_weight=3.0081200525164604 2.3064689785242107 3.2331501096487107 2.1766065955162031 22.503746315836914 2.4697725549340248 4.3473505601286888 4.4027554094791412 2.0022979676723471 3.1808180361986169 2.1395704597234744 2.4991696774959564 7.8316170051693899 2.4900423213839522 2.272857040166854 3.6838402599096289 12.814632289111612 2.8802951797842979 4.5940793976187706 2.2279134690761593 4.1275046840310079 2.6577685996890068 9.2189120799303019 2.2234867513179779 1.9724835082888592 1.9663655534386633 4.2244918048381805 28.460217289626598 1.981291852891444 2.8472665324807167 5.1375654414296141
leaf_count=29 21 30 20 237 21 37 33 19 30 20 20 81 21 19 34 131 26 37 20 39 27 93 20 20 20 39 302 20 29 55
internal_value=-0.000902728 0.011441 0.0501526 0.00270893 0.0254586 0.00838548 0.0648599 -0.0236543 0.00194057 0.0480577 0.0107047 -0.0170243 0.00690794 -0.0296518 -0.0101089 -0.0227605 -0.0208523 0.104339 0.0492225 0.0252379 0.058669 -0.0202086 0.0484622 -0.0354068 0.00194333 -0.0199365 -0.0389135 -0.0370541 -0.0122846 -0.0414055
internal_weight=157.882 102.674 18.0243 84.6498 39.1849 28.1849 11 55.2083 17.6358 8.45329 11.1238 45.4649 15.8597 29.6052 19.7316 16.0478 10.7119 6.90055 5.23603 6.59728 5.14781 12.3997 4.72266 37.5726 4.10594 6.4011 35.5703 27.3323 4.82856 33.5978
internal_count=1550 982 157 825 365 272 93 568 172 77 99 460 155 305 195 161 107 58 49 60 48 123 40 396 40 59 377 286 49 357
is_linear=0
shrinkage=0.05


Tree=28
num_leaves=30
num_cat=0
split_feature=58 57 30 55 81 44 76 81 41 70 26 69 6 55 50 50 17 81 76 26 2 20 64 22 62 55 10 28 65
split_gain=17.2072 15.2233 10.9692 10.1791 12.5521 8.96704 8.21542 7.74288 7.06155 6.82984 5.6179 4.99636 6.23242 7.09409 4.27472 6.24527 4.17065 3.84893 2.71508 2.64525 2.29375 1.8534 2.83808 1.66329 0.914173 1.05319 0.680335 0.554558 0.246667
threshold=-0.16667029261589048 0.97796553373336803 -0.31082168221473688 0.19225978106260302 -0.054649999365210526 0.14514550566673282 0.034400001168251045 -0.25995001196861262 0.37502716481685644 0.090805042535066618 1.6322268247604372 -0.16732143610715863 -1.0478866696357725 -0.068833079189062105 0.88238829374313366 -0.86473369598388661 -0.3026724755764007 -0.10799999907612799 0.126400001347065 0.05664337985217572 -1.185676574707031 -0.81252089142799366 0.68970549106597911 0.32249824702739721 -0.36618630588054651 -0.31030893325805659 0.65976166725158703 1.1104759573936465 0.65219014883041393
decision_type=2 2 2 2 2 2 2 2 2 2 2 2 2 2 2 2 2 2 2 2 2 2 2 2 2 2 2 2 2
left_child=1 7 3 10 28 -3 9 8 -1 -6 20 17 13 -13 15 -14 -16 -9 27 -20 -2 22 -4 -19 25 -22 -23 -17 -5
right_child=2 5 21 4 6 -7 -8 11 -10 -11 -12 12 14 -15 16 18 -18 23 19 -21 24 26 -24 -25 -26 -27 -28 -29 -30
leaf_value=0.12456620770095861 0.015061430949696437 0.13985895923069883 -0.031147186054007566 -0.030610884079568065 0.1608524188141145 0.012321103130990918 -0.0069753555903804129 0.029776713505610772 -0.006823204084123193 0.015983574792783228 0.05607904788536381 0.12178508287073682 0.059840630646109776 -0.0077010105773459682 0.088155050720506639 -0.03939413123175816 -0.0087942967743569172 -0.039995383761620373 0.046499950399053476 -0.026181433928501127 -0.02669621730077364 -0.042592956074234842 0.041236593337846177 0.0089018643283123658 -0.040300101659366531 0.02077204103306881 -0.0026795313295002311 -0.0019615602213061811 -0.0023541393144722051
leaf_weight=1.6265437453985208 2.264182552695277 3.0268338061869136 2.3775409571826454 2.2473582252860074 2.3748560585081564 2.4153047688305378 1.5284627862274645 2.2916704043745986 1.5132071599364278 1.3901655450463293 1.4169518500566471 1.6637157648801806 1.8124001100659359 1.5687042213976372 1.58629771694541 7.9867695160210186 1.653994821012019 9.4359554536640626 1.6813692264258855 1.4638747610151766 1.5265704542398455 28.197414796799425 1.2634067274630068 1.7000882886350144 10.412988618016241 1.2142319232225443 1.2525640428066243 1.2334728613495825 1.2473774403333662
leaf_count=22 34 38 38 35 31 34 25 34 23 21 18 20 24 23 20 122 25 147 24 24 24 460 18 25 166 18 18 20 19
internal_value=-0.000978547 0.0228881 -0.0184124 0.006086 0.046865 0.0939547 0.0895244 0.0103101 0.0748911 0.121942 -0.0166357 0.00239464 0.0175209 0.0719728 0.00405684 -0.00856084 0.0482644 -0.0204703 -0.0223135 0.0145168 -0.0263271 -0.0370041 -0.00255674 -0.0324121 -0.0340121 -0.0057356 -0.0410391 -0.0350684 -0.0232928
internal_weight=101.374 42.6602 58.7141 25.6231 8.78822 5.44214 5.29348 37.2181 3.13975 3.76502 16.8349 34.0783 20.6506 3.23242 17.4182 14.1779 3.24029 13.4277 12.3655 3.14524 15.418 33.0909 3.64095 11.136 13.1538 2.7408 29.45 9.22024 3.49474
internal_count=1550 625 925 391 131 72 77 553 45 52 260 508 302 43 259 214 45 206 190 48 242 534 56 172 208 42 478 142 54
is_linear=0
shrinkage=0.05


Tree=29
num_leaves=21
num_cat=0
split_feature=70 58 61 46 64 40 74 20 67 14 28 70 71 26 81 17 9 6 30 30
split_gain=25.7202 19.6894 16.1347 14.9242 9.96026 9.5816 9.42621 10.1077 11.1832 12.1904 9.38866 6.76424 4.30235 3.47899 6.06215 2.51874 1.09119 0.684774 0.59865 0.385887
threshold=-0.66774186491966236 -0.023106587119400498 1.012103349901736 -0.14537823200225827 0.52331775426864635 0.15798605233430865 0.16294468939304355 0.54666367173194896 -0.36572133004665369 0.37618030607700353 0.27105900645256048 -1.0000000180025095e-35 0.42059773206710821 0.87524256110191356 -0.11969999969005583 -1.2494139671325681 1.6760703325271609 -0.75860020518302906 0.63760027289390575 0.053046943619847305
decision_type=2 2 2 2 2 2 2 2 2 2 2 2 2 2 2 2 2 2 2 2
left_child=1 -1 4 -4 13 6 7 8 -6 11 -3 -10 15 16 -15 -7 -2 -16 -8 -5
right_child=2 10 3 19 5 12 18 -9 9 -11 -12 -13 -14 14 17 -17 -18 -19 -20 -21
