tree
version=v4
num_class=6
num_tree_per_iteration=6
label_index=0
max_feature_idx=75
objective=multiclass num_class:6
feature_names=Column_0 Column_1 Column_2 Column_3 Column_4 Column_5 Column_6 Column_7 Column_8 Column_9 Column_10 Column_11 Column_12 Column_13 Column_14 Column_15 Column_16 Column_17 Column_18 Column_19 Column_20 Column_21 Column_22 Column_23 Column_24 Column_25 Column_26 Column_27 Column_28 Column_29 Column_30 Column_31 Column_32 Column_33 Column_34 Column_35 Column_36 Column_37 Column_38 Column_39 Column_40 Column_41 Column_42 Column_43 Column_44 Column_45 Column_46 Column_47 Column_48 Column_49 Column_50 Column_51 Column_52 Column_53 Column_54 Column_55 Column_56 Column_57 Column_58 Column_59 Column_60 Column_61 Column_62 Column_63 Column_64 Column_65 Column_66 Column_67 Column_68 Column_69 Column_70 Column_71 Column_72 Column_73 Column_74 Column_75
feature_infos=none [-0.97829753160476685:2.9870493412017822] [-1.3920965194702148:1.4269504547119141] [-1.4503970146179199:1.6017783880233765] [-2.8588864803314209:2.7245092391967773] [-3.6824085712432861:2.3267498016357422] [-1.8694056272506714:3.6146993637084961] [-1.8787837028503418:2.5368375778198242] [-1.78343665599823:2.1431756019592285] [-2.0723512172698975:2.1931953430175781] [-1.2976154088973999:10.363059043884277] [-6.7631840705871582:6.2163667678833008] [-0.80819958448410034:10.798158645629883] [-0.07467661052942276:33.677597045898438] [-4.1435494422912598:5.6343975067138672] [-0.23276343941688538:4.2962074279785156] [-2.5920979976654053:2.883108377456665] [-3.3210835456848145:2.4393818378448486] [-1.713068962097168:3.1020143032073975] [-1.869293212890625:3.098773717880249] [-1.7718360424041748:2.1546974182128906] [-2.0872716903686523:2.2023944854736328] [-1.3279554843902588:10.362157821655273] [-6.5892024040222168:5.8273873329162598] [-0.75531834363937378:9.8977041244506836] [-3.1124308109283447:11.595115661621094] [-3.5302295684814453:5.2455058097839355] [-0.24568614363670349:4.0702338218688965] [-2.5812065601348877:2.8803353309631348] [-3.3047657012939453:2.4524383544921875] [-1.70088791847229:3.7956171035766602] [-1.8736021518707275:3.102046012878418] [-1.7720544338226318:2.1496145725250244] [-2.0691931247711182:2.1953051090240479] [-1.1626166105270386:10.03400993347168] [-6.5489006042480469:5.7834081649780273] [-0.76924508810043335:9.4855546951293945] [-5.6820244789123535:8.1827287673950195] [-3.9784104824066162:4.9345784187316895] [-0.24588385224342346:4.0669612884521484] [-2.3188149929046631:2.7828142642974854] [-2.9636096954345703:2.0774593353271484] [-1.5919474363327026:3.7517635822296143] [-1.8776347637176514:3.1125268936157227] [-1.7788815498352051:2.1594603061676025] [-2.0762221813201904:2.1998882293701172] [-1.5606825351715088:10.184229850769043] [-5.8774509429931641:5.191277027130127] [-0.77272367477416992:8.7187070846557617] [-6.8339405059814453:4.3430166244506836] [-4.1193475723266602:4.8384647369384766] [-0.24476191401481628:4.0856027603149414] [-2.0842430591583252:2.6908559799194336] [-2.5718169212341309:1.9737271070480347] [-1.4897009134292603:2.9877607822418213] [-1.8721953630447388:3.117060661315918] [-1.7714771032333374:2.162919282913208] [-2.088623046875:2.2046008110046387] [-1.6525546312332153:10.536004066467285] [-4.3305425643920898:3.9828259944915771] [-0.72457098960876465:8.1155157089233398] [-7.9283814430236816:2.0054905414581299] [-4.0788207054138184:4.5260047912597656] [-0.23882177472114563:4.1872224807739258] [-1.8474061489105225:2.4949519634246826] [-2.1733055114746094:1.9606442451477051] [-1.3824012279510498:3.6030230522155762] [-1.8778506517410278:3.0227248668670654] [-1.7771620750427246:2.1765651702880859] [-2.0737273693084717:2.1859214305877686] [-1.5435187816619873:9.8208932876586914] [-3.2249736785888672:3.2328956127166748] [-0.70773530006408691:6.7965569496154785] [-5.9993038177490234:0.30111774802207947] [-4.3206043243408203:5.0537109375] [-0.24263916909694672:4.1213459968566895]
tree_sizes=3315 3324 3312 3317 3304 3300 3410 3405 3434 3404 3409 3400 3399 3408 3408 3410 3416 3419

Tree=0
num_leaves=31
num_cat=0
split_feature=41 44 28 52 8 7 62 29 41 38 4 69 29 74 58 18 31 34 24 42 52 56 8 30 30 69 38 31 17 66
split_gain=8.56479 11.138 9.16369 10.8093 8.81428 8.69403 7.99092 7.4697 7.76126 8.96416 7.84976 10.1647 8.82573 7.08212 7.03118 7.00669 11.6103 6.70762 14.3284 7.99757 6.61749 5.56496 5.03079 4.31255 4.34782 3.41639 3.33068 3.14733 4.50689 7.12121
threshold=0.22129592299461368 1.0614553689956667 0.26534616947174078 -0.38912597298622126 0.3573035746812821 0.5219198763370515 -0.84140345454215992 -2.0904238224029537 0.021415178198367361 -0.11290500685572623 -0.44507347047328943 0.13742914795875552 -0.62104985117912281 0.48705664277076727 -0.0087502139504067582 1.5606372952461245 0.02405659202486277 -0.20270557701587674 1.0000000180025095e-35 0.45736578106880194 -1.3198825120925901 0.2143569812178612 -0.41901692748069758 -0.054409727454185479 1.185052275657654 0.59161534905433666 -0.77831476926803578 -0.057923849672079079 -0.74813860654830922 -0.82228881120681752
decision_type=2 2 2 2 2 2 2 2 2 2 2 2 2 2 2 2 2 2 2 2 2 2 2 2 2 2 2 2 2 2
left_child=1 2 6 5 23 13 -1 -8 10 -10 11 12 -9 -4 -14 17 -17 18 22 -20 -12 -6 -2 -5 -25 -13 -22 -19 -29 -30
right_child=15 -3 3 4 21 -7 7 8 9 -11 20 25 14 -15 -16 16 -18 27 19 -21 26 -23 -24 24 -26 -27 -28 28 29 -31
leaf_value=-1.8113995701986829 -1.7462030871266683 -1.7044303849210978 -1.6749550232198933 -1.7462030871266683 -1.7074811539935499 -1.7852309528489634 -1.7135334518324037 -1.7789984091885223 -1.7849734577917866 -1.6952116982931171 -1.7476093154715608 -1.8145796055202057 -1.6623209511062895 -1.7563422516679681 -1.7601786980431107 -1.6882791312356165 -1.7908782344321692 -1.8110716016156367 -1.7767451176420992 -1.7015960250947446 -1.77152556838608 -1.7767266927093197 -1.8062958605354573 -1.8180953144198448 -1.7632177062513021 -1.7632177062513021 -1.8136531075761984 -1.8208223199787343 -1.7422479974253422 -1.7931118079244786
leaf_weight=15.86401444673538 3.3753222227096584 5.5692816674709311 7.5944750010967272 3.3753222227096602 5.738047778606413 3.8816205561161032 3.8816205561161032 6.4131122231483459 5.0629833340644836 4.7254511117935163 4.7254511117935101 7.5944750010967237 3.8816205561161041 4.7254511117935181 3.5440883338451332 3.7128544449806196 6.0755800008773804 28.690238893032074 6.0755800008773786 7.4257088899612427 5.4005155563354412 5.0629833340644836 19.070570558309555 11.307329446077345 4.5566850006580362 4.5566850006580353 26.833811670541785 8.2695394456386548 7.9320072233676866 29.196537226438526
leaf_count=94 20 33 45 20 34 23 23 38 30 28 28 45 23 28 21 22 36 170 36 44 32 30 113 67 27 27 159 49 47 173
internal_value=-1.77626 -1.76807 -1.77112 -1.7532 -1.77146 -1.72158 -1.78023 -1.77341 -1.77741 -1.73816 -1.78401 -1.76324 -1.73525 -1.70235 -1.7016 -1.78609 -1.74743 -1.78976 -1.7721 -1.73313 -1.79857 -1.73724 -1.79637 -1.79164 -1.8025 -1.79581 -1.80667 -1.79826 -1.78959 -1.78164
internal_weight=264.119 144.295 138.726 46.2419 30.0404 16.2015 92.4838 76.6198 72.7382 9.78843 62.9498 25.99 13.8388 12.3199 7.42571 119.824 9.78843 110.036 35.9472 13.5013 36.9598 10.801 22.4459 19.2393 15.864 12.1512 32.2343 74.0883 45.3981 37.1285
internal_count=1565 855 822 274 178 96 548 454 431 58 373 154 82 73 44 710 58 652 213 80 219 64 133 114 94 72 191 439 269 220
is_linear=0
shrinkage=1


Tree=1
num_leaves=31
num_cat=0
split_feature=17 6 4 51 19 9 67 67 29 23 67 47 38 54 19 56 5 11 11 19 23 31 17 65 69 31 26 74 4 47
split_gain=32.4193 15.5505 11.3717 11.1248 10.4725 11.7892 9.59832 9.98919 9.23758 8.28881 9.6097 7.53984 7.34036 7.27379 8.18539 8.14896 6.87744 6.77378 6.25394 6.04745 5.7908 5.3389 8.49023 7.98809 6.17318 5.40823 5.94763 6.89926 5.79182 5.15429
threshold=-0.31914624571800226 -0.56720495223999012 0.75175601243972789 1.0000000180025095e-35 0.45893575251102453 -0.067142009735107408 1.0675634145736697 0.5855778455734254 0.28113834559917456 1.0000000180025095e-35 -0.013736003078520296 1.7992474436759951 -0.48063147068023676 0.30655999481678015 0.48684094846248632 0.18901223689317706 -0.71781116724014271 -1.0000000180025095e-35 -0.27340865507721895 -0.22148767113685605 1.0000000180025095e-35 -0.31271499395370478 0.86394456028938305 0.36423105001449591 0.1854444891214371 0.43861635029315954 0.039039092138409622 -0.2941362857818603 0.076989118009805693 1.0000000180025095e-35
decision_type=2 2 2 2 2 2 2 2 2 2 2 2 2 2 2 2 2 2 2 2 2 2 2 2 2 2 2 2 2 2
left_child=4 8 3 6 11 18 7 12 9 10 -2 -1 19 14 15 -4 -12 -9 -6 -3 -15 24 25 -24 -14 26 -23 -28 -27 -21
right_child=1 2 13 -5 5 -7 -8 17 -10 -11 16 -13 21 20 -16 -17 -18 -19 -20 29 -22 22 23 -25 -26 28 27 -29 -30 -31
leaf_value=-1.4261613322854783 -1.3206409103373091 -1.3489338316321866 -1.4217551461038689 -1.4332451565211732 -1.3206409103373089 -1.415025357826591 -1.4149086731731833 -1.3670482781275928 -1.4335791674169438 -1.4233464145121779 -1.4338475903093206 -1.3715023446128602 -1.364841053025591 -1.4211518330711532 -1.3392766457245235 -1.3613833064185248 -1.3615774982484798 -1.2935091143470274 -1.3866733392780428 -1.4374777333289583 -1.3689131315401073 -1.3967740483209135 -1.3489338316321866 -1.4227996173869084 -1.2925304917590974 -1.2890468729174587 -1.3925614229805676 -1.3185178489560876 -1.3704687217380838 -1.3803992677062633
leaf_weight=96.188424974679947 5.5923502892255827 4.4738802313804653 11.408394590020185 5.1449622660875312 5.5923502892255774 20.356155052781105 7.6055963933467856 6.2634323239326486 20.132461041212082 10.289924532175062 5.3686562776565578 6.0397383123636237 7.8292904049158079 24.830035284161571 8.9477604627609235 9.1714544743299466 5.8160443007945988 8.2766784280538523 8.5003724396228773 7.1582083702087385 5.8160443007946006 10.289924532175066 4.4738802313804618 10.066230520606039 5.3686562776565552 4.9212682545185071 5.1449622660875232 7.3819023817777705 4.6975742429494858 6.9345143586397171
leaf_count=430 25 20 51 23 25 91 34 28 90 46 24 27 35 111 40 41 26 37 38 32 26 46 20 45 24 22 23 33 21 31
internal_value=-1.39584 -1.38368 -1.3765 -1.36673 -1.41477 -1.391 -1.36299 -1.35859 -1.40879 -1.38964 -1.36853 -1.42274 -1.36631 -1.39391 -1.37652 -1.39454 -1.39661 -1.32135 -1.35728 -1.3939 -1.41073 -1.35795 -1.36691 -1.39857 -1.33028 -1.35303 -1.3683 -1.3465 -1.32276 -1.41028
internal_weight=350.081 213.404 166.205 106.031 136.677 34.4489 100.886 93.2804 47.1994 27.067 16.7771 102.228 78.7403 60.1737 29.5276 20.5798 11.1847 14.5401 14.0927 18.5666 30.6461 60.1737 46.9757 14.5401 13.1979 32.4356 22.8168 12.5269 9.61884 14.0927
internal_count=1565 954 743 474 611 154 451 417 211 121 75 457 352 269 132 92 50 65 63 83 137 269 210 65 59 145 102 56 43 63
is_linear=0
shrinkage=1


Tree=2
num_leaves=31
num_cat=0
split_feature=16 52 44 18 30 50 55 34 64 69 62 5 38 1 42 42 74 30 47 18 50 50 38 10 20 10 5 65 69 44
split_gain=9.36199 8.17067 11.397 9.92478 9.09847 8.26253 7.83059 6.63379 7.97627 11.5432 7.67551 6.31804 5.97404 6.59145 5.8704 7.11624 8.60917 7.71238 7.42417 5.65062 5.18481 4.86566 4.80237 4.69223 4.6337 8.9604 4.27874 4.26769 4.86736 4.742
threshold=-0.68303492665290821 -0.53596544265747059 -0.39285072684288019 0.21956788748502734 0.80277034640312206 0.36391566693782812 -0.080976944416761384 0.063547113910317435 -0.50424715876579274 0.34663899242877966 -0.13706371188163755 0.27857157588005071 -0.41058835387229914 1.0043759942054751 1.1801026463508608 0.91639056801795971 0.42057213187217718 -1.6489459276199339 1.4421917796134951 0.82489264011383068 -0.4726115614175796 0.88238829374313366 -0.72578248381614674 0.28361091017723089 -0.13850817829370496 1.0000000180025095e-35 0.34976677596569067 -2.0970045328140254 -0.50489884614944447 0.64023643732070934
decision_type=2 2 2 2 2 2 2 2 2 2 2 2 2 2 2 2 2 2 2 2 2 2 2 2 2 2 2 2 2 2
left_child=1 3 6 4 5 11 -3 14 9 10 -9 -1 22 23 15 17 26 -2 27 -16 -4 24 -10 -14 -22 -26 -17 -19 -29 -30
right_child=7 2 20 -5 -6 -7 -8 8 12 -11 -12 -13 13 -15 19 16 -18 18 -20 -21 21 -23 -24 -25 25 -27 -28 28 29 -31
leaf_value=-1.449025069212821 -1.467691920859814 -1.3556877256913169 -1.4682946019762428 -1.4721094750971138 -1.3489455033999576 -1.3775859826727854 -1.4345813638865088 -1.4426792784861329 -1.4638897092289205 -1.476911730072904 -1.3647620136565388 -1.3899439405844267 -1.4833667573607943 -1.4210243558442488 -1.4801299973873432 -1.4160130709685221 -1.4473311294065063 -1.3963828664515736 -1.3783449834996742 -1.4272504864897293 -1.4508591246409144 -1.4672902722599359 -1.4007847930124278 -1.4325707762734989 -1.4425855673589751 -1.368327097810957 -1.3438843166098233 -1.4607905898631059 -1.4374355157269325 -1.4063047206362551
leaf_weight=14.348189502954488 15.86996717751026 5.652317076921463 16.304760798811913 4.3479362130165091 6.7393011301755896 10.435046911239622 6.0871106982231122 5.2175234556198129 4.5653330236673355 6.0871106982231131 6.5219043195247659 5.4349202662706366 35.653076946735382 5.4349202662706366 12.391618207097055 4.3479362130165082 5.8697138875722876 5.8697138875722876 5.2175234556198111 7.6088883727788916 8.9132692366838473 7.3914915621280661 5.6523170769214612 5.0001266449689856 8.2610788047313708 6.7393011301755896 4.782729834318161 16.956951230764389 72.827931568026543 13.695999071002005
leaf_count=66 73 26 75 20 31 48 28 24 21 28 30 25 164 25 57 20 27 27 24 35 41 34 26 23 38 31 22 78 335 63
internal_value=-1.43598 -1.42326 -1.43526 -1.40647 -1.39803 -1.41145 -1.39319 -1.44136 -1.45368 -1.42504 -1.39712 -1.43131 -1.4628 -1.47034 -1.43577 -1.43224 -1.40076 -1.4361 -1.4315 -1.46051 -1.44632 -1.43427 -1.42886 -1.47716 -1.42326 -1.40701 -1.37277 -1.43455 -1.43708 -1.43221
internal_weight=340.226 100.655 59.3493 41.3054 36.9575 30.2182 11.7394 239.571 74.1323 17.8265 11.7394 19.7831 56.3058 46.0881 165.439 145.438 15.0004 130.438 114.568 20.0005 47.6099 31.3051 10.2177 40.6532 23.9136 15.0004 9.13067 109.351 103.481 86.5239
internal_count=1565 463 273 190 170 139 54 1102 341 82 54 91 259 212 761 669 69 600 527 92 219 144 47 187 110 69 42 503 476 398
is_linear=0
shrinkage=1


Tree=3
num_leaves=31
num_cat=0
split_feature=40 4 17 28 7 32 47 34 74 34 29 67 40 55 19 58 10 44 46 69 10 58 28 65 67 40 22 57 74 7
split_gain=29.1022 10.796 9.93953 9.392 8.06172 9.7952 10.3174 8.26522 7.80272 7.31181 9.10167 10.3144 7.30117 7.13641 6.32398 6.114 7.48725 6.58806 9.09997 5.84663 5.44948 5.24791 5.02129 4.68817 4.67443 4.11393 4.84116 3.79754 4.05142 3.68511
threshold=-0.044577647000551217 1.8431653380393984 -0.94279894232749928 -0.91913059353828419 0.37457746267318731 -0.082794338464736925 -0.34308684617280955 -0.13263908028602597 1.8832312822341921 0.24572000652551654 0.47199247777462011 0.35702204704284674 -1.3506173491477964 -0.080976944416761384 0.92355826497077953 0.12045711278915407 -0.41296462714672083 0.026502760127186779 -0.06088245473802089 -0.29519912600517267 -0.30151253938674921 -0.09488844126462935 -0.14179397374391553 -0.58988451957702626 0.20167907327413562 0.70476633310318004 -0.081106156110763536 -0.78742167353630055 -2.2138764858245845 0.75525063276290905
decision_type=2 2 2 2 2 2 2 2 2 2 2 2 2 2 2 2 2 2 2 2 2 2 2 2 2 2 2 2 2 2
left_child=3 2 9 12 14 6 -6 -7 27 10 11 -2 -1 -14 15 16 -4 18 21 -15 -9 -18 -20 -17 -21 26 -19 -5 -29 -22
right_child=1 -3 4 8 5 7 -8 20 -10 -11 -12 -13 13 19 -16 23 17 25 22 24 29 -23 -24 -25 -26 -27 -28 28 -30 -31
leaf_value=-1.961215170579641 -1.8022423527368061 -1.829339865798489 -1.8503504327237177 -1.9219598705968441 -1.8054624693578774 -1.9527875092962195 -1.9120941061534242 -1.9393080154317379 -1.8870754582853468 -1.9356663362177815 -1.9260243799215293 -1.9067404673290249 -1.9384809762192781 -1.9380551540890385 -1.9682428266990928 -1.9003731854473329 -1.8344566011484378 -1.8815044414351352 -1.8926742769167764 -1.9050490521219006 -1.9088727931227985 -1.9159911461742571 -1.9651049897399566 -1.958102394409625 -1.8322238046889745 -1.9550205639597691 -1.9418026429483326 -1.9109279323126718 -1.9611431276759679 -1.8343821037730745
leaf_weight=6.7269688099622753 5.9795278310775775 3.1392521113157263 3.4382285028696051 7.6238979846239081 4.0361812859773636 8.3713389635086077 4.6341340690851229 3.2887403070926684 3.5877166986465445 4.1856694817543021 4.1856694817543021 4.185669481754303 8.8198035508394295 3.1392521113157299 7.4744097888469687 3.7372048944234875 5.0825986564159402 4.9331104606389999 3.2887403070926666 4.7836222648620517 3.5877166986465419 3.2887403070926675 4.4846458733081809 14.649843186140059 4.6341340690851212 12.108543857932089 6.7269688099622744 3.7372048944234839 72.800751343369484 3.2887403070926666
leaf_count=45 40 21 23 51 27 56 31 22 24 28 28 28 59 21 50 25 34 33 22 32 24 22 30 98 31 81 45 25 487 22
internal_value=-1.92633 -1.90894 -1.91192 -1.94406 -1.91858 -1.89605 -1.8552 -1.91776 -1.95204 -1.87937 -1.86334 -1.83976 -1.91907 -1.90479 -1.92773 -1.92222 -1.91202 -1.91903 -1.89533 -1.88189 -1.88902 -1.86209 -1.93424 -1.94569 -1.86373 -1.93569 -1.91485 -1.95523 -1.95854 -1.86624
internal_weight=233.949 118.096 114.956 115.853 96.4199 27.2069 8.67032 18.5365 87.7496 18.5365 14.3509 10.1652 28.1038 21.3768 69.213 61.7386 43.3516 39.9133 16.1447 12.557 10.1652 8.37134 7.77339 18.387 9.41776 23.7686 11.6601 84.1619 76.538 6.87646
internal_count=1565 790 769 775 645 182 58 124 587 124 96 68 188 143 463 413 290 267 108 84 68 56 52 123 63 159 78 563 512 46
is_linear=0
shrinkage=1


Tree=4
num_leaves=31
num_cat=0
split_feature=53 28 44 58 7 26 26 31 9 41 69 4 3 38 66 36 52 6 44 18 53 21 53 6 43 20 52 9 38 57
split_gain=39.2993 14.4521 14.587 11.0189 12.7749 11.3677 9.67651 14.0981 12.008 8.98215 7.78187 6.39079 6.24917 5.96136 5.47043 4.35079 4.14912 4.06555 4.02491 4.00763 3.94208 4.45879 4.83617 5.84287 4.31795 3.73541 3.46075 2.78757 2.42936 2.12507
threshold=0.21003873646259311 -0.12846376001834867 -0.19436666369438169 -0.18102665990591046 0.71062946319580089 -0.49789156019687647 -0.51549583673477162 -0.2498323321342468 0.58735996484756481 -0.10055110231041907 -1.1021512150764463 0.14907796680927279 0.61524417623877536 0.5087278187274934 0.73690259456634533 1.0000000180025095e-35 0.88867560029029857 -0.3791001290082931 0.068288840353488936 0.68264126777648937 -0.76057076454162587 -0.9450382888317107 -0.6289764642715453 -0.25817561149597162 1.150938153266907 0.18696706742048266 1.3755989670753481 -0.85313296318054188 -1.2511058449745176 1.0564820766448977
decision_type=2 2 2 2 2 2 2 2 2 2 2 2 2 2 2 2 2 2 2 2 2 2 2 2 2 2 2 2 2 2
left_child=10 2 16 9 5 -5 8 12 13 11 -1 -4 18 15 -7 -3 -2 19 -8 -9 28 -22 23 -23 27 -14 -19 -24 -12 -29
right_child=1 6 3 4 -6 14 7 17 -10 -11 20 -13 25 -15 -16 -17 -18 26 -20 -21 21 22 24 -25 -26 -27 -28 29 -30 -31
leaf_value=-2.1070793479505774 -2.1922622220598416 -2.0189510716838823 -2.1543832064680934 -2.1345743450561616 -2.1650979701078481 -1.9853488730247859 -2.0530106198335933 -2.1099375004353509 -2.1950128469033565 -2.1822847917846913 -2.1609933881293135 -2.0490607257933067 -2.1945755848135131 -2.146892767366567 -2.1070793479505774 -2.1245383045211299 -2.1245383045211299 -2.1925449974049522 -2.1408399929896724 -2.1823132987403344 -2.1308155332738457 -2.0925746924112598 -2.1450005984505407 -2.1831045180321462 -2.1322992919233386 -2.121584003489895 -2.1441616423889598 -2.1941445993833937 -2.2009041949662072 -2.1562170445960445
leaf_weight=2.4471691250801078 5.2614136189222362 2.6918860375881177 2.6918860375881195 3.0589614063501376 2.4471691250801095 5.5061305314302373 3.1813198626041395 3.0589614063501314 2.6918860375881186 4.7719797939062154 4.2825459688901892 2.4471691250801086 2.5695275813341141 3.0589614063501358 2.4471691250801086 2.5695275813341141 2.5695275813341141 25.083483532071121 2.6918860375881195 2.8142444938421249 4.1601875126361838 2.4471691250801086 2.9366029500961295 2.9366029500961295 2.9366029500961295 2.4471691250801086 3.6707536876201621 42.825459688901901 34.994518488645554 3.7931121438741675
leaf_count=20 43 22 22 25 20 45 26 25 22 39 35 20 21 25 20 21 21 205 22 23 34 20 24 24 24 20 30 350 286 31
internal_value=-2.16129 -2.1368 -2.11004 -2.09094 -2.06274 -2.04151 -2.1522 -2.16269 -2.11228 -2.13472 -2.18202 -2.09422 -2.1155 -2.0847 -2.01263 -2.05651 -2.16846 -2.17838 -2.08452 -2.14272 -2.18434 -2.17609 -2.17979 -2.13773 -2.18446 -2.15839 -2.18602 -2.18805 -2.19667 -2.19103
internal_weight=191.491 87.731 31.2014 23.3705 13.4594 11.0123 56.5296 45.5173 11.0123 9.91103 103.76 5.13906 10.8899 8.32038 7.9533 5.26141 7.83094 34.6274 5.87321 5.87321 101.313 62.0357 57.8755 5.38377 52.4918 5.0167 28.7542 49.5552 39.2771 46.6186
internal_count=1565 717 255 191 110 90 462 372 90 81 848 42 89 68 65 43 64 283 48 48 828 507 473 44 429 41 235 405 321 381
is_linear=0
shrinkage=1


Tree=5
num_leaves=31
num_cat=0
split_feature=65 28 66 16 54 7 19 22 55 64 5 10 52 71 7 18 33 58 14 43 66 44 58 66 45 40 66 5 33 62
split_gain=41.8041 19.9558 17.2593 13.6395 11.7508 11.3064 13.8062 16.7498 8.69067 8.60886 9.83507 8.62863 8.18923 10.2469 8.11957 7.39121 7.77464 6.91082 5.03983 4.79829 7.07367 4.6269 4.31875 3.668 4.14764 3.64817 3.66668 3.60898 2.4125 3.21154
threshold=0.53832936286926281 0.41730949282646185 1.4373546838760378 -0.17488889396190641 0.32301542162895208 -0.30403381586074824 -1.0000000180025095e-35 -0.037862829864025109 0.17591217905282977 -0.78578001260757435 -1.1197310090065 -0.0089508125092834217 -1.0586873292922971 0.42059773206710821 0.049216084182262428 -0.21764171123504636 0.1179933547973633 -0.1379575505852699 0.030306486412882808 -0.18746405094861981 0.73690259456634533 0.41227820515632635 0.13481349498033526 -0.95789235830306996 0.19069677591323855 1.3542448282241824 1.0380221605300906 0.46409994363784796 0.017929163761436943 0.12600293383002284
decision_type=2 2 2 2 2 2 2 2 2 2 2 2 2 2 2 2 2 2 2 2 2 2 2 2 2 2 2 2 2 2
left_child=9 2 5 4 18 21 15 14 -4 -1 11 -11 13 17 -8 -7 -17 -12 -3 20 22 -2 -14 24 -21 28 -27 -9 29 -5
right_child=1 3 8 25 -6 6 7 27 -10 10 12 -13 19 -15 -16 16 -18 -19 -20 23 -22 -23 -24 -25 -26 26 -28 -29 -30 -31
leaf_value=-2.5160172496461723 -2.5129266996198365 -2.4543080327555566 -2.2891658623857394 -2.4346043621263092 -2.5057660789552685 -2.5116168076715151 -2.3823790606069961 -2.2834914984082491 -2.433958710146054 -2.4871499800606136 -2.4713036254562115 -2.3832008032293279 -2.5054558984617108 -2.5087048580487874 -2.4848139901275599 -2.3739448438277635 -2.4910963528051351 -2.3468686213194756 -2.3409179972346874 -2.5077485349516526 -2.4033212546535925 -2.4346043621263092 -2.4346043621263092 -2.515545927395594 -2.4289721858347697 -2.4170572139649424 -2.4941532569330795 -2.4134411440921784 -2.516939696196578 -2.5070219777411165
leaf_weight=29.68392875790596 4.8086115121841493 1.9419392645359064 2.8666722476482382 1.8494659662246729 2.0344125628471375 3.9763518273830414 2.2193591594696098 2.7741989493369932 2.4043057560920715 3.3290387392044067 1.9419392645359042 3.3290387392044059 8.5075434446334821 2.7741989493370056 4.438718318939209 2.0344125628471446 2.2193591594696045 1.8494659662246693 2.5892523527145386 2.4967790544033042 1.9419392645359028 1.8494659662246702 1.8494659662246693 26.909729808568958 2.2193591594696045 1.8494659662246693 2.5892523527145386 2.2193591594696045 10.911849200725554 2.311832457780838
leaf_count=321 52 21 31 20 22 43 24 30 26 36 21 36 92 30 48 22 24 20 28 27 21 20 20 291 24 20 28 24 118 25
internal_value=-2.47275 -2.44017 -2.41422 -2.47291 -2.41561 -2.43378 -2.41562 -2.38279 -2.33809 -2.49462 -2.483 -2.42994 -2.49074 -2.44205 -2.443 -2.46708 -2.42645 -2.39648 -2.37694 -2.4986 -2.47222 -2.4887 -2.49034 -2.50864 -2.46906 -2.49416 -2.45723 -2.3213 -2.50549 -2.47319
internal_weight=144.721 57.8883 31.8108 26.0775 6.5656 26.5398 19.8818 11.6516 5.27098 86.8324 57.1485 6.65808 50.4904 6.5656 6.65808 8.23012 4.25377 3.79141 4.53119 43.9248 12.2989 6.65808 10.357 31.6259 4.71614 19.5119 4.43872 4.99356 15.0731 4.1613
internal_count=1565 626 344 282 71 287 215 126 57 939 618 72 546 71 72 89 46 41 49 475 133 72 112 342 51 211 48 54 163 45
is_linear=0
shrinkage=1


Tree=6
num_leaves=31
num_cat=0
split_feature=40 62 26 45 32 40 28 3 5 20 58 28 5 18 40 5 18 56 65 67 6 69 9 62 67 66 40 40 57 45
split_gain=11.6308 11.2861 10.4501 10.6142 7.85766 7.03822 8.97978 7.03566 7.09997 7.35552 6.78337 7.30165 11.6539 9.08524 8.78326 8.53064 8.44578 10.5438 7.22116 6.02275 6.89211 6.01064 5.87983 9.47095 14.3881 5.88566 5.27876 4.6741 4.5319 4.51678
threshold=0.21641793102025988 0.27875131368637091 1.3153496980667116 1.1517640352249148 0.80288767814636242 0.94593033194541942 0.57498580217361461 1.0000000180025095e-35 -0.79952776432037342 -0.58227044343948353 0.29273356497287756 0.2028850466012955 -1.1197310090065 0.77426549792289745 0.022353464737534526 -0.75779271125793446 0.35989312827587133 0.39102470874786383 -0.52492254972457875 0.16788859665393832 0.27350838482379919 -0.54899457097053517 0.58735996484756481 0.21934916824102405 0.41287033259868627 0.85430940985679638 -0.13736019283533094 -0.254223883152008 -0.50742879509925831 0.3648101687431336
decision_type=2 2 2 2 2 2 2 2 2 2 2 2 2 2 2 2 2 2 2 2 2 2 2 2 2 2 2 2 2 2
left_child=1 10 3 4 7 29 19 -3 -9 -10 11 12 18 15 21 -13 17 27 -1 -7 -21 -14 23 24 25 -8 28 -17 -11 -2
right_child=5 2 -4 -5 -6 6 22 8 9 26 -12 13 14 -15 -16 16 -18 -19 -20 20 -22 -23 -24 -25 -26 -27 -28 -29 -30 -31
leaf_value=0.075189489516789235 -0.012854223660903587 -0.027036383665994503 0.085321848388914212 0.090527941382827534 0.074448251308734698 -0.042592932331657826 0.037338131543292408 0.057987545156031967 0.062546487068562071 0.023888419197962377 -0.035070074635588165 -0.042443909386161077 0.014380467704817521 0.073590699172481233 0.036768922166253791 0.090958342616540927 -0.038918778338210766 -0.013370087109059384 0.00017933606260413877 0.043362191682188238 -0.028501811624229729 -0.035515866482390711 -0.023686136322125448 -0.0061164734211050266 -0.016959300418045536 0.13762630018010474 0.033652447043054534 0.015796238961443578 -0.033323079959966688 -0.04153200571147278
leaf_weight=4.9750081300735474 36.587028697133064 11.975577577948568 5.6363930255174628 3.6138335466384879 3.4109148681163779 12.383657723665239 3.5690567642450386 6.8476803004741624 3.4306343495845786 3.7248552888631847 12.280712231993673 5.4312285482883516 6.7470616251230231 5.8559038788080207 5.3371927142143241 6.4235272705555015 3.5039355456829062 5.7807994931936255 6.9401277005672437 5.4142222553491575 5.9845215529203415 33.33551461994648 4.6881198137998572 8.0863854587078077 3.5282618999481201 3.7877875864505768 4.9566642194986441 3.548786193132397 13.842293068766592 22.433518901467323
leaf_count=29 218 71 33 21 20 74 21 40 20 22 73 32 40 34 32 37 21 34 41 32 36 199 28 48 21 22 29 21 82 134
internal_value=-0.000188483 0.00841745 0.0258801 0.0179192 0.0107443 -0.0128878 0.00147469 0.00437135 0.0162985 0.0035562 -0.00175375 0.00324426 -0.00727447 0.0225938 -0.0188505 0.00810375 0.0237516 0.0391823 0.0348956 -0.0198119 0.00637671 -0.0269713 0.0228075 0.0349074 0.0633338 0.099263 -0.00770561 0.0680882 -0.020559 -0.0242649
internal_weight=264.061 157.599 57.4388 51.8025 48.1886 106.463 47.442 44.7777 32.8021 25.9544 100.16 87.8791 57.3349 30.5442 45.4198 24.6883 19.257 15.7531 11.9151 23.7824 11.3987 40.0826 23.6596 18.9715 10.8851 7.35684 22.5238 9.97231 17.5671 59.0205
internal_count=1565 931 338 305 284 634 282 264 193 153 593 520 341 179 271 145 113 92 70 142 68 239 140 112 64 43 133 58 104 352
is_linear=0
shrinkage=0.05


Tree=7
num_leaves=31
num_cat=0
split_feature=17 6 21 4 68 51 29 19 46 16 20 62 55 59 56 54 16 54 54 19 71 57 53 56 23 68 20 20 68 28
split_gain=29.697 14.2005 10.8881 10.2363 10.2874 10.093 8.68726 8.65322 8.32428 7.86467 7.57757 8.29801 11.29 7.12221 6.95733 6.86779 7.83872 6.67401 7.91499 8.03218 5.95277 5.95551 5.94926 5.36 5.34117 4.95934 4.38001 4.13532 4.09199 4.03288
threshold=-0.31914624571800226 -0.56720495223999012 0.63829958438873302 0.75175601243972789 1.0214596986770632 1.0000000180025095e-35 0.28113834559917456 0.88821166753768932 0.13627434521913531 0.94858118891716015 0.31678527593612676 -0.55287876725196827 0.19926574826240542 0.36248809099197393 0.4167421162128449 0.88981592655181896 0.35606092214584356 0.30655999481678015 0.15610975027084353 0.48684094846248632 1.0000000180025095e-35 -0.13163582980632779 0.68750736117362987 0.39586992561817175 1.0000000180025095e-35 0.2708656787872315 -0.13850817829370496 0.21002928167581561 0.066362570971250548 -0.22596415132284162
decision_type=2 2 2 2 2 2 2 2 2 2 2 2 2 2 2 2 2 2 2 2 2 2 2 2 2 2 2 2 2 2
left_child=2 6 7 4 5 10 9 -1 27 28 11 26 20 15 -14 16 -12 18 19 23 22 -22 -13 -5 -19 -9 -3 -4 -2 -15
right_child=1 3 8 17 -6 -7 -8 25 -10 -11 13 12 14 29 -16 -17 -18 24 -20 -21 21 -23 -24 -25 -26 -27 -28 -29 -30 -31
leaf_value=-0.029606340281039728 0.016224529650387048 0.039407371454888679 -0.035093990394366205 -0.031662814203544047 -0.033026900797075515 -0.036203619558919681 -0.037770756723181177 -0.013119410426901854 0.052904190468542812 0.053641295407804629 0.0059707118686155051 -0.041828571574044709 0.093876275441495086 -0.036666924814315723 0.0284282079485523 -0.0038973691796854552 0.077770636735777998 -0.02545233737906627 0.071665290600825868 0.043682200760625095 -0.013022662306293651 0.049171416788089777 0.02651523484933915 0.025106647076548839 0.024506439285817944 0.049674859209813321 0.10529112530938267 0.016775817378537356 -0.02610915059951574 0.015387452928297763
leaf_weight=103.32025821506977 8.8100933730602318 6.3980045467615128 6.8114225864410418 11.976724535226831 5.9955987334251395 4.6099507063627234 19.740536451339722 6.2377271801233274 7.3631548583507529 5.4467731267213813 6.3681597113609341 6.7263208478689211 8.7075835913419741 7.07358019053936 9.1368664056062681 8.7771264612674695 9.1348120719194394 24.508022665977482 4.5370614230632773 8.0675805658102018 4.9827327281236657 11.887460052967072 4.5361310243606567 5.2430241405963889 5.9154725968837729 4.7472058832645416 7.0931528061628324 6.6984666883945465 12.900722041726111 6.1097289025783521
leaf_count=468 39 28 31 54 27 21 90 28 33 24 28 30 38 31 40 39 40 111 20 35 22 52 20 23 26 21 31 30 58 27
internal_value=-0.000818072 0.0107264 -0.0190966 0.0175066 0.0266808 0.0304939 -0.0133898 -0.0251333 0.0135994 0.00504451 0.0340033 0.0450245 0.0336096 0.0157928 0.0636519 0.0314112 0.0504263 0.000963357 0.0174787 0.00540008 0.013023 0.0311012 -0.0143845 -0.0139485 -0.0152677 0.015898 0.0789221 -0.00999221 -0.00897246 -0.0131586
internal_weight=349.861 214.683 135.178 167.785 107.537 101.542 46.8981 114.305 20.873 27.1576 96.9317 59.4683 45.9771 37.4634 17.8444 24.2801 15.503 60.2479 29.8244 25.2873 28.1326 16.8702 11.2625 17.2197 30.4235 10.9849 13.4912 13.5099 21.7108 13.1833
internal_count=1565 954 611 743 474 447 211 517 94 121 426 261 202 165 78 107 68 269 132 112 124 74 50 77 137 49 59 61 97 58
is_linear=0
shrinkage=0.05


Tree=8
num_leaves=31
num_cat=0
split_feature=17 10 65 45 65 9 38 9 38 67 47 31 67 38 62 52 23 16 16 16 4 10 36 50 64 33 8 55 50 4
split_gain=9.52902 10.1798 8.67654 8.73268 8.49427 7.75981 7.68672 8.372 11.2342 7.47999 9.08892 7.19275 6.94707 8.94325 6.55345 8.13194 6.5522 5.50975 4.98231 6.4316 8.11991 5.48352 7.07682 5.31119 4.86731 4.38953 6.50994 4.53511 4.11435 4.10677
threshold=-1.7009318470954893 0.14429580420255664 -0.54263946413993824 -0.73397409915924061 -0.096645329147577272 -0.6215551197528838 -0.30552366375923151 0.27826242148876196 -0.79582557082176197 -0.24557691067457196 1.0000000180025095e-35 -0.2870961725711822 -0.19864561408758161 -0.41058835387229914 0.58424806594848644 -1.0450971722602842 0.42016289383172994 1.0000000180025095e-35 -1.1508940458297727 -0.30829147994518274 -0.42181900143623346 0.22788486629724505 1.0000000180025095e-35 0.041504139080643661 -0.0020696778956335034 -0.18563277274370191 0.45401826500892645 -0.16224733740091321 -1.0128687024116514 0.14907796680927279
decision_type=2 2 2 2 2 2 2 2 2 2 2 2 2 2 2 2 2 2 2 2 2 2 2 2 2 2 2 2 2 2
left_child=1 4 3 -2 -1 28 7 25 -9 10 -5 -8 -10 29 15 -11 -16 -12 -13 20 23 -21 -23 -20 -22 -7 27 -27 -4 -14
right_child=2 -3 5 9 -6 6 11 8 12 14 17 18 13 -15 16 -17 -18 -19 19 21 24 22 -24 -25 -26 26 -28 -29 -30 -31
leaf_value=-0.024828219156800741 0.064737502286692047 0.089620575962158167 0.0086423473428799743 -0.013847510531909088 0.047574290832128933 -0.03384147209706536 -0.029691972208153589 -0.0047185825516239226 -0.0004703511658259994 0.031405923145359359 0.077886916726285685 -0.038131561734734032 0.048524585064278682 0.012243537134670119 0.047818812210443123 -0.027370094982329892 -0.016793669387364117 0.008860624277339392 0.016795214935331527 -0.012668231927637653 0.038657890197407486 0.052459466162656523 -0.020441848023079041 0.087807265943641744 -0.017487764344018591 0.016678170753831798 0.04249935662775272 -0.028148753651140591 -0.038128163171871544 0.1301072824091315
leaf_weight=7.4656448662281045 6.5663553029298773 4.9009882956743231 5.4029982686042812 6.483533293008807 6.8431440591812143 8.873629301786421 31.359422951936722 14.114063113927839 4.6028068810701379 6.5853486955165819 8.4309143573045713 8.2960239201784116 4.8439870923757535 5.0343864709138879 9.2573440074920637 26.579700410366062 5.6933389306068412 4.5769377797842017 6.0680001378059405 68.346076667308807 4.3934893608093306 6.9738764613866788 4.9883712977170944 4.6343368142843246 12.586913943290707 8.8852212429046649 7.2583532482385626 12.381383523344995 23.727567359805107 4.4262273907661438
leaf_count=34 30 22 25 30 31 41 145 65 21 30 38 38 22 23 42 122 26 21 28 316 20 32 23 21 58 41 33 57 110 20
internal_value=0.00092779 0.0342307 -0.00116289 0.0137231 0.0106439 -0.00566684 -0.0023692 0.0111248 0.0290845 0.00789693 0.0332009 -0.00883671 0.0532875 0.0694857 -0.0028208 -0.0151217 0.0237036 0.0559658 -0.00300742 1.59665e-05 0.0203725 -0.00716532 0.0228272 0.0524207 -0.00161864 -0.00507741 0.00471374 -0.00951209 -0.0294545 0.0963533
internal_weight=340.58 19.2098 321.371 74.1735 14.3088 247.197 218.067 70.4201 33.0215 67.6071 19.4914 147.647 18.9074 14.3046 48.1157 33.165 14.9507 13.0079 116.287 107.991 27.6827 80.3083 11.9622 10.7023 16.9804 37.3986 28.525 21.2666 29.1306 9.27021
internal_count=1565 87 1478 339 65 1139 1004 323 151 309 89 681 86 65 220 152 68 59 536 498 127 371 55 49 78 172 131 98 135 42
is_linear=0
shrinkage=0.05


Tree=9
num_leaves=31
num_cat=0
split_feature=41 28 38 11 74 30 7 64 47 58 6 28 41 74 34 59 21 53 59 19 45 30 50 50 46 53 30 74 62 57
split_gain=27.9956 12.5228 13.8246 12.5316 11.0799 10.843 10.671 9.78332 8.1439 9.79118 7.9574 7.23513 9.95129 6.94694 6.11333 5.97352 4.54897 4.52027 3.54269 3.39415 3.36946 3.55288 3.63912 5.24757 7.08167 4.42282 3.35873 6.15284 5.44321 3.28797
threshold=-0.57283285260200489 -0.75155183672904957 1.4455547928810122 -0.6921037584543227 -0.23596234619617459 -0.54607215523719776 -0.037702061235904687 -0.53258132934570301 0.37102476507425314 0.063031638041138663 0.084855157881975188 0.40816892683506018 0.5506345033645631 2.1741008758544926 -0.10461248084902762 0.89883431792259227 0.32103988528251654 0.46944437921047216 1.1670074462890627 -0.27171704173088068 -0.39460034668445582 -1.0687897801399229 0.24192212522029879 0.093787088990211501 0.34751377999782568 1.0909372568130495 -0.64061200618743885 -0.19440952688455579 0.1175169199705124 -0.52273708581924427
decision_type=2 2 2 2 2 2 2 2 2 2 2 2 2 2 2 2 2 2 2 2 2 2 2 2 2 2 2 2 2 2
left_child=13 2 5 4 14 15 -7 8 9 17 -4 12 -6 26 -3 29 -8 -5 20 -13 -9 -22 23 24 25 -23 27 28 -1 -2
right_child=1 3 10 7 11 6 16 18 -10 -11 -12 19 -14 -15 -16 -17 -18 -19 -20 -21 21 22 -24 -25 -26 -27 -28 -29 -30 -31
leaf_value=0.064048326516984541 0.021323242030272888 0.024140852796691481 0.13351532271438249 -0.015000480453095794 -0.010442937251240429 -0.0062463080197683084 0.11114662155757327 -0.044369994282526332 -0.01943276093236361 0.092101752763032077 0.022890574413166945 0.02558189199197888 0.080392326734844477 0.036771500674714096 0.10076968874841359 0.048762359671338795 0.024998745241041811 0.051389277266899659 0.026959217847497996 -0.028215078892899412 0.02225508985353469 -0.030270196344147317 -0.037025293115882978 0.04370873929136062 0.047041278312429151 0.022601790893817524 -0.039688006155049631 -0.033653669724713856 -0.016862448658038577 -0.030219330708390019
leaf_weight=2.9781980812549618 3.2445027232170132 5.8367704898118973 3.9189720004796973 6.3410503119230288 5.49588890373707 4.834620863199234 4.9224855154752749 10.227982193231581 7.4717296659946433 5.017669439315795 3.1641276925802231 3.0137005448341361 5.1750499755144119 3.0670906007289878 5.3361846506595594 3.0779721438884726 3.04130619764328 2.9810192734003067 3.6021009385585776 11.078534811735151 5.3049556761980048 26.004156485199932 16.005437955260277 3.3088752031326285 3.1586422622203818 3.8853029459714881 43.873559102416039 12.240528315305708 3.6783040761947632 12.345771938562391
leaf_count=20 21 39 25 42 37 32 32 69 50 33 21 20 34 20 35 20 20 20 24 74 35 175 108 22 21 26 300 83 25 82
internal_value=-0.00105901 0.00979055 0.0344119 0.00223895 0.0269117 0.0187548 0.0523862 -0.00744787 0.0212205 0.0422889 0.0930432 0.00739318 0.0367229 -0.0284431 0.0660103 -0.00579321 0.0847065 0.0091515 -0.0163657 -0.0157776 -0.0190222 -0.0138468 -0.0178529 -0.00864741 -0.0150192 -0.0228882 -0.0321563 -0.0135539 0.0229751 -0.018854
internal_weight=233.632 167.795 38.5498 129.245 35.9361 31.4667 12.7984 93.3089 21.8115 14.3397 7.0831 24.7632 10.6709 65.8377 11.173 18.6682 7.96379 9.32207 71.4975 14.0922 67.8954 57.6674 52.3624 36.357 33.0481 29.8895 62.7706 18.897 6.6565 15.5903
internal_count=1565 1117 253 864 239 207 84 625 145 95 46 165 71 448 74 123 52 62 480 94 456 387 352 244 222 201 428 128 45 103
is_linear=0
shrinkage=0.05


Tree=10
num_leaves=31
num_cat=0
split_feature=52 47 44 61 74 59 69 58 68 54 33 31 57 54 6 57 6 22 44 69 52 45 34 34 26 50 9 21 56 33
split_gain=27.9901 12.9777 20.1392 11.507 10.1983 9.79496 11.049 12.5409 8.23673 7.08 7.02819 7.27808 7.38 6.42109 5.94037 5.52184 5.33073 6.31271 4.96991 4.19045 4.24844 5.28995 5.18096 4.72363 5.87075 4.98302 3.42492 2.48566 4.06922 2.06565
threshold=0.052055325359106071 0.72808045148849498 -0.23167584836482999 1.0000000180025095e-35 -0.11130390316247939 -0.44203150272369379 0.22954031825065616 0.034318892285227783 -0.10068589076399802 0.59283334016799938 -0.24645606428384778 -0.21443180739879605 0.24613213539123538 0.92847326397895824 -1.0000000180025095e-35 0.28810648620128637 1.057735323905945 -0.0090339438174851221 0.053365312516689307 -1.0580554008483884 -0.80776748061180104 -0.43689903616905207 -0.06257257983088492 0.1896668076515198 0.11825837194919588 0.02407648786902428 -0.69122466444969166 -0.29621028900146479 0.39586992561817175 -0.76983067393302906
decision_type=2 2 2 2 2 2 2 2 2 2 2 2 2 2 2 2 2 2 2 2 2 2 2 2 2 2 2 2 2 2
left_child=13 3 -3 9 -4 6 14 18 10 -2 -7 -12 -13 19 -5 -6 26 -18 -8 -1 29 22 -22 27 25 -25 -10 28 -23 -21
right_child=1 2 4 5 15 8 7 -9 16 -11 11 12 -14 -15 -16 -17 17 -19 -20 20 21 23 -24 24 -26 -27 -28 -29 -30 -31
leaf_value=0.031769392357997223 0.0058433133093865651 -0.036356413964863936 0.022308281689868377 0.043871472604859796 0.1618446536847343 -0.027254206375703749 0.035293825836339922 -0.010659495574747095 0.018944861409172155 0.11074729326454741 0.099251256742781194 -0.028035094285047437 0.066786201957074728 0.040101564851418657 -0.024763357101690878 0.046614773317710273 0.04811178184423584 -0.034949523505916534 0.14153210936039518 0.0028164482840944763 0.052150481713237079 -0.025174426868026685 -0.01523474213830594 0.081784509001583378 -0.025395749132674707 -0.006848492854068979 -0.034457466935234909 -0.037752597588741992 0.038825583332078584 -0.039780563341414832
leaf_weight=2.7605135440826407 2.7180334106087676 3.4001172855496415 3.9913845583796492 3.9049841985106468 4.0031515508890125 3.8616944327950486 2.6025987192988378 3.0398384407162666 2.735821314156051 3.4045568481087685 3.0726305022835723 4.0766188725829098 2.4839495494961739 3.5527812615036956 7.8240875229239482 2.6927321404218674 4.738383024930954 2.8988520205020896 3.4880919903516769 2.961818389594554 4.5130786150693893 8.0097837299108416 5.1986831277608854 2.4677080512046796 5.8005354031920433 2.6598572731018066 26.388705186545856 25.750443048775203 2.4568339437246314 33.66540864855051
leaf_count=22 22 28 32 31 31 31 21 25 22 26 24 33 20 29 64 21 38 24 28 25 37 66 43 20 48 22 215 214 20 283
internal_value=-0.000529587 0.0193624 0.061856 0.0109205 0.0935393 0.00478241 0.0327532 0.0710028 -0.00723968 0.0715355 0.024979 0.0465119 0.011951 -0.0187445 -0.000261225 0.127584 -0.0194151 0.0161881 0.107515 -0.0213068 -0.0231938 -0.014235 0.0180245 -0.0211167 0.00719608 0.042193 -0.0289787 -0.0296235 -0.00807584 -0.0363527
internal_weight=191.124 91.3262 14.0874 77.2388 10.6873 71.1163 20.8596 9.13053 50.2567 6.12259 13.4949 9.6332 6.56057 99.7974 11.7291 6.69588 36.7618 7.63724 6.09069 96.2447 93.4842 56.8569 9.71176 47.1452 10.9281 5.12757 29.1245 36.2171 10.4666 36.6272
internal_count=1565 736 112 624 84 576 169 74 407 48 108 77 53 829 95 52 299 62 49 800 778 470 80 390 90 42 237 300 86 308
is_linear=0
shrinkage=0.05


Tree=11
num_leaves=31
num_cat=0
split_feature=65 28 7 70 43 29 18 54 70 71 32 2 34 19 43 65 38 64 40 46 22 43 32 18 43 45 62 26 65 40
split_gain=38.2348 17.3831 13.939 12.9771 15.6459 13.9459 12.4933 15.2472 11.6276 10.2387 9.50802 7.51263 6.25696 6.68917 5.48317 5.33148 4.75773 4.24047 7.26259 13.7654 7.56929 10.2519 3.47848 5.88471 3.41191 4.28856 3.04251 2.69762 2.43282 2.31041
threshold=0.53832936286926281 0.41730949282646185 -0.30403381586074824 -0.22640550136566159 0.26521010696887976 0.44477556645870214 -0.11170986667275427 0.23655883967876437 -0.50224077701568592 0.42059773206710821 -0.072763524949550615 0.51576875988394033 -0.020532682072371241 0.3217348456382752 0.33434920012950903 0.8652656376361848 1.1478714942932131 -0.78578001260757435 -0.91397228837013234 -0.14537823200225827 -0.45588168501853937 0.10917998105287553 0.50827935338020336 -0.48398460447788233 0.68751925230026256 0.19561516493558886 -0.55287876725196827 0.55836546421051036 0.94534611701965343 -0.55559039115905751
decision_type=2 2 2 2 2 2 2 2 2 2 2 2 2 2 2 2 2 2 2 2 2 2 2 2 2 2 2 2 2 2
left_child=8 2 16 4 10 12 7 15 9 11 -4 -1 13 14 -5 -3 28 -10 19 -19 21 -20 -22 -24 26 -26 -8 -21 -2 -14
right_child=1 6 3 5 -6 -7 24 -9 17 -11 -12 -13 29 -15 -16 -17 -18 18 20 27 22 -23 23 -25 25 -27 -28 -29 -30 -31
leaf_value=0.11868553250703727 -0.037431694328232165 0.14746480480760649 0.048625327628942651 -0.024672474086387623 0.011266913515251432 0.13336572700104823 0.016342948893531887 -0.024964514254048217 -0.041735591903420459 -0.02613859956946555 0.20858512136013943 0.0065870857550182947 0.020939568999723841 0.10405568097657486 0.060726556688803883 0.033667008801773562 0.055109028775324087 0.088906086612398849 0.08758679315468347 -0.038103237897428893 -0.042112472209009696 -0.033596790795337464 0.056579384770576419 -0.029901451718561973 -0.02940156089711379 0.058619402796344193 -0.04187903890334449 0.022139366604248006 0.020006709850974091 -0.03635809575020698
leaf_weight=2.6257890239357931 4.6299665048718435 2.0822896137833613 2.1339562013745308 3.5694293007254601 2.4323171898722649 2.6029142364859572 2.1585635542869595 3.6592129692435265 25.502551980316639 3.9580589830875397 3.5026364997029322 2.7547437697649002 1.9357191026210783 2.3066426813602448 2.2463072910904884 2.7237320989370346 1.9326144009828565 3.4300816431641579 2.3461314365267745 5.1956214010715467 27.707891814410686 2.8336315676569939 1.8925701603293417 5.1556061729788771 1.8315189406275743 1.8385407999157903 11.81760887801647 1.8873710706830022 1.9811645373702047 3.9084953814744958
leaf_count=28 50 21 22 38 25 26 23 40 286 44 35 30 20 23 23 28 20 37 25 57 304 31 20 57 20 20 130 20 21 41
internal_value=0.00254355 0.0330765 0.0565426 0.0749747 0.124628 0.0450774 0.00227043 0.0489773 -0.0188203 0.0314806 0.164478 0.0713203 0.0208118 0.0469694 0.0123828 0.0998784 0.00110205 -0.0253338 -0.0163924 0.0192575 -0.0260184 0.0265834 -0.0343819 -0.00253495 -0.0215607 0.0178033 -0.0323961 -0.0212976 -0.019852 -0.0170934
internal_weight=144.584 59.2936 33.1822 24.6384 8.06891 16.5695 26.1115 8.46523 85.29 9.33859 5.63659 5.38053 13.9666 8.12238 5.81574 4.80602 8.54375 75.9515 50.4489 10.5131 39.9358 5.17976 34.7561 7.04818 17.6462 3.67006 13.9762 7.08299 6.61113 5.84421
internal_count=1565 626 344 253 82 171 282 89 939 102 57 58 145 84 61 49 91 837 551 114 437 56 381 77 193 40 153 77 71 61
is_linear=0
shrinkage=0.05


Tree=12
num_leaves=31
num_cat=0
split_feature=40 44 62 46 53 44 17 58 23 28 40 43 5 40 71 57 40 28 44 30 52 10 18 41 18 67 43 62 45 33
split_gain=10.6775 11.6382 9.343 8.31628 9.51206 9.4299 7.63939 7.29232 8.50175 6.66668 8.98885 10.1646 7.90355 6.75403 6.88414 6.69275 6.65655 8.19922 6.83708 7.65341 6.5375 6.41559 6.11848 5.88993 6.89241 5.76631 5.8028 4.86855 4.38539 6.8892
threshold=0.21641793102025988 1.1293579339981081 0.34663946926593786 0.34751377999782568 -0.68626198172569264 0.23767190426588061 1.0145626664161684 -0.36765947937965388 -0.78144264221191395 0.24516046047210696 0.022353464737534526 -1.0000000180025095e-35 -1.1197310090065 -1.297497510910034 0.42059773206710821 0.39773339033126837 0.94593033194541942 0.57498580217361461 -0.035803264006972306 0.92012062668800365 -0.36194576323032374 1.0000000180025095e-35 0.72363820672035228 0.1200070269405842 0.48068290948867803 0.11297896131873132 -0.13093820959329602 1.2631298303604128 0.3648101687431336 0.08561966568231584
decision_type=2 2 2 2 2 2 2 2 2 2 2 2 2 2 2 2 2 2 2 2 2 2 2 2 2 2 2 2 2 2
left_child=1 2 9 4 5 27 7 -6 -9 10 12 -12 20 -11 15 -15 28 25 22 21 -1 -20 -19 24 -10 -18 -27 -4 29 -2
right_child=16 -3 3 -5 6 -7 -8 8 23 13 11 -13 -14 14 -16 -17 17 18 19 -21 -22 -23 -24 -25 -26 26 -28 -29 -30 -31
leaf_value=-0.017428892993996154 0.011719000228028357 0.077225215003503142 0.12651195259125511 -0.03375642727382925 0.079796995907153112 0.00067603665348781169 -0.04081253590671452 0.069226670224847103 -0.030059782883495381 0.055776398635462757 -0.020153009762872105 0.08343972215050606 -0.029381431251473095 -0.02728217331452544 0.045270406485563595 0.027338691049854386 -0.045266680254180597 0.011471892216372372 0.067029801958626775 -0.032700055179991853 0.051799902804700496 -0.016298062193139434 0.094723924651854571 0.046911472573497273 0.037530359950113445 0.04566019506302111 -0.019582959511405033 0.036320860737435942 -0.04096029148918752 -0.031162231728889191
leaf_weight=6.5703019350767136 16.005991905927658 4.8537374287843695 4.3518316447734815 5.0794790834188452 3.9897565543651572 3.8736608922481537 4.3707032650709143 4.4206541329622295 13.880781263113031 6.5113430917263022 4.0163097083568573 3.8510782420635215 45.383184269070625 16.427452296018608 6.2993270903825751 7.3395014703273764 10.342893004417421 4.6547762900590914 4.5276724696159345 7.5880713760852814 5.3567257821559888 3.4143291860818863 3.820769876241684 4.1378733068704596 4.119877576828002 4.2180268466472617 8.844334274530409 3.6141461730003357 21.798323854804039 20.259999424219131
leaf_count=38 96 27 24 30 23 22 26 25 82 37 24 22 276 97 36 42 64 27 26 45 31 20 22 24 24 25 53 21 134 122
internal_value=-0.000191533 0.0079965 0.00532341 0.0223856 0.0290634 0.066042 0.0150361 0.0240669 0.0131033 -0.00350209 -0.0130224 0.0342467 -0.0199874 0.0133572 0.00267093 -0.00999185 -0.0124514 0.00147232 0.0215654 0.0010734 0.0152654 0.03339 0.0550378 -0.000610972 -0.0134291 -0.0191754 0.0032338 0.0942073 -0.0236529 -0.01243
internal_weight=263.923 158.448 153.594 51.8388 46.7593 11.8396 34.9196 30.5489 26.5592 101.755 65.1776 7.86739 57.3102 36.5776 30.0663 23.767 105.475 47.4109 24.0056 15.5301 11.927 7.942 8.47555 22.1385 18.0007 23.4053 13.0624 7.96598 58.0643 36.266
internal_count=1565 931 904 301 271 67 204 178 155 603 391 46 345 212 175 139 634 282 140 91 69 46 49 130 106 142 78 45 352 218
is_linear=0
shrinkage=0.05


Tree=13
num_leaves=31
num_cat=0
split_feature=17 6 65 62 5 29 23 21 46 44 62 7 22 35 41 74 20 57 23 4 70 18 52 41 21 44 62 40 16 20
split_gain=27.2809 12.0718 9.13133 9.23173 9.17904 8.86206 8.39154 8.20469 8.6391 7.41395 7.86146 7.35071 8.25072 7.61685 8.13704 7.35764 7.31459 7.29082 6.9537 8.38078 6.54951 6.44869 6.52553 6.39703 6.228 7.17366 5.85947 5.62335 5.79706 6.87568
threshold=-0.28989680111408228 -0.56720495223999012 0.71030163764953624 -0.74805724620819081 0.94317737221717846 0.28113834559917456 -1.1819779872894285 0.63829958438873302 0.13627434521913531 0.88983383774757396 0.015684666112065319 -0.34447155892848963 -0.13876393437385556 1.0000000180025095e-35 0.98875376582145702 -0.11130390316247939 0.8368017077445985 0.23279931396245959 1.0000000180025095e-35 -0.25012356787919993 -0.18503021448850629 0.88845178484916698 0.19027671217918399 0.15147248655557635 0.26035104691982275 0.3857888281345368 -0.10311962664127348 -1.0258780717849729 -1.4085776209831236 -0.30626736581325525
decision_type=2 2 2 2 2 2 2 2 2 2 2 2 2 2 2 2 2 2 2 2 2 2 2 2 2 2 2 2 2 2
left_child=7 5 3 17 6 18 -5 16 -9 10 20 -4 13 14 -13 -14 27 -3 19 23 -8 22 -12 -2 25 -6 -18 28 -1 -30
right_child=1 2 11 4 24 -7 9 8 -10 -11 21 12 15 -15 -16 -17 26 -19 -20 -21 -22 -23 -24 -25 -26 -27 -28 -29 29 -31
leaf_value=-0.046181431467901934 -0.033461703577538041 0.017848088121000513 -0.032006575605950639 0.086029446300271983 0.049479484471413683 -0.036967666169651511 0.03199817573626642 -0.01317112945356423 0.049409612294252669 0.076459620154196578 0.059111536338641947 0.08687259600236491 0.021000765940230627 -0.0030366457900345058 0.0048087071352305279 -0.027567867582913175 0.052487503209758972 0.08690373920042252 -0.025874658220918147 0.069119893054356035 -0.022457898848078854 -0.009164180713773307 0.0090585566441961189 0.036793886241178457 -0.043472734084345606 -0.028428486462106058 -0.01729427017188525 -0.03345178301747722 0.056499107381733443 -0.0096838368582375257
leaf_weight=5.4371946901083019 6.0516280680894869 7.1605894863605526 12.043399080634115 4.6535641551017752 5.222912862896921 19.344721481204033 6.9741543531417873 14.603861242532732 7.5812751054763785 4.6788719296455374 17.638725340366367 7.413446247577669 12.722336187958719 8.590365603566168 4.9045790731906891 17.165331482887268 4.5792442411184311 9.1337138116359693 9.4700470864772779 5.8142448663711574 17.076353579759598 7.6977835893630973 10.646362543106077 4.9954342842102051 7.8190892934799185 4.7231518030166626 5.74698658287525 81.828680753707886 4.4206747561693236 13.440121427178379
leaf_count=25 27 31 54 20 23 90 30 66 33 20 76 32 56 38 22 77 20 39 43 25 75 34 47 22 35 21 26 377 20 61
internal_value=-0.000823787 0.0104169 0.0166536 0.0257166 0.018826 -0.0121555 0.0269639 -0.018083 0.00942315 0.0214718 0.0160036 0.00156791 0.00999244 0.0333283 0.0570123 -0.006883 -0.023404 0.0593437 0.00675879 0.0255097 -0.00601978 0.0304886 0.0412245 -0.00127535 -0.0126929 0.0132656 0.015553 -0.0273411 -0.00538527 0.00882399
internal_weight=349.579 211.941 166.265 103.425 87.131 45.6761 69.3658 137.638 22.1851 64.7123 60.0334 62.8395 50.7961 20.9084 12.318 29.8877 115.453 16.2943 26.3314 16.8613 24.0505 35.9829 28.2851 11.0471 17.7652 9.94606 10.3262 105.127 23.298 17.8608
internal_count=1565 937 730 451 381 207 302 628 99 282 262 279 225 92 54 133 529 70 117 74 105 157 123 49 79 44 46 483 106 81
is_linear=0
shrinkage=0.05


Tree=14
num_leaves=31
num_cat=0
split_feature=32 54 17 17 9 64 42 46 28 5 14 9 30 32 38 50 1 54 7 71 54 65 8 50 74 1 4 53 69 17
split_gain=8.7109 10.268 9.67079 8.53096 9.32629 7.8872 7.75914 8.7968 7.16184 6.87325 6.88985 6.60152 12.2455 6.49274 6.7004 10.7902 8.7564 6.8668 8.22981 6.9707 6.25126 6.21499 8.36256 5.94687 5.5599 5.39528 7.58428 4.96861 5.79076 4.71471
threshold=0.31397931277751928 1.4383323192596438 -1.3909546732902525 0.079251725226640715 -0.56513255834579457 -1.6575071215629575 0.65909084677696239 0.023613316006958488 -0.32498793303966517 0.53529527783393871 0.85292536020278942 0.017246504314243797 -0.61505323648452748 0.20735558867454532 -0.41058835387229914 0.97388347983360302 -0.69505845010280598 0.68216311931610119 -0.06512539833784102 -0.62099424004554737 -0.33781634271144861 0.82983186841011058 0.21260370314121249 -0.24605209380388257 0.33746652305126196 1.0000000180025095e-35 -0.25012356787919993 -0.6289764642715453 -0.1242055371403694 -1.6622687578201292
decision_type=2 2 2 2 2 2 2 2 2 2 2 2 2 2 2 2 2 2 2 2 2 2 2 2 2 2 2 2 2 2
left_child=2 3 5 4 -2 -1 7 11 27 10 -5 -6 -13 14 15 16 -10 19 -19 -16 29 22 -11 -20 -22 26 -9 28 -4 -7
right_child=1 -3 8 9 6 20 -8 25 13 21 -12 12 -14 -15 17 -17 -18 18 23 -21 24 -23 -24 -25 -26 -27 -28 -29 -30 -31
leaf_value=-0.025286304104159982 -0.013671173336538514 -0.035800868006925557 0.029634382899735408 -0.023562594916329904 0.10195218439312376 0.036718057987049434 0.0015558797582347959 0.077751769573016716 -0.012293073334985799 0.075568752135125206 0.034735993936333649 -0.025644881832661223 0.066251728798088508 -0.035110210214413878 0.037822169936040373 -0.037547066318225603 0.055268356159508016 0.050980135284842576 0.034018411580874645 -0.022563436449321253 0.090758633120843812 -0.0096472150714895354 -0.0025965782052922606 -0.025878293355875989 0.015917044778049099 -0.01158581499163143 -0.00728194024286314 -0.03125214066748809 -0.022012754443422732 -0.027184294453085397
leaf_weight=5.9165197014808681 11.296649903059004 9.9299591630697233 7.9190975576639202 28.330043941736221 7.6086681783199337 5.0011311769485474 13.28420105576515 5.0241826772689819 6.1457406133413377 7.0725882947444934 5.2059870511293402 4.3312768638133994 12.583899945020677 12.094460174441336 4.4301300048828116 5.1702068001031867 16.677997589111328 8.9665263444185275 5.2451757639646575 44.56806580722332 5.8661054074764216 9.1060503721237165 5.8274989575147629 11.405758440494534 4.6815551519393921 8.3376955389976484 4.3647339046001452 46.865190789103508 12.871192589402197 4.5958622545003927
leaf_count=27 52 46 36 132 34 22 61 22 28 32 24 20 56 56 20 24 75 41 24 207 26 42 27 53 21 38 20 219 59 21
internal_value=0.000844668 0.0108336 -0.00551765 0.0148772 0.0267747 0.022428 0.0350984 0.0453648 -0.00961193 0.000341183 -0.0137688 0.0642893 0.0426028 -0.0019491 0.0022607 0.0226778 0.0373237 -0.00559787 0.0150092 -0.0164565 0.0369749 0.0215078 0.0426118 -0.00615202 0.0617954 0.0171489 0.0413253 -0.022386 -0.001883 0.00643865
internal_weight=340.724 132.303 208.421 122.373 66.8313 26.0612 55.5347 42.2505 182.36 55.5422 33.536 24.5238 16.9152 114.704 102.61 27.9939 22.8237 74.6157 25.6175 48.9982 20.1447 22.0061 12.9001 16.6509 10.5477 17.7266 9.38892 67.6555 20.7903 9.59699
internal_count=1565 606 959 560 303 117 251 190 842 257 156 110 76 528 472 127 103 345 118 227 90 101 59 77 47 80 42 314 95 43
is_linear=0
shrinkage=0.05


Tree=15
num_leaves=31
num_cat=0
split_feature=40 11 71 10 18 64 28 18 74 64 14 74 64 42 42 68 69 68 55 33 68 28 42 8 6 1 30 28 6 74
split_gain=25.0151 9.13283 12.9356 15.2731 8.57162 9.57152 8.54182 8.88918 7.04011 6.54432 8.54696 7.37526 6.14849 7.30458 7.5306 7.70093 12.055 9.17343 6.91725 9.15076 5.82879 5.64224 4.39622 4.23441 4.70699 4.22009 3.73881 6.75543 3.50172 4.11271
threshold=-0.044577647000551217 -0.6921037584543227 0.21227926015853885 0.01891221106052399 -1.2975960969924925 -0.42105327546596522 -0.91913059353828419 -1.3245605826377866 1.8832312822341921 1.0812591910362246 0.25465708225965505 -0.019887701608240601 0.86935600638389599 0.36866009235382086 0.92627638578414928 0.15550500899553302 0.21337178349494937 0.67874827980995189 0.041395775973796851 -0.066929224878549562 0.74803972244262706 -0.54626798629760731 0.079298187047243132 0.084642920643091216 -0.16988149285316465 1.0000000180025095e-35 -0.97617363929748524 -1.7471216917037962 -1.2387335300445554 -2.2138764858245845
decision_type=2 2 2 2 2 2 2 2 2 2 2 2 2 2 2 2 2 2 2 2 2 2 2 2 2 2 2 2 2 2
left_child=6 2 9 -4 5 -3 7 -1 28 10 -2 -11 13 23 15 16 -15 -17 19 -16 26 -7 -14 -6 -25 -12 27 -9 -8 -30
right_child=1 4 3 -5 12 21 8 20 -10 11 25 -13 22 14 18 17 -18 -19 -20 -21 -22 -23 -24 24 -26 -27 -28 -29 29 -31
leaf_value=0.060683985676845187 -0.043126745677023175 0.09239046242090497 0.10726412183441192 -0.0081233684170581837 -0.035792793451610273 0.045485077732938063 4.399881719729526e-05 -0.038864161137280105 0.034910502419783836 0.082244982690281354 0.06108306314120579 -0.012032655462666523 0.013815130137731861 0.12965627691759676 0.083304418629476754 -0.039001878653130914 0.01051066488477468 0.062443094196271226 -0.026360769878014834 -0.013842699828469064 0.046892530782115527 -0.029894855560963381 -0.036422976445822965 0.046474839890268481 -0.01904489674593695 -0.011925803178818396 -0.036353449718678273 0.039770493109768573 0.015797443497859498 -0.035353096144499739
leaf_weight=4.9115699827671078 7.4121883809566516 4.633398711681366 8.8747313320636732 3.8535336554050437 10.442079976201059 3.7220662087202072 9.269834637641905 3.8971106112003326 3.7439528852701178 4.3078308254480362 3.529664009809494 3.0333584100008002 5.3474602699279812 4.0179483443498594 3.5245057791471481 4.0070165991783133 4.012724444270134 3.0296394526958466 10.052675068378447 4.7064630836248416 3.1460466533899298 4.2629149854183179 15.19858807325363 3.6966052055358887 5.6791310757398588 3.0246515274047852 11.062638923525808 5.198978736996656 3.6200928539037696 67.982559472322464
leaf_count=32 49 29 55 25 70 23 64 26 24 27 23 20 35 25 23 27 26 20 67 32 20 29 103 24 38 20 75 35 24 475
internal_value=-0.000989838 0.0148062 0.0363537 0.074283 0.0059924 0.0424369 -0.017823 0.00584782 -0.0256924 0.0113821 -0.00896013 0.0465174 -0.000730592 0.00826534 0.022305 0.0472783 0.0778785 0.00701039 0.00034026 0.0322738 -0.0077304 0.00639394 -0.0233133 -0.0152981 0.00877727 0.0302726 -0.0180684 0.00556793 -0.0288902 -0.0325851
internal_weight=233.202 120.369 34.036 12.7283 86.3332 12.6184 112.833 28.2163 84.6164 21.3077 13.9665 7.34119 73.7148 53.1688 33.351 15.0673 8.03067 7.03666 18.2836 8.23097 23.3048 7.98498 20.546 19.8178 9.37574 6.55432 20.1587 9.09609 80.8725 71.6027
internal_count=1565 790 219 80 571 81 775 188 587 139 92 47 490 352 220 98 51 47 122 55 156 52 138 132 62 43 136 61 563 499
is_linear=0
shrinkage=0.05


Tree=16
num_leaves=31
num_cat=0
split_feature=53 30 6 74 14 43 16 70 42 41 69 22 20 22 54 8 9 53 28 33 28 56 67 6 19 67 69 14 46 22
split_gain=33.9778 14.4343 12.521 11.9343 8.50105 8.69522 8.91856 7.86322 7.01467 8.99928 6.94294 6.58322 6.37532 6.36731 4.97363 4.71894 5.91503 3.70578 4.12561 6.63137 7.88569 6.31261 4.54157 5.57643 5.68829 4.07541 3.55173 4.63288 4.40972 2.48406
threshold=0.21003873646259311 -0.10140482336282729 -1.2387335300445554 -0.56838482618331898 0.52574735879898082 -0.39301279187202448 0.91171491146087658 -1.0000000180025095e-35 1.4032025337219241 -0.33309589326381678 -1.1021512150764463 -0.19642170518636701 0.51988178491592418 0.38015601038932806 0.07513825967907907 0.36399921774864202 0.2110458239912987 -0.76057076454162587 -0.51770341396331776 -0.3700647354125976 -1.0928030610084531 0.63142696022987377 0.14817750453948977 -0.28066043555736536 0.19337055087089541 0.29929645359516149 0.24227900058031085 -0.24078381806612012 -1.0000000180025095e-35 0.40898489952087408
decision_type=2 2 2 2 2 2 2 2 2 2 2 2 2 2 2 2 2 2 2 2 2 2 2 2 2 2 2 2 2 2
left_child=10 3 -3 -2 5 -5 12 -6 9 14 -1 -10 -7 26 -4 16 -16 29 19 20 -19 -21 -20 24 -24 -25 -11 28 -28 -12
right_child=1 2 8 4 7 6 -8 -9 11 13 17 -13 -14 -15 15 -17 -18 18 22 21 -22 -23 23 25 -26 -27 27 -29 -30 -31
leaf_value=0.048788354370079064 -0.010057803701787651 0.076948997256005958 -0.02304773644147896 0.0069947127709618544 -0.028556448778242385 0.13191971517858136 0.007564295547034753 0.059431846107661147 0.09226181171664749 -0.044387718614683075 -0.03840837934271242 1.4217493284332979e-06 0.035531689446091946 0.037909817200761933 0.10347342938325864 -0.0079340186992981638 0.0062190289559089264 -0.01841953897242856 -0.03845810421826279 -0.028816026472350893 0.090052918504944915 0.044549529712382352 0.066829161527295136 0.02315640842366945 -0.014891279015684862 -0.041888017582266297 -0.019651666809208549 -0.03123661036747219 0.060506664899035001 0.010029727112981376
leaf_weight=2.6069930195808402 7.0056942775845519 4.5977251306176177 3.0085639879107466 3.5636218339204815 4.1721321567893028 9.2813858836889285 2.5990120545029631 4.117079168558119 2.5598492696881294 16.624113403260711 34.698180623352528 4.2323092743754378 3.1733244061470023 3.0792734622955313 3.2770146131515485 2.7401764467358589 2.6777656897902489 2.3967282623052597 22.210514202713966 12.630837775766848 2.9859789386391666 2.7885892838239661 3.3588146194815662 2.5213342159986487 3.5839850902557373 8.332728296518324 2.5152921676635742 8.2786583825945836 2.6811064928770056 2.4623225480318061
leaf_count=20 57 35 24 29 33 70 21 32 20 137 300 34 24 25 24 22 21 20 186 106 24 23 27 21 30 70 20 68 21 21
internal_value=-0.000462281 0.0216964 0.00591422 0.0469648 0.0616403 0.0797125 0.0954188 0.0168389 -0.00174699 -0.0091641 -0.0203492 0.0421508 0.111827 -0.0223484 0.0270292 0.0449466 0.0669222 -0.0226634 -0.0146678 0.00331968 0.0464353 -0.0136428 -0.0238734 -0.00459404 0.0280801 -0.0260997 -0.0295338 -0.00940816 0.0247967 -0.0350201
internal_weight=190.761 90.1841 56.2718 33.9122 26.9066 18.6173 15.0537 8.28921 51.6741 44.882 100.577 6.79216 12.4547 33.1784 11.7035 8.69496 5.95478 97.97 60.8095 20.8021 5.38271 15.4194 40.0074 17.7969 6.9428 10.8541 30.0992 13.4751 5.1964 37.1605
internal_count=1565 717 451 266 209 144 115 65 416 362 848 54 94 271 91 67 45 828 507 173 44 129 334 148 57 91 246 109 41 321
is_linear=0
shrinkage=0.05


Tree=17
num_leaves=31
num_cat=0
split_feature=65 53 38 36 8 17 26 70 2 36 65 73 30 41 46 6 53 50 19 59 12 52 53 34 58 50 46 26 8 66
split_gain=35.3252 15.9976 11.3495 12.1902 12.9854 11.2378 10.4148 10.3645 10.9193 7.87691 7.6518 7.37592 7.02908 6.11154 9.84625 7.97076 5.75131 5.25082 5.68577 4.68848 4.26679 3.95331 3.81801 5.26056 3.44879 2.94781 2.52926 3.35523 3.22662 0.998004
threshold=0.41690936684608465 -0.32498544454574579 0.79765576124191295 1.0000000180025095e-35 0.31341002881526953 -0.28989680111408228 -0.022575900889933106 -0.52982422709465016 0.51576875988394033 -1.0000000180025095e-35 -0.38200591504573816 1.0000000180025095e-35 0.60324710607528698 -0.7373523712158202 -0.14537823200225827 -0.50413769483566273 -0.3965922594070434 0.51205071806907665 0.031520058400928981 0.36248809099197393 1.0000000180025095e-35 -0.93737068772315968 0.083038020879030242 -0.048559280112385743 0.13481349498033526 -0.42904244363307947 -0.384782925248146 0.95446184277534496 0.058232286944985397 0.52626851201057445
decision_type=2 2 2 2 2 2 2 2 2 2 2 2 2 2 2 2 2 2 2 2 2 2 2 2 2 2 2 2 2 2
left_child=7 2 3 4 19 9 -5 8 10 22 -1 12 -7 14 15 -9 -17 26 -19 -2 -11 -6 -3 -24 -16 -4 28 -28 -13 -15
right_child=1 5 25 6 21 11 -8 13 -10 20 -12 17 -14 29 24 16 -18 18 -20 -21 -22 -23 23 -25 -26 -27 27 -29 -30 -31
leaf_value=0.0020999930429869951 0.040319620427539692 -0.031348343800329845 -0.033314034450322209 0.18487568311529781 0.13733022011426213 0.10131284903585361 0.037680026643018019 0.10638553174114636 -0.026468403139688734 0.13418188383278806 0.12718165566828715 -0.03081521560385353 -0.013711051288013202 -0.03950041540500935 -0.041174467699666463 0.056650793795561719 -0.034753351854235517 0.05888958168578521 -0.017762949891427068 -0.036206894458617828 0.028482421448066609 0.030772292622978578 -0.017382637557539087 0.069443312555236239 0.023740349691055693 0.032564087794623484 -0.039910864053922017 0.021594828853676223 0.039562885821591044 -0.016273942330790651
leaf_weight=2.0532651394605637 2.4346794933080727 2.1901040151715279 2.7159765958786011 3.3095601871609688 2.2465620711445808 2.027121163904666 2.5418687760829917 1.9297521412372587 4.0437391325831413 2.3073837012052518 2.1521479934453946 2.1044563055038479 1.9921198859810827 41.570802018046379 9.9294682517647725 1.8902444839477537 3.2581158503890064 3.7373869568109503 4.2276246100664139 3.8177082240581512 2.3039365038275719 2.2048423364758492 2.3810975104570389 3.3026597127318382 1.8245057463645924 2.1361760422587386 16.022782325744636 1.9079909846186627 2.4680881127715111 7.4204673320054999
leaf_count=22 25 23 29 31 21 20 26 20 45 23 21 23 21 475 112 20 36 39 45 40 23 22 25 34 20 22 174 20 26 82
internal_value=0.0025532 0.0284186 0.0632401 0.0819536 0.0434493 0.0115616 0.135766 -0.0207638 0.0296035 0.0502707 0.0782469 -0.00347354 0.0529286 -0.0272309 -0.00279982 0.0405335 0.0025618 -0.0123594 0.0207612 -0.00495689 0.0958589 0.0998773 0.0157783 0.0359107 -0.0300267 -0.00370248 -0.0244669 -0.0325711 0.00745496 -0.0363783
internal_weight=144.453 68.3801 21.4074 16.5552 10.7038 46.9728 5.85143 76.0725 8.24915 12.4852 4.20541 34.4876 4.01924 67.8234 18.8321 7.07811 5.14836 30.4683 7.96501 6.25239 4.61132 4.4514 7.87386 5.68376 11.754 4.85215 22.5033 17.9308 4.57254 48.9913
internal_count=1565 712 216 165 108 496 57 853 88 128 43 368 41 765 208 76 56 327 84 65 46 43 82 59 132 51 243 194 49 557
is_linear=0
shrinkage=0.05


end of trees

feature_importances:
Column_28=19
Column_40=17
Column_74=15
Column_6=14
Column_18=14
Column_38=14
Column_44=14
Column_62=14
Column_65=14
Column_69=14
Column_53=13
Column_17=12
Column_30=12
Column_50=12
Column_52=12
Column_54=12
Column_67=12
Column_5=11
Column_19=11
Column_58=11
Column_4=10
Column_7=10
Column_9=10
Column_41=10
Column_46=10
Column_10=9
Column_16=9
Column_20=9
Column_34=9
Column_43=9
Column_57=9
Column_64=9
Column_8=8
Column_22=8
Column_26=8
Column_33=8
Column_42=8
Column_45=8
Column_66=8
Column_23=7
Column_29=7
Column_31=7
Column_47=7
Column_56=7
Column_68=7
Column_21=6
Column_32=6
Column_55=6
Column_71=6
Column_14=5
Column_59=5
Column_70=5
Column_1=4
Column_11=4
Column_36=4
Column_2=2
Column_3=2
Column_51=2
Column_12=1
Column_24=1
Column_35=1
Column_61=1
Column_73=1

parameters:
[boosting: gbdt]
[objective: multiclass]
[metric: multi_logloss]
[tree_learner: serial]
[device_type: cpu]
[data_sample_strategy: bagging]
[data: ]
[valid: ]
[num_iterations: 500]
[learning_rate: 0.05]
[num_leaves: 31]
[num_threads: 0]
[seed: 42]
[deterministic: 0]
[force_col_wise: 0]
[force_row_wise: 0]
[histogram_pool_size: -1]
[max_depth: -1]
[min_data_in_leaf: 20]
[min_sum_hessian_in_leaf: 0.001]
[bagging_fraction: 0.8]
[pos_bagging_fraction: 1]
[neg_bagging_fraction: 1]
[bagging_freq: 5]
[bagging_seed: 400]
[bagging_by_query: 0]
[feature_fraction: 0.8]
[feature_fraction_bynode: 1]
[feature_fraction_seed: 30056]
[extra_trees: 0]
[extra_seed: 12879]
[early_stopping_round: 0]
[early_stopping_min_delta: 0]
[first_metric_only: 0]
[max_delta_step: 0]
[lambda_l1: 0]
[lambda_l2: 1]
[linear_lambda: 0]
[min_gain_to_split: 0]
[drop_rate: 0.1]
[max_drop: 50]
[skip_drop: 0.5]
[xgboost_dart_mode: 0]
[uniform_drop: 0]
[drop_seed: 17869]
[top_rate: 0.2]
[other_rate: 0.1]
[min_data_per_group: 100]
[max_cat_threshold: 32]
[cat_l2: 10]
[cat_smooth: 10]
[max_cat_to_onehot: 4]
[top_k: 20]
[monotone_constraints: ]
[monotone_constraints_method: basic]
[monotone_penalty: 0]
[feature_contri: ]
[forcedsplits_filename: ]
[refit_decay_rate: 0.9]
[cegb_tradeoff: 1]
[cegb_penalty_split: 0]
[cegb_penalty_feature_lazy: ]
[cegb_penalty_feature_coupled: ]
[path_smooth: 0]
[interaction_constraints: ]
[verbosity: -1]
[saved_feature_importance_type: 0]
[use_quantized_grad: 0]
[num_grad_quant_bins: 4]
[quant_train_renew_leaf: 0]
[stochastic_rounding: 1]
[linear_tree: 0]
[max_bin: 255]
[max_bin_by_feature: ]
[min_data_in_bin: 3]
[bin_construct_sample_cnt: 200000]
[data_random_seed: 175]
[is_enable_sparse: 1]
[enable_bundle: 1]
[use_missing: 1]
[zero_as_missing: 0]
[feature_pre_filter: 1]
[pre_partition: 0]
[two_round: 0]
[header: 0]
[label_column: ]
[weight_column: ]
[group_column: ]
[ignore_column: ]
[categorical_feature: ]
[forcedbins_filename: ]
[precise_float_parser: 0]
[parser_config_file: ]
[objective_seed: 16083]
[num_class: 6]
[is_unbalance: 0]
[scale_pos_weight: 1]
[sigmoid: 1]
[boost_from_average: 1]
[reg_sqrt: 0]
[alpha: 0.9]
[fair_c: 1]
[poisson_max_delta_step: 0.7]
[tweedie_variance_power: 1.5]
[lambdarank_truncation_level: 30]
[lambdarank_norm: 1]
[label_gain: ]
[lambdarank_position_bias_regularization: 0]
[eval_at: ]
[multi_error_top_k: 1]
[auc_mu_weights: ]
[num_machines: 1]
[local_listen_port: 12400]
[time_out: 120]
[machine_list_filename: ]
[machines: ]
[gpu_platform_id: -1]
[gpu_device_id: -1]
[gpu_use_dp: 0]
[num_gpu: 1]

end of parameters

pandas_categorical:null
