tree
version=v4
num_class=6
num_tree_per_iteration=6
label_index=0
max_feature_idx=75
objective=multiclass num_class:6
feature_names=Column_0 Column_1 Column_2 Column_3 Column_4 Column_5 Column_6 Column_7 Column_8 Column_9 Column_10 Column_11 Column_12 Column_13 Column_14 Column_15 Column_16 Column_17 Column_18 Column_19 Column_20 Column_21 Column_22 Column_23 Column_24 Column_25 Column_26 Column_27 Column_28 Column_29 Column_30 Column_31 Column_32 Column_33 Column_34 Column_35 Column_36 Column_37 Column_38 Column_39 Column_40 Column_41 Column_42 Column_43 Column_44 Column_45 Column_46 Column_47 Column_48 Column_49 Column_50 Column_51 Column_52 Column_53 Column_54 Column_55 Column_56 Column_57 Column_58 Column_59 Column_60 Column_61 Column_62 Column_63 Column_64 Column_65 Column_66 Column_67 Column_68 Column_69 Column_70 Column_71 Column_72 Column_73 Column_74 Column_75
feature_infos=none [-1.5447756052017212:4.1200060844421387] [-1.3920965194702148:1.4269504547119141] [-1.4503970146179199:1.6017783880233765] [-2.8588864803314209:2.4346039295196533] [-3.8107707500457764:2.0791447162628174] [-1.8694056272506714:2.8310205936431885] [-3.0407893657684326:5.3256511688232422] [-3.6433324813842773:3.7962512969970703] [-3.1801962852478027:4.9966616630554199] [-1.5901771783828735:19.042390823364258] [-6.7631840705871582:4.1228904724121094] [-0.80819958448410034:10.798158645629883] [-0.07467661052942276:33.677597045898438] [-4.6389904022216797:5.9054880142211914] [-0.23276343941688538:4.2962074279785156] [-2.5920979976654053:2.5988204479217529] [-3.4441332817077637:2.202023983001709] [-1.713068962097168:3.0035114288330078] [-3.0320124626159668:5.3395657539367676] [-3.6316945552825928:3.8077397346496582] [-3.2013812065124512:5.0217132568359375] [-1.8612898588180542:10.131525993347168] [-6.5892024040222168:3.8247110843658447] [-0.75531834363937378:9.8977041244506836] [-3.1124308109283447:11.595115661621094] [-4.604090690612793:5.2279019355773926] [-0.24568614363670349:4.0702338218688965] [-2.5812065601348877:2.6205885410308838] [-3.4277455806732178:2.2152149677276611] [-1.70088791847229:2.6963162422180176] [-3.0380957126617432:5.3462576866149902] [-3.6296088695526123:3.8006091117858887] [-3.1767659187316895:4.9980826377868652] [-1.7932151556015015:19.3248291015625] [-6.5489006042480469:3.7943258285522461] [-0.76924508810043335:9.4855546951293945] [-5.6820244789123535:8.1827287673950195] [-4.1622734069824219:5.1009306907653809] [-0.24588385224342346:4.0669612884521484] [-2.3188149929046631:2.5179235935211182] [-2.9636096954345703:2.069068431854248] [-1.5919474363327026:2.9881472587585449] [-3.0455248355865479:5.3632845878601074] [-3.6443333625793457:3.8174741268157959] [-3.1868109703063965:5.0102972984313965] [-1.8282524347305298:19.323856353759766] [-5.8774509429931641:4.8342218399047852] [-0.77272367477416992:8.7187070846557617] [-6.8339405059814453:4.3430166244506836] [-4.0670647621154785:5.0737380981445312] [-0.24476191401481628:4.0856027603149414] [-2.0842430591583252:2.4429194927215576] [-2.5718169212341309:1.9661611318588257] [-1.4897009134292603:2.9877607822418213] [-3.0398736000061035:5.3674097061157227] [-3.6350600719451904:3.8192720413208008] [-3.2036564350128174:5.0262579917907715] [-1.8966130018234253:19.939426422119141] [-4.3305425643920898:3.7146530151367188] [-0.72457098960876465:8.1155157089233398] [-7.9283814430236816:2.0054905414581299] [-4.197624683380127:4.8399877548217773] [-0.23882177472114563:4.1872224807739258] [-1.8474061489105225:2.2694845199584961] [-2.1733055114746094:1.7938690185546875] [-1.3824012279510498:2.8906056880950928] [-3.0511353015899658:5.3965144157409668] [-3.6499016284942627:3.8410561084747314] [-3.1800408363342285:4.9855117797851562] [-1.5297271013259888:9.7381429672241211] [-3.2249736785888672:3.0245773792266846] [-0.70773530006408691:6.7965569496154785] [-5.9993038177490234:0.30111774802207947] [-4.0297346115112305:4.6132512092590332] [-0.24263916909694672:4.1213459968566895]
tree_sizes=3306 3314 3309 3305 3309 3306 3399 3419 3425 3415 3413 3409 3426 3417 3414 3427 3416 3405 3406 3408 3423 3416 3413 3410

Tree=0
num_leaves=31
num_cat=0
split_feature=4 3 30 33 46 44 38 41 55 71 8 36 7 34 30 69 56 74 64 58 57 45 52 30 69 34 35 44 9 17
split_gain=9.64029 9.05018 9.14219 11.5916 5.81306 7.45029 6.74365 8.55451 5.64817 7.95314 7.99099 9.04022 8.27992 5.78157 5.31399 8.25649 7.34437 5.27238 6.08061 6.70325 4.97693 4.6648 4.17941 3.78593 3.57481 2.98727 2.80427 2.4823 1.43548 1.31334
threshold=0.3184479176998139 0.61524417623877536 0.82805418968200695 0.25778877735137945 -0.046799829229712479 -0.48873494565486902 -0.10414961352944373 0.40379557013511663 0.80225494503974926 0.42059773206710821 0.42946749925613409 1.0000000180025095e-35 -0.47740502655506128 0.13361362367868426 -1.0784085988998411 -0.010536607820540665 -0.18892223387956616 -0.23596234619617459 0.64087423682212841 0.063031638041138663 -0.68915256857871998 0.21037051081657412 0.31026737391948706 -0.33445668220520014 0.025719977915287021 -0.048559280112385743 -1.5761954784393308 0.30035109817981726 0.53437173366546642 -1.1754499077796934
decision_type=2 2 2 2 2 2 2 2 2 2 2 2 2 2 2 2 2 2 2 2 2 2 2 2 2 2 2 2 2 2
left_child=1 4 8 -4 5 -1 7 24 9 13 11 12 -11 28 15 16 -2 18 23 -20 -6 -10 -15 -16 -7 -8 -19 -27 -3 -22
right_child=14 2 3 -5 20 6 25 -9 21 10 -12 -13 -14 22 17 -17 -18 26 19 -21 29 -23 -24 -25 -26 27 -28 -29 -30 -31
leaf_value=-2.4519715211795323 -2.4277395154786263 -2.4557866627209499 -2.2877355296533919 -2.4189845244652326 -2.3796278264165385 -2.3821259689270557 -2.4487965816386281 -2.4287772927471498 -2.3161533481466616 -2.4032928347983602 -2.4379985142273539 -2.431526857449005 -2.2840063043615437 -2.4256501739069343 -2.3907396578230542 -2.4424107728364115 -2.3140684240438278 -2.3980008727753388 -2.3393458047080666 -2.4338333529951712 -2.4152682527914728 -2.4123941373036129 -2.3468615155294641 -2.45438890781762 -2.2754142647970919 -2.3676032361133141 -2.4509879109634545 -2.4297506804719053 -2.4108144876251227 -2.4568612975660997
leaf_weight=4.5923814848065403 1.9542048871517179 9.4778937026858383 3.6152790412306777 2.5404663532972336 2.0519151315093067 2.1496253758668908 3.029017575085164 2.051915131509304 2.4427561089396468 2.4427561089396468 3.3221483081579199 2.3450458645820618 3.5175687968730918 3.224438063800334 2.5404663532972327 4.396960996091364 2.7358868420124054 2.1496253758668855 3.5175687968730918 2.6381765976548195 2.2473356202244767 2.051915131509304 2.051915131509304 6.9374273493885985 1.9542048871517179 2.7358868420124018 31.267278194427494 2.14962537586689 1.954204887151717 12.897752255201336
leaf_count=47 20 97 37 26 21 22 31 21 25 25 34 24 36 33 26 45 28 22 36 27 23 21 21 71 20 28 320 22 20 132
internal_value=-2.41466 -2.40286 -2.38648 -2.33497 -2.42093 -2.40188 -2.38413 -2.34895 -2.39821 -2.40746 -2.37734 -2.35314 -2.32428 -2.42933 -2.42979 -2.39614 -2.35545 -2.43626 -2.41231 -2.3769 -2.44115 -2.35173 -2.38913 -2.4367 -2.31404 -2.41576 -2.4472 -2.39291 -2.44843 -2.45113
internal_weight=132.984 74.846 38.9864 6.15575 35.8597 18.6627 14.0703 6.15575 32.8306 28.336 11.6275 8.30537 5.96032 16.7085 58.1376 9.08705 4.69009 49.0505 15.6336 6.15575 17.197 4.49467 5.27635 9.47789 4.10383 7.91453 33.4169 4.88551 11.4321 15.1451
internal_count=1361 766 399 63 367 191 144 63 336 290 119 85 61 171 595 93 48 502 160 63 176 46 54 97 42 81 342 50 117 155
is_linear=0
shrinkage=1


Tree=1
num_leaves=31
num_cat=0
split_feature=19 43 18 17 3 38 74 65 17 18 17 14 29 52 6 38 67 9 38 50 38 74 66 42 50 66 65 55 26 59
split_gain=11.4107 13.0461 11.7758 9.10893 7.29384 7.12105 10.3633 10.0527 8.34849 7.90522 7.17744 6.60113 10.0776 8.98209 6.59823 6.07541 9.68003 5.86709 5.29306 5.13185 4.99592 4.66899 4.44717 4.42643 5.59652 11.2587 10.0046 5.27858 4.2767 3.91351
threshold=1.0868039131164553 -0.12720096111297605 0.020636123605072502 1.0888630151748659 0.61524417623877536 -0.24423588067293164 1.2308520674705508 -1.9888131618499754 -0.11204652115702628 -1.2813624143600462 1.3880816102027895 0.19856943935155871 0.036522867158055312 -0.14384108036756513 -0.29601597785949701 -0.12166039645671843 0.042581697925925262 0.1698328033089638 -0.74329325556755055 -0.21991062164306638 0.17602293193340304 -0.15285671502351758 0.26553073525428778 -1.4286969900131223 -0.11534472554922102 0.080322224646806731 0.45824885368347174 -0.32945886254310602 -0.46268299221992487 -0.17385836876928804
decision_type=2 2 2 2 2 2 2 2 2 2 2 2 2 2 2 2 2 2 2 2 2 2 2 2 2 2 2 2 2 2
left_child=5 4 -3 -4 -2 10 7 8 21 14 11 12 28 19 -9 16 -11 -8 -15 -14 -17 -7 -16 27 25 29 -27 -22 -1 -25
right_child=1 2 3 -5 -6 6 17 9 -10 15 -12 -13 13 18 22 20 -18 -19 -20 -21 23 -23 -24 24 -26 26 -28 -29 -30 -31
leaf_value=-1.6870539309927022 -1.5910471237612274 -1.7461015324036036 -1.6270011561199165 -1.7210568499577867 -1.6762653559005631 -1.611390326698894 -1.6109388631696411 -1.6314438776212996 -1.7122373853414445 -1.7236826936841187 -1.6581618931516373 -1.7365659553776529 -1.7019484877582611 -1.6741151576272344 -1.6652120292269041 -1.7301734009056111 -1.641114083023975 -1.6906929354473679 -1.7310726137431227 -1.6327071109059417 -1.6369750785685666 -1.6870539309927022 -1.7330516923665309 -1.6886629296966433 -1.7292082987377728 -1.6110731666373823 -1.7032410511904654 -1.7097487222398851 -1.7438691183205317 -1.7426382758924202
leaf_weight=3.5783559083938625 5.1886160671710986 6.6199584305286399 5.367533862590788 3.7572737038135529 5.5464516580104828 5.7253694534301749 4.2940270900726301 5.1886160671710968 5.1886160671710959 5.904287248849867 4.2940270900726309 29.87927183508873 3.9361914992332458 5.3675338625907889 3.5783559083938581 32.205203175544739 6.6199584305286407 4.6518626809120178 10.556149929761885 7.3356296122074145 3.7572737038135529 3.578355908393859 4.1151092946529388 4.4729448854923168 22.364724427461638 4.651862680912016 6.0832050442695618 4.8307804763317019 15.923683792352675 8.9458897709846514
leaf_count=20 29 37 30 21 31 32 24 29 29 33 24 167 22 30 20 180 37 26 59 41 21 20 23 25 125 26 34 27 89 50
internal_value=-1.69941 -1.66906 -1.69898 -1.6638 -1.62915 -1.70325 -1.69628 -1.70013 -1.66236 -1.70529 -1.71491 -1.71862 -1.70665 -1.68714 -1.66988 -1.71014 -1.67878 -1.64712 -1.71137 -1.65493 -1.71484 -1.63623 -1.70092 -1.70554 -1.71173 -1.69511 -1.65897 -1.67447 -1.73323 -1.72498
internal_weight=243.507 26.4798 15.7448 9.12481 10.7351 217.027 136.156 127.211 14.4923 112.718 80.8708 76.5768 46.6975 27.1955 12.8821 99.8361 12.5242 8.94589 15.9237 11.2718 87.3119 9.30373 7.69347 55.1067 46.5186 24.1539 10.7351 8.58805 19.502 13.4188
internal_count=1361 148 88 51 60 1213 761 711 81 630 452 428 261 152 72 558 70 50 89 63 488 52 43 308 260 135 60 48 109 75
is_linear=0
shrinkage=1


Tree=2
num_leaves=31
num_cat=0
split_feature=21 18 16 74 62 52 24 70 50 52 30 62 43 69 5 5 65 74 56 62 21 16 44 10 55 18 55 55 7 18
split_gain=8.79059 8.62315 13.6653 10.0179 9.67196 8.50776 11.8271 9.69525 7.58227 7.77728 7.88971 7.88711 6.61809 6.53041 6.15719 5.49198 11.8686 9.48438 6.13688 7.42848 6.38294 7.04564 4.76421 6.28314 4.12232 4.06322 4.02628 3.9011 3.45907 3.33291
threshold=-1.0955270528793333 1.7144448161125185 1.5407212972640993 0.063217934221029295 -2.4113174676895137 -1.0427769422531126 1.0000000180025095e-35 0.18734737485647204 -0.49003921449184412 1.3023450970649721 0.26356309652328497 -0.12009167298674582 0.58567920327186596 0.45589841902256018 -0.20506519824266431 0.94422948360443126 0.29076476395130163 -0.061440519988536828 -0.67829933762550343 0.17691907286643985 -0.90013849735259999 1.4593877196311953 0.44697561860084539 0.26967939734458929 0.80225494503974926 -0.012656712904572485 -0.0655635930597782 -0.10246226936578749 1.0000000180025095e-35 -1.0560164451599119
decision_type=2 2 2 2 2 2 2 2 2 2 2 2 2 2 2 2 2 2 2 2 2 2 2 2 2 2 2 2 2 2
left_child=-1 4 3 -3 -2 6 13 15 -9 10 11 -10 -12 26 -8 18 17 -17 19 28 -20 22 29 27 -18 -13 -6 -24 -7 -22
right_child=1 2 -4 -5 5 7 14 8 9 -11 12 25 -14 -15 -16 16 24 -19 20 -21 21 -23 23 -25 -26 -27 -28 -29 -30 -31
leaf_value=-1.6491338138680269 -1.5623069546063904 -1.5051973957768923 -1.6482856044947376 -1.6026165909315369 -1.6560858317400262 -1.647252710886189 -1.5167449594468774 -1.6367862603027141 -1.5994831826657085 -1.6424177644701692 -1.6416111181645663 -1.5723329214278545 -1.567738175476066 -1.5765707081771514 -1.6002418435349406 -1.6197038040397405 -1.649628994764293 -1.5375464621847024 -1.5841009217788053 -1.5708017687396942 -1.6256710478361862 -1.5888326154005272 -1.6084919313542472 -1.5780156465081514 -1.5948803011589368 -1.491176946716017 -1.6079922963059785 -1.6516518733465593 -1.5948803011589368 -1.6571968163097899
leaf_weight=17.769718363881111 7.0696728974580756 5.1589504927396757 4.203589290380477 5.1589504927396774 7.6428896188735989 8.7893230617046374 4.9678782522678375 10.317900985479353 7.0696728974580774 4.9678782522678366 6.6875284165143949 4.7768060117959976 4.012517049908638 6.6875284165143958 4.2035892903804797 6.3053839355707169 12.801840111613275 6.6875284165143984 4.3946615308523169 7.2607451379299155 10.891117706894873 5.3500227332115164 7.4518173784017625 4.5857337713241568 3.8214448094367972 3.8214448094368016 8.2161063402891141 14.521490275859831 3.8214448094367972 50.634143725037575
leaf_count=93 37 27 22 27 40 46 26 54 37 26 35 25 21 35 22 33 67 35 23 38 57 28 39 24 20 20 43 76 20 265
internal_value=-1.61617 -1.61362 -1.57756 -1.54843 -1.61608 -1.61803 -1.59447 -1.62208 -1.60102 -1.58897 -1.57829 -1.55678 -1.61216 -1.61472 -1.54971 -1.62809 -1.60903 -1.57484 -1.63291 -1.6079 -1.63802 -1.64086 -1.64429 -1.62609 -1.63657 -1.52703 -1.63218 -1.63733 -1.631 -1.65186
internal_weight=260.049 242.28 14.5215 10.3179 227.758 220.688 31.718 188.97 41.6537 31.3358 26.368 15.6679 10.7 22.5465 9.17147 147.317 29.6162 12.9929 117.701 19.8715 97.829 93.4343 88.0843 26.559 16.6233 8.59825 15.859 21.9733 12.6108 61.5253
internal_count=1361 1268 76 54 1192 1155 166 989 218 164 138 82 56 118 48 771 155 68 616 104 512 489 461 139 87 45 83 115 66 322
is_linear=0
shrinkage=1


Tree=3
num_leaves=31
num_cat=0
split_feature=40 50 67 33 31 12 22 50 22 55 5 35 67 64 34 50 46 65 62 50 40 4 22 4 33 9 58 34 9 21
split_gain=10.7074 11.7489 11.5284 9.2458 10.2254 7.47701 7.44514 7.35356 7.31914 8.10305 8.84558 7.08784 6.76556 5.87401 6.04739 8.88594 7.39662 5.688 5.67872 5.45983 5.14616 7.77162 4.92945 4.81784 6.16839 6.26131 5.48381 4.8068 4.72367 4.62509
threshold=0.12717658281326297 -0.74274015426635731 1.0370579361915591 0.56435784697532665 0.51780179142951976 1.0000000180025095e-35 0.048623830080032356 -1.4311324954032896 -0.066691713407635675 0.26979343593120581 0.95194527506828319 -1.0000000180025095e-35 -1.0513888597488401 0.43319101631641393 -0.24474548548460004 0.041504139080643661 0.009530688286758961 -0.9593415856361388 -0.23040994256734845 0.36391566693782812 1.0249019265174868 0.32774960994720465 -0.21083614230155942 1.2951352596282961 -0.2763772308826446 0.15560464560985568 -0.18102665990591046 0.021507220342755321 0.38522002100944525 0.40689250826835638
decision_type=2 2 2 2 2 2 2 2 2 2 2 2 2 2 2 2 2 2 2 2 2 2 2 2 2 2 2 2 2 2
left_child=1 7 3 8 5 11 29 -1 9 17 19 -5 -10 14 15 22 -17 -2 -9 27 21 -14 -3 24 25 -16 -27 -11 -6 -4
right_child=2 13 6 4 28 -7 -8 18 12 10 -12 -13 20 -15 23 16 -18 -19 -20 -21 -22 -23 -24 -25 -26 26 -28 -29 -30 -31
leaf_value=-1.5860904373290388 -1.5494676114290908 -1.5460409948240712 -1.4698638755000923 -1.5097232242890033 -1.5384692693712119 -1.6078521155241674 -1.5648019021588746 -1.559103851458888 -1.5037778462947342 -1.4817753761515924 -1.6022296546110315 -1.5830040630252031 -1.573022126062005 -1.6003266935179974 -1.5920546849710804 -1.4942348681305686 -1.5631644181625624 -1.6049107101393973 -1.4939270283312909 -1.5777825257274076 -1.5834681971944955 -1.5160804071337672 -1.6105247706541541 -1.5359825110133152 -1.6002244034765285 -1.5004052220792972 -1.5731606924476897 -1.5560994786348274 -1.4617165702552419 -1.541975077511414
leaf_weight=5.5592994689941433 4.963660240173339 3.9709281921386719 6.1549386978149432 6.9491243362426784 4.7651138305664045 4.7651138305664054 5.7578458786010733 5.9563922882080087 4.7651138305664054 4.5665674209594744 5.9563922882080069 4.9636602401733425 12.706970214843752 32.164518356323242 9.1331348419189471 6.3534851074218741 8.3389492034912092 28.19359016418457 7.1476707458496067 4.1694746017456046 15.486619949340819 9.9273204803466779 7.1476707458496112 3.970928192138671 34.944168090820312 4.1694746017456055 4.7651138305664045 3.9709281921386719 4.1694746017456055 4.3680210113525391
leaf_count=28 25 20 31 35 24 24 29 30 24 23 30 25 64 162 46 32 42 142 36 21 78 50 36 20 176 21 24 20 21 22
internal_value=-1.56647 -1.57649 -1.55665 -1.56216 -1.5361 -1.56027 -1.51846 -1.54057 -1.56942 -1.58192 -1.55583 -1.53934 -1.55427 -1.58247 -1.57519 -1.55535 -1.53079 -1.59642 -1.52108 -1.5329 -1.56197 -1.54706 -1.58789 -1.58418 -1.58824 -1.56441 -1.53619 -1.51186 -1.49593 -1.49526
internal_weight=270.222 133.622 136.6 120.319 25.6125 16.6779 16.2808 18.6634 94.7066 51.8206 18.6634 11.9128 42.886 114.958 82.7939 25.811 14.6924 33.1573 13.1041 12.707 38.1209 22.6343 11.1186 56.9828 53.0119 18.0677 8.93459 8.5375 8.93459 10.523
internal_count=1361 673 688 606 129 84 82 94 477 261 94 60 216 579 417 130 74 167 66 64 192 114 56 287 267 91 45 43 45 53
is_linear=0
shrinkage=1


Tree=4
num_leaves=31
num_cat=0
split_feature=53 21 21 26 7 57 55 31 58 32 12 5 6 55 52 57 22 69 21 32 58 33 21 62 66 44 62 9 20 35
split_gain=18.3414 11.6162 8.28136 9.86594 8.02869 7.14715 9.19866 8.29594 6.70986 5.32655 10.938 11.3682 6.63215 12.5478 12.3662 9.15491 5.00274 4.54954 3.99068 4.70686 3.60649 7.7466 4.3012 4.21429 5.20778 4.60975 4.31075 3.42925 3.41807 3.0091
threshold=-0.70274507999420155 0.11775691434741022 0.21545116603374484 0.45273976027965551 0.67298060655593883 -0.49162670969963068 0.76255381107330333 0.12327131256461145 0.12045711278915407 0.57403695583343517 1.0000000180025095e-35 0.64471843838691723 0.26034645736217504 0.49118530750274664 0.73388090729713451 0.33995717763900762 0.14952493458986285 0.69646522402763378 0.81148499250411998 -0.10619956254959105 0.01996251987293363 -0.47601491212844843 -0.0095417737029492838 -0.18797983974218366 -0.95016497373580922 -0.12198718637228011 -0.51044863462448109 -0.28252904117107386 0.30041840672492987 -0.78056240081787098
decision_type=2 2 2 2 2 2 2 2 2 2 2 2 2 2 2 2 2 2 2 2 2 2 2 2 2 2 2 2 2 2
left_child=18 5 3 -3 9 6 7 29 28 10 12 -12 14 15 -4 -14 -11 -6 -1 -20 22 -22 23 25 -25 -7 -27 -26 -9 -2
right_child=1 2 4 -5 17 20 -8 8 -10 16 11 -13 13 -15 -16 -17 -18 -19 19 -21 21 -23 -24 24 27 26 -28 -29 -30 -31
leaf_value=-1.7182941026859051 -1.7160189457998125 -1.6671593425511211 -1.7182148518948352 -1.5703022750861158 -1.7117696171565329 -1.7089753846533318 -1.7174496124012584 -1.5703022750861158 -1.6827454397868931 -1.7065547577101623 -1.5792714424081331 -1.6747267051956765 -1.5824101960608727 -1.7167839818128332 -1.6329393602979843 -1.6755721889086086 -1.6465730445350157 -1.6566031784318467 -1.6465730445350157 -1.7160189457998125 -1.6637916777649637 -1.7220611930888727 -1.6544740490161067 -1.6645128953555386 -1.6843294927687271 -1.6849905486663885 -1.6246525385722066 -1.7333835759278029 -1.6502969238656371 -1.6672998368378784
leaf_weight=41.661135405302048 3.803842797875407 6.8831441104412061 12.317205250263216 3.8038427978754044 14.853100448846819 6.1586026251316097 6.7020087391138068 3.8038427978754026 3.6227074265480042 10.50585153698921 7.2454148530960065 5.4340611398220062 5.7963318824768049 3.9849781692028037 5.2529257684946051 4.7095196545124054 3.9849781692028037 3.9849781692028037 3.9849781692028046 3.8038427978754035 6.5208733677864066 25.721222728490829 6.883144110441207 4.5283842831850079 4.7095196545124098 6.7020087391138086 4.3472489118576023 12.860611364245411 3.6227074265480042 8.3322270810604113
leaf_count=230 21 38 68 21 82 34 37 21 20 58 40 30 32 22 29 26 22 22 22 21 36 142 38 25 26 37 24 71 20 46
internal_value=-1.68536 -1.6785 -1.6652 -1.62574 -1.67129 -1.6895 -1.66905 -1.65433 -1.62494 -1.66234 -1.65397 -1.61637 -1.6705 -1.64662 -1.69124 -1.61964 -1.68858 -1.69921 -1.71227 -1.68005 -1.6974 -1.70996 -1.68831 -1.69487 -1.70888 -1.6766 -1.65814 -1.72086 -1.60046 -1.6837
internal_weight=246.525 197.075 88.7563 10.687 78.0693 108.319 29.8873 23.1853 11.0493 59.2313 44.7404 12.6795 32.061 14.4908 17.5701 10.5059 14.4908 18.8381 49.45 7.78882 78.4316 32.2421 46.1895 39.3064 22.0985 17.2079 11.0493 17.5701 7.42655 12.1361
internal_count=1361 1088 490 59 431 598 165 128 61 327 247 70 177 80 97 58 80 104 273 43 433 178 255 217 122 95 61 97 41 67
is_linear=0
shrinkage=1


Tree=5
num_leaves=31
num_cat=0
split_feature=64 42 52 66 38 54 45 47 14 5 57 28 14 32 45 50 30 45 29 6 40 10 16 14 14 28 64 57 54 54
split_gain=21.9162 15.0328 14.5514 18.7725 9.75015 9.34952 16.1286 7.80972 6.93543 7.62679 10.675 7.37458 6.9205 6.58017 6.33288 6.65028 6.0831 5.65732 6.00941 5.214 3.84763 2.89645 2.83569 2.55783 2.42576 2.05378 3.51368 1.81643 1.68042 1.67355
threshold=-1.42902535200119 -0.57129862904548634 -0.56977489590644825 -0.41672459244728083 -0.47187608480453486 1.6334475278854372 -0.11719903349876402 -0.70014253258705128 0.12378589808940889 0.012378404848277571 -0.45261532068252558 -1.4169154763221739 -0.75024661421775807 0.87867578864097606 -0.68380576372146595 -0.028206467628479 0.030786112882196907 0.26004707813262945 -0.2598384022712707 -0.048956928774714463 0.55178123712539684 0.3254054337739945 -0.10571727529168128 0.25465708225965505 -1.8533037304878233 -0.32765394449234003 0.52000203728675853 0.57155615091323864 1.2298960685729983 -0.63636597990989674
decision_type=2 2 2 2 2 2 2 2 2 2 2 2 2 2 2 2 2 2 2 2 2 2 2 2 2 2 2 2 2 2
left_child=21 2 3 -2 -5 8 -7 -4 11 10 -10 -3 -9 23 15 -13 22 27 -19 -18 -8 -1 -12 -11 -16 26 29 -14 -27 -26
right_child=1 5 7 4 -6 6 20 12 9 13 16 14 17 -15 24 -17 19 18 -20 -21 -22 -23 -24 -25 25 28 -28 -29 -30 -31
leaf_value=-2.0454313788342087 -2.0085572152244446 -1.9641679816486832 -1.9356442018188138 -1.9707905655697302 -1.8540571558451298 -1.8894663579296509 -1.9721766225513828 -1.9444638047526672 -1.9046384250693802 -1.9882554101380321 -1.9853249902860728 -1.9480140201391674 -2.0420567428604612 -1.9530673046531468 -1.9918216355655889 -2.0223800447562321 -1.929101514384735 -2.0280865953233111 -1.9480140201391671 -2.0116217257554525 -2.0402121377722557 -2.0001840335592576 -2.0422295461038034 -2.0307313010034518 -1.9984733580207625 -2.0431177320489562 -1.9721766225513828 -1.9984733580207625 -2.0051681834218789 -2.0432932036039073
leaf_weight=27.747259140014652 4.9048185348510733 4.7646808624267569 4.2041301727294949 3.3633041381835929 5.6055068969726554 3.6435794830322266 2.8027534484863263 3.22316646575928 3.7837171554565456 3.7837171554565492 2.802753448486329 4.3442678451538086 10.510325431823732 3.08302879333496 3.2231664657592694 6.0259199142456037 3.9238548278808594 3.3633041381835938 4.3442678451538077 2.8027534484863281 3.6435794830322266 3.9238548278808585 4.7646808624267551 16.536245346069336 2.8027534484863272 32.231664657592788 2.8027534484863272 2.8027534484863272 3.3633041381835929 5.6055068969726483
leaf_count=198 35 34 30 24 40 26 20 23 27 27 20 31 75 22 23 43 28 24 31 20 26 28 34 118 20 230 20 20 24 40
internal_value=-2.00261 -1.99499 -1.96984 -1.92969 -1.89027 -2.00431 -1.96058 -1.99122 -2.0088 -1.99296 -1.96944 -2.01887 -2.00312 -2.01173 -2.02374 -1.98918 -1.99186 -2.01434 -1.98189 -1.96023 -2.01054 -2.03993 -2.02162 -2.02253 -2.03102 -2.03389 -2.01388 -2.03325 -2.03971 -2.02952
internal_weight=190.727 159.056 42.3216 13.8736 8.96881 116.735 10.0899 28.4479 106.645 41.4808 18.0778 65.164 24.2438 23.403 60.3993 10.3702 14.294 21.0207 7.70757 6.72661 6.44633 31.6711 7.56743 20.32 50.0291 46.806 11.211 13.3131 35.595 8.40826
internal_count=1361 1135 302 99 64 833 72 203 761 296 129 465 173 167 431 74 102 150 55 48 46 226 54 145 357 334 80 95 254 60
is_linear=0
shrinkage=1


Tree=6
num_leaves=31
num_cat=0
split_feature=6 30 70 11 64 9 26 28 69 32 67 67 26 21 9 18 64 10 18 70 46 64 21 69 41 31 41 10 41 55
split_gain=9.23581 8.92696 12.016 13.2953 9.24027 8.92242 9.97709 13.6088 13.6984 8.22711 5.36544 10.2899 4.92342 9.91238 4.58612 6.07991 6.19088 4.25395 4.50044 4.15461 3.5691 2.94448 2.76753 2.36255 3.23619 1.86951 1.76338 1.3437 1.1922 4.64153
threshold=-0.11065321415662764 0.97865843772888195 -0.033320827409625046 -0.6921037584543227 0.49377791583538061 -0.71968132257461537 -0.1722123175859451 -0.11589543521404265 0.48039607703685766 -0.1199454292654991 -0.51637104153633107 0.47388127446174627 -0.9027900993824004 0.48090332746505743 0.48432733118534094 -0.042647859081625931 0.019331673160195354 0.13036429882049563 -1.0560164451599119 0.61489209532737743 0.051778571680188186 1.4456845521926882 0.75178277492523204 0.76211908459663402 1.0000000180025095e-35 -1.498169422149658 0.96058458089828502 0.3393369466066361 -0.78050488233566273 0.4682989120483399
decision_type=2 2 2 2 2 2 2 2 2 2 2 2 2 2 2 2 2 2 2 2 2 2 2 2 2 2 2 2 2 2
left_child=5 12 3 26 -5 9 14 8 10 -1 -8 -12 13 -2 27 16 -16 18 -9 21 -11 23 -4 25 -25 -14 -3 -7 29 -27
right_child=1 2 22 4 -6 6 7 17 -10 20 11 -13 19 -15 15 -17 -18 -19 -20 -21 -22 -23 -24 24 -26 28 -28 -29 -30 -31
leaf_value=0.11444461448919262 -0.027711323694310838 0.021014712633295466 -0.03925331727007466 0.029291976595571353 0.16666677479212333 -0.03876552963847589 0.028101443666305445 0.029738194367848643 -0.014792526956534158 0.043808180900638441 0.16386539812752221 0.018432286396071942 0.001096376155384703 0.081244078416626661 0.090147709449093893 -0.034549810823164821 -0.014507022348225727 0.035279046810222946 -0.040568800054665802 0.032507068062630338 -0.03008780632965723 0.015318943129957888 0.020542019909616568 -0.033530995292286196 0.031806235622291248 -0.038892700783009458 -0.032283921779236696 0.0038703068410674002 -0.042785965416199695 0.037115572567694384
leaf_weight=3.0273665636777878 4.3020868822932234 1.9330739378929145 6.0377840399742118 2.9394996985793123 2.0376419946551323 12.681118473410608 3.0054398402571669 2.254133000969885 3.7061952203512183 2.8582401797175399 3.5092040076851871 2.0494574904441833 3.1819290965795508 2.5068995282053947 2.2784260734915733 3.0629383325576773 2.0616802871227264 3.2633717432618132 7.85666424036026 2.1402395740151396 1.9276566654443739 3.0234585851430884 1.9523211643099783 2.767595797777175 2.8139105662703514 5.7028963938355401 2.4070587754249573 1.9382186532020558 31.573360368609432 1.9644765108823774
leaf_count=30 44 20 62 30 20 130 31 23 38 29 35 21 33 25 23 31 21 33 81 22 20 31 20 29 29 59 25 20 326 20
internal_value=-0.000193161 -0.0113098 0.0195388 0.0555684 0.104008 0.0152185 0.00652801 0.027245 0.0631526 0.0614808 0.0949038 0.121231 -0.0203862 0.0176703 -0.0177319 0.0131801 0.0470265 -0.00780042 -0.0236286 -0.0254962 0.0139884 -0.028507 -0.023983 -0.0315236 -0.000763518 -0.0354599 -0.00905511 -0.033227 -0.0383777 -0.0173831
internal_weight=132.764 77.2842 17.3074 9.31727 4.97714 55.4801 47.6668 25.6445 12.2703 7.81326 8.5641 5.55866 59.9769 6.80899 22.0224 7.40304 4.34011 13.3742 10.1108 53.1679 4.7859 51.0276 7.99011 48.0042 5.58151 42.4227 4.34013 14.6193 39.2407 7.66737
internal_count=1361 795 177 95 50 566 487 262 125 79 87 56 618 69 225 75 44 137 104 549 49 527 82 496 58 438 45 150 405 79
is_linear=0
shrinkage=0.05


Tree=7
num_leaves=31
num_cat=0
split_feature=19 21 22 69 68 38 42 14 7 10 21 71 74 4 69 47 50 56 55 69 69 42 17 70 71 10 38 55 54 57
split_gain=10.2196 7.62759 7.56546 6.93608 6.59833 8.11848 9.22797 12.7327 7.74504 6.61992 6.5309 6.2521 6.03663 5.82525 12.1631 6.28084 7.27131 5.06755 5.19261 8.21595 8.30778 7.54986 6.46411 5.03426 6.1279 4.5757 5.69416 5.90477 3.75949 3.64629
threshold=1.0868039131164553 0.22827962040901187 0.76934593915939342 -0.069330882281064973 0.17985053360462191 0.17602293193340304 -0.16971874237060544 0.25465708225965505 0.44290345907211309 0.10250127315521242 -1.0017800033092497 0.21227926015853885 0.58678346872329723 1.2280847430229189 0.43238072097301489 0.37102476507425314 -0.68174335360527027 0.49203087389469152 0.11846243217587472 -0.027684879489243027 0.51371288299560558 0.60137876868247997 0.081605117768049254 -0.060904351994395249 0.21227926015853885 -0.050745341926813119 -1.176685035228729 -0.50741299986839283 0.59492298960685741 -0.66544947028160084
decision_type=2 2 2 2 2 2 2 2 2 2 2 2 2 2 2 2 2 2 2 2 2 2 2 2 2 2 2 2 2 2
left_child=2 12 4 -3 5 10 7 8 -7 29 -1 -11 -2 15 -15 17 -17 18 19 -6 21 -21 -20 24 -18 -12 -27 -28 -24 -8
right_child=1 3 -4 -5 13 6 9 -9 -10 11 25 -13 -14 14 -16 16 23 -19 22 20 -22 -23 28 -25 -26 26 27 -29 -30 -31
leaf_value=0.026686230230968572 -0.01158325305720569 0.0035645550866167382 0.059573246546850304 0.088417622173629751 -0.034457293151016151 -0.022914052808126379 0.012171036296014466 0.096069882821816846 0.056776750733973397 -0.015462109382616952 -0.035142704221096437 0.063221084021172089 0.049616282683358132 -0.0019441911246236708 0.0994642340208826 -0.022000440274082444 0.012273434104037551 -0.028659484838047641 0.067906187218497518 0.089243666194069135 -0.027151803300660818 -0.0018304404069721442 0.030214871018138936 0.00020890487822932096 0.084588632492890337 0.040611620015329579 0.01463991665612486 -0.033105199016648344 -0.031036044838626667 -0.040440828999265106
leaf_weight=6.0927217304706565 11.639899104833608 3.5955478399991989 3.9777904748916617 6.8693347722291929 14.248374626040457 7.9181040972471255 3.7637994885444686 4.7741953879594794 3.6402506679296494 4.6565062105655652 40.439100340008736 3.8162848204374313 4.9541102498769751 7.1725627630949003 3.9866475909948349 5.9247264415025738 5.3444995284080541 17.049965351819992 4.8887090235948554 3.9929559528827685 5.347984477877616 4.1087825745344162 3.9381161481142026 5.8670315742492649 6.7387898415327072 3.9258111119270351 8.9244056344032341 18.786150753498074 4.0857665538787842 13.37967212498188
leaf_count=34 64 20 22 37 80 44 21 26 20 26 228 21 27 40 22 33 30 96 27 22 30 23 22 33 37 22 50 106 23 75
internal_value=0.00229703 0.0306918 -0.00137176 0.0621174 -0.00278421 -0.0104805 0.00715546 0.0354151 0.0047067 -0.0115161 -0.0199157 0.0229108 0.00846934 0.00719436 0.0394848 0.00235015 0.0233797 -0.00660748 0.00311708 -0.00911345 0.0182619 0.0479291 0.0281214 0.0387285 0.0559861 -0.0241664 -0.00948901 -0.0177542 -0.000957186 -0.0288559
internal_weight=243.849 27.0589 216.79 10.4649 212.812 120.117 41.9488 16.3326 11.5584 25.6163 78.1682 8.47279 16.594 92.6949 11.1592 81.5357 23.875 57.6607 40.6107 27.6981 13.4497 8.10174 12.9126 17.9503 12.0833 72.0755 31.6364 27.7106 8.02388 17.1435
internal_count=1361 148 1213 57 1191 673 233 90 64 143 440 47 91 518 62 456 133 323 227 155 75 45 72 100 67 406 178 156 45 96
is_linear=0
shrinkage=0.05


Tree=8
num_leaves=31
num_cat=0
split_feature=21 18 16 22 62 74 17 33 52 16 74 22 21 74 65 21 33 20 72 17 10 68 67 46 7 6 58 44 62 66
split_gain=8.21134 7.66711 12.0977 8.80905 10.3529 8.41167 6.50525 7.38653 11.2618 8.22798 7.3394 7.03231 7.59453 12.4593 7.11422 8.17043 6.45513 7.9069 6.45301 6.25066 5.78648 5.75683 9.50777 6.2612 5.35144 5.16321 4.28678 4.20456 7.52417 6.72907
threshold=-1.0955270528793333 1.7144448161125185 1.5407212972640993 0.35132712125778204 -2.4113174676895137 0.063217934221029295 1.4375033974647524 0.2715230137109757 -0.82864987850189198 -0.53442978858947743 -0.028198265470564362 -0.3549805879592895 0.25985772907733923 -0.42710530757904047 -2.1414149999618526 -0.70623013377189625 0.67864689230918895 -0.4126513004302978 -1.0000000180025095e-35 0.40200451016426092 0.074638251215219512 1.1716534495353701 -0.17940365523099897 -0.089047718793153749 -0.022828401997685429 0.26555642485618597 -0.16667029261589048 0.20148223638534549 -0.18797983974218366 0.14313858002424243
decision_type=2 2 2 2 2 2 2 2 2 2 2 2 2 2 2 2 2 2 2 2 2 2 2 2 2 2 2 2 2 2
left_child=-1 3 5 4 -2 -3 7 8 9 24 -8 12 13 -10 -13 -16 17 18 -9 -15 -11 22 23 -18 -6 -14 -25 -17 -29 -30
right_child=1 2 -4 -5 6 -7 10 16 11 20 -12 14 25 19 15 27 21 -19 -20 -21 -22 -23 -24 26 -26 -27 -28 28 29 -31
leaf_value=-0.032500182985364348 0.060849561684036796 0.10002408257100162 -0.03180923227895481 -0.02807958405725627 -0.024321462982031059 0.012272698151377498 -0.006589983458026933 -0.023899738389595141 -0.022790646555176045 0.08628556562546702 0.076773859698060914 0.043713335279135644 0.026381301373503724 0.026496947521670769 0.042458654070177709 -0.031226665294918271 0.054504907864082845 -0.045446748430257228 0.05080024287078494 0.11250980058242199 0.012975353374582008 0.051313284067472903 -0.027379678876043978 0.024767042164198467 0.039395595582955849 -0.037549092591368301 -0.040925340736294183 -0.036939747094221688 0.051590198309523674 -0.012648033564987216
leaf_weight=17.379161566495895 6.5157217085361472 5.5417343378066999 4.1199514269828788 24.195858106017113 6.2969684600830078 5.2338038682937622 4.5582989156246185 6.1562201827764511 4.202291712164878 8.0269423872232419 4.8310912996530515 4.7677285522222439 4.7673868685960752 4.7600389868021029 4.8325552642345349 33.068362012505546 6.9811044335365295 22.57000295817852 3.8731001913547498 4.4733805954456329 4.4111003279685965 3.8521092087030402 21.476562812924385 4.229626327753067 5.0269773900508898 6.0836727023124695 3.7694434970617277 9.2311686575412768 6.7325001955032331 7.9669073522090912
leaf_count=93 33 27 22 127 33 27 24 32 22 41 25 25 25 25 25 175 36 119 20 23 23 20 113 22 26 32 20 49 35 42
internal_value=-0.000274415 0.00215856 0.0357318 -0.000184785 0.00325361 0.062064 0.00105033 -0.00107733 0.00681899 0.0367123 0.039564 -0.00131105 0.0211982 0.0450181 -0.00971167 -0.0144613 -0.0134185 -0.0296035 0.00693813 0.0750905 0.0631867 7.06198e-05 -0.00656919 0.0231124 0.0048656 -0.00960541 -0.00729728 -0.0199361 -0.00370747 0.0181859
internal_weight=259.932 242.553 14.8955 227.657 203.461 10.7755 196.946 187.556 114.648 23.762 9.38939 90.886 24.2868 13.4357 66.5992 61.8315 72.9082 32.5993 10.0293 9.23342 12.438 40.3088 36.4567 14.9802 11.3239 10.8511 7.99907 56.9989 23.9306 14.6994
internal_count=1361 1268 76 1192 1065 54 1032 983 601 123 49 478 127 70 351 326 382 171 52 48 64 211 191 78 59 57 42 301 126 77
is_linear=0
shrinkage=0.05


Tree=9
num_leaves=31
num_cat=0
split_feature=41 31 43 50 44 7 70 14 56 19 64 46 7 8 58 32 45 16 64 19 65 4 50 44 14 7 57 14 18 41
split_gain=13.5414 13.018 11.8442 10.017 8.19626 9.95112 8.40733 7.97189 7.51951 7.3122 7.23169 6.71745 6.6666 11.4479 5.43642 6.59579 6.01548 5.82185 4.89567 4.57793 4.46046 4.79517 4.50987 6.75943 7.16438 4.29287 4.21267 4.18578 4.01737 3.82359
threshold=0.15686656534671786 0.32263273000717169 0.87998750805854808 -0.74274015426635731 -0.15034198760986325 -0.57594305276870716 -0.1022796407341957 0.85292536020278942 -0.10096123442053793 0.67334118485450756 -0.065067935734987245 -0.018634571228176352 -0.42441760003566736 -0.58938345313072193 0.01996251987293363 0.57069334387779247 -0.016862369142472741 1.2362898588180544 0.48262503743171697 1.5677047967910769 -0.39476212859153742 -1.2899855971336363 0.45976775884628301 -0.27570039033889765 -0.3342632502317428 -0.44951687753200525 0.24761370569467547 -0.091216761618852601 0.61825671792030346 0.78947249054908764
decision_type=2 2 2 2 2 2 2 2 2 2 2 2 2 2 2 2 2 2 2 2 2 2 2 2 2 2 2 2 2 2
left_child=3 4 12 7 5 27 8 10 -7 25 -1 -11 13 -3 17 -16 -17 29 -8 20 22 -22 -5 -24 -25 26 -6 -2 -4 -14
right_child=1 2 28 19 9 6 18 -9 -10 11 -12 -13 14 -15 15 16 -18 -19 -20 -21 21 -23 23 24 -26 -27 -28 -29 -30 -31
leaf_value=0.070739762597514563 -0.045125836737314573 -0.0092173131552546438 0.10572577819643043 -0.021560076083536966 -0.024978925341390668 -0.042421493407849446 0.093532919327011202 -0.028160159035629774 0.035090551281303305 -0.015271017694224521 -0.0040634480191382109 0.05311385198313387 -0.00040044491030240205 0.08916847286407005 0.061575482933409399 -0.04222892312887884 0.032431502647872743 0.036753073773386033 0.018086737475519265 0.023871567931315164 0.0097766920579085894 -0.034937858851261862 -0.025064864241076148 -0.0066205905167853853 0.077439642750683921 -0.033521619842525642 0.038563463338695925 0.0079838511001842222 0.031230164854903437 -0.046920785182378938
leaf_weight=7.0980460494756707 6.0942000150680542 4.7956237196922302 4.6827529668807966 24.934915602207184 4.5306829661130887 4.1521520763635618 5.8442339748144168 5.1949457228183737 6.9936045259237289 7.106089249253273 5.2038535624742517 5.6268580257892591 8.5899763703346306 6.0530023127794248 6.4448413252830496 3.9895210564136496 4.877403423190116 4.0430769324302664 3.9789722859859467 4.9216949939727774 6.2693119794130316 56.219525903463364 6.3402487933635703 4.5074438452720633 4.3952309042215338 33.180794417858124 3.9618067294359207 7.2491841614246351 4.3880056142807007 8.1301896274089795
leaf_count=35 31 24 23 127 23 21 29 26 35 36 26 28 43 30 32 20 24 20 20 25 32 287 32 23 22 168 20 36 22 41
internal_value=-0.00208946 0.00830042 0.0269502 -0.0140802 -0.0036395 0.0152321 0.0360578 0.0201761 0.00509956 -0.0156013 0.0411704 0.0166162 0.0160031 0.0485698 0.00516367 0.0268721 -0.002036 -0.0113442 0.0674675 -0.0197857 -0.0220886 -0.0303685 -0.00878625 0.0121505 0.038509 -0.0256039 0.00560379 -0.0177274 0.0763678 -0.0243923
internal_weight=269.798 144.713 55.9944 125.085 88.7186 34.3123 20.969 17.4968 11.1458 54.4062 12.3019 12.7329 46.9236 10.8486 36.075 15.3118 8.86692 20.7632 9.82321 107.588 102.667 62.4888 40.1778 15.2429 8.90267 41.6733 8.49249 13.3434 9.07076 16.7202
internal_count=1361 726 279 635 447 172 105 87 56 275 61 64 234 54 180 76 44 104 49 548 523 319 204 77 45 211 43 67 45 84
is_linear=0
shrinkage=0.05


Tree=10
num_leaves=31
num_cat=0
split_feature=52 21 21 54 7 57 56 5 54 31 47 14 58 71 54 47 38 41 58 33 19 16 62 30 11 9 29 33 30 41
split_gain=14.4454 9.25308 8.33021 10.7746 6.97177 6.11515 7.52902 5.10254 5.70017 5.7975 5.06425 4.83246 7.07785 5.8528 6.07859 4.642 4.57664 4.4457 5.86424 9.07976 5.34746 6.43805 5.34756 6.24408 5.19495 5.96678 4.66094 4.48158 3.84101 3.82839
threshold=-0.97449493408203114 0.11775691434741022 0.21545116603374484 0.72343251109123241 0.67298060655593883 -0.51335459947586048 -0.32421855628490442 0.12776382267475131 -0.11292455345392226 0.12327131256461145 -0.70014253258705128 -0.063172932714223848 0.16352622956037524 1.0000000180025095e-35 0.99142196774482738 -0.34308684617280955 -0.22672509402036664 -1.3339976668357847 0.29273356497287756 0.052755365148186691 0.98169422149658214 0.45373743772506719 -0.22192391753196714 0.49249258637428289 -0.27340865507721895 -0.24622234702110288 0.51466581225395214 0.38777413964271551 0.22811060398817065 0.78947249054908764
decision_type=2 2 2 2 2 2 2 2 2 2 2 2 2 2 2 2 2 2 2 2 2 2 2 2 2 2 2 2 2 2
left_child=10 5 3 -3 17 6 28 -8 -9 -10 -1 12 13 14 -7 29 -15 -4 20 -20 21 22 -19 27 26 -26 -23 -24 -2 -6
right_child=1 2 4 -5 15 11 7 8 9 -11 -12 -13 -14 16 -16 -17 -18 18 19 -21 -22 24 23 -25 25 -27 -28 -29 -30 -31
leaf_value=0.018055982279047315 0.085720311181192665 0.0097444107372379168 0.055961638926736827 0.10610027533500946 0.047110009785000961 0.012032799576888834 -0.032383000866248318 -0.024896786279655133 -0.0013011437045020115 0.072118944709549257 -0.033731079287841283 -0.022689194853225687 -0.030777334168974792 0.025873437941779966 0.084125688176472799 -0.032081420170570522 -0.022943189340999322 -0.030014172304895295 -0.0082184263781910592 0.090832883526031888 -0.04118727403822748 0.044244630859302844 -0.035175250285538327 0.06148865981385393 0.0027755966885557259 0.081474904813149965 -0.015852309057912187 0.028257611016299936 0.013201779736153128 -0.018202884585464523
leaf_weight=4.8126674741506568 3.742671191692355 6.355508163571356 6.4602067917585364 4.711116686463356 3.5954658687114742 8.5128813683986682 7.0556563585996654 4.739504992961888 5.0483271628618169 4.6690206527709961 34.086911991238594 41.3549595028162 11.43782229721546 6.8166233748197582 3.8123090714216223 12.234764173626898 11.497309938073156 10.793891280889508 3.6673397868871671 4.6300827860832214 4.1515508741140357 4.2400229573249835 5.2890373766422289 3.8816230595111856 3.648878738284111 6.5249166637659055 7.4974144399166107 4.0394636392593384 3.6679800599813461 3.5986550003290176
leaf_count=27 20 34 35 25 20 47 39 26 28 25 192 230 64 38 21 68 64 59 20 25 23 23 29 21 20 35 41 22 20 20
internal_value=0.000535183 0.00580359 0.0171788 0.0561571 0.0114604 -0.00391338 0.0155525 -0.000123821 0.0166967 0.0374136 -0.027032 -0.0107659 0.00120754 0.0137431 0.0389717 -0.014284 -0.00437432 0.0192762 0.0143413 0.0508785 0.00740837 0.0125865 -0.00530454 0.0155769 0.0315624 0.0560235 0.00762628 -0.00763085 0.0556638 0.0162047
internal_weight=246.575 207.675 95.3199 11.0666 84.2533 112.355 28.9232 21.5125 14.4569 9.71735 38.8996 83.4319 42.0769 30.6391 12.3252 19.4289 18.3139 64.8244 58.3642 8.29742 50.0668 45.9152 24.004 13.2101 21.9112 10.1738 11.7374 9.3285 7.41065 7.19412
internal_count=1361 1142 520 59 461 622 158 118 79 53 219 464 234 170 68 108 102 353 318 45 273 250 131 72 119 55 64 51 40 40
is_linear=0
shrinkage=0.05


Tree=11
num_leaves=31
num_cat=0
split_feature=64 42 54 46 26 47 46 48 69 35 45 33 54 7 46 35 57 38 31 8 52 29 30 40 21 17 68 14 57 29
split_gain=20.6303 13.692 13.9388 9.27656 8.06318 10.5143 8.74945 7.92614 10.1821 8.79191 7.64423 8.406 7.46572 7.34823 6.87899 6.8479 6.18749 5.06403 4.84402 4.39993 4.14466 3.92823 3.88807 3.10688 2.93329 2.876 5.54665 2.51101 4.31327 2.46931
threshold=-1.42902535200119 0.39003500342369085 -0.29315140843391413 -0.53969186544418324 0.030236951075494293 1.0000000180025095e-35 0.13627434521913531 -1.0000000180025095e-35 0.4015138447284699 1.0000000180025095e-35 -0.43148869276046747 1.2775601744651797 1.3717267513275149 0.12218984588980676 -0.14537823200225827 0.41288688778877264 0.38489429652690893 0.73636800050735485 -0.01553629385307431 -0.61765384674072255 -0.89063400030136097 -1.0924725532531736 -0.15362166613340375 0.24970631301403048 -0.01891640946269035 -0.46068690717220301 0.025536848232150081 0.13313385099172595 0.69303449988365184 -0.053528090938925736
decision_type=2 2 2 2 2 2 2 2 2 2 2 2 2 2 2 2 2 2 2 2 2 2 2 2 2 2 2 2 2 2
left_child=-1 2 3 -2 5 6 14 8 9 20 12 25 17 -10 24 23 -7 19 -11 -3 -5 -6 -18 -9 -4 26 -12 -27 -29 -21
right_child=1 10 4 7 21 16 -8 15 13 18 11 -13 -14 -15 -16 -17 22 -19 -20 29 -22 -23 -24 -25 -26 27 -28 28 -30 -31
leaf_value=-0.036976439593132245 0.11839599511568576 0.033909129141906552 -0.009528779630072497 0.028759399960928318 0.029322654941661752 -0.027850122103014463 -0.015282986069483352 -0.041267234407721426 0.028907338382563198 0.093537355613409506 0.042767400074683132 0.049269264387978476 0.077173254445635442 0.14665405820781371 0.10915532090155028 0.052358029166495582 0.063645176527418551 0.051793721811051269 0.013934568960439554 0.0098108169644784762 -0.039337803471657357 -0.026627746015917636 -0.0060350079709182401 0.016666968117196729 0.054674053368121693 -0.041816857432712656 -0.037033355795963771 -0.028664019429700795 0.028707313514758317 -0.037967454063804633
leaf_weight=30.778587818145752 2.8862071037292472 3.2392529249191311 2.8272907733917227 2.8667366206645966 2.8426077514886883 11.249092802405359 3.5037351399660102 5.8370850533247012 2.8599185794591895 3.9171380996704084 3.3764642477035514 3.0855271667242041 2.961715266108512 3.0891412645578384 5.0191761106252661 3.449430748820304 3.002287745475769 2.9793537706136695 3.7978813201189059 3.271541744470599 4.4638233780860883 19.820554599165916 3.691577121615409 2.823528915643692 2.8654425293207169 22.852215051651001 3.3401791602373123 11.686168178915976 3.5254536569118491 8.6471138149499875
leaf_count=226 20 23 20 20 20 81 25 41 20 27 24 22 20 21 35 24 21 21 27 23 32 142 26 20 20 166 24 83 25 62
internal_value=-0.000165266 0.00711169 0.019775 0.0434968 0.00370124 0.0195526 0.05015 0.0336867 0.0515731 0.0263663 -0.00960757 -0.0205341 0.0149882 0.102355 0.0710298 0.00110926 -0.0060564 0.00133174 0.0604465 -0.0111784 -0.0124517 -0.0186674 0.0294277 -0.0226094 0.0261283 -0.0263149 0.00342618 -0.0315163 -0.014417 -0.0251086
internal_weight=190.556 159.778 90.8127 35.9909 54.8218 32.1586 14.2156 33.1047 20.9946 15.0456 68.965 47.866 21.099 5.94906 10.7119 12.11 17.943 18.1373 7.71502 15.1579 7.33056 22.6632 6.69386 8.66061 5.69273 44.7805 6.71664 38.0638 15.2116 11.9187
internal_count=1361 1135 642 252 390 228 100 232 147 106 493 344 149 41 75 85 128 129 54 108 52 162 47 61 40 322 48 274 108 85
is_linear=0
shrinkage=0.05


Tree=12
num_leaves=31
num_cat=0
split_feature=4 52 46 70 65 63 3 8 21 21 9 9 30 58 74 70 64 32 41 45 30 21 35 21 31 35 41 46 43 38
split_gain=8.67772 8.27485 9.66764 8.41677 7.68957 8.31675 6.45632 6.4054 5.06126 8.8144 5.16883 5.51202 4.99689 5.53305 5.05042 7.4177 8.02604 4.98809 4.32656 4.30075 3.62076 2.74901 2.7009 2.65335 4.68402 2.51786 1.32857 1.18784 0.872656 0.33697
threshold=0.3184479176998139 0.76039814949035656 -0.32845240831375117 -0.24019727110862729 -2.0266093015670772 1.0000000180025095e-35 0.61524417623877536 -0.0090958545915782434 -0.42054837942123408 -0.21578515321016309 1.0196059942245486 -0.69907483458518971 -1.0784085988998411 -0.15231391787528989 -0.23596234619617459 -0.074696112424135194 0.84343326091766369 0.18915162980556491 -1.0000000180025095e-35 0.21037051081657412 -0.018957244697958228 0.095553822815418257 -1.5761954784393308 0.82085964083671581 0.57975289225578319 -0.38274605572223658 1.1778461933135989 0.3897616714239121 -0.9120231270790099 1.1478714942932131
decision_type=2 2 2 2 2 2 2 2 2 2 2 2 2 2 2 2 2 2 2 2 2 2 2 2 2 2 2 2 2 2
left_child=1 4 -3 6 7 8 -4 -1 -6 17 11 18 13 -2 15 16 20 -10 -11 -9 -14 -15 -16 26 -25 -5 -13 28 -24 -30
right_child=12 2 3 25 5 -7 -8 19 9 10 -12 23 14 21 22 -17 -18 -19 -20 -21 -22 -23 27 24 -26 -27 -28 -29 29 -31
leaf_value=0.086898986471718204 0.062772311869017897 0.1080843167921469 -0.0033240379361826711 0.016290510252609077 -0.038254611920054617 0.063175805432226159 0.098010951188589879 -0.033490195236794189 0.0025599752371740334 -0.016691233427871901 0.049609221018833118 -0.040414523321017692 0.0326429421142308 -0.035660898817639834 0.015838436905146618 -0.033647911528193221 0.090196179686919814 0.090114917645273462 0.068920749703553205 0.045302193352899867 -0.034818682291995869 0.023620670863150624 -0.0095958901620826695 -0.033703329021876477 0.049042102994805457 -0.037245278720074756 0.00096360969498082726 -0.00070828388295922882 -0.043663521434753792 -0.012234437163727123
leaf_weight=3.4827124550938606 3.1026661545038223 3.1906649693846729 2.4330733716487893 2.9557547494769105 11.717504516243933 3.0875058174133292 3.1350261941552162 2.7277640551328641 3.0475744828581766 2.2850615680217743 2.0977445393800727 17.06276863813402 2.769328571856021 3.5209867432713491 2.1754340827465013 6.9625274538993827 2.6374010518193245 2.6437223628163338 2.0115173608064643 2.2411781400442123 3.2210630550980559 2.5408700779080391 3.0404551103711155 2.8029418066143981 2.1152321249246597 4.3766500875353778 2.1218635365366927 2.2454039081931105 22.888101510703574 1.8677895441651333
leaf_count=34 31 31 25 30 120 31 30 28 31 23 21 177 28 36 22 73 25 26 20 22 34 26 32 29 21 45 22 24 244 20
internal_value=-0.000117851 0.0109359 0.0416003 0.0185643 0.00208441 -0.00549184 0.0599665 0.0435407 -0.0111187 -0.00153994 -0.012572 -0.0186963 -0.0147092 0.0177036 -0.0211581 0.00218365 0.0315908 0.0506203 0.0288345 0.00368389 -0.00342325 -0.0109864 -0.0321792 -0.0279803 0.00415766 -0.0162994 -0.036017 -0.0360545 -0.038786 -0.0418593
internal_weight=132.508 75.5363 16.0912 12.9005 59.4451 50.9934 5.5681 8.45165 47.9059 36.1884 30.4971 28.3994 56.972 9.16452 47.8075 15.5903 8.62779 5.6913 4.29658 4.96894 5.99039 6.06186 32.2172 24.1028 4.91817 7.3324 19.1846 30.0418 27.7963 24.7559
internal_count=1361 766 161 130 605 521 55 84 490 370 313 292 595 93 502 160 87 57 43 50 62 62 342 249 50 75 199 320 296 264
is_linear=0
shrinkage=0.05


Tree=13
num_leaves=31
num_cat=0
split_feature=22 16 18 64 17 34 66 34 38 22 6 44 29 52 5 26 34 40 18 65 26 34 69 4 69 7 42 9 14 5
split_gain=7.48654 6.22188 16.2519 9.16665 11.3161 9.88161 9.14131 7.39394 8.33929 7.45679 9.15318 7.05347 5.94005 9.03496 12.5308 7.08423 6.91394 6.44594 4.28442 4.13782 5.007 7.50317 6.70794 4.00754 4.96997 4.46004 3.89554 3.62223 3.5683 3.52267
threshold=0.76934593915939342 -0.091274790465831743 0.49966818094253546 -0.2106572017073631 -0.7151907980442046 0.16164021193981173 0.92435455322265636 -0.34283858537673945 -0.62071773409843434 -0.0090339438174851221 -0.048956928774714463 0.06978123635053636 0.53953051567077648 0.65996399521827709 0.11864527687430383 0.57596972584724437 -0.20270557701587674 -1.6441930532455442 0.90055811405181896 -0.11388979479670523 0.96326398849487316 0.11960032209753992 -0.088928971439599977 -0.45204982161521906 -0.069330882281064973 -0.2333838492631912 -0.13765645027160642 0.16394528746604922 0.058350309729576118 1.0052538812160494
decision_type=2 2 2 2 2 2 2 2 2 2 2 2 2 2 2 2 2 2 2 2 2 2 2 2 2 2 2 2 2 2
left_child=1 2 3 5 -5 7 23 27 -9 11 -11 -10 17 14 26 29 -16 -3 -18 -19 21 28 -23 -6 -25 -26 -14 -1 -21 -15
right_child=-2 12 -4 4 6 -7 -8 8 9 10 -12 -13 13 15 16 -17 18 19 -20 20 -22 22 -24 24 25 -27 -28 -29 -30 -31
leaf_value=0.019374986653641544 0.060702939289446894 0.037487720448608479 0.078481010889983271 -0.036005727129461845 -0.041191598586928377 -0.019504476254282765 0.0673220676070692 -0.010881504451266642 0.11519556905269879 -0.02519698067350444 0.061436147462531378 0.032451564153076658 0.018987419061717581 -0.0086720136427929171 0.093993129980041334 0.031933948835955121 -0.0083566851661651623 -0.032678588380827676 0.054000926638883423 -0.042233779971618472 0.032024208182046071 -0.028759104694740523 0.048670762739207202 -0.030175031103080136 0.065761845823995552 -0.0067671847887029518 -0.03678079143147106 -0.040078747112932911 -0.0077691151307592386 -0.045828500964792171
leaf_weight=4.6885491609573311 4.3466575294733039 4.6308849155902854 7.0804085880517951 22.465106323361397 4.3611007630825069 11.696621075272558 4.9128210842609397 5.2865424901247016 6.4857100546360016 4.841750755906105 5.6622519940137934 5.5624069422483444 4.7147092223167419 19.162133067846302 5.8851190060377112 6.8407066464424124 4.8722611218690854 29.431712195277214 4.7127619087696075 16.486041322350506 5.6192137002944937 3.6255049705505371 6.5206676721572858 3.8855877220630646 3.7010861933231354 3.5513446778058988 6.1803358793258685 3.7209763675928116 14.120638042688368 9.0579407066106779
leaf_count=26 23 25 38 126 25 65 27 30 34 27 31 30 26 108 32 38 27 167 26 93 31 21 36 22 20 20 35 21 80 51
internal_value=0.00218499 0.0008764 0.0105133 0.00441756 -0.0122323 0.0192532 0.014392 0.0319475 0.0440028 0.0567843 0.0227841 0.0824089 -0.00580134 0.00585626 0.0274431 -0.0106876 0.0550436 -0.0146666 0.0245084 -0.0182993 -0.00867577 -0.0149203 0.020905 -0.00544894 0.0107867 0.0337297 -0.0130803 -0.00839524 -0.0270821 -0.0217586
internal_weight=244.11 239.763 97.9023 90.8219 42.877 47.9448 20.4119 36.2482 27.8387 22.5521 10.504 12.0481 141.861 61.426 26.3652 35.0608 15.4701 80.4347 9.58502 75.8038 46.3721 40.7529 10.1462 15.4991 11.138 7.25243 10.895 8.40953 30.6067 28.2201
internal_count=1361 1338 542 504 240 264 114 199 152 122 58 64 796 343 146 197 85 453 53 428 261 230 57 87 62 40 61 47 173 159
is_linear=0
shrinkage=0.05


Tree=14
num_leaves=31
num_cat=0
split_feature=21 74 5 54 9 45 1 70 64 57 58 7 50 53 28 5 33 46 6 58 70 41 64 45 11 30 53 7 57 68
split_gain=7.69228 6.49917 12.0424 7.01832 8.94375 12.4695 12.1878 8.88556 9.56723 7.33225 7.31114 9.88277 7.00991 5.9946 6.32358 5.89819 6.89644 6.21603 7.31552 5.75466 4.85181 4.55756 4.45847 4.28849 4.18108 5.88726 4.40339 3.87957 3.81987 3.71236
threshold=-1.0955270528793333 -0.21934121847152707 -0.8675665259361266 -0.40781743824481959 -0.27075389027595514 0.79074895381927501 1.0000000180025095e-35 0.18734737485647204 0.49377791583538061 -0.077316295355558382 0.12045711278915407 0.30160354077816015 -0.089203253388404832 0.65129864215850841 -0.066764377057552324 1.2146310210227969 0.3171405047178269 -0.39886556565761561 -0.42708604037761683 -0.29587760567665095 -0.15744669735431668 0.54883643984794628 -0.099731978029012666 0.73320305347442638 0.56398186087608349 -0.80303373932838429 0.022509985603392128 0.31740681827068334 0.4969900399446488 0.20681802183389666
decision_type=2 2 2 2 2 2 2 2 2 2 2 2 2 2 2 2 2 2 2 2 2 2 2 2 2 2 2 2 2 2
left_child=-1 2 13 4 23 6 22 9 12 -5 11 29 -9 14 -2 16 17 -11 20 -20 -19 -10 -6 27 -4 -26 -27 -3 -21 -8
right_child=1 3 24 7 5 -7 10 8 21 15 -12 -13 -14 -15 -16 -17 -18 18 19 28 -22 -23 -24 -25 25 26 -28 -29 -30 -31
leaf_value=-0.031807225220745361 0.077916454012960185 -0.031182273728489612 -0.022894045547385528 -0.027726617750610468 0.12319625245764737 -0.033596504022273148 0.10433916746339458 0.033318295296671248 0.097760209222658503 -0.035214388761072635 -0.020853216771630205 -0.0042206378387076521 -0.033465106397392509 -0.015647011315193075 0.0023364174371387895 0.048424263683089219 -0.031050058644576179 0.087864221106918522 0.046862953817548236 0.012792902353558908 0.010773767647688748 0.026455449528159591 0.039422811515073326 0.036341200272834655 -0.033797072476303425 0.061583775027478894 -0.0051524877659391505 0.01990837569704226 -0.038770685232957701 0.029343507758956638
leaf_weight=17.018231421709061 6.2976344525814048 11.164322733879091 59.337077379226685 28.189912334084511 5.2563540935516357 4.5550160855054846 4.4212207645177859 6.611203521490097 3.9974677413701993 5.107611119747161 5.4981647431850424 6.3428096920251837 7.1240047663450259 4.560008391737937 4.5605180710554114 5.4671208709478369 13.550341397523878 4.3534801602363586 4.0649581402540234 5.9611195772886294 3.8102245032787341 6.0076294839382172 3.9201889634132403 4.0964674055576316 4.5849863588809958 4.2832125723361951 4.377241313457489 4.5460811853408805 6.788423627614975 3.916819155216217
leaf_count=93 32 59 313 150 26 24 22 34 20 27 29 33 37 24 24 28 72 22 21 31 20 31 20 21 24 22 23 23 36 20
internal_value=-0.00028322 0.00204821 -0.00873996 0.00819974 0.0226223 0.0378545 0.0496828 0.000384984 0.0265019 -0.00787276 0.0256586 0.0432968 -0.00124045 0.0301252 0.0490462 0.00385112 -0.00269315 0.0106665 0.0210428 0.00137244 0.0569861 0.0612392 0.0947991 -0.00402204 -0.017293 0.0076444 0.0308116 -0.0160916 -0.0154848 0.0760248
internal_weight=259.77 242.752 88.0007 154.751 53.7174 33.9106 29.3556 101.033 23.7403 77.2932 20.179 14.6808 13.7352 15.4182 10.8582 49.1033 43.6362 30.0858 24.9782 16.8145 8.1637 10.0051 9.17654 19.8069 72.5825 13.2454 8.66045 15.7104 12.7495 8.33804
internal_count=1361 1268 462 806 277 174 150 529 122 407 104 75 71 80 56 257 229 157 130 88 42 51 46 103 382 69 45 82 67 42
is_linear=0
shrinkage=0.05


Tree=15
num_leaves=31
num_cat=0
split_feature=67 50 44 42 67 40 18 31 31 10 17 18 20 56 64 34 4 68 40 22 46 68 66 19 65 74 30 6 45 4
split_gain=9.61182 7.96592 11.0624 9.34431 7.20394 6.53405 6.36479 6.97867 6.23626 9.31223 6.88169 5.45161 5.22745 4.93363 4.85556 4.70778 7.75251 6.70132 5.27531 6.28035 4.42461 3.83708 6.76503 3.71561 6.6175 4.16413 3.9675 2.85808 2.77168 4.78594
threshold=1.0370579361915591 -0.75145396590232838 0.78312999010086071 1.8253558278083803 -0.87961995601654042 -0.68626520037651051 -0.26936942338943476 0.60956391692161571 0.95145919919013988 0.22788486629724505 0.22617146372795108 0.60064730048179638 0.2807039618492127 0.30641803145408636 -0.099731978029012666 -0.30079866945743555 -1.1601481437683103 0.93868461251258861 0.73947131633758556 0.14952493458986285 0.009530688286758961 -0.35537841916084284 1.0000000180025095e-35 0.65008682012557995 -1.0483986139297483 -0.26089403033256525 0.58153593540191661 0.23374860733747485 0.22512585669755938 0.34984147548675543
decision_type=2 2 2 2 2 2 2 2 2 2 2 2 2 2 2 2 2 2 2 2 2 2 2 2 2 2 2 2 2 2
left_child=1 2 4 8 -1 -2 -7 12 15 10 13 -12 -8 -10 20 16 -3 23 21 -20 -6 22 -18 28 -25 -26 -27 -5 -17 -30
right_child=5 3 -4 27 14 6 7 -9 9 -11 11 -13 -14 -15 -16 17 18 -19 19 -21 -22 -23 -24 24 25 26 -28 -29 29 -31
leaf_value=0.055121686458690082 -0.021680789026255087 0.054201470269455265 0.06672318293730134 0.06551285432732018 0.032767394123396291 0.072448602402260642 0.023577017221157473 0.060601858742060047 -0.03062216313815961 -0.043857332238505214 0.085215874094858868 0.012605251697672343 -0.036959074313475469 0.033772646911112501 -0.03229264343041701 -0.033027492396818445 0.044868910833292572 0.033382723389215323 -0.011460210189399517 0.060916159274135441 -0.024959077735207079 -0.03110371462327835 -0.033391745603066847 0.047219955457444757 -0.041627815579186211 -0.016499953657717576 0.038283908768234981 0.0071148388116702467 -0.030412944954419742 0.0062249659463728541
leaf_weight=4.0985496342182186 5.6142803281545666 4.6245810687541953 7.3575886040925971 4.0774651467800123 7.7502167075872457 6.9707709997892442 6.8659621477127057 5.1620723456144324 5.9271679967641884 5.0913169831037512 5.1509500592946988 5.1619218736886978 5.5388322472572327 4.2197349965572357 11.432460904121395 61.233307674527168 4.6461261063814145 4.8223478496074668 6.3350461274385435 4.2824694067239761 4.4436751753091812 19.975692331790928 4.4336061775684357 4.0178036242723492 8.4253822565078789 8.8667902797460503 3.9720856398344031 4.0322525799274445 19.634574010968208 15.184219241142271
leaf_count=20 29 23 36 20 38 34 34 25 30 26 25 26 28 21 58 315 23 24 32 21 22 101 23 20 43 46 20 20 101 77
internal_value=-0.00202341 -0.0054052 0.0162977 -0.00919669 0.00105888 0.0241169 0.0350342 0.0170853 -0.0114455 0.0112553 0.0263745 0.0531988 -0.00419352 -0.0032153 -0.0101771 -0.0148941 -0.000837504 -0.0197845 -0.00842815 0.0204628 0.0114335 -0.0193151 0.00713292 -0.0221532 -0.00486523 -0.0163854 0.00199072 0.040445 -0.0266066 -0.0147077
internal_weight=269.349 239.197 35.0825 204.115 27.7249 30.1519 24.5376 17.5669 196.005 25.5511 20.4598 10.3129 12.4048 10.1469 23.6264 170.454 44.2975 126.157 39.6729 10.6175 12.1939 29.0554 9.07973 121.334 25.2821 21.2643 12.8389 8.10972 96.0521 34.8188
internal_count=1361 1211 174 1037 138 150 121 87 997 128 102 51 62 51 118 869 223 646 200 53 60 147 46 622 129 109 66 40 493 178
is_linear=0
shrinkage=0.05


Tree=16
num_leaves=31
num_cat=0
split_feature=53 21 47 8 69 54 21 54 7 69 67 9 74 54 64 47 65 32 12 5 14 7 28 22 62 26 21 32 64 53
split_gain=15.7676 9.70245 6.59391 9.33306 9.62901 6.95992 6.42056 9.04126 6.68899 4.76467 8.17361 5.04134 7.27445 7.13717 6.57312 4.66483 4.59179 4.58727 8.90587 8.59415 6.08144 7.27601 4.6318 4.58791 4.04102 4.03829 3.76366 4.36809 3.55755 3.68687
threshold=-0.70274507999420155 0.11775691434741022 -0.70014253258705128 1.0000000180025095e-35 0.55143925547599804 0.40320339798927313 0.21545116603374484 0.72343251109123241 0.67298060655593883 0.90616494417190563 0.16178747266530993 -0.40028047561645502 -1.5739630460739134 0.070436682552099242 0.019331673160195354 -0.34308684617280955 0.69234842061996471 0.57403695583343517 1.0000000180025095e-35 0.64471843838691723 1.1240156888961794 1.0000000180025095e-35 -0.86200147867202748 0.14952493458986285 0.22783519327640536 -0.0049716166686266652 0.81148499250411998 -0.10619956254959105 -1.5161377787590025 -0.33903661370277399
decision_type=2 2 2 2 2 2 2 2 2 2 2 2 2 2 2 2 2 2 2 2 2 2 2 2 2 2 2 2 2 2
left_child=26 2 3 -2 5 -5 7 -3 17 11 -11 13 -13 -4 -15 -10 -16 18 20 -20 21 22 -8 -19 -24 -23 -1 -28 -14 -30
right_child=1 6 9 4 -6 -7 8 -9 15 10 -12 12 28 14 16 -17 -18 23 19 -21 -22 25 24 -25 -26 -27 27 -29 29 -31
leaf_value=-0.031054864485548353 -0.016190302750749737 0.0092594705980760337 -0.026932804397273854 0.014193397179091925 -0.02003155183301622 0.098448484912391457 0.029507555573484806 0.096133221727306595 0.018334418989262632 0.057174584669255804 -0.029966286100245678 0.033586684472878818 0.0061784258042226273 -0.013200554511630914 0.085031249021478642 -0.030918539750615256 0.010041345424681294 -0.020516223617861568 0.091624304581261015 0.01026868456035755 0.057594092996926749 0.067294406624447398 -0.04606376135482762 0.036405445958014857 0.004908416969553353 0.00038928103051817301 0.037896759454334322 -0.029222466666714565 -0.000867224369145051 -0.040789299916547457
leaf_weight=40.010464653372765 10.475365415215494 6.4010314047336561 9.454814165830614 4.3670523166656476 3.834416225552558 6.0007783770561218 3.9408509880304328 5.0520904511213303 6.9213700145483044 5.4659381806850416 3.7836034297943115 4.3249997645616522 5.9894999414682379 5.6141602098941794 4.1295384615659696 11.637097403407095 3.893736869096756 10.471615582704542 8.0146033614873868 5.5102521926164618 5.4193381965160361 4.477170929312706 8.9015125930309349 4.1258146017789832 6.1117880493402472 3.8541051000356656 4.0536590963602066 3.687254160642623 6.9945679306983939 33.653723135590553
leaf_count=230 58 34 53 24 21 32 21 25 38 30 21 24 33 31 22 66 21 58 40 30 29 24 49 22 33 21 22 21 39 189
internal_value=0.000491951 0.00671013 -0.00342144 0.0188009 0.0439772 0.0673297 0.0186599 0.0522228 0.0132283 -0.0101494 0.022083 -0.0144158 -0.0230627 0.00483237 0.0271906 -0.0125514 0.0537843 0.0211695 0.0287446 0.0614676 0.01379 0.00336116 -0.0138017 -0.0031253 -0.0263027 0.0397022 -0.025005 0.0062401 -0.0289109 -0.0341055
internal_weight=246.572 198.821 107.982 24.6776 14.2022 10.3678 90.8386 11.4531 79.3855 83.3046 9.24954 74.055 50.9628 23.0922 13.6374 18.5585 8.02328 60.8271 46.2296 13.5249 32.7048 27.2854 18.9542 14.5974 15.0133 8.33128 47.7514 7.74091 46.6378 40.6483
internal_count=1361 1088 598 135 77 56 490 59 431 463 51 412 285 127 74 104 43 327 247 70 177 148 103 80 82 45 273 43 261 228
is_linear=0
shrinkage=0.05


Tree=17
num_leaves=31
num_cat=0
split_feature=64 41 4 74 14 71 66 56 14 53 21 55 43 17 44 43 54 10 30 30 20 64 26 53 53 44 10 4 50 62
split_gain=19.371 8.57517 9.13472 7.28181 7.1351 11.7636 9.4122 9.72736 6.69912 6.49822 6.35501 5.78334 6.38487 7.92957 8.50765 8.48224 8.40892 6.70388 6.24656 5.73329 7.01191 5.54953 3.88987 11.3092 3.54642 3.39686 2.91728 2.83072 2.79699 2.67866
threshold=-1.42902535200119 -0.29353931546211237 0.51301023364067089 0.22111862897872928 0.17987355589866641 -0.20435738191008565 -0.58996805548667897 0.047752751037478454 -0.47448237240314478 -0.5889848768711089 0.23518745601177218 -2.8600511550903316 -0.094032838940620408 -0.65904533863067616 0.80924648046493541 0.2063485383987427 1.614118814468384 0.38113147020339971 0.51777645945549022 0.73488837480545055 0.069795921444892897 1.2750768065452578 -0.47148513793945307 0.55537250638008129 -0.85622671246528614 0.15820375829935077 0.3254054337739945 1.1842891573905947 0.72989633679389965 0.34663946926593786
decision_type=2 2 2 2 2 2 2 2 2 2 2 2 2 2 2 2 2 2 2 2 2 2 2 2 2 2 2 2 2 2
left_child=26 2 4 10 5 -2 -6 -8 9 -7 -4 -3 21 14 18 19 17 27 -14 20 -15 22 23 -13 -24 -21 -1 28 -17 -10
right_child=1 11 3 -5 6 8 7 -9 29 -11 -12 12 13 15 -16 16 -18 -19 -20 25 -22 -23 24 -25 -26 -27 -28 -29 -30 -31
leaf_value=-0.042182332801339963 0.093650529153195855 0.04561328920662272 0.060844563589615853 -0.042221057245014987 -0.010344516513400778 -0.022275741570215904 0.1268405494555378 0.024299974418021005 -0.041952660756446887 0.064674879733588583 -0.024463604758974442 -0.034892807239761285 0.095912713386913429 0.10408210214084637 -0.023467004496667783 -0.041644832902255804 0.04701145835121992 0.043209434018400439 0.0042076580852866514 0.0301159457319452 0.0066230745561918439 0.028468695485192611 0.0067659564549317269 0.066942489697084787 -0.040379196920062616 -0.035945514244172513 0.0036579597170237851 0.003921110438910665 -0.0013508116888072928 0.0096134361150555462
leaf_weight=26.046808563172821 3.1966150254011145 5.3579064905643454 4.0046612620353681 7.023192286491394 2.9199101030826577 2.7920170873403549 5.5374175459146464 4.4721125662326813 6.634950071573261 4.7323790192604074 3.1209049075841904 6.4011156708002073 5.2113737761974317 3.2450030744075757 2.9611485153436661 22.071427538990978 4.2155001461505881 2.8084014654159537 2.784527063369751 2.8062944263219833 3.5224805921316147 4.8346459269523612 4.4131458699703208 3.3180964291095734 24.650196015834812 2.996506005525589 3.8072048127651206 5.6892124861478797 5.3793977051973334 3.2826014161109924
leaf_count=198 21 37 27 50 21 20 37 31 47 33 22 46 35 22 21 160 29 20 20 20 25 34 31 23 178 22 28 41 39 23
internal_value=-0.000108447 0.00683203 0.0243598 -0.00891515 0.0382372 0.0184925 0.0661643 0.0873954 0.000386888 0.0335825 0.0250683 -0.00074037 -0.00345458 0.00661644 0.0433817 -0.00168778 -0.0129591 -0.0210736 0.0679947 0.0326268 0.060738 -0.0179793 -0.0243396 0.00287506 -0.0332335 -0.00426682 -0.0364074 -0.0276272 -0.0340736 -0.0255676
internal_weight=190.237 160.383 47.7168 14.1488 33.568 20.6386 12.9294 10.0095 17.4419 7.5244 7.12557 112.666 107.308 63.6913 10.957 52.7342 40.1639 35.9484 7.9959 12.5703 6.76748 43.6172 38.7826 9.71921 29.0633 5.8028 29.854 33.14 27.4508 9.91755
internal_count=1361 1135 332 99 233 144 89 68 123 53 49 803 766 454 76 378 289 260 55 89 47 312 278 69 209 42 226 240 199 70
is_linear=0
shrinkage=0.05


Tree=18
num_leaves=31
num_cat=0
split_feature=14 1 70 18 4 55 50 62 34 34 30 4 26 6 46 16 57 40 44 26 18 67 45 69 14 45 3 58 6 50
split_gain=8.56788 8.09416 7.48749 7.1919 6.59479 6.28666 5.57023 5.51015 6.42722 5.1869 5.03176 6.40737 10.7107 5.46685 8.04601 6.45005 5.16322 4.85559 4.48036 4.5072 4.26582 3.92101 3.90989 4.03232 3.85512 3.61644 3.35985 3.08744 2.54458 2.7619
threshold=1.198799252510071 1.570854187011719 -0.29536432027816767 0.36649671196937567 -1.7457728981971739 0.060078522190451629 -0.15020002424716947 -0.22192391753196714 0.0074939184705726811 0.0074939184705726811 0.90967723727226268 0.49324402213096624 0.39112478494644171 -0.11531470715999602 -0.34253504872322077 0.58904036879539501 -0.34990197420120234 0.38569310307502752 0.23916430026292804 -0.1370037570595741 1.3416197896003725 -0.23290549963712689 0.64024397730827343 0.15506747364997867 -0.17534822970628736 -0.0016152586322277782 0.61524417623877536 -0.6260741353034972 1.5877740383148196 0.058931790292263038
decision_type=2 2 2 2 2 2 2 2 2 2 2 2 2 2 2 2 2 2 2 2 2 2 2 2 2 2 2 2 2 2
left_child=1 4 9 5 -1 24 -7 8 -4 -2 13 12 18 14 15 25 17 26 19 -12 -13 -5 -18 -24 -3 -6 -16 -15 -29 -30
right_child=2 3 7 21 10 6 -8 -9 -10 -11 11 20 -14 27 16 -17 22 -19 -20 -21 -22 -23 23 -25 -26 -27 -28 28 29 -31
leaf_value=0.054212646005777021 0.01562964616957142 -0.031420608855449318 0.075879380141492106 0.035165897765743567 0.040822540666404838 0.13218679552580889 0.017707074840091461 -0.035561630026011905 -0.019060908610653578 0.12409447978334712 0.068590895582059094 -0.031167529432997856 0.10789430660751974 0.016385609942408948 0.00091227274253686771 0.099334284937117767 -0.039672489237557146 -0.023339479519817821 -0.035337618551323426 -0.016486813032599842 0.038242908829438094 -0.036787373464550625 0.05175579649180332 -0.030522947993175589 0.04642638682648155 -0.032278127116031279 0.083220011468669489 -0.036633367018025206 -0.02458717035125001 0.037455694195386115
leaf_weight=2.9436244443058959 2.1826827451586714 2.2024162709712973 3.0711149275302878 2.0361232906579971 2.4095621407032013 2.3440034911036491 2.0782220289111137 3.5232312455773345 2.5918924659490585 2.2040189728140831 2.4490134790539733 9.0926966145634633 2.538645587861537 2.9573949947953144 2.1232386007905033 2.062774620950222 14.819594569504256 3.2555311471223831 3.3607759848237038 2.264238394796851 1.9255002886056889 4.1969543471932402 2.0264727920293799 2.0112799257040024 2.2030908018350592 2.3756863474845877 2.0577559769153595 37.391916386783137 3.5727668255567542 1.9516262039542196
leaf_count=28 22 23 31 21 24 23 21 37 27 20 23 97 23 31 22 19 154 33 34 23 20 45 20 21 22 24 19 395 39 20
internal_value=-3.87397e-05 -0.00444712 0.0361588 0.0286543 -0.00948764 0.0554172 0.0915748 0.00781402 0.0360871 0.0830462 -0.0118657 0.0091808 0.0353454 -0.01767 -0.00206256 0.0426177 -0.0148343 0.0187274 0.00315787 0.0319877 -0.0168648 -0.0116706 -0.0283461 0.0128479 0.00889575 0.00522469 0.0496653 -0.0286612 -0.0320678 -0.000287565
internal_weight=132.224 118.651 13.5729 15.0608 103.59 8.82773 4.42223 9.18624 5.66301 4.3867 100.646 21.6309 10.6127 79.0156 33.1419 6.84802 26.2939 7.43653 8.07403 4.71325 11.0182 6.23308 18.8573 4.03775 4.40551 4.78525 4.18099 45.8737 42.9163 5.52439
internal_count=1361 1224 137 155 1069 89 44 95 58 42 1041 220 103 821 336 67 269 74 80 46 117 66 195 41 45 48 41 485 454 59
is_linear=0
shrinkage=0.05


Tree=19
num_leaves=31
num_cat=0
split_feature=19 43 18 40 17 38 74 64 17 17 38 67 18 26 3 10 68 41 34 53 48 66 42 34 74 23 42 43 38 68
split_gain=8.91916 10.6226 10.1587 7.62466 7.36651 6.32783 9.31616 8.87432 9.88185 5.72363 5.44904 7.3158 7.18822 6.58275 5.40706 5.3531 5.0255 7.03299 4.77008 6.32808 4.88528 4.76203 6.81907 6.48761 6.51616 4.67244 4.19184 3.44765 3.22169 3.01689
threshold=1.0868039131164553 -0.12720096111297605 0.020636123605072502 -2.0000959038734432 1.0888630151748659 -0.24423588067293164 1.2308520674705508 -1.5749160647392271 -0.11877056211233138 1.2939454913139345 -0.13041578978300092 0.042581697925925262 -1.6679447889328001 0.05664337985217572 0.61524417623877536 -0.064676849171519266 0.65627548098564159 0.68578615784645092 -0.18869227916002271 -0.65221500396728505 1.0000000180025095e-35 1.2351957559585574 0.34434629976749426 0.09157371893525125 -0.60993763804435719 0.42016289383172994 1.4761441946029665 0.11338439583778383 0.45619545876979833 0.078722581267356886
decision_type=2 2 2 2 2 2 2 2 2 2 2 2 2 2 2 2 2 2 2 2 2 2 2 2 2 2 2 2 2 2
left_child=3 14 -3 -1 -4 9 7 8 25 16 11 -9 13 -12 -2 -8 18 -18 19 -5 -21 23 -23 26 -25 -7 -14 -26 -29 -10
right_child=1 2 4 5 -6 6 15 10 29 -11 12 -13 21 -15 -16 -17 17 -19 -20 20 -22 22 -24 24 27 -27 -28 28 -30 -31
leaf_value=0.053196469427794837 0.093219174459836532 -0.043757636283325713 0.06343316015283712 0.033401955507635382 -0.019409213937276269 0.085708370828159824 0.0099429753272447848 -0.018642098616786777 0.015277148178201142 0.027363193230482766 -0.010158473407220281 0.05458571355421709 -0.033759674647402822 0.06704481624766398 0.022308776875960432 0.086528683192681116 0.032290898544328164 -0.040390926159499518 -0.036423510309568051 -0.036688624092277321 0.018819670253271092 0.054992753714883491 -0.015961490095184532 0.057262941470537565 -0.032657711747438513 0.020429432275577187 0.010686233451594043 0.03963054685205341 -0.018651913414705065 -0.039951065681463636
leaf_weight=5.2118638008832923 5.8548898249864596 6.4269243925809887 5.9141172617673856 6.1074245572090176 3.7713917344808578 5.8866607695817965 4.694991260766983 5.2594975978136045 4.2929807454347593 6.6594877243041983 5.1042605638504011 6.999892383813858 46.302641600370407 4.4842014908790588 5.7819927334785461 4.0581231862306577 9.165925055742262 3.9801147282123557 34.10783414542675 13.402167841792108 4.7554282695054999 4.6406675279140455 7.6675621718168259 3.618307143449786 7.3506172746419889 5.9197519570589066 5.5075069367885581 3.9674377292394638 3.6929543614387512 3.7978022247552872
leaf_count=28 29 37 30 34 21 30 25 30 24 37 28 37 265 24 31 21 50 23 195 77 27 25 44 20 42 31 31 22 21 22
internal_value=0.00205115 0.0282197 0.00122663 -0.00141508 0.032378 -0.00300541 0.00362248 -6.37051e-05 0.0297071 -0.014205 -0.0059547 0.0241331 -0.0101652 0.0288689 0.0625396 0.050681 -0.0183995 0.00898594 -0.0246144 -0.00723049 -0.0219276 -0.014979 0.012913 -0.0199652 0.00514921 0.0571285 -0.0289221 -0.0102044 0.0126241 -0.0121899
internal_weight=244.385 27.7493 16.1124 216.636 9.68551 211.424 133.246 124.493 19.8972 78.1784 104.596 12.2594 92.3362 9.58846 11.6369 8.75311 71.5189 13.146 58.3729 24.265 18.1576 82.7477 12.3082 70.4395 18.6293 11.8064 51.8101 15.011 7.66039 8.09078
internal_count=1361 148 88 1213 51 1185 742 696 107 443 589 67 522 52 60 46 406 73 333 138 104 470 69 401 105 61 296 85 43 46
is_linear=0
shrinkage=0.05


Tree=20
num_leaves=31
num_cat=0
split_feature=21 22 52 68 44 55 19 7 22 1 33 23 33 38 22 52 7 30 62 11 4 14 57 26 22 3 46 21 38 47
split_gain=7.23247 6.48128 13.059 6.73249 6.43799 6.5361 6.33003 6.33892 5.57864 6.58976 5.08648 7.88288 6.27731 5.53528 5.61013 7.88581 9.95093 4.84836 6.67372 5.62732 7.07052 5.53617 4.7434 5.37327 4.71288 4.58536 4.41297 5.54044 9.92803 2.94207
threshold=-1.0955270528793333 -0.095520600676536546 0.45743824541568762 0.86826956272125255 -0.6972924768924712 -1.2990989089012144 -0.35543279349803919 1.2251657247543337 0.3080838024616242 -0.69505845010280598 0.24797852337360385 -0.78144264221191395 0.16655378788709643 -0.55067458748817433 -0.60002613067626942 0.20519258081912997 -0.1929461061954498 -0.93632400035858143 1.3055598735809328 1.0000000180025095e-35 0.7920636534690858 -0.17534822970628736 0.45205309987068182 -0.040180183947086327 -0.0090339438174851221 0.61524417623877536 0.22077012062072757 0.50261309742927562 -0.25299126654863352 0.37102476507425314
decision_type=2 2 2 2 2 2 2 2 2 2 2 2 2 2 2 2 2 2 2 2 2 2 2 2 2 2 2 2 2 2
left_child=-1 4 3 8 5 -2 26 10 9 -3 12 -12 13 -8 -15 -16 -17 -11 19 20 24 -21 -4 -24 -19 -5 27 28 -6 -10
right_child=1 2 22 25 6 -7 7 -9 29 17 11 -13 -14 14 15 16 -18 18 -20 21 -22 -23 23 -25 -26 -27 -28 -29 -30 -31
leaf_value=-0.031152289715739048 0.020410199746402905 0.051420110044679647 -0.039498934130289785 0.078622087041341951 0.076662341929472133 -0.036659033366747133 0.04333549791708536 0.059425367282160774 -0.038663443542293806 -0.028339780543273213 0.027900836499344397 -0.031086386310347044 0.062823331959560386 0.040260706031527045 -0.038118499399985177 -0.034266218988133181 0.052884699744989744 0.020824794611170032 -0.042222507532983095 0.001772631805028013 0.040374458124320806 0.066025163082189434 0.026923364213862801 -0.028073214408223357 -0.041029881953453425 0.009999605480293796 0.067404566810282798 -0.016637389745277002 -0.00038185718078434646 0.0033997100099648586
leaf_weight=16.679815649986267 7.2512837201356914 6.699903115630149 28.164179459214211 3.9645473062992078 7.1019808948040035 12.267941385507582 6.8456219136714926 4.3693098127841941 10.549808204174044 9.6707553416490537 7.0965438187122372 18.491855591535568 4.6313787847757331 4.9402519166469565 13.625215694308286 4.8455872237682343 6.6179790049791318 3.8222243189811698 4.355963706970214 5.480629563331604 6.0247010737657538 7.8692265003919584 6.6309606581926372 9.6785195469856244 8.4550274014473015 5.4440053850412369 6.9235150665044776 6.1083417385816565 8.6206600517034548 6.2588002979755393
leaf_count=93 37 34 152 20 35 65 35 22 56 51 36 99 23 25 72 26 34 20 23 28 31 40 35 52 45 28 35 32 44 33
internal_value=-0.000273604 0.00196671 -0.00606788 0.00619941 0.0102067 -0.0154967 0.0153165 0.00713535 0.000551167 0.00862825 0.00290744 -0.0142931 0.0135983 0.00592031 -0.00373083 -0.0136044 0.0162528 0.00138463 0.0099179 0.0181669 -0.000201965 0.0416088 -0.0274067 -0.00544957 -0.0216548 0.043691 0.0347262 0.0218641 0.0369226 -0.0236895
internal_weight=259.487 242.807 123.069 78.5956 119.737 19.5192 100.218 71.4637 69.187 52.3784 67.0944 25.5884 41.506 36.8747 30.029 25.0888 11.4636 45.6785 36.0078 31.6518 18.302 13.3499 44.4737 16.3095 12.2773 9.40855 28.7545 21.831 15.7226 16.8086
internal_count=1361 1268 648 409 620 102 518 372 361 272 350 135 215 192 157 132 60 238 187 164 96 68 239 87 65 48 146 111 79 89
is_linear=0
shrinkage=0.05


Tree=21
num_leaves=31
num_cat=0
split_feature=41 40 50 33 30 26 14 18 44 41 26 7 44 70 10 21 69 69 45 20 17 5 40 10 43 35 43 8 21 59
split_gain=11.9118 10.1833 8.72278 8.51203 10.3922 8.45468 6.94168 6.83703 10.5823 9.01114 6.69444 7.15396 6.79686 6.58679 6.05266 5.77922 5.33186 5.13661 6.66432 7.08853 4.70966 4.41474 4.16081 4.15952 4.10514 4.10329 3.79589 3.70631 3.55548 3.5249
threshold=0.15686656534671786 1.5815977454185488 -0.74274015426635731 0.39562210440635687 0.1412659361958504 -0.2338273152709007 0.85292536020278942 0.3788782805204392 -0.35404944419860834 0.65402108430862438 0.18867550045251849 0.16309249401092532 0.40071249008178716 -0.15744669735431668 -0.24578648805618283 -0.35985954105854029 0.45589841902256018 0.29519398510456091 0.046093879267573364 0.42502887547016149 1.3699269294738772 0.14144170284271243 0.38569310307502752 -0.0089508125092834217 1.09487920999527 -1.0000000180025095e-35 -0.094032838940620408 0.21483548730611804 0.44340440630912786 -0.44203150272369379
decision_type=2 2 2 2 2 2 2 2 2 2 2 2 2 2 2 2 2 2 2 2 2 2 2 2 2 2 2 2 2 2
left_child=2 3 6 7 13 -6 14 10 9 -9 12 15 22 25 -1 -12 -7 24 -19 21 28 -20 -2 -14 -4 -5 -13 -15 -10 -24
right_child=1 -3 17 4 5 16 -8 8 20 -11 11 26 23 27 -16 -17 -18 18 19 -21 -22 -23 29 -25 -26 -27 -28 -29 -30 -31
leaf_value=-0.0015069333149900438 0.020617846597813457 -0.033876323377670194 -0.03107138662384349 0.063946680894026886 0.0037468133383939286 0.092452269084149968 -0.027492614116150629 -0.021229224423291081 -0.045036442151128474 0.058338445437499734 0.099517565695474361 0.034221484191276609 0.0030228605609965778 0.0074800040245661037 0.065410968111506845 0.022989580831618714 0.021428403963746991 -0.025174201788786654 0.022118274255814037 0.055011427213529696 0.012139141268481939 -0.032215582919863359 0.0060594073702615724 0.064478391578912442 0.0074680211089279197 -0.0020696996285418236 -0.025358132044590916 -0.044642592867828311 -0.00049631112074862186 -0.047300468014714186
leaf_weight=5.7840928882360467 4.4601128995418611 12.434794798493384 60.823841258883476 4.555641770362854 6.0759799927473095 10.287807941436766 5.0953890085220328 5.4008734226226789 19.675205901265151 7.5353707522153854 4.8807973712682724 4.1581834256649017 6.1903795301914215 6.4684896469116193 6.9805479496717462 5.6151176542043704 4.4138486981391898 17.709687054157257 6.4117560833692568 6.4623599946498862 5.9672645181417456 6.5862960070371628 4.1486646234989175 4.1140522360801679 7.3907921165227881 3.9786032587289828 4.5642213076353055 5.6826355159282684 5.7488978356122962 9.179284051060673
leaf_count=28 22 63 317 22 30 49 26 27 101 37 23 20 31 32 33 28 22 93 33 33 30 34 21 20 38 20 23 29 29 47
internal_value=-0.00193819 0.00772599 -0.0133207 0.0118363 0.0303464 0.0544644 0.018251 0.00322391 -0.0107629 0.0259794 0.0162803 0.03822 0.000473322 0.00472645 0.0371817 0.0641377 0.0738517 -0.0187925 -0.00369263 0.0161313 -0.0262388 -0.00574806 -0.0179748 0.0310924 -0.0268482 0.0361812 0.00364338 -0.0184369 -0.035365 -0.0314272
internal_weight=268.781 145.536 123.245 133.101 41.463 20.7776 17.86 91.6384 44.3276 12.9362 47.3108 19.2183 28.0925 20.6854 12.7646 10.4959 14.7017 105.385 37.1701 19.4604 31.3914 12.9981 17.7881 10.3044 68.2146 8.53425 8.7224 12.1511 25.4241 13.3279
internal_count=1361 726 635 663 204 101 87 459 224 64 235 94 141 103 61 51 71 548 193 100 160 67 90 51 355 42 43 61 130 68
is_linear=0
shrinkage=0.05


Tree=22
num_leaves=31
num_cat=0
split_feature=53 21 21 54 74 41 9 74 54 6 67 38 70 52 67 6 62 62 58 38 56 4 54 14 17 14 54 62 14 56
split_gain=14.5748 8.90482 5.64767 7.71828 5.59277 4.83569 5.79981 5.54845 5.91741 5.01657 11.8713 6.91812 6.5492 6.28106 5.17723 4.45688 4.33278 5.32933 4.28998 5.19835 6.91594 9.97831 6.14718 4.27575 4.19239 4.11202 3.64057 4.97232 5.20294 3.91812
threshold=-0.70274507999420155 0.11775691434741022 0.21545116603374484 0.72343251109123241 -1.8897643685340879 -1.3339976668357847 0.88271990418434154 -0.99222350120544422 1.5096394419670107 0.26034645736217504 -0.18409682065248487 0.16726753860712054 -0.17123845219612119 0.69012737274169933 0.3237008005380631 0.86496910452842724 0.43998570740222936 0.33815343677997595 0.19223896414041522 -0.23548048734664914 0.24678342044353488 0.34053963422775274 0.87701717019081127 0.17987355589866641 0.22617146372795108 0.64727061986923229 -0.69461321830749501 0.7879125475883485 -0.063172932714223848 0.54607480764389049
decision_type=2 2 2 2 2 2 2 2 2 2 2 2 2 2 2 2 2 2 2 2 2 2 2 2 2 2 2 2 2 2
left_child=26 4 3 -3 -2 -4 7 -7 9 13 11 -11 -12 -9 -15 -14 17 18 19 20 21 -6 25 -24 -22 -21 29 28 -28 -1
right_child=1 2 5 -5 16 6 -8 8 -10 10 12 -13 15 14 -16 -17 -18 -19 -20 22 24 -23 23 -25 -26 -27 27 -29 -30 -31
leaf_value=-0.041256200644547464 0.037247897651367066 0.0087588008118425556 0.048475185576974583 0.087938287779119009 0.0075868625222532795 0.060666068148501909 -0.0267986453185249 -0.016615138934941692 -0.028762839539313259 0.098329599225146155 -0.03223366863370216 0.014468068956216702 0.062833598296438739 0.06794551082618637 -0.0082432408456615189 -0.0083430555027246053 -0.024088863454950649 0.049664904413376863 -0.027582690199983963 -0.02969084986282566 0.025688000204458342 0.10312614174474349 0.043524866466061692 -0.018374913726196051 -0.035029334134820199 0.018446891312431768 0.048884782469743024 -0.040991676036080026 -0.020835834566672592 0.00093599009146377681
leaf_weight=26.712629914283752 6.8855127245187751 6.448464706540106 7.4659836739301673 5.3552959412336349 6.6753599345684069 4.7782716900110236 9.2557866126298887 17.778068110346798 7.9552170634269705 6.3012310713529605 6.9233708083629608 4.306097611784935 3.8025725185871107 4.0141606181859961 3.666348934173584 3.6750390827655792 25.009322449564934 3.9703675657510749 14.100158974528311 22.512722447514538 4.2089625000953657 3.8426141887903214 6.8963000774383527 3.611737996339798 5.3441501259803772 4.748623698949813 5.0142510235309592 4.3182875812053672 4.0396693348884574 6.811022236943244
leaf_count=157 37 34 39 25 37 25 51 98 44 32 38 23 20 21 20 20 140 22 80 126 23 20 37 20 30 26 28 25 23 40
internal_value=0.000458782 0.00637569 0.0177395 0.0487445 -0.00336729 0.0126145 0.00830979 0.0137888 0.00899836 0.015394 0.0308384 0.068465 0.000477859 -0.000369496 0.0348164 0.0309944 -0.00647663 -0.000436414 -0.00384447 0.00231278 0.0222679 0.0484141 -0.00859243 0.0225012 -0.0083789 -0.0209498 -0.0243239 -0.00201819 0.0187986 -0.0329052
internal_weight=246.428 199.532 91.7259 11.8038 107.806 79.9221 72.4562 63.2004 58.4221 50.4669 25.0083 10.6073 14.401 25.4586 7.68051 7.47761 100.92 75.911 71.9406 57.8405 20.0711 10.518 37.7694 10.508 9.55311 27.2613 46.8959 13.3722 9.05392 33.5237
internal_count=1361 1088 490 59 598 431 392 341 316 272 133 55 78 139 41 40 561 421 399 319 110 57 209 57 53 152 273 76 51 197
is_linear=0
shrinkage=0.05


Tree=23
num_leaves=31
num_cat=0
split_feature=64 42 45 47 44 16 14 3 6 58 45 46 71 55 26 28 20 56 28 31 9 46 58 4 68 67 34 17 42 59
split_gain=18.1369 11.7647 11.0377 11.6519 8.6418 8.46726 7.88507 8.71428 10.1968 8.50093 7.51569 7.17649 6.96597 6.9906 6.69271 6.40225 6.07938 5.27153 4.7285 4.53509 4.19669 3.79162 4.42014 3.70168 5.0862 3.44166 3.03035 2.4194 2.40919 1.8644
threshold=-1.42902535200119 -0.57129862904548634 0.33087286353111273 0.72808045148849498 0.47085338830947882 0.76881077885627758 0.12378589808940889 0.61524417623877536 0.11775980889797212 -0.0087502139504067582 -0.33016842603683466 0.051778571680188186 0.42059773206710821 0.3846931010484696 0.012632667552679779 -0.66471564769744862 0.069795921444892897 -0.56312975287437428 -0.40001745522022242 -0.75661996006965626 -0.31932637095451349 0.15035697817802432 -0.19538303464651105 -0.78807675838470448 0.24764375388622287 0.81976553797721874 0.20368011295795443 -1.7002594470977781 0.40660047531127935 -0.71020483970642079
decision_type=2 2 2 2 2 2 2 2 2 2 2 2 2 2 2 2 2 2 2 2 2 2 2 2 2 2 2 2 2 2
left_child=27 2 4 15 5 19 10 8 9 -8 11 12 13 20 -6 -4 -10 -9 23 -2 -3 26 -23 -12 28 -21 -19 -1 -25 -20
right_child=1 6 3 -5 14 -7 7 17 16 -11 18 -13 -14 -15 -16 -17 -18 21 29 25 -22 22 -24 24 -26 -27 -28 -29 -30 -31
leaf_value=0.0078165993510237557 0.023980314316173004 0.10985212212332279 0.0218607584536928 -0.0086444703137175515 0.085654402938714569 0.053217212878047683 0.025482952835413793 0.035629883418834739 0.049152174718178336 0.12079522641417986 -0.037337954329432189 -0.026719652702619487 -0.021620233768968725 0.00064472209250077139 -0.0029781950975485954 0.11367769436185726 -0.027404586944573789 -0.040265078572522733 -0.0039898976355454028 -0.044396644244699496 0.026744210783527417 -0.023146716056587236 0.052719393149651197 0.065040392085102525 -0.026528017593174698 0.01090547941350521 0.006466000464999397 -0.040225292438742344 0.0040629338987135917 -0.039115858150144116
leaf_weight=2.5713099911808994 3.7787987589836183 3.4047288000583675 3.2324832528829566 3.961049109697341 4.5599842369556418 3.8839461505413047 5.7220974266529083 5.5111467242240932 3.0753060728311521 3.9944497942924517 3.459538757801055 8.2247970998287183 4.5476126223802558 5.0918670445680618 3.3467274606227875 6.9609235376119605 6.1305373832583427 11.499667301774027 4.6320699229836455 11.617353975772859 3.6250416934490231 2.9230394512414932 2.9317002445459357 3.3842272907495481 3.5196967646479607 3.1797195896506301 4.4568443596363059 26.375651828944683 2.7934926450252533 27.601584047079086
leaf_count=20 25 23 22 27 30 26 39 38 21 26 25 59 32 36 23 44 44 83 34 83 25 21 20 23 25 22 32 206 20 207
internal_value=-9.17297e-05 0.006515 0.0280713 0.0629926 0.0103044 -0.00597103 -0.00188951 0.0139688 0.0391271 0.0722812 -0.0123733 0.00946416 0.0278194 0.0466016 0.052016 0.0891154 0.000480188 -0.00422116 -0.0242957 -0.0204328 0.0756637 -0.015411 0.0169914 0.000999927 0.0168887 -0.0325748 -0.027601 -0.0358393 0.0418747 -0.0343401
internal_weight=189.997 161.05 44.521 14.1545 30.3665 22.4598 116.529 46.2448 18.9224 9.71655 70.2847 24.894 16.6693 12.1216 7.90671 10.1934 9.20584 27.3224 45.3906 18.5759 7.02977 21.8113 5.85474 13.157 9.69742 14.7971 15.9565 28.947 6.17772 32.2337
internal_count=1361 1135 302 93 209 156 833 324 130 65 509 175 116 84 53 66 65 194 334 130 48 156 41 93 68 105 115 226 43 241
is_linear=0
shrinkage=0.05


end of trees

feature_importances:
Column_21=32
Column_14=23
Column_64=21
Column_38=19
Column_7=18
Column_18=18
Column_30=18
Column_54=18
Column_69=18
Column_74=18
Column_17=17
Column_50=17
Column_4=16
Column_26=16
Column_41=16
Column_44=16
Column_46=16
Column_62=16
Column_9=15
Column_22=15
Column_45=15
Column_55=15
Column_58=15
Column_34=14
Column_52=14
Column_57=14
Column_67=14
Column_6=13
Column_10=13
Column_33=13
Column_5=12
Column_70=12
Column_40=11
Column_42=11
Column_16=10
Column_31=10
Column_43=10
Column_53=10
Column_56=10
Column_65=10
Column_68=10
Column_47=9
Column_66=9
Column_19=8
Column_32=8
Column_35=8
Column_3=7
Column_28=7
Column_8=6
Column_20=6
Column_29=6
Column_71=6
Column_11=4
Column_1=3
Column_12=3
Column_59=3
Column_23=2
Column_48=2
Column_24=1
Column_36=1
Column_63=1
Column_72=1

parameters:
[boosting: gbdt]
[objective: multiclass]
[metric: multi_logloss]
[tree_learner: serial]
[device_type: cpu]
[data_sample_strategy: bagging]
[data: ]
[valid: ]
[num_iterations: 500]
[learning_rate: 0.05]
[num_leaves: 31]
[num_threads: 0]
[seed: 42]
[deterministic: 0]
[force_col_wise: 0]
[force_row_wise: 0]
[histogram_pool_size: -1]
[max_depth: -1]
[min_data_in_leaf: 20]
[min_sum_hessian_in_leaf: 0.001]
[bagging_fraction: 0.8]
[pos_bagging_fraction: 1]
[neg_bagging_fraction: 1]
[bagging_freq: 5]
[bagging_seed: 400]
[bagging_by_query: 0]
[feature_fraction: 0.8]
[feature_fraction_bynode: 1]
[feature_fraction_seed: 30056]
[extra_trees: 0]
[extra_seed: 12879]
[early_stopping_round: 0]
[early_stopping_min_delta: 0]
[first_metric_only: 0]
[max_delta_step: 0]
[lambda_l1: 0]
[lambda_l2: 1]
[linear_lambda: 0]
[min_gain_to_split: 0]
[drop_rate: 0.1]
[max_drop: 50]
[skip_drop: 0.5]
[xgboost_dart_mode: 0]
[uniform_drop: 0]
[drop_seed: 17869]
[top_rate: 0.2]
[other_rate: 0.1]
[min_data_per_group: 100]
[max_cat_threshold: 32]
[cat_l2: 10]
[cat_smooth: 10]
[max_cat_to_onehot: 4]
[top_k: 20]
[monotone_constraints: ]
[monotone_constraints_method: basic]
[monotone_penalty: 0]
[feature_contri: ]
[forcedsplits_filename: ]
[refit_decay_rate: 0.9]
[cegb_tradeoff: 1]
[cegb_penalty_split: 0]
[cegb_penalty_feature_lazy: ]
[cegb_penalty_feature_coupled: ]
[path_smooth: 0]
[interaction_constraints: ]
[verbosity: -1]
[saved_feature_importance_type: 0]
[use_quantized_grad: 0]
[num_grad_quant_bins: 4]
[quant_train_renew_leaf: 0]
[stochastic_rounding: 1]
[linear_tree: 0]
[max_bin: 255]
[max_bin_by_feature: ]
[min_data_in_bin: 3]
[bin_construct_sample_cnt: 200000]
[data_random_seed: 175]
[is_enable_sparse: 1]
[enable_bundle: 1]
[use_missing: 1]
[zero_as_missing: 0]
[feature_pre_filter: 1]
[pre_partition: 0]
[two_round: 0]
[header: 0]
[label_column: ]
[weight_column: ]
[group_column: ]
[ignore_column: ]
[categorical_feature: ]
[forcedbins_filename: ]
[precise_float_parser: 0]
[parser_config_file: ]
[objective_seed: 16083]
[num_class: 6]
[is_unbalance: 0]
[scale_pos_weight: 1]
[sigmoid: 1]
[boost_from_average: 1]
[reg_sqrt: 0]
[alpha: 0.9]
[fair_c: 1]
[poisson_max_delta_step: 0.7]
[tweedie_variance_power: 1.5]
[lambdarank_truncation_level: 30]
[lambdarank_norm: 1]
[label_gain: ]
[lambdarank_position_bias_regularization: 0]
[eval_at: ]
[multi_error_top_k: 1]
[auc_mu_weights: ]
[num_machines: 1]
[local_listen_port: 12400]
[time_out: 120]
[machine_list_filename: ]
[machines: ]
[gpu_platform_id: -1]
[gpu_device_id: -1]
[gpu_use_dp: 0]
[num_gpu: 1]

end of parameters

pandas_categorical:null
