tree
version=v4
num_class=6
num_tree_per_iteration=6
label_index=0
max_feature_idx=75
objective=multiclass num_class:6
feature_names=Column_0 Column_1 Column_2 Column_3 Column_4 Column_5 Column_6 Column_7 Column_8 Column_9 Column_10 Column_11 Column_12 Column_13 Column_14 Column_15 Column_16 Column_17 Column_18 Column_19 Column_20 Column_21 Column_22 Column_23 Column_24 Column_25 Column_26 Column_27 Column_28 Column_29 Column_30 Column_31 Column_32 Column_33 Column_34 Column_35 Column_36 Column_37 Column_38 Column_39 Column_40 Column_41 Column_42 Column_43 Column_44 Column_45 Column_46 Column_47 Column_48 Column_49 Column_50 Column_51 Column_52 Column_53 Column_54 Column_55 Column_56 Column_57 Column_58 Column_59 Column_60 Column_61 Column_62 Column_63 Column_64 Column_65 Column_66 Column_67 Column_68 Column_69 Column_70 Column_71 Column_72 Column_73 Column_74 Column_75
feature_infos=none [-1.5447756052017212:2.9870493412017822] [-1.3920965194702148:1.4269504547119141] [-1.4503970146179199:1.6017783880233765] [-2.8588864803314209:2.5911836624145508] [-3.8107707500457764:1.9430669546127319] [-1.8694056272506714:3.6146993637084961] [-3.0407893657684326:3.5566136837005615] [-3.6433324813842773:2.2227790355682373] [-3.1801962852478027:5.542243480682373] [-1.5762456655502319:9.9729757308959961] [-6.7631840705871582:6.2163667678833008] [-0.80819958448410034:10.798158645629883] none [-4.3492040634155273:4.9706935882568359] [-0.23276343941688538:4.2962074279785156] [-2.5920979976654053:2.752366304397583] [-3.4441332817077637:2.0715780258178711] [-1.713068962097168:3.7898833751678467] [-3.0320124626159668:3.0931921005249023] [-3.6316945552825928:2.2342991828918457] [-3.2013812065124512:5.6799159049987793] [-1.6306588649749756:10.218013763427734] [-6.5892024040222168:5.8273873329162598] [-0.75531834363937378:9.8977041244506836] [-3.1124308109283447:11.595115661621094] [-4.9473738670349121:4.2508640289306641] [-0.24568614363670349:4.0702338218688965] [-2.5812065601348877:2.7744560241699219] [-3.4277455806732178:2.0848429203033447] [-1.70088791847229:3.7956171035766602] [-3.0380957126617432:3.5734329223632812] [-3.6296088695526123:2.2291178703308105] [-3.1767659187316895:5.6524233818054199] [-2.0314412117004395:9.9359169006347656] [-6.5489006042480469:5.7834081649780273] [-0.76924508810043335:9.4855546951293945] [-5.6820244789123535:8.1827287673950195] [-4.1447629928588867:4.2691688537597656] [-0.24588385224342346:4.0669612884521484] [-2.3188149929046631:2.6609928607940674] [-2.9636096954345703:1.9527959823608398] [-1.5919474363327026:3.7517635822296143] [-3.0455248355865479:3.1069204807281494] [-3.6443333625793457:2.2393016815185547] [-3.1868109703063965:5.5572299957275391] [-1.6874262094497681:10.071569442749023] [-5.8774509429931641:5.191277027130127] [-0.77272367477416992:8.7187070846557617] [-6.8339405059814453:4.3430166244506836] [-3.8579328060150146:4.420201301574707] [-0.24476191401481628:4.0856027603149414] [-2.0842430591583252:2.576831579208374] [-2.5718169212341309:1.8613178730010986] [-1.4897009134292603:3.7342658042907715] [-3.0398736000061035:3.1114552021026611] [-3.6350600719451904:2.2426807880401611] [-3.2036564350128174:5.5753793716430664] [-1.7674055099487305:10.521647453308105] [-4.3305425643920898:3.9828259944915771] [-0.72457098960876465:8.1155157089233398] [-7.9283814430236816:2.0054905414581299] [-3.9685022830963135:4.4835748672485352] [-0.23882177472114563:4.1872224807739258] [-1.8474061489105225:2.3912608623504639] [-2.1733055114746094:1.7022132873535156] [-1.3824012279510498:3.6030230522155762] [-3.0511353015899658:3.6103060245513916] [-3.6499016284942627:2.2567183971405029] [-3.1800408363342285:5.6391086578369141] [-1.5297271013259888:9.8208932876586914] [-3.2249736785888672:3.2328956127166748] [-0.70773530006408691:6.7965569496154785] [-7.574409008026123:0.30111774802207947] [-4.1876354217529297:4.3390026092529297] [-0.24263916909694672:4.1213459968566895]
tree_sizes=3381 3321 3309 3309 3306 2605 3424 3414 3414 3406 3394 2675 3420 3398 3417 3412 3407 2258 3443 3418 3421 3407 3412 2360 3416 3414 3413 3397 3419 2465 3416 3405 3418 3413 3409 2459 3424 3412 3437 3413 3407 2574 3420 3418 3421 3413 3414 2259 3431 3409 3434 3420 3403 2454 3422 3404 3429 3430 3410 2467 3436 3419 3419 3420 3402 2567 3430 3414 3414 3416 3414 2674 3446 3421 3412 3413 3412 2473 3415 3411 3403 3413 3397 2474 3435 3411 3421 3421 3413 2358 3420 3414 3421 3412 3415 2146 3420 3415 3420 3402 3407 2471 3442 3418 3423 3430 3413 2365 3439 3419 3421 3423 3415 2358 3421 3424 3416 3409 3417 2255 3439 3411 3418 3411 3410 2263 3444 3427 3413 3423 3410 2592 3432 3415 3418 3413 3404 2361

Tree=0
num_leaves=31
num_cat=0
split_feature=5 28 4 41 3 30 68 46 46 22 20 54 68 18 14 68 23 68 8 30 47 64 20 22 68 64 57 26 57 66
split_gain=99.6052 18.4422 20.3991 12.5695 8.76356 8.42962 8.29625 8.07876 7.86536 9.97614 7.62741 10.2067 7.47082 7.41983 12.3898 7.35797 6.67539 6.61915 6.25932 6.32226 6.24932 6.2258 6.12324 6.07718 6.00036 5.93552 5.91496 5.61842 7.65214 6.04515
threshold=-0.39234712719917292 1.1078097820281985 0.66145128011703502 -0.045711219310760491 1.3782880306243899 0.24762317538261416 0.045013355091214187 0.094026464968919768 -0.1876261234283447 -0.51353946328163136 0.027019117027521137 -0.092289865016937242 -0.82993051409721363 0.86836591362953197 0.030306486412882808 1.0244560241699221 1.0000000180025095e-35 0.078722577542066588 0.47708077728748327 0.78985351324081432 0.72808045148849498 0.96762117743492138 0.3755567222833634 0.034209384582936771 0.82969117164611828 0.17125093936920169 0.43625086545944219 -0.1546080335974693 -0.098056510090827928 0.42456579208374029
decision_type=2 2 2 2 2 2 2 2 2 2 2 2 2 2 2 2 2 2 2 2 2 2 2 2 2 2 2 2 2 2
left_child=5 2 3 6 8 12 7 -2 10 -10 17 -12 -1 -4 -15 26 22 -5 20 -20 -7 24 -3 -8 -11 -18 27 28 -14 -30
right_child=1 16 13 4 -6 18 23 -9 9 21 11 -13 15 14 -16 -17 25 -19 19 -21 -22 -23 -24 -25 -26 -27 -28 -29 29 -31
leaf_value=-0.63252001263217528 -0.62136552574300941 -0.66352737150208896 -0.60275432908294091 -0.6058218970744208 -0.69173920956945956 -0.71027226989223147 -0.59100903256920712 -0.67291729373207354 -0.68310546496298807 -0.60674530462989451 -0.63663593205604352 -0.70419382589953483 -0.68097878098637998 -0.6068542755653803 -0.67392878607247164 -0.64067085745805541 -0.64593715419409581 -0.66554434018808739 -0.69293854609839522 -0.63849051696458103 -0.66416590220805583 -0.66570853099316241 -0.62100749735408911 -0.63655974074216515 -0.65964050952318543 -0.70445952766847619 -0.70341843684080196 -0.68544867108577467 -0.60466357200187126 -0.66679570234344099
leaf_weight=11.377070963382719 18.861986070871357 20.059572488069534 81.136479765176773 8.0837083160877246 9.8800879418849927 40.418541580438614 23.652331739664078 11.377070963382719 7.185518503189086 32.035436660051346 8.3831049203872698 14.071640402078627 13.173450589179994 15.868020027875902 10.778277754783629 13.472847193479536 6.586725294589999 8.6825015246868116 10.179484546184542 9.5806913375854474 9.8800879418849927 6.5867252945899954 13.173450589179991 11.377070963382719 5.9879320859909049 11.077674359083174 19.760175883769989 32.035436660051346 8.3831049203872663 5.9879320859909049
leaf_count=38 63 67 271 27 33 135 79 38 24 107 28 47 44 53 36 45 22 29 34 32 33 22 44 38 20 37 66 107 28 20
internal_value=-0.648565 -0.632218 -0.627094 -0.638193 -0.649304 -0.678963 -0.621275 -0.640897 -0.644286 -0.631642 -0.661008 -0.679509 -0.669622 -0.610241 -0.633896 -0.6743 -0.659693 -0.635924 -0.692372 -0.667292 -0.701682 -0.622792 -0.646339 -0.60504 -0.615127 -0.683628 -0.680047 -0.67153 -0.654642 -0.630007
internal_weight=499.094 324.845 273.948 166.165 100.897 174.249 65.2685 30.2391 91.0166 51.7956 39.221 22.4547 104.19 107.783 26.6463 92.8129 50.8974 16.7662 70.0588 19.7602 50.2986 44.6101 33.233 35.0294 38.0234 17.6644 79.3401 59.5799 27.5445 14.371
internal_count=1667 1085 915 555 337 582 218 101 304 173 131 75 348 360 89 310 170 56 234 66 168 149 111 117 127 59 265 199 92 48
is_linear=0
shrinkage=1


Tree=1
num_leaves=31
num_cat=0
split_feature=16 5 22 5 16 62 68 21 26 42 41 22 16 53 44 22 40 31 42 28 7 22 54 57 6 44 38 22 64 58
split_gain=45.1057 30.8286 23.2612 17.2933 18.1554 17.2326 15.6166 15.7586 13.1635 12.7516 11.4255 9.42358 7.89858 9.71681 9.88704 6.47911 6.47153 5.84345 4.96182 8.79621 4.82363 3.61785 3.22361 6.64463 3.51321 6.15537 3.0192 2.65833 2.17381 3.68183
threshold=0.59246096014976513 0.40342618525028234 -0.13876393437385556 -0.3323748111724853 -0.74954617023468006 -0.58682280778884877 -0.065103810280561433 0.53024384379386913 0.15346693992614749 0.30480276048183447 0.088241841644048705 0.077452719211578383 0.79845574498176586 0.73452448844909679 0.23655267804861072 -0.15317837148904798 -0.56692269444465626 -0.37187129259109492 0.036815730854868896 0.8693910837173463 0.36899971961975103 -0.65768390893936146 0.59231093525886547 0.5621735453605653 0.23566804081201556 0.23058309406042102 -0.970933437347412 0.19276826083660129 -0.69354334473609913 -0.1379575505852699
decision_type=2 2 2 2 2 2 2 2 2 2 2 2 2 2 2 2 2 2 2 2 2 2 2 2 2 2 2 2 2 2
left_child=3 2 5 4 26 -2 15 10 17 18 11 -8 27 14 -14 16 -6 -7 19 -3 -16 -5 -23 24 25 -24 -1 -4 29 -28
right_child=1 9 12 21 6 8 7 -9 -10 -11 -12 -13 13 -15 20 -17 -18 -19 -20 -21 -22 22 23 -25 -26 -27 28 -29 -30 -31
leaf_value=-1.9886285348354438 -2.0149819776586417 -2.0287711351043378 -2.0447500419974984 -1.9934843527399617 -1.9359216491890479 -1.9490983706006468 -1.9143844922549973 -1.887363375327421 -1.9729742327668414 -2.0381182249675991 -2.0287711351043378 -2.0074807651202851 -1.8922481219315845 -2.0155475877625841 -1.9490983706006468 -2.0440112986025647 -2.0290772835715729 -1.8345493856535988 -1.9356285456561801 -1.9359216491890479 -2.0290772835715729 -2.0413986776171797 -2.0442225187719396 -1.9732859815018147 -2.0499769199210101 -1.9625689309884695 -1.9754518134238448 -1.9886285348354438 -2.0482256640839251 -2.0429642970263453
leaf_weight=2.7945706248283413 2.7945706248283413 6.8466980308294314 4.1918559372425106 4.7507700622081748 2.7945706248283386 2.7945706248283377 6.1480553746223503 5.5891412496566764 3.9123988747596732 17.74552346765995 6.8466980308294287 4.3315844684839249 5.1699556559324282 5.4494127184152594 2.7945706248283386 8.8028974682092649 2.9342991560697547 8.1042548120021802 4.0521274060010901 2.7945706248283386 2.9342991560697556 70.143722683191299 3.9123988747596803 5.1699556559324256 10.898825436830519 3.3534847497940063 2.7945706248283386 2.7945706248283386 15.929052561521525 3.3534847497940126
leaf_count=20 20 49 30 34 20 20 44 40 28 127 49 31 37 39 20 63 21 58 29 20 21 502 28 37 78 24 20 20 114 24
internal_value=-2.00615 -1.97364 -1.94558 -2.02092 -2.00036 -1.90363 -1.97864 -1.95375 -1.88338 -2.01092 -1.98046 -1.94965 -1.98013 -1.9619 -1.93652 -2.01873 -1.97999 -1.85668 -1.97588 -1.99781 -1.98742 -2.03389 -2.03605 -2.01917 -2.03325 -2.00586 -2.03284 -2.02295 -2.03894 -2.01231
internal_weight=232.927 72.3794 40.9405 160.548 62.3189 17.6058 37.4472 22.9155 14.8112 31.4389 17.3263 10.4796 23.3347 16.3482 10.8988 14.5318 5.72887 10.8988 13.6934 9.64127 5.72887 98.2292 93.4784 23.3347 18.1647 7.26588 24.8717 6.98643 22.0771 6.14806
internal_count=1667 518 293 1149 446 126 268 164 106 225 124 75 167 117 78 104 41 78 98 69 41 703 669 167 130 52 178 50 158 44
is_linear=0
shrinkage=1


Tree=2
num_leaves=31
num_cat=0
split_feature=28 16 38 28 17 34 5 6 31 38 34 5 53 70 20 41 64 58 40 45 17 74 50 56 57 16 50 4 31 45
split_gain=36.1267 17.8737 17.5863 16.1338 14.9231 22.4379 16.1092 9.33682 9.02038 8.55981 12.9296 11.3201 6.55027 6.16298 5.7073 6.49905 5.58451 7.59953 8.96122 5.46541 6.27367 5.43476 4.78315 4.62325 4.36193 4.23158 3.29285 2.986 3.44806 2.918
threshold=1.1352318525314333 0.22151827067136767 0.2723322212696076 -0.45790830254554743 0.54993292689323436 -0.38487850129604334 -0.025849451310932633 0.58665084838867199 1.0446186661720278 -0.18294814229011533 0.21769341081380847 -0.55472841858863819 0.44134216010570532 0.049429748207330711 0.39266751706600195 0.99414786696434032 -1.0187830328941343 -0.051819328218698495 -0.31584288179874415 0.43858709931373602 -1.0000000180025095e-35 0.1047707498073578 0.45105393230915075 0.937054604291916 0.16169007867574695 -1.6126722693443296 -0.054347943514585488 -1.4345507621765134 -0.37978984415531153 0.28611487150192266
decision_type=2 2 2 2 2 2 2 2 2 2 2 2 2 2 2 2 2 2 2 2 2 2 2 2 2 2 2 2 2 2
left_child=3 2 24 16 5 6 12 -8 27 23 11 22 -5 19 15 26 17 -1 -19 20 -13 -10 -11 -7 -2 -18 -3 -6 29 -29
right_child=1 14 -4 4 8 9 7 -9 21 10 -12 13 -14 -15 -16 -17 25 18 -20 -21 -22 -23 -24 -25 -26 -27 -28 28 -30 -31
leaf_value=-1.9768327686167022 -1.7908145446789134 -1.8591367442458062 -1.9435232883069959 -1.8908587318123848 -1.9327698166786471 -1.9771873316952293 -1.9722927710356026 -1.8784458795054679 -1.8853954984456698 -1.8413644101304292 -1.9776094223317542 -1.8758339133406841 -1.7834466424193318 -1.9747658309735228 -1.9666430675744804 -1.9708866496117126 -1.9276994027723959 -1.8635765004117011 -1.9572810394115006 -1.9650856494526936 -1.9581810386340242 -1.9630828806648088 -1.9253309938113354 -1.9212808105467785 -1.8795235416744605 -1.9805706148228308 -1.9259684361421257 -1.9756160456020537 -1.9918156438881844 -1.9256968439962368
leaf_weight=9.3928613662719744 4.8431941419839841 3.3755595535039884 4.6964306831359854 4.696430683135989 2.9352691769599906 20.253357321023945 5.2834845185279828 3.6690864711999893 3.9626133888959876 5.1367210596799868 9.8331517428159696 6.8978825658559799 3.2287960946559906 6.0173018127679816 7.4849364012479773 2.9352691769599906 3.3755595535039893 3.5223230123519897 5.4302479773759824 3.815849930047988 2.9352691769599932 3.5223230123519897 3.2287960946559906 3.6690864711999884 5.4302479773759842 67.217664152383804 4.6964306831359899 6.3108287304639799 22.895099580287933 3.9626133888959885
leaf_count=64 33 23 32 32 20 138 36 25 27 35 67 47 22 41 51 20 23 24 37 26 20 24 22 25 37 458 32 43 156 27
internal_value=-1.94771 -1.90023 -1.8614 -1.95542 -1.94362 -1.93069 -1.88135 -1.93077 -1.96682 -1.945 -1.93037 -1.91332 -1.83364 -1.93552 -1.93445 -1.91278 -1.9715 -1.94691 -1.9157 -1.91753 -1.89915 -1.9195 -1.86796 -1.96791 -1.82753 -1.9778 -1.89138 -1.97711 -1.98135 -1.95615
internal_weight=244.655 33.4621 14.9699 211.193 122.254 78.6652 16.8778 8.95257 43.5887 61.7874 37.865 28.0318 7.92523 19.6663 18.4922 11.0073 88.9387 18.3454 8.95257 13.649 9.83315 7.48494 8.36552 23.9224 10.2734 70.5932 8.07199 36.1038 33.1685 10.2734
internal_count=1667 228 102 1439 833 536 115 61 297 421 258 191 54 134 126 75 606 125 61 93 67 51 57 163 70 481 55 246 226 70
is_linear=0
shrinkage=1


Tree=3
num_leaves=31
num_cat=0
split_feature=40 4 45 17 55 48 9 43 12 33 40 5 43 29 68 68 70 1 67 1 6 29 14 16 67 50 69 34 54 4
split_gain=55.4663 22.0656 11.8709 11.8498 14.6551 12.7758 14.8982 10.013 10.0016 9.31289 7.75743 10.3253 10.0482 13.116 9.74961 11.816 11.4901 8.94505 6.89123 5.08354 5.66808 4.6713 4.27787 4.20574 3.61033 3.12122 2.40534 2.20557 2.15708 2.81344
threshold=0.61198359727859508 -1.1593729853630064 0.64073592424392711 -0.02597918082028627 -0.45043042302131647 -1.0000000180025095e-35 -0.33551718294620508 0.12646470963954928 -1.0000000180025095e-35 0.16017710417509082 -0.70715901255607594 -1.1158731579780576 0.32921063899993902 -0.48227745294570917 0.11917382106184961 0.64166802167892467 -0.033320827409625046 0.43789788335561758 1.1694044470787051 1.570854187011719 -0.17262355238199231 -0.96546062827110279 0.11443796008825304 -0.68341499567031849 -0.10055891051888464 -0.32447654008865351 1.0487411618232729 0.38585299253463751 1.2716877460479739 0.39441244304180151
decision_type=2 2 2 2 2 2 2 2 2 2 2 2 2 2 2 2 2 2 2 2 2 2 2 2 2 2 2 2 2 2
left_child=10 8 3 4 -3 9 -7 -8 -2 -6 27 14 26 17 -12 16 -16 21 19 20 22 -14 -5 -15 -4 -22 28 -1 -13 -30
right_child=1 2 24 18 5 6 7 -9 -10 -11 11 12 13 23 15 -17 -18 -19 -20 -21 25 -23 -24 -25 -26 -27 -28 -29 29 -31
leaf_value=-2.3664190139464054 -2.2785063080183603 -2.3514931718813359 -2.311225233039051 -2.2601519844012858 -2.2432010761677037 -2.3147917598980432 -2.259834856510925 -2.0936461870579963 -2.1359738150841228 -2.3532962086023397 -2.3465173433073789 -2.3684709973385276 -2.3623474153247503 -2.3081054528109002 -2.1592203211000625 -2.3398021635881125 -2.3147917598980432 -2.2165696246582378 -2.2566936913379001 -2.2785063080183603 -2.3166921693579989 -2.2806131948635326 -2.3448913286381066 -2.3632773925802821 -2.3692398994791293 -2.370877225249405 -2.3233385424663924 -2.3218711357529465 -2.296637024567981 -2.3623474153247503
leaf_weight=41.116354465484619 3.5845026969909668 2.9519433975219753 3.5845026969909668 2.4248106479644838 2.7410902976989755 2.2139575481414804 2.8465168476104665 2.5302371978759766 2.3193840980529776 3.2682230472564697 5.6930336952209455 32.471377372741699 2.4248106479644775 4.111635446548461 2.2139575481414795 3.0573699474334717 2.2139575481414795 3.0573699474334717 3.5845026969909659 3.5845026969909659 3.1627964973449734 2.6356637477874774 2.1085309982299805 10.6480815410614 6.0093133449554426 8.3286974430084246 3.6899292469024649 2.6356637477874747 2.1085309982299796 2.4248106479644775
leaf_count=390 34 28 34 23 26 21 27 24 22 31 54 308 23 39 21 29 21 29 34 34 30 25 20 101 57 79 35 25 20 23
internal_value=-2.32804 -2.28699 -2.29942 -2.28757 -2.2564 -2.23568 -2.19584 -2.15688 -2.20257 -2.29791 -2.34705 -2.33729 -2.34569 -2.31945 -2.29851 -2.26432 -2.21994 -2.27206 -2.31192 -2.32506 -2.33787 -2.31871 -2.29519 -2.34752 -2.34787 -2.35612 -2.36033 -2.36362 -2.36409 -2.33134
internal_weight=175.746 55.2435 49.3396 39.7458 16.552 13.6 7.59071 5.37675 5.90389 6.00931 120.503 76.7505 63.5722 22.8776 13.1783 7.48529 4.42792 8.11784 23.1938 19.6093 16.0248 5.06047 4.53334 14.7597 9.59382 11.4915 40.6946 43.752 37.0047 4.53334
internal_count=1667 524 468 377 157 129 72 51 56 57 1143 728 603 217 125 71 42 77 220 186 152 48 43 140 91 109 386 415 351 43
is_linear=0
shrinkage=1


Tree=4
num_leaves=31
num_cat=0
split_feature=40 5 19 4 4 43 7 65 14 6 42 47 16 16 55 19 66 16 34 9 62 7 29 32 10 33 46 23 32 8
split_gain=17.4935 15.2142 15.4127 11.3977 14.4158 10.8684 7.18586 6.97664 6.07483 9.79296 11.9487 6.52472 6.86535 5.4498 4.91305 2.86247 3.10707 6.06757 7.1198 3.37217 5.25171 2.60683 2.37507 2.03173 1.6814 1.44435 1.09014 0.296588 0.178576 0.140359
threshold=-1.5390157103538511 -0.43478365242481226 0.28034208714962011 -1.5973320007324217 -1.8601074218749998 -1.2623901963233946 -0.24407428503036496 0.10225675255060197 1.0024923980236056 -0.65714430809020985 0.17895848304033282 -1.414254307746887 0.6471901834011079 -1.2485706210136411 1.699031710624695 -1.4637367725372312 -0.35689949989318842 0.69127765297889721 0.077560417354106917 -0.29921041429042811 -0.12009167298674582 -0.14042340219020841 1.44944703578949 1.5028142333030703 -0.70552635192871083 0.54669946432113659 -0.45519608259201044 -1.5825132131576536 1.1877728104591372 0.037401543930172927
decision_type=2 2 2 2 2 2 2 2 2 2 2 2 2 2 2 2 2 2 2 2 2 2 2 2 2 2 2 2 2 2
left_child=1 2 -1 4 -2 6 -5 -6 11 10 -10 12 -7 -11 15 -13 17 19 -19 20 -17 -3 23 24 -18 -15 -21 -26 -29 -22
right_child=3 21 -4 5 7 8 -8 -9 9 13 -12 14 -14 25 -16 16 22 18 -20 26 29 -23 -24 -25 27 -27 -28 28 -30 -31
leaf_value=-2.5311527410807004 -2.7308242178235154 -2.6728075686904367 -2.7139753338091395 -2.6081752770311275 -2.6802553308803407 -2.7334246966679618 -2.7131467148658914 -2.5505816779020405 -2.5638205399776366 -2.652775351557271 -2.7194474157884287 -2.6811550916087374 -2.6127109172909404 -2.7452330639152134 -2.6655482651091127 -2.6453791588209077 -2.7028887781951298 -2.7256704987539369 -2.6200955902286358 -2.7108118069003675 -2.7128720029567677 -2.7389416813664935 -2.6991281335288231 -2.6945259709503171 -2.7194474157884287 -2.6990430580026521 -2.7477834342178697 -2.7498113882316098 -2.7235033631898684 -2.7376356307500465
leaf_weight=2.6179637387394905 3.7399481981992722 1.4959792792797086 1.5707782432436941 2.4683658108115196 2.4683658108115187 1.5707782432436936 2.842360630631446 1.720376171171665 1.6455772072076791 1.4959792792797078 2.019572027027607 1.7951751351356495 1.4959792792797086 7.0311026126146299 1.869974099099635 1.7951751351356504 2.019572027027599 2.7675616666674605 2.019572027027607 2.6179637387394967 1.4959792792797153 2.7675616666674596 2.7675616666674605 1.5707782432436932 2.0195720270275919 1.7951751351356504 13.837808333337295 44.505383558571367 2.4683658108115187 2.3935668468475342
leaf_count=35 50 20 21 33 33 21 38 23 22 20 27 24 20 94 25 24 27 37 27 35 20 37 37 21 27 24 185 595 33 32
internal_value=-2.71105 -2.64556 -2.58801 -2.71629 -2.66179 -2.72065 -2.65656 -2.60728 -2.7244 -2.69444 -2.63404 -2.72919 -2.66604 -2.72035 -2.73188 -2.73381 -2.73525 -2.72055 -2.67396 -2.73158 -2.69923 -2.71381 -2.74201 -2.74436 -2.74609 -2.73607 -2.74251 -2.7479 -2.74882 -2.73144
internal_weight=124.69 8.45228 4.18874 116.238 7.92869 108.309 5.31073 4.18874 102.998 13.9874 3.66515 89.0108 3.06676 10.3223 85.944 84.074 82.2789 26.9276 4.78713 22.1405 5.68472 4.26354 55.3512 52.5837 51.0129 8.82628 16.4558 48.9933 46.9737 3.88955
internal_count=1667 113 56 1554 106 1448 71 56 1377 187 49 1190 41 138 1149 1124 1100 360 64 296 76 57 740 703 682 118 220 655 628 52
is_linear=0
shrinkage=1


Tree=5
num_leaves=24
num_cat=0
split_feature=73 64 28 14 29 64 6 69 29 53 17 72 71 67 40 41 6 6 26 52 26 67 67
split_gain=61.7514 36.4258 22.7165 15.1187 10.8958 10.6205 12.9133 10.021 9.6151 6.18766 8.25568 5.38956 4.75115 3.28155 2.94427 2.23715 1.53652 1.1778 1.6608 0.990598 0.911978 0.341046 0.333194
threshold=1.0000000180025095e-35 0.33974868059158331 -0.14217477291822431 0.13313385099172595 0.90275782346725475 1.0095195174217226 -0.23075509071350095 -0.15262288600206372 0.75692924857139599 -1.1494091749191282 -1.3028699755668638 1.9723690748214724 0.21227926015853885 0.90283414721488964 -2.2033678293228145 0.8940577805042268 -0.18441438674926755 1.5707733631134035 0.074247661978006377 1.7538018226623537 -2.6060047149658199 1.5246750712394717 1.6161913275718691
decision_type=2 2 2 2 2 2 2 2 2 2 2 2 2 2 2 2 2 2 2 2 2 2 2
left_child=1 12 3 -3 16 9 7 -7 -9 10 -2 14 -1 -8 -11 -12 -4 19 -19 20 -16 -22 -23
right_child=5 2 4 -5 -6 6 13 8 -10 11 15 -13 -14 -15 17 -17 -18 18 -20 -21 21 22 -24
leaf_value=-3.2600151164143498 -3.2077627846459125 -2.9310457084226114 -3.3427668061481604 -3.2597772429334868 -3.1557483263583386 -3.3387389279641271 -3.3523468081805436 -3.1197062690295909 -3.3128268834337589 -3.2857844720772738 -3.3497500323330791 -3.265950160018023 -3.3491825944280018 -3.2819809927438919 -3.3128268834337589 -3.2823861864210087 -3.2823861864210087 -3.3441388506195548 -3.2823861864210087 -3.3095796834766862 -3.3591829786967851 -3.3095796834766862 -3.340401361101847
leaf_weight=1.4257473349571208 0.92254239320754994 0.96447613835334756 1.4676810801029208 0.92254239320755005 0.92254239320754994 1.0064098834991457 4.4449769854545575 1.2580123543739321 0.96447613835334767 0.92254239320754194 3.1030971407890315 1.0483436286449421 2.8934284150600433 1.4676810801029203 0.96447613835333967 0.83867490291595448 0.83867490291595492 1.6773498058319085 0.83867490291595448 0.83867490291595359 38.159708082675948 0.83867490291595403 1.1741448640823362
leaf_count=34 22 23 35 22 22 24 106 30 23 22 74 25 69 35 23 20 20 40 20 20 910 20 28
internal_value=-3.31525 -3.20282 -3.12431 -3.01625 -3.24365 -3.33437 -3.287 -3.22001 -3.1762 -3.34322 -3.29323 -3.34884 -3.31456 -3.33233 -3.35181 -3.3313 -3.31697 -3.35384 -3.31955 -3.35579 -3.35689 -3.35802 -3.32934
internal_weight=69.9036 9.43509 5.11592 1.88702 3.2289 60.4685 9.14156 3.2289 2.22249 51.3269 4.86431 46.4626 4.31918 5.91266 45.4142 3.94177 2.30636 44.4917 2.51602 41.9757 41.137 40.1725 2.01282
internal_count=1667 225 122 45 77 1442 218 77 53 1224 116 1108 103 141 1083 94 55 1061 60 1001 981 958 48
is_linear=0
shrinkage=1


Tree=6
num_leaves=31
num_cat=0
split_feature=5 28 4 7 40 8 44 17 41 67 18 68 60 74 23 35 31 28 70 68 53 29 20 26 64 46 40 29 53 34
split_gain=88.1065 16.2195 18.5842 11.2988 9.51175 9.36443 8.04693 8.71158 8.43719 7.99015 7.03637 6.48237 6.27919 6.39271 6.06325 6.06133 6.02557 5.95375 6.86706 5.73321 5.71638 6.56032 5.56784 5.4727 5.39875 5.39799 5.39065 5.04277 4.86289 6.56607
threshold=-0.39234712719917292 1.1078097820281985 0.468051627278328 0.4796228706836701 0.42110633850097662 -1.2291875481605528 0.7771606743335725 1.2657044529914858 -0.045711219310760491 0.21669729053974154 1.0518894195556643 -0.49433565139770502 1.0000000180025095e-35 -0.21934121847152707 1.0000000180025095e-35 1.2085195779800417 0.35151210427284246 -0.082760453224182115 0.28388971090316778 0.15925043076276782 -0.96782520413398732 0.81371510028839122 0.3755567222833634 0.89284685254096996 0.17125093936920169 -0.1876261234283447 -1.1838210821151731 -0.080744858831167207 0.22733243554830554 -0.10461248084902762
decision_type=2 2 2 2 2 2 2 2 2 2 2 2 2 2 2 2 2 2 2 2 2 2 2 2 2 2 2 2 2 2
left_child=3 2 5 17 10 -2 7 8 11 -10 15 -7 25 -14 22 20 19 18 26 -15 -4 -22 -3 -19 -16 -6 -1 -11 -5 -30
right_child=1 14 4 28 12 6 -8 -9 9 27 -12 -13 13 16 24 -17 -18 23 -20 -21 21 -23 -24 -25 -26 -27 -28 -29 29 -31
leaf_value=-0.0010992235341147764 -0.048046561644717566 -0.013480136971604368 0.016983019469348697 -0.019742386250244492 0.0025486914907819147 -0.0014750101884190552 -0.017402162729208352 -0.036159660582823688 0.022765444705928412 -0.036616957384503476 0.0024764743087868791 0.046900714471587418 -0.034552386135171483 0.024242843346251722 0.0033135280264486827 0.0061796433229294387 0.042759077576371728 -0.053404941555997426 0.015482694445197058 -0.040015118300854774 0.066089714907820826 0.01288578327857974 0.027081551552319668 -0.012426466835231985 -0.052470094236041237 0.049555485957322433 -0.038387944552037138 0.0075850628827653964 0.039823623645329882 -0.016965822214765957
leaf_weight=12.276391446590422 6.2827915251255027 20.072268843650818 10.145853638648985 26.658694237470627 9.2593618333339709 8.672705262899397 20.941552251577377 6.5836311280727378 33.466476231813431 11.674109727144243 9.257895499467848 32.227190166711807 8.0689599514007586 5.9739163517951983 6.5853873491287258 7.7590603828430167 9.5608208477497083 51.574350893497467 8.6851299703121168 5.9760056734085083 50.094387084245682 7.1581155657768241 13.149932891130446 10.492155134677885 11.097057044506071 17.607797861099243 46.141126692295074 12.569370329380034 9.5847438573837298 8.9879346787929517
leaf_count=41 21 67 34 89 31 29 70 22 112 39 31 108 27 20 22 26 32 172 29 20 168 24 44 35 37 59 154 42 32 30
internal_value=0.000519489 0.0159243 0.0207408 -0.0280433 0.0333222 0.00720765 0.0103161 0.0159461 0.019753 0.00721312 0.043912 0.0368524 0.0169967 0.000920173 -0.00983446 0.0489165 0.0151702 -0.0355294 -0.0245848 -0.00850029 0.0536742 0.0597732 0.0028971 -0.0467845 -0.0326295 0.0340281 -0.0307021 -0.0143072 -0.00635887 0.0128786
internal_weight=498.585 324.185 273.28 174.401 140.862 132.418 126.135 105.193 98.6099 57.71 84.4153 40.8999 56.4469 29.5797 50.9046 75.1574 21.5107 129.169 67.1026 11.9499 67.3984 57.2525 33.2222 62.0665 17.6824 26.8672 58.4175 24.2435 45.2314 18.5727
internal_count=1667 1085 915 582 472 443 422 352 330 193 283 137 189 99 170 252 72 431 224 40 226 192 111 207 59 90 195 81 151 62
is_linear=0
shrinkage=0.05


Tree=7
num_leaves=31
num_cat=0
split_feature=16 4 22 19 7 55 55 62 16 7 11 6 40 22 38 50 46 22 57 74 31 6 64 21 54 66 38 57 69 25
split_gain=41.3379 31.0353 17.142 12.6313 8.91352 10.1287 10.1732 8.86254 11.2488 10.7779 8.34094 7.91303 7.86002 9.49472 8.63519 6.6093 6.07975 4.93955 4.76642 4.71024 5.5672 4.66339 4.50628 4.18022 3.4869 4.14395 3.80195 3.37074 5.01375 3.9902
threshold=0.0083020180463790911 0.28511664271354681 -0.13876393437385556 1.1891232728958132 1.050399959087372 0.65092378854751598 1.3001530170440676 -0.60379490256309498 0.58295935392379772 0.037130950018763549 -1.0000000180025095e-35 -0.20964132994413373 -0.81516939401626576 -0.037862829864025109 1.0000000180025095e-35 -0.25476591289043421 -0.42703083157539362 -0.61444056034088124 -0.17805442214012143 1.0521749258041384 0.93515619635581981 -0.31466193497180933 0.31473016738891607 -0.23601476848125455 -0.53502100706100453 -0.90654247999191273 -0.051617264747619622 0.68118306994438182 0.38093572854995733 1.0000000180025095e-35
decision_type=2 2 2 2 2 2 2 2 2 2 2 2 2 2 2 2 2 2 2 2 2 2 2 2 2 2 2 2 2 2
left_child=11 2 7 17 5 16 -7 -2 9 -9 -10 12 13 14 -1 -5 -4 -3 23 20 -14 -20 -12 -18 26 -26 -19 29 -29 -13
right_child=1 3 4 15 -6 6 -8 8 10 -11 22 27 19 -15 -16 -17 18 24 21 -21 -22 -23 -24 -25 25 -27 -28 28 -30 -31
leaf_value=0.10439121832202883 0.0018797607162437495 0.032121133019614938 0.05874034684962496 -0.011335553865791234 -0.033473546560466354 0.1236486331693577 0.0034610186067535148 0.080276415666562698 0.051354626216081237 -0.021113779854523215 0.16206021147980335 -0.038565127549037799 -0.033014722091053737 -0.015931150992708306 -0.00094467618136590274 0.075909626422155083 -0.0095881660823921456 0.044371104775169139 -0.04231565955260997 0.032401040960595207 0.022943549469387942 0.016179616481956923 0.058866324324868817 0.067442108756594579 0.014870747781325086 -0.037827984417476403 -0.024862613916170385 -0.02697670423995956 0.036261863521055281 0.017765454337109011
leaf_weight=3.8965232968330383 3.9518581181764629 3.3382208198308936 4.5851141959428849 3.0327323526144028 5.7009188234806052 3.9277344942092887 2.8313958048820496 4.4184812754392642 6.47004206478596 4.4385564923286438 6.3342529535293526 57.486988365650177 25.497823476791385 6.6999766826629621 3.1989244520664215 5.0197021812200529 2.8315864056348801 2.7654103338718414 7.0811184048652702 3.3245178908109656 4.5999782234430304 5.1678199321031464 3.1656522750854492 2.8705353140831056 3.7354034036397925 28.222132652997978 3.251743301749225 8.4053898751735669 3.721485808491706 2.7676164954900733
leaf_count=27 28 24 32 22 41 27 20 30 43 31 41 422 185 48 23 35 20 20 50 24 33 36 21 20 27 205 24 61 27 20
internal_value=-0.000258943 0.0213098 0.0440811 -0.00839944 0.0196818 0.0307894 0.0802368 0.0720943 0.0827652 0.0324791 0.107097 -0.0206704 -0.00459785 0.025989 0.0626509 0.0454287 0.01318 -0.0197169 -0.000942729 -0.0176111 -0.0239996 -0.0182781 0.136554 0.0334669 -0.0249811 -0.0314039 0.00874514 -0.0309498 -0.00628608 -0.03573
internal_weight=232.74 113.14 63.7751 49.3653 34.9962 29.2953 6.75913 28.7788 24.827 8.85704 15.9699 119.599 47.2177 13.7954 7.09545 8.05243 22.5362 41.3129 17.9511 33.4223 30.0978 12.2489 9.49991 5.70212 37.9747 31.9575 6.01715 72.3815 12.1269 60.2546
internal_count=1667 797 440 357 246 205 47 194 166 61 105 870 340 98 50 57 158 300 126 242 218 86 62 40 276 232 44 530 88 442
is_linear=0
shrinkage=0.05


Tree=8
num_leaves=31
num_cat=0
split_feature=28 16 28 34 33 34 5 5 31 43 41 30 56 55 11 43 8 57 45 30 46 30 57 45 69 64 5 48 52 26
split_gain=32.9166 22.5721 20.6096 17.8144 12.9554 8.69938 8.55875 13.687 8.5446 8.64857 7.45255 7.35107 7.28944 6.54366 6.99655 8.90868 6.35808 10.2983 16.1019 6.0541 6.16539 8.47849 5.53328 7.62822 5.96217 4.53354 3.83245 3.75842 4.49139 3.5081
threshold=-0.014586505945771931 0.22151827067136767 1.4566783308982851 -0.38487850129604334 -0.18268964439630506 1.0000000180025095e-35 -0.85003089904785145 -1.3417338728904722 1.0446186661720278 -0.40002010762691492 -0.57283285260200489 0.23992820829153064 0.075333699584007277 -0.31404550373554224 -1.0000000180025095e-35 -1.0000000180025095e-35 0.88662996888160717 -0.16669671237468717 0.32792171835899359 -0.20721255242824552 0.17852222174406054 0.61231639981269848 0.3098344504833222 0.66532820463180553 -0.52547684311866749 -0.37915493547916407 -1.5300680994987486 1.0000000180025095e-35 -0.068598344922065721 -0.1282016150653362
decision_type=2 2 2 2 2 2 2 2 2 2 2 2 2 2 2 2 2 2 2 2 2 2 2 2 2 2 2 2 2 2
left_child=5 2 3 4 -2 10 7 -5 13 -10 16 -6 -9 14 -3 -16 17 -1 25 -8 -21 -22 24 27 -12 -19 -15 28 -24 -11
right_child=1 8 -4 6 11 -7 19 12 9 29 22 -13 -14 26 15 -17 -18 18 -20 20 21 -23 23 -25 -26 -27 -28 -29 -30 -31
leaf_value=-0.023630628978950879 -0.011597109943850457 -0.01507863810175082 0.11666725365495118 -0.011571521300284202 0.025675323813662051 -0.034236442904568253 0.039737963154487167 0.022938308548537172 0.09031372002147374 -0.028435366655143436 0.015571343523229779 0.12824491813817679 0.13149260863752443 0.023062551558296292 -0.010663889676517638 0.10097035259217782 -0.030361144480378334 0.14226169982075668 -0.012507246165397449 -0.028162806074893687 -0.027279132838135531 0.069465459303293495 0.038887871775559621 0.066774372332446541 -0.040673713317450261 0.040086721339906956 -0.029315146907047542 -0.040898855396347251 -0.023436059619626137 0.029281358463484137
leaf_weight=4.9593607038259533 2.9961683601140967 7.9411835074424744 6.5205402225255957 5.6813057512044907 3.0089473128318769 51.778487890958786 5.76922284066677 3.1611666977405495 3.3033635765314093 3.8641056418418875 5.2199492454528835 6.8811216205358505 3.4224078357219696 3.1556495130062094 2.919389545917511 2.9972736090421659 4.4020066261291495 3.1782840192317963 4.5109748989343643 18.487150937318813 3.6363359093666068 3.6353866010904312 4.6980457603931427 2.89161792397499 24.444999665021896 2.9304573237895948 32.790058642625809 5.4544266164302817 4.9264644086360949 4.7517496645450583
leaf_count=34 20 55 41 38 20 360 39 21 22 26 36 44 22 21 20 20 30 21 31 126 25 24 32 20 169 20 226 38 34 32
internal_value=-0.00031457 0.0175591 0.0383188 0.027439 0.0768603 -0.0190062 0.0115053 0.0452059 -0.00396941 0.0324137 -0.00701447 0.102262 0.0892671 -0.0131434 0.0152774 0.0523099 0.0180261 0.032705 0.058783 -0.00259141 -0.0132027 0.0236376 -0.0176726 0.00414187 -0.0305916 0.105781 -0.0242172 -0.0112748 0.00778313 0.00313091
internal_weight=244.318 124.923 63.1998 56.6792 12.8862 119.395 43.793 12.2649 61.7228 11.9192 67.6166 9.89007 6.58357 49.8036 13.8578 5.91666 19.9811 15.5791 10.6197 31.5281 25.7589 7.27172 47.6355 17.9706 29.6649 6.10874 35.9457 15.0789 9.62451 8.61586
internal_count=1667 842 420 379 84 825 295 81 422 80 465 64 43 342 95 40 136 106 72 214 175 49 329 124 205 41 247 104 66 58
is_linear=0
shrinkage=0.05


Tree=9
num_leaves=31
num_cat=0
split_feature=40 4 46 45 14 46 21 41 35 29 55 45 28 16 7 43 20 19 70 56 41 45 70 64 45 30 14 66 5 43
split_gain=50.3912 17.6985 15.4382 11.6784 11.7495 12.7605 9.67487 9.63946 11.2679 9.37563 9.28933 8.32107 12.5147 6.71931 9.17279 9.47746 12.9061 5.72029 5.27529 4.63236 4.15658 3.91954 4.71886 3.46318 2.47274 2.47734 2.35087 4.9268 2.34999 2.08577
threshold=0.61198359727859508 -1.1593729853630064 0.17852222174406054 0.43858709931373602 -0.58665764331817616 -0.44111345708370203 0.07976467534899713 -0.51050120592117298 1.2085195779800417 -0.50411820411682118 -0.075839221477508531 -0.21950303018093106 -0.89208954572677601 -0.016021929215639826 -0.036772435531020158 0.32921063899993902 -0.099451180547475801 -0.17358351498842237 -0.1022796407341957 0.94301804900169384 1.2260935306549074 0.81337401270866405 0.15976385027170184 0.41028259694576269 -2.0727794170379634 1.2122599482536318 -0.72687673568725575 -0.95390400290489186 1.0227897167205813 0.57680329680442821
decision_type=2 2 2 2 2 2 2 2 2 2 2 2 2 2 2 2 2 2 2 2 2 2 2 2 2 2 2 2 2 2
left_child=7 6 3 4 23 10 -2 26 13 -10 -6 -7 -13 14 15 18 -17 -5 -9 20 -14 22 -16 -3 -15 -26 27 -1 -4 -19
right_child=1 2 28 17 5 11 -8 8 9 -11 -12 12 19 24 21 16 -18 29 -20 -21 -22 -23 -24 -25 25 -27 -28 -29 -30 -31
leaf_value=0.041990548121124516 0.16855437859763708 0.16502881901560382 -0.035684545693347752 0.046358650957904868 0.013172512590024632 -0.025747420588343346 0.039520155350962927 0.033738828678820866 0.093704773949289652 -0.018689549791600948 0.14334790293010102 0.12286186454351339 -0.031114170830399121 0.017947482363301414 -0.042613671494388897 0.13100726212691585 -0.0007339641672184171 -0.039031267499599974 -0.037588721446542954 0.063298192358628033 0.036399102188943787 0.025455502245743181 0.025634208003642273 0.047405406646444083 -0.038100706120613247 0.00371714622884909 -0.038757560363017043 -0.029442373891951829 0.016900711951731272 0.011793097501592346
leaf_weight=2.3633953556418419 2.9316015765070906 2.2903696969151488 8.1523722261190397 3.2805743664503098 2.2966283932328224 6.1214060038328197 3.5983230844140053 3.9602168127894393 3.9736051931977272 2.5042682066559783 3.4582859277725211 2.5229876935482052 5.3552221506834048 2.0634102970361736 12.126033641397955 3.2061137035489082 3.3116899356245986 5.4741570428013784 4.4421092197298995 2.1595550328493118 2.5824519619345665 3.1370612829923621 2.4280106350779525 2.1614126935601234 23.563424021005634 3.9416452124714842 39.792590253055096 7.8076188266277295 2.1100266724824897 2.3779825195670128
leaf_count=23 25 20 77 31 21 57 31 38 37 24 31 23 50 20 116 29 31 52 43 20 24 30 23 20 227 38 388 76 20 22
internal_value=0.00168217 0.039975 0.0286126 0.0424309 0.0586852 0.0417566 0.112141 -0.0168581 -0.00455777 0.0535657 0.101039 0.019357 0.0415188 -0.0113651 0.00429897 0.0320762 0.0728759 -0.00118819 -0.00395753 0.0119539 -0.00753434 -0.0195902 -0.030312 0.127091 -0.0282165 -0.0321878 -0.0333396 -0.0105708 -0.024332 -0.0240459
internal_weight=175.495 56.8734 50.3434 40.081 28.9483 24.4965 6.52992 118.621 68.6576 6.47787 5.75491 18.7416 12.6202 62.1797 32.6112 14.9201 6.5178 11.1327 8.40233 10.0972 7.93767 17.6911 14.554 4.45178 29.5685 27.5051 49.9636 10.171 10.2624 7.85214
internal_count=1667 524 468 371 266 226 56 1143 656 61 52 174 117 595 310 141 60 105 81 94 74 169 139 40 285 265 487 99 97 74
is_linear=0
shrinkage=0.05


Tree=10
num_leaves=31
num_cat=0
split_feature=40 53 43 14 31 26 53 64 9 68 43 9 23 56 10 42 66 17 31 53 66 31 33 50 53 40 32 31 56 6
split_gain=15.8307 15.9489 9.92197 8.56355 11.5662 12.6535 8.23187 7.40617 5.61442 7.18677 11.129 5.46176 5.24525 3.77999 9.08505 12.5541 6.7502 4.17624 6.31856 3.47815 3.21018 6.22257 2.39653 4.17882 2.15938 2.06645 1.99234 1.8933 1.27666 1.00188
threshold=-1.5390157103538511 0.96393641829490673 -1.2623901963233946 1.3296704292297366 0.20105939358472827 -0.41867227852344507 -0.46468627452850336 -0.43733036518096918 0.341063141822815 1.1989952325820925 -0.10010582953691481 0.31898470222949987 0.42016289383172994 0.16031318157911303 -0.31544405221939081 0.38201946020126348 -0.28037324547767634 -1.032900810241699 -0.077487256377935396 0.185989685356617 0.85680207610130321 0.30120608210563665 0.62272852659225475 -0.3506180047988891 1.193348288536072 1.3121030926704409 1.3073993921279909 0.0082194735296070593 0.43276892602443701 0.28283138573169714
decision_type=2 2 2 2 2 2 2 2 2 2 2 2 2 2 2 2 2 2 2 2 2 2 2 2 2 2 2 2 2 2
left_child=1 7 6 8 -5 -6 -2 -1 9 11 -11 13 -8 17 15 16 -15 18 -4 -7 22 -22 -16 -24 -19 26 -10 -27 -9 -12
right_child=2 -3 3 4 5 19 12 28 25 10 29 -13 -14 14 20 -17 -18 24 -20 -21 21 -23 23 -25 -26 27 -28 -29 -30 -31
leaf_value=0.073801830526153869 -0.02899191839046247 0.16207625214270133 0.059807784135216237 -0.027220417120108642 0.15496115747532943 -0.029659599841551167 0.016169602523507076 -0.034491056412249303 -0.041340078966967231 0.118327855683335 -0.030110971266291493 0.051755025831277258 0.12772672131976981 0.15244406059253404 -0.038021163697668343 -0.032134870125873273 0.019058409140171043 -0.040815110159163316 -0.033584652150667325 0.049963165554755044 -0.032227692238019669 0.064424057669804552 0.053333051162070932 -0.031684811445434939 0.013901469878159572 -0.027107182090230688 0.010032452446277644 0.034447800961323681 0.012576726205487122 0.013757466371520592
leaf_weight=2.3285209983587265 1.8404604345560072 1.6318854093551634 2.2998132482171059 4.4261189699172956 1.7267975956201551 1.9700788930058482 2.1940914094448081 3.3423737809061986 28.106204718351368 1.7279803752899168 2.0742767676711078 2.0547427535057059 1.8679566681385038 1.5094074979424479 13.435613535344606 2.5777676180005074 2.0570891425013569 24.063771359622489 3.0593337342143014 1.5848958492279051 2.6147984787821761 2.1599002555012703 1.4966739788651469 2.4476255774497977 1.4718229770660389 1.5490748882293695 1.6449977979063977 1.4622209444642065 1.5252070426940916 1.4773768931627271
leaf_count=30 24 20 31 59 22 26 28 43 383 23 28 27 24 20 184 35 28 328 42 21 36 29 20 33 20 21 22 20 20 20
internal_value=-0.0045899 0.0563903 -0.00972121 -0.0132939 0.029502 0.0738018 0.0486217 0.0155729 -0.0177306 -0.00914014 0.0420899 -0.0141614 0.0825677 -0.0172713 -0.00382361 0.0456081 0.0965308 -0.029083 0.00959613 0.00901393 -0.0189104 0.0150791 -0.0285606 0.00483746 -0.0372563 -0.0343872 -0.0382657 0.0039189 -0.0201129 -0.0128496
internal_weight=123.729 8.82799 114.901 108.998 9.70789 5.28177 5.90251 7.1961 99.2905 66.528 5.27963 61.2484 4.06205 59.1936 28.2989 6.14426 3.5665 30.8947 5.35915 3.55497 22.1546 4.7747 17.3799 3.9443 25.5356 32.7625 29.7512 3.0113 4.86758 3.55165
internal_count=1667 113 1554 1478 128 69 76 93 1350 904 71 833 52 806 385 83 48 421 73 47 302 65 237 53 348 446 405 41 63 48
is_linear=0
shrinkage=0.05


Tree=11
num_leaves=24
num_cat=0
split_feature=73 65 52 70 69 26 8 53 20 38 41 70 38 65 56 17 47 67 6 19 19 44 68
split_gain=55.564 25.5088 14.0723 12.9222 9.97423 7.83773 5.7144 5.212 7.03747 4.73999 5.62735 2.40372 3.77662 4.97071 3.99782 2.26467 1.32727 1.45298 1.16873 1.71658 1.26972 1.78799 0.891358
threshold=1.0000000180025095e-35 0.57069227099418651 0.60825523734092724 -1.0952866077423093 0.47353675961494451 2.1427509784698491 0.083898942917585387 -1.1494091749191282 0.74306482076644909 0.035936655476689346 -0.13711091130971906 -0.32294784486293787 1.5593748688697817 0.96046456694602977 0.23783816397190097 0.62322473526000988 1.4421917796134951 0.43915197253227239 1.5707733631134035 0.28824847936630255 1.3593453764915469 -0.40217800438404078 1.216973662376404
decision_type=2 2 2 2 2 2 2 2 2 2 2 2 2 2 2 2 2 2 2 2 2 2 2
left_child=1 9 4 -2 -3 7 -7 8 15 10 -1 12 13 22 -15 -5 18 -18 20 -20 -13 -22 -9
right_child=3 2 -4 5 -6 6 -8 11 -10 -11 -12 16 -14 14 -16 -17 17 -19 19 -21 21 -23 -24
leaf_value=-0.022644473260353428 0.11344027041175582 0.24057779224653686 0.0023283898062832881 -0.03293794500509787 0.02878698553209337 -0.020537147766686564 0.11465976247063928 -0.03843100954676415 0.094965602679989602 -0.030146201716532886 0.097748298347553775 -0.04189434903062049 0.057781909214091078 -0.021439633573436881 0.087008410023191055 0.034695666526905776 -0.024484731367167823 0.03524944165493956 -0.027429740223529144 0.035212320416557454 0.035294486145791192 -0.028128221335691483 0.0079552366078645478
leaf_weight=1.0983495302498343 0.87116833776235481 3.201027687638998 1.0427656546235082 3.1891262345015994 0.98534896224737156 0.9058002084493626 0.85686671733856201 8.0647905766963888 1.1213553100824354 2.3030979000031948 1.4337101653218249 32.42290910333395 0.91304447874426919 0.98191084712743826 0.86706295236945152 0.83791568130254734 1.3086334541440003 0.82523325458168972 1.7378506623208516 0.82613022997975338 0.82420621439814601 1.8684333637356747 0.82187461480498392
leaf_count=26 20 67 23 75 21 22 20 197 26 55 33 797 22 23 20 20 32 20 42 20 20 46 20
internal_value=0.00218701 0.105147 0.172188 -0.0167587 0.205891 -0.0205797 0.0628987 -0.0242256 0.0206952 0.0155607 0.0538991 -0.0290284 -0.00817299 -0.018228 0.0421059 -0.0147629 -0.0347806 0.00249283 -0.0369013 -0.00302927 -0.0392222 -0.00441405 -0.0337703
internal_weight=69.3086 10.0643 5.22914 59.2443 4.18638 58.3731 1.76267 56.6105 5.1484 4.83516 2.53206 51.4621 11.6487 10.7356 1.84897 4.02704 39.8134 2.13387 37.6795 2.56398 35.1155 2.69264 8.88667
internal_count=1667 225 111 1442 88 1422 42 1380 121 114 59 1259 282 260 43 95 977 52 925 62 863 66 217
is_linear=0
shrinkage=0.05


Tree=12
num_leaves=31
num_cat=0
split_feature=4 28 4 7 42 44 2 1 71 41 17 62 28 59 29 52 74 31 4 30 28 72 23 22 55 4 10 52 20 54
split_gain=67.216 15.1943 18.8831 12.2075 9.24405 8.97409 7.3826 10.8227 7.33811 7.11913 7.10122 7.32052 6.61339 6.23175 6.21426 6.0782 6.06561 7.05185 5.97934 5.93783 11.4993 5.85225 7.59071 5.28177 5.02914 4.95797 4.75302 7.30634 5.55353 7.5199
threshold=-0.36368285119533533 1.1386595368385317 0.468051627278328 0.46428431570529943 -0.31186144053935999 0.15745741873979571 1.0000000180025095e-35 1.0043759942054751 1.0000000180025095e-35 -0.022936145775020119 0.47025336325168615 -0.21343789994716642 -0.053053369745612138 -0.71020483970642079 -1.1153212785720823 -1.2738087177276609 0.4371932744979859 0.10836580768227579 -0.94233140349388111 0.48040020465850836 -0.16616903245449063 1.0000000180025095e-35 -0.38090757280588144 -0.037862829864025109 0.21281103789806369 -1.1593729853630064 -0.24578648805618283 -0.24427530169486997 1.1109448075294497 0.65761050581932079
decision_type=2 2 2 2 2 2 2 2 2 2 2 2 2 2 2 2 2 2 2 2 2 2 2 2 2 2 2 2 2 2
left_child=3 2 5 4 12 13 -3 -8 -7 -4 16 -12 14 -2 -1 -11 17 -5 -14 20 23 -15 -23 -10 -20 -19 -17 -28 29 -29
right_child=1 6 9 10 -6 8 7 -9 19 15 11 -13 18 21 -16 26 -18 25 24 -21 -22 22 -24 -25 -26 -27 27 28 -30 -31
leaf_value=-0.028663975579012041 -0.019557894734447922 -0.032582271957638922 0.045378615017214789 0.049453807702161873 -0.042204514654166005 -0.032661014849965461 0.026731387232472755 -0.042877241064250858 0.015504340407862553 -0.02080051595912881 0.012569292096570301 -0.047876953785684795 -0.049750968684020194 0.039216171692599978 0.019760757009830758 0.044596485953374315 -0.030305694632060731 -0.032223638636590536 -0.031318666380435616 -0.027596387452964118 0.059249666823731964 -0.034464508731033384 0.022633429749776345 -0.036126126232129997 0.026486078907880059 0.022765150258939937 0.042968915082491843 -0.0088832118148301636 -0.03308241334764607 0.039245878935221704
leaf_weight=9.2809605896472949 8.9582313597202283 21.250661641359329 56.338247239589691 11.662048786878588 78.190383493900299 20.625277698040009 18.242392867803577 6.8849850296974173 10.450387328863146 6.8617822825908652 7.488286733627322 12.280145168304442 17.082858175039295 28.309749484062195 17.654153347015381 23.473858058452606 5.9903359413146964 6.2933545112609854 7.1895088851451856 9.8741743564605695 8.933771491050722 7.1734510660171535 19.374501556158066 7.7889071702957144 5.9854909777641296 8.3628793656826002 17.822919696569443 16.678187608718876 6.866448074579238 14.281014502048491
leaf_count=31 30 71 190 39 261 69 61 23 35 23 25 41 57 95 59 79 20 21 24 33 30 24 65 26 20 28 60 56 23 48
internal_value=0.000346302 0.0146172 0.0192492 -0.0232199 -0.0310842 0.004705 -0.0115811 0.00674731 -0.00950696 0.0315449 -0.00257461 -0.0254772 -0.0154173 0.0174973 0.00264638 0.0220633 0.0117828 0.0221213 -0.0310676 0.00390321 0.0159228 0.0237902 0.00651413 -0.00727565 -0.00504171 -0.00139696 0.0259938 0.017498 0.00469887 0.0138513
internal_weight=497.649 310.189 263.811 187.46 135.383 121.488 46.378 25.1274 57.6725 142.322 52.0771 19.7684 57.193 63.8159 26.9351 85.9842 32.3086 26.3183 30.2579 37.0472 27.1731 54.8577 26.548 18.2393 13.175 14.6562 79.1224 55.6486 37.8257 30.9592
internal_count=1667 1041 886 626 452 407 155 84 193 479 174 66 191 214 90 289 108 88 101 124 91 184 89 61 44 49 266 187 127 104
is_linear=0
shrinkage=0.05


Tree=13
num_leaves=31
num_cat=0
split_feature=17 5 22 5 17 67 10 11 10 29 38 6 33 19 17 6 6 41 57 47 16 20 16 10 5 29 41 4 74 46
split_gain=37.8214 27.9625 17.3323 12.6507 10.5841 10.3806 8.9713 8.32067 7.94591 7.64632 7.2043 7.1167 7.15386 12.4045 6.16189 5.60594 7.66978 5.57045 5.41738 4.90186 6.33091 4.50534 4.33562 3.82207 3.35625 3.31402 4.95991 2.67958 2.39877 2.30863
threshold=0.056390184909105308 0.40342618525028234 -0.13876393437385556 -1.3806633949279783 -0.56726250052452076 0.12189586088061334 -0.42689613997936243 -0.27340865507721895 -0.036813829094171517 0.21393625438213351 -0.68200549483299244 -1.2483307123184202 -0.1238284409046173 0.39986959099769598 0.80006647109985363 -1.0599517226219175 -1.4024340510368345 -0.16348200291395185 0.16169007867574695 0.37102476507425314 0.33933798968791967 -1.0000000180025095e-35 1.1302518844604494 0.3393369466066361 -1.7499666213989256 -1.8239674568176267 -0.091560874134302125 0.34867866337299352 -0.086372211575508104 -0.41294820606708521
decision_type=2 2 2 2 2 2 2 2 2 2 2 2 2 2 2 2 2 2 2 2 2 2 2 2 2 2 2 2 2 2
left_child=3 2 7 4 24 22 -7 8 -2 14 -3 -9 -13 -14 -8 16 -5 -11 -19 23 -21 -6 29 27 -1 26 -17 -12 -22 -4
right_child=1 10 5 15 21 6 9 11 -10 17 19 12 13 -15 -16 25 -18 18 -20 20 28 -23 -24 -25 -26 -27 -28 -29 -30 -31
leaf_value=-0.039875013666914982 -0.0368665891940037 0.040272431807451631 0.0095580374391827216 -0.025733077921285465 0.012646124181360477 -0.035509235199862453 -0.013659333213630779 0.024816626202443355 0.054273604491691732 0.12410495088598435 0.0079329170260356695 0.13982659250980442 0.004758858130680943 0.10199073629975937 0.064675046851991977 0.044751027731231179 0.04876511504995492 -0.0099878074149185331 0.077286345127462353 -0.03589424568447943 0.070100139017381088 0.096272627230058652 0.028578111820803543 0.019697551992443645 0.015162676055195688 -0.034719606226068421 -0.035641663532021556 -0.03700475099486885 0.005879968871167685 -0.035482460589213061
leaf_weight=4.8510072678327552 3.1707327514886856 5.1936604976654044 3.2846096009016046 7.9070669114589691 3.059549018740654 2.7988740354776409 6.1482554972171801 5.7361796051263836 4.8015011250972739 3.6171057671308544 3.4120957553386715 5.8611766099929854 5.4810149818658793 7.5666160136461258 2.9564001858234406 2.7497421652078629 4.6493206024169904 2.8605440258979753 2.9568880051374435 3.0397673696279508 2.7891380488872528 3.4679271876811972 4.1537855565547934 3.4039101600646964 4.4933407604694358 79.14569828659296 2.9382816553115836 26.49437204003334 2.6835060864686966 10.646327495574951
leaf_count=35 22 37 23 58 21 20 43 37 32 24 24 37 36 47 20 20 33 20 20 23 20 23 28 25 32 592 22 197 20 76
internal_value=-0.000216869 0.0193813 0.038757 -0.020807 0.0196459 0.0157981 0.0386607 0.0652109 0.0179563 0.0511025 -0.0104957 0.0792007 0.0936235 0.0643922 0.0156601 -0.0275323 0.00341415 0.0805269 0.0392017 -0.0175935 0.0149566 0.0639626 -0.0117897 -0.0261051 -0.0145021 -0.0320991 0.00410254 -0.0317869 0.0443834 -0.024934
internal_weight=232.318 119.056 72.04 113.262 15.8718 39.4228 21.3381 32.6172 7.97223 18.5392 47.0164 24.645 18.9088 13.0476 9.10466 97.3901 12.5564 9.43454 5.81743 41.8228 8.51241 6.52748 18.0847 33.3104 9.34435 84.8337 5.68802 29.9065 5.47264 13.9309
internal_count=1667 831 485 836 111 274 147 211 54 127 346 157 120 83 63 725 91 64 40 309 63 44 127 246 67 634 42 221 40 99
is_linear=0
shrinkage=0.05


Tree=14
num_leaves=31
num_cat=0
split_feature=28 17 28 74 4 31 58 62 62 55 36 67 43 50 43 41 45 43 28 66 42 22 43 6 40 46 17 71 67 58
split_gain=30.1636 20.1027 18.1769 17.0052 12.4099 9.46014 7.47962 10.6842 9.82854 6.52049 6.11767 5.88121 5.28367 4.92812 4.92405 4.85335 5.98283 6.54888 6.28515 7.06861 5.90873 5.73596 4.77997 6.98459 4.74884 5.28256 4.4859 3.99654 3.2525 2.63451
threshold=-0.067906912416219697 0.53917452692985546 1.4566783308982851 -0.069751080125570283 -0.63343462347984303 1.0446186661720278 0.29273356497287756 -0.035231460817158215 -0.32375618815422053 -0.5924200415611266 1.0000000180025095e-35 0.013953702058643104 0.26707877218723303 -0.12405855208635329 0.024157591164112095 0.56891444325447094 -0.35918736457824701 0.47543035447597509 -1.2348640561103819 -0.45336744189262385 0.58721798658370983 1.0000000180025095e-35 -0.10010582953691481 0.20139238238334659 -0.23297592997550962 -0.20170874893665311 -0.16617488116025922 -0.62099424004554737 -0.64261651039123524 0.3645154088735581
decision_type=2 2 2 2 2 2 2 2 2 2 2 2 2 2 2 2 2 2 2 2 2 2 2 2 2 2 2 2 2 2
left_child=15 2 3 13 10 9 7 8 14 -3 -5 -4 -7 24 -6 16 17 18 -1 -20 27 -21 23 -15 -2 -26 -22 -18 -11 -29
right_child=1 5 11 4 6 12 -8 -9 -10 28 -12 -13 -14 22 -16 -17 20 -19 19 21 26 -23 -24 -25 25 -27 -28 29 -30 -31
leaf_value=-0.025366322693973143 -0.016919844351377947 0.028468655691789125 0.031450418520785235 0.035533008971101003 0.041286567500317367 0.060548122022351707 0.085692598796546754 -0.028789170923357834 0.088762334860267911 0.014438042606329868 0.11404487102350608 0.1271993347020893 -0.0094856555951186219 0.050807571387766426 -0.030101967291388382 -0.033724023453196007 0.013710341155729951 -0.038137581433297485 0.092875714731977449 -0.027249703246246305 -0.017324127148618154 0.055689895086224545 -0.037445118301465408 -0.036997661593140947 -0.005961796296601804 0.069193749663810949 0.051428960830459995 -0.033418605888371616 -0.031682542974617534 0.0055065265883436172
leaf_weight=3.2757886648178109 5.228045478463172 5.461556836962699 3.2977336347103101 5.4713514596223813 3.4081672728061667 5.8311790525913221 3.0717224776744834 8.9784608036279696 4.8009376674890545 3.7435450553893999 6.9251660257577896 5.1910901963710785 4.0514217019081116 3.9919053316116342 4.3484738022089005 36.60930161178112 5.3971932083368293 3.7884853780269614 3.9269333630800247 3.6753527969121933 3.7968108057975769 2.8161962032318115 12.074695661664009 3.2017850428819656 3.6255047172307959 4.9078023731708518 3.9938710629940024 42.541657984256744 31.909581065177921 4.539742484688758
leaf_count=23 35 37 20 35 22 38 20 61 32 26 42 30 27 26 30 258 37 27 26 26 27 19 81 22 24 32 28 300 224 32
internal_value=-0.000269448 0.0161958 0.0319204 0.0227459 0.0455559 -0.00816429 0.0233346 0.0110326 0.0395279 -0.0187635 0.0846318 0.0972373 0.033604 -0.00339656 0.00239801 -0.018896 -0.0115747 0.0136144 0.0295525 0.0475294 -0.0189844 0.0113623 -0.0193115 0.0119812 0.0186859 0.0399868 0.0197629 -0.0249986 -0.0265781 -0.0296289
internal_weight=243.881 129.52 78.5228 70.034 37.0043 50.9973 24.6078 21.536 12.5576 41.1147 12.3965 8.48882 9.8826 33.0297 7.75664 114.361 77.752 17.4828 13.6943 10.4185 60.2693 6.49155 19.2684 7.19369 13.7614 8.53331 7.79068 52.4786 35.6531 47.0814
internal_count=1667 864 512 462 242 352 165 145 84 287 77 50 65 220 52 803 545 121 94 71 424 45 129 48 91 56 55 369 250 332
is_linear=0
shrinkage=0.05


Tree=15
num_leaves=31
num_cat=0
split_feature=40 4 45 31 14 41 35 44 65 43 16 42 54 12 14 60 47 16 14 70 8 14 56 4 62 21 14 54 65 4
split_gain=45.78 14.2981 9.90485 12.4133 13.7935 9.20404 10.0421 9.52646 9.02156 9.52593 11.138 7.63259 13.0437 7.45635 7.35552 6.52105 6.38307 6.36634 3.74449 3.52323 3.19796 5.34479 4.96096 2.63637 4.69933 3.9259 2.33545 4.77136 2.17055 4.61358
threshold=0.61198359727859508 -1.1593729853630064 0.64073592424392711 -0.15294647961854932 -0.10056470334529875 -0.51050120592117298 1.2085195779800417 -0.042519044131040566 -0.4663384854793548 0.39788244664669042 -0.21175517886877057 1.2599912285804751 -0.33494314551353449 -1.0000000180025095e-35 0.54444324970245372 1.0000000180025095e-35 -1.057198494672775 0.017803771421313289 -0.30621942877769465 0.11838855594396593 -0.033646617084741585 -0.78296440839767445 0.40071527659893041 0.051409218460321433 0.34663946926593786 0.53813835978508007 -0.72687673568725575 0.35958322882652288 0.61486655473709118 -0.13772709667682645
decision_type=2 2 2 2 2 2 2 2 2 2 2 2 2 2 2 2 2 2 2 2 2 2 2 2 2 2 2 2 2 2
left_child=5 13 3 4 15 26 8 -8 9 18 -11 16 -13 -2 -6 -3 -5 -14 -7 -4 21 -10 -23 -18 25 -25 27 -1 -22 -30
right_child=1 2 19 11 14 6 7 -9 20 10 -12 12 17 -15 -16 -17 23 -19 -20 -21 28 22 -24 24 -26 -27 -28 -29 29 -31
leaf_value=-0.033334857695024735 0.040224603867434358 0.045875251217255525 -0.034215676519836515 0.063436550942576039 -0.025013006817534624 0.028456774763364709 -0.02023850091115522 0.08982672361227384 0.050538894230490586 0.11501895139432186 -0.01637330059655338 0.13018517752342829 0.057800237429895811 0.15074987986877963 0.070162527375246239 0.17049933501584577 -0.033049343823382246 -0.035134112429037294 -0.028018970591511396 0.027891552089379767 -0.04341681228944555 -0.033742979496991753 0.027772289240286359 -0.033630797728407227 0.049446104274288062 0.028290773878747785 -0.038322645480720001 0.032224070907040318 0.020199963494264866 -0.039561866193979972
leaf_weight=6.5973165482282621 4.1219753175973892 2.7426549270749092 7.1164558976888639 2.6028717756271353 3.528351932764048 3.6415840014815339 2.694490447640419 4.1032419949769965 2.5756014958024052 3.3073119297623634 2.2233735620975486 2.6549247950315475 2.3139172792434675 3.0147789642214766 2.8240084126591682 3.1229694485664368 6.2234402969479694 3.1755600720643997 7.1253137066960344 2.3231467679142952 16.965233325958256 10.812252126634119 3.680267207324504 6.5762897729873639 3.1299550086259833 2.9661355689167976 38.394616782665253 3.4263125285506248 4.9659366086125374 6.2746571376919729
leaf_count=65 34 24 69 23 33 35 25 36 24 29 21 23 20 22 25 26 57 30 70 22 167 104 35 61 28 27 388 34 47 63
internal_value=0.00172071 0.0374853 0.027089 0.0373717 0.0779009 -0.0163413 -0.00438911 0.0491985 -0.0109971 0.0200645 0.0677793 0.0186698 0.0569373 0.0997028 0.0210863 0.127397 0.00228646 0.00690974 -0.00812265 -0.0177231 -0.0223705 -0.00486447 -0.0173373 -0.00890194 0.00450679 -0.0135255 -0.032788 -0.010035 -0.0324346 -0.0136666
internal_weight=175.225 58.4374 51.3007 41.8611 12.218 116.788 68.3693 6.79773 61.5715 16.2976 5.53069 29.6431 8.1444 7.13675 6.35236 5.86562 21.4987 5.48948 10.7669 9.4396 45.2739 17.0681 14.4925 18.8958 12.6724 9.54243 48.4182 10.0236 28.2058 11.2406
internal_count=1667 524 468 377 108 1143 656 61 595 155 50 269 73 56 58 50 196 50 105 91 440 163 139 173 116 88 487 99 277 110
is_linear=0
shrinkage=0.05


Tree=16
num_leaves=31
num_cat=0
split_feature=40 20 4 4 48 7 38 30 58 56 52 20 26 4 54 7 20 19 70 18 34 52 44 21 33 6 29 67 4 4
split_gain=14.5962 13.7248 10.1329 12.0853 9.09227 7.9024 11.5051 10.1634 7.68881 10.4623 7.25009 5.938 5.06818 4.11276 3.95587 3.0394 3.41968 2.92684 3.13459 3.06262 2.63884 7.26007 2.60397 2.23469 3.72419 1.68112 1.65797 2.81938 1.37539 0.305791
threshold=-1.5390157103538511 -0.018361336551606652 -1.5973320007324217 -1.8601074218749998 1.0000000180025095e-35 -1.021223723888397 -0.22672509402036664 -0.058532094582915299 -0.35330310463905329 -0.23774816095829007 0.18364724516868594 0.15460556745529178 -2.7336356639862056 -0.95628404617309559 0.29062688350677496 0.33135084807872778 0.13451906293630603 1.5649142265319826 0.92520669102668773 0.72996658086776745 -0.60909128189086903 0.83630388975143444 -1.3449773192405698 1.091245770454407 0.54669946432113659 1.9351921081542971 -1.2426692843437193 0.40442284941673284 0.55331799387931835 0.45293624699115759
decision_type=2 2 2 2 2 2 2 2 2 2 2 2 2 2 2 2 2 2 2 2 2 2 2 2 2 2 2 2 2 2
left_child=1 4 3 -2 -1 6 7 -4 9 10 -7 -5 -10 -11 -3 -15 -17 18 20 -19 21 29 -22 25 -25 26 27 -24 -8 -14
right_child=2 14 5 11 -6 8 28 -9 12 13 -12 -13 17 15 -16 16 -18 19 -20 -21 22 -23 23 24 -26 -27 -28 -29 -30 -31
leaf_value=0.021727730574215572 -0.024174735032157765 -0.03358851369660254 0.14585323709378181 0.12946450515304098 0.17803113166379222 -0.0087007120007920567 -0.034279148206941695 -0.0078380391186852975 0.043994382260115372 0.038750836389622602 0.11427905268923003 0.01578647962603796 -0.035452274028171187 -0.039460039743344694 0.039054329730292922 0.043116176481529517 -0.030110455740067949 0.0539615094759942 0.02733676927723748 -0.026252402513401732 0.013842412975152475 0.07046525609179477 -0.029987519273419624 -0.033092056372825918 0.042491442665220473 0.005993529577677641 -0.042646302996080021 0.033298170372032344 0.014918371030077322 -0.0047177914505040436
leaf_weight=1.9186955094337463 3.6381957158446312 3.0223031640052778 1.8558204397559168 2.4090523570775968 1.6653253734111786 1.6393118724226976 3.2981093078851682 1.569950073957443 1.7570321187376965 2.5292931348085412 2.4256028905510902 2.207940049469471 3.8978856429457656 7.7794009819626773 2.5091834217309952 2.3577346280217171 2.0880134329199791 1.4811042174696916 1.7036276757717121 1.4368379563093183 2.3219669312238613 1.5593997836112974 5.4945252314209858 2.8892687410116187 1.8064373657107351 1.8610239028930653 49.280778817832484 1.4962675496935842 1.4311410710215566 1.3792153894901273
leaf_count=23 50 40 23 29 19 23 44 21 23 33 32 27 54 108 31 32 29 20 23 20 30 21 76 40 24 26 686 20 20 20
internal_value=-0.00425154 0.0533708 -0.00930087 0.0410436 0.117348 -0.0135951 0.0311655 0.0895635 -0.0176302 0.0106275 0.0727575 0.0875902 -0.0244647 -0.0100214 0.000297883 -0.0222791 0.00951039 -0.0265815 -0.0285559 0.0178439 -0.0302351 -0.000576413 -0.0332916 -0.0352231 -0.0016599 -0.0378603 -0.0393899 -0.0139703 -0.0193859 -0.0294508
internal_weight=122.71 9.11551 113.595 8.25519 3.58402 105.34 8.15502 3.42577 97.1847 18.8194 4.06491 4.61699 78.3654 14.7544 5.53149 12.2251 4.44575 76.6083 73.6904 2.91794 71.9868 6.8365 65.1503 62.8283 4.69571 58.1326 56.2716 6.99079 4.72925 5.2771
internal_count=1667 113 1554 106 42 1448 108 44 1340 257 55 56 1083 202 71 169 61 1060 1020 40 997 95 902 872 64 808 782 96 64 74
is_linear=0
shrinkage=0.05


Tree=17
num_leaves=20
num_cat=0
split_feature=64 16 53 54 66 58 9 66 22 70 7 31 62 49 38 46 53 49 45
split_gain=38.6947 23.0947 12.6701 11.4271 11.1664 11.2231 10.9199 10.3989 13.2796 8.58207 6.91352 5.42609 5.38066 4.16099 2.91449 3.3144 0.891364 0.775024 0.57933
threshold=0.88352298736572277 0.43283392488956457 -1.1494091749191282 -0.38587683439254755 1.7250136733055117 0.19223896414041522 0.52357798814773571 0.97545513510704052 0.063038270920515074 -0.95047304034233082 0.013426114805042745 -0.55213481187820423 0.3211814165115357 3.2253210544586186 1.5593748688697817 -1.0000000180025095e-35 1.4197878837585451 1.0000000180025095e-35 1.4365429878234866
decision_type=2 2 2 2 2 2 2 2 2 2 2 2 2 2 2 2 2 2 2
left_child=2 4 6 -3 5 7 11 8 -2 -4 -8 -1 -9 14 16 -16 17 18 -11
right_child=1 3 9 -5 -6 -7 10 12 -10 13 -12 -13 -14 -15 15 -17 -18 -19 -20
leaf_value=0.057324264787451368 0.21615969241874394 0.087219105466339264 0.073273062069080699 -0.036513450460368461 0.22859634995039349 -0.026997507617541036 0.16296846395525827 -0.02812065020969819 0.016066346631063301 -0.042007506276331499 0.0026833652750841638 -0.034402465286134901 0.081116854357964258 0.034259438116301381 -0.026424762313095831 0.062327250291700866 0.0049991073948141389 0.00074439601829579861 -0.0057833967797298481
leaf_weight=1.4156283810734747 1.8623047806322559 1.6280360631644724 1.0861144810914982 5.4354654997587195 1.1802782677114008 1.6557423323392866 1.1472499817609789 1.8317050412297251 1.4101886898279188 37.03945953771472 1.0292466804385183 3.8676479570567599 0.9535849094390868 1.4911625571548928 1.5765155777335169 0.82933303713798423 0.93395949155092139 1.1197200343012799 1.4935605116188515
leaf_count=31 38 35 24 131 23 39 23 40 31 938 24 90 20 34 39 19 23 27 38
internal_value=0.00238084 0.0682429 -0.0183342 -0.000715086 0.117547 0.0762698 0.0385819 0.104321 0.153877 -0.0282797 0.111878 -0.00461303 0.0208278 -0.0323157 -0.0353511 0.0134866 -0.0385007 -0.0396231 -0.0407852
internal_weight=68.9869 15.9573 53.0296 7.0635 8.8938 7.71353 7.45977 6.05778 3.27249 45.5698 2.1765 5.28328 2.78529 44.4837 42.9925 2.40585 40.5867 39.6527 38.533
internal_count=1667 357 1310 166 191 168 168 129 69 1142 47 121 60 1118 1084 58 1026 1003 976
is_linear=0
shrinkage=0.05


Tree=18
num_leaves=31
num_cat=0
split_feature=6 7 28 28 48 10 16 50 16 14 69 69 69 45 35 29 9 19 74 16 32 11 26 40 57 62 9 23 64 71
split_gain=33.5802 9.95052 9.87049 8.8124 8.72213 9.02565 8.29395 7.80238 7.66027 7.27039 6.82554 6.62364 8.56888 6.48146 6.43832 6.40062 6.34309 6.71034 5.94432 5.65666 7.8249 5.61661 5.60494 5.32669 5.41438 5.64406 5.1404 5.12813 5.05262 4.98418
threshold=-0.011390839470550416 0.11382339149713518 1.2670095562934878 0.79436162114143383 1.0000000180025095e-35 0.39506298303604132 0.053149618208408363 0.076359439641237273 0.79845574498176586 -0.08186881989240645 -0.2011281996965408 0.38093572854995733 -0.47305193543434138 0.030846768058836464 1.6063358783721926 -0.47051712870597834 0.044721912592649467 -0.071264274418354021 0.071528498083353056 0.029965671710669998 -0.59102123975753773 -0.27340865507721895 -0.35705728828907007 -1.2117974758148191 -0.13015444576740262 0.66910827159881603 0.10850391909480096 1.0000000180025095e-35 0.21103918552398684 -0.20435738191008565
decision_type=2 2 2 2 2 2 2 2 2 2 2 2 2 2 2 2 2 2 2 2 2 2 2 2 2 2 2 2 2 2
left_child=1 4 7 9 5 11 -5 8 18 14 15 12 -1 -14 22 -6 17 -9 29 23 -21 -8 27 -11 -25 -26 -15 -2 -20 -3
right_child=3 2 -4 6 10 -7 21 16 -10 19 -12 -13 13 26 -16 -17 -18 -19 28 20 -22 -23 -24 24 25 -27 -28 -29 -30 -31
leaf_value=0.030380599220488799 -0.016697256181053135 -0.024157072284858753 -0.043727917364791424 -0.026874969953845858 0.023332855326210617 -0.052801734694307947 0.022441338118947829 0.03485369923017629 -0.044095270135085955 -0.022562092272702849 -0.047669437867870861 0.032448430317228723 -0.055966657028741089 -0.037735044405631336 -0.019157053920420421 -0.033084764981277437 0.030471266664701131 -0.023325321117260166 -0.00029835486186420058 0.040318972802262855 -0.01615248155558438 -0.013729049692159587 0.038919850244348325 0.048426101283149899 0.02365361962557061 -0.020193195735180396 0.016061448629298185 0.033207536639962981 -0.04711122298259926 0.024384462995962676
leaf_weight=8.6459955573081917 9.8309633135795611 5.9657800793647757 12.555089861154554 22.386782854795456 7.445735931396487 8.6589734852313978 29.180090755224228 6.2724332213401821 12.253335177898405 6.2427695989608756 41.860313773155212 11.036926925182341 9.2632965743541771 6.2813780009746578 5.9590063393115988 11.644499719142912 29.48359015583992 14.633621782064436 13.711993604898455 6.5287795364856711 32.43200621008873 15.825994610786436 65.457932502031326 14.786910295486448 28.483184546232224 8.9229146242141706 10.438024669885634 8.8883253931999189 8.9603191018104535 22.345687389373783
leaf_count=29 33 20 42 75 25 29 98 21 41 21 140 37 31 21 20 39 99 49 46 22 109 53 221 50 96 30 35 30 30 75
internal_value=0.000184571 -0.0131501 -0.00339744 0.0128167 -0.0237045 -0.00888998 -0.00266464 0.00140145 -0.0102284 0.0183648 -0.0365518 0.000389499 -0.0104523 -0.0246623 0.0285368 -0.0110142 0.0159115 -0.00507568 -0.00139722 0.00875679 -0.00591723 0.00970038 0.0320984 0.0184753 0.0237157 0.0129409 -0.00513854 0.00748098 -0.0200079 0.0136806
internal_weight=496.383 241.457 126.182 254.926 115.275 54.3246 67.3929 113.627 63.2371 187.533 60.9505 45.6656 34.6287 25.9827 90.1362 19.0902 50.3896 20.9061 50.9838 97.3966 38.9608 45.0061 84.1772 58.4358 52.193 37.4061 16.7194 18.7193 22.6723 28.3115
internal_count=1667 809 423 858 386 182 226 381 212 632 204 153 116 87 304 64 169 70 171 328 131 151 284 197 176 126 56 63 76 95
is_linear=0
shrinkage=0.05


Tree=19
num_leaves=31
num_cat=0
split_feature=16 5 22 67 34 58 54 62 16 58 18 6 16 40 59 29 21 31 5 54 74 70 20 34 12 6 38 38 22 46
split_gain=34.7377 25.28 14.5206 8.99225 8.51746 9.27606 8.19356 7.89932 10.4417 8.65653 7.73165 7.1377 7.59091 9.71857 7.08308 6.91393 6.34176 5.23258 5.0719 6.35594 4.53164 4.09788 3.80568 3.51546 4.89174 4.34013 4.30226 3.46321 4.69387 3.34993
threshold=0.0083020180463790911 0.40342618525028234 -0.13876393437385556 0.12189586088061334 -0.48297159373760218 0.063031638041138663 0.20547627657651904 -0.60379490256309498 0.58295935392379772 -0.066175697371363626 1.2464186549186709 -0.079942151904106126 -0.79097315669059742 -0.81516939401626576 1.0000000180025095e-35 0.84328404068946849 0.73648732900619518 -0.23399520665407178 -0.44951379299163813 0.51107832789421093 -0.086372211575508104 -0.66774186491966236 0.24462266266345981 0.1896668076515198 -1.0000000180025095e-35 0.1427123695611954 -0.23548048734664914 -0.48063147068023676 -0.10993504896759985 0.20668748766183856
decision_type=2 2 2 2 2 2 2 2 2 2 2 2 2 2 2 2 2 2 2 2 2 2 2 2 2 2 2 2 2 2
left_child=11 2 7 18 -5 6 -6 -2 9 -9 23 12 27 14 -14 20 29 -10 19 22 -12 -13 -4 25 -25 26 -3 28 -1 -15
right_child=1 10 3 4 5 -7 -8 8 17 -11 15 21 13 16 -16 -17 -18 -19 -20 -21 -22 -23 -24 24 -26 -27 -28 -29 -30 -31
leaf_value=0.042998395956075054 -0.0019102665037787196 0.042465136475578133 0.072505352846025647 -0.027249424367546182 -0.011526446656975447 0.10343829402937435 0.064770132060566074 0.0631066679194668 0.038491705629355846 -0.022391195656401582 0.087188148551686384 0.017631867482233061 -0.0020295212086392051 -0.0387468128547971 0.089465008961264858 -0.016944963692280709 0.040081066364535727 0.10819039632816396 -0.041758611886983064 -0.030591079252964667 0.0042575116479402087 -0.033676322786167411 -0.00058633911001963095 -0.035469698348133662 0.038933500866189769 -0.042797816856329794 -0.028050618947696494 -0.033613595691116528 -0.028147227179644359 0.018231025952336128
leaf_weight=3.3511313945055008 4.3072184920310965 2.8362796455621719 3.1005748361349124 3.6205556541681316 7.0393962413072604 4.8915468156337729 5.5671322643756866 5.6541384756565094 5.2011858820915249 4.6178221628069895 3.412989929318428 3.5574267059564582 3.2739646509289759 9.6383576095104235 4.7607639729976654 5.3650854676961899 4.0715905129909506 13.466927021741865 6.6976858377456656 4.5394176244735718 2.8000490814447385 60.188823640346527 3.1199915483593941 2.9001032486557961 4.1462341398000708 18.97243819385767 3.967801287770274 20.021185964345932 3.9877091273665455 2.7433661445975295
leaf_count=23 29 20 20 25 48 32 36 36 31 31 24 27 23 71 31 39 29 77 49 32 21 466 21 22 30 144 30 150 30 20
internal_value=-0.000181155 0.0190399 0.0371866 0.0156707 0.0369007 0.0509296 0.0244506 0.0609645 0.0700736 0.026094 -0.0104868 -0.0195046 -0.00556058 0.0143609 0.056085 0.023301 -0.00806049 0.0917158 -0.0106191 0.0106668 0.0555853 -0.0305849 0.0408414 -0.0227418 0.00770853 -0.0310428 0.00301871 -0.0232685 0.00560048 -0.0257035
internal_weight=231.819 116.225 71.8236 38.5763 21.1186 17.4981 12.6065 33.2473 28.9401 10.272 44.401 115.594 51.8481 24.488 8.03473 11.5781 16.4533 18.6681 17.4577 10.76 6.21304 63.7463 6.22057 32.8229 7.04634 25.7765 6.80408 27.36 7.33884 12.3817
internal_count=1667 797 467 263 141 116 84 204 175 67 330 870 377 174 54 84 120 108 122 73 45 493 41 246 52 194 50 203 53 91
is_linear=0
shrinkage=0.05


Tree=20
num_leaves=31
num_cat=0
split_feature=28 5 28 74 6 7 7 34 41 14 28 52 64 33 21 19 7 22 64 31 45 22 2 45 33 43 68 57 48 10
split_gain=27.5901 16.474 11.2513 9.37933 10.1468 9.85825 7.33008 7.25004 7.09387 6.73117 5.46926 5.55799 6.4885 4.87779 6.71986 8.02199 6.55854 5.41754 7.79927 4.75855 7.09896 4.66379 4.77992 4.41897 5.6282 4.25011 4.15364 4.15311 4.20499 4.62116
threshold=-0.067906912416219697 -0.20436362177133557 1.4825766682624819 -0.18609897047281262 0.013561834115535023 -0.43185441195964808 1.4831309318542483 1.0000000180025095e-35 -0.57283285260200489 -1.4232984185218809 -1.0025391578674314 -0.52038648724555958 -0.041556606069207185 0.89299973845481884 0.94519782066345226 -0.0094075296074151975 -0.47508096694946284 -0.066691713407635675 0.43590386211872106 0.40228404104709631 0.1651207506656647 -0.023448387160897251 -1.185676574707031 -1.3340264558792112 0.76448622345924389 -0.084689769893884645 0.22517094016075137 0.3098344504833222 -1.0000000180025095e-35 -0.092539869248867021
decision_type=2 2 2 2 2 2 2 2 2 2 2 2 2 2 2 2 2 2 2 2 2 2 2 2 2 2 2 2 2 2
left_child=7 3 6 5 9 -2 13 8 10 -5 25 -12 -13 14 16 -16 17 18 -3 -7 -21 22 -11 -10 27 -1 -26 -25 29 -29
right_child=1 2 -4 4 -6 19 -8 -9 23 21 11 12 -14 -15 15 -17 -18 -19 -20 20 -22 -23 -24 24 26 -27 -28 28 -30 -31
leaf_value=0.028116246411252911 0.06834105350497309 0.092546594807952853 0.0508552979572304 -0.00053687130776603647 -0.0020090718817448198 -0.030117197576700477 0.049098024863460654 -0.032797380950952269 0.03100467527135975 0.0093943675607021295 0.08245516548858306 0.044671727246295485 -0.036857773761853112 -0.043281283387765601 -0.022896364553878987 0.075084911134161395 -0.021036324736163556 -0.02040105175191461 -0.0058505934614706623 0.064849717485272296 -0.026401767592536075 0.10555673193591766 0.074124224042298528 -0.043667324286346419 -0.016305744822291864 -0.03996877871591397 0.054855442793695024 0.050290849557100871 -0.040210873825138188 -0.016544094584642659
leaf_weight=2.894609272480011 4.5032638013362911 3.2150456309318542 8.9168309569358808 3.0911729931831422 6.3385693281888953 9.53620593249798 4.6026680767536154 48.104233853518963 3.3754313737153998 4.9224548786878639 3.5482314378023156 4.852845311164856 3.2392091900110209 8.7167796790599805 2.8586902320384979 4.2284942120313636 39.027649223804481 4.2510080486535937 3.6428391486406326 3.3616827130317679 3.3639747202396393 9.2465490102767873 7.051585718989374 21.358127474784851 3.6451995372772208 4.8026133403182056 2.8586857318878174 3.5315263569355002 5.1134146600961676 5.2101462334394446
leaf_count=20 28 20 55 20 40 63 31 350 23 31 23 32 23 62 20 28 272 29 25 21 22 54 43 155 26 34 20 24 37 36
internal_value=-0.000236155 0.0153203 0.000955055 0.0370792 0.0542524 0.0104027 -0.00597513 -0.0183036 -0.00714648 0.0684208 0.0175937 0.0379923 0.0115715 -0.0104953 -0.00484347 0.0376189 -0.0114641 0.0211249 0.0461861 -0.00867136 0.0216988 0.0780379 0.0502893 -0.0179076 -0.0224984 -0.0140759 0.0181141 -0.0302926 -0.00812332 0.0128472
internal_weight=243.41 130.875 79.46 51.4155 30.6503 20.7651 70.5432 112.534 64.43 24.3118 19.3375 11.6403 8.09205 65.9405 57.2237 7.08718 50.1365 11.1089 6.85788 16.2619 6.72566 21.2206 11.974 45.0925 41.7171 7.69722 6.50389 35.2132 13.8551 8.74167
internal_count=1667 864 542 322 188 134 487 803 453 148 132 78 55 456 394 48 346 74 45 106 43 128 74 321 298 54 46 252 97 60
is_linear=0
shrinkage=0.05


Tree=21
num_leaves=31
num_cat=0
split_feature=40 17 46 50 62 7 41 35 65 69 44 43 7 44 69 74 58 6 69 41 69 60 64 17 7 19 30 14 66 26
split_gain=41.6762 13.6407 14.4642 10.8822 9.95098 9.33832 8.78035 9.05939 8.42742 12.5685 8.1567 8.09337 7.40456 7.37967 9.7464 7.24632 4.86278 5.94415 8.43489 4.69699 4.63282 3.88534 3.14783 3.52746 5.05977 5.47988 2.62948 2.31434 4.63821 2.28532
threshold=0.61198359727859508 -0.02597918082028627 0.10810909792780878 -0.49003921449184412 0.53333193063735973 -0.030730132944881913 -0.51050120592117298 1.2085195779800417 -0.4663384854793548 0.71459361910820018 -0.042519044131040566 0.43058340251445776 0.4796228706836701 0.18693158775568011 0.15457759797573092 0.6366468369960786 0.01996251987293363 -0.011390839470550416 0.27706578373909002 0.87877449393272411 0.022780193947255615 1.0000000180025095e-35 0.33974868059158331 0.120604544878006 -0.024687654338777062 0.31754904985427862 0.65134155750274669 -0.72687673568725575 -0.95390400290489186 0.26789480447769171
decision_type=2 2 2 2 2 2 2 2 2 2 2 2 2 2 2 2 2 2 2 2 2 2 2 2 2 2 2 2 2 2
left_child=6 2 3 21 15 -6 27 8 9 11 -9 26 -7 14 -5 16 17 18 -3 -17 -13 -2 -10 24 25 -24 -8 28 -1 -19
right_child=1 4 -4 13 5 12 7 10 22 -11 -12 20 -14 -15 -16 19 -18 29 -20 -21 -22 -23 23 -25 -26 -27 -28 -29 -30 -31
leaf_value=0.040664430488162352 -0.021201435379743401 -0.019336069325439464 -0.013011529851149416 0.093494201805234392 -0.0170433684720557 0.13863101608606171 -0.040423234301781019 -0.019807891409289506 -0.036403376005698457 0.10861301187381303 0.081194542463142616 0.083872831216770027 0.01505938004714627 0.13162284642315766 -0.020319416840469652 0.080888530998216829 -0.041437716180822808 -0.038581639674760915 0.094242136429303097 -0.0048855734802549415 -0.004367177823373195 0.050241317020947418 0.071437975581427601 -0.025703148098387932 -0.022662066773670671 -0.017014989095543217 0.015833284725465604 -0.037894387121579665 -0.02862095303217806 0.010452723599391396
leaf_weight=2.411469355225563 2.7777790054678961 2.5266019850969341 4.8780980408191672 3.600005231797696 2.2824252024292946 2.7466767802834502 7.2893335223197955 2.6446253582835197 19.635809116065502 2.2004073187708846 4.4292589575052252 2.4112289100885382 2.1931333690881729 8.4607948139309865 2.6752779334783554 2.8952486813068381 8.3562925606966001 5.0598133727908152 2.5168880596756935 2.5214632302522659 2.4709032326936722 3.0712081044912338 3.6281910762190819 13.657812729477881 5.2622172087430972 2.299726240336895 2.1666228845715523 37.063972197473049 7.4815330654382688 3.3359435722231865
leaf_count=23 24 22 45 30 21 22 72 25 197 20 36 20 20 65 24 26 77 48 21 23 22 25 32 137 52 22 21 388 76 31
internal_value=0.00173644 0.0352249 0.0622985 0.079921 0.0140116 0.0622153 -0.0158512 -0.00424262 -0.0106701 0.0190218 0.0456576 -0.000912255 0.0955405 0.101719 0.0488496 -0.000533581 -0.0137277 0.00517848 0.043559 0.046422 0.0460635 0.0181704 -0.0218846 -0.0094469 0.0108751 0.03962 -0.0272518 -0.0322463 -0.00954963 -0.0200596
internal_weight=174.951 59.8976 25.4632 20.5851 34.4345 7.22224 115.053 68.0961 61.0223 16.5385 7.07388 14.3381 4.93981 14.7361 6.27528 27.2123 21.7955 13.4392 5.04349 5.41671 4.88213 5.84899 44.4838 24.8479 11.1901 5.92792 9.45596 46.957 9.893 8.39576
internal_count=1667 524 213 168 311 63 1143 656 595 155 61 135 42 119 54 248 199 122 43 49 42 49 440 243 106 54 93 487 99 79
is_linear=0
shrinkage=0.05


Tree=22
num_leaves=31
num_cat=0
split_feature=40 53 43 14 32 26 55 34 53 64 47 74 64 74 19 53 35 64 74 32 18 14 43 28 46 32 70 56 27 38
split_gain=13.408 12.3284 8.89322 7.72652 8.58967 11.3758 7.34834 12.0866 7.05297 6.54114 5.7571 6.41291 4.11526 3.6829 3.46443 3.24234 3.01078 6.48951 7.1388 7.35401 3.82353 3.11003 3.98052 2.0161 1.91778 1.97845 1.98788 1.22906 0.92918 0.895403
threshold=-1.5390157103538511 0.96393641829490673 -1.2623901963233946 1.3296704292297366 0.10779079794883729 -0.41867227852344507 1.4556875824928286 -0.034545981325209134 -0.46468627452850336 -0.43733036518096918 -1.414254307746887 0.038286242634058006 -0.43733036518096918 -0.41879475116729731 -1.4637367725372312 1.4865309000015261 0.41288688778877264 -0.77221578359603871 0.35408765077590948 0.068782038986682906 1.1358094215393069 1.0024923980236056 0.22550192475318911 0.68810147047042858 0.6432490646839143 1.3073993921279909 -0.14365492761135099 0.43276892602443701 1.0000000180025095e-35 0.21979988366365436
decision_type=2 2 2 2 2 2 2 2 2 2 2 2 2 2 2 2 2 2 2 2 2 2 2 2 2 2 2 2 2 2
left_child=1 9 8 6 -5 -6 10 -8 -2 -1 11 -4 -10 -7 -12 16 21 18 19 -18 23 24 -23 -19 25 28 -27 -11 -16 -30
right_child=2 -3 3 4 5 13 7 -9 12 27 14 -13 -14 -15 15 -17 17 20 -20 -21 -22 22 -24 -25 -26 26 -28 -29 29 -31
leaf_value=0.066302880086573895 -0.028452846186594018 0.13633844794316688 0.088166536051400485 -0.025625221342005379 0.13472707953514193 0.048118310390306174 -0.033403820864304816 0.091418807152965506 0.1195925138659833 -0.03441892317461212 0.028843037402663637 -0.027285369088760999 0.021481105233450624 -0.031160200031485476 -0.041357636573781692 0.034039386774528051 0.11068935155748433 -0.038819473329377789 -0.031356658964471318 -0.010656642775473346 0.025027452084333063 -0.029627359930255545 0.05724653598327898 0.014855481547483756 0.013119639517164858 0.032313846361093877 -0.028763854954070862 0.011726475680289923 -0.027891413688325834 0.014669504733145836
leaf_weight=2.5435934662818909 1.7621179968118665 1.9945849627256391 1.5914646387100213 3.9811884015798551 2.0253176763653755 1.6300462111830714 3.0050061568617821 2.9984435141086569 1.7018179967999456 3.3126930519938451 2.3236597329378119 1.5701399892568586 2.6801715269684783 2.3215091973543167 45.861403040587902 1.4738520756363858 2.1811409518122704 15.766343813389545 2.3763565272092819 1.7899476587772367 2.5105515122413626 1.9913228750228875 1.4009175747632978 1.4332038462162007 1.5061466023325909 1.5260212421417239 1.8187802955508221 1.5593602433800695 1.6704877465963357 1.4402591362595556
leaf_count=30 24 20 20 54 22 20 42 39 20 43 30 21 32 32 657 20 28 225 33 25 34 28 19 20 21 20 25 20 23 20
internal_value=-0.00393729 0.0504121 -0.00889463 -0.0124231 0.0276511 0.0617249 -0.0168116 0.0330909 0.0452934 0.0138462 -0.0204581 0.038051 0.0747254 0.00465601 -0.0229905 -0.0247315 -0.0261633 -0.0114696 0.0294682 0.0648524 -0.0254395 -0.0325433 0.0111149 -0.0337763 -0.0354474 -0.0370654 0.000125777 -0.0201677 -0.0395573 -0.00941101
internal_weight=121.748 9.41023 112.338 106.194 9.95806 5.97687 96.2354 6.00345 6.14411 7.41565 90.232 3.1616 4.38199 3.95156 87.0704 84.7467 83.2729 26.0575 6.34745 3.97109 19.7101 57.2153 3.39224 17.1995 53.8231 52.317 3.3448 4.87205 48.9721 3.11075
internal_count=1667 113 1554 1478 128 74 1350 81 76 93 1269 41 52 52 1228 1198 1178 365 86 53 279 813 47 245 766 745 45 63 700 43
is_linear=0
shrinkage=0.05


Tree=23
num_leaves=21
num_cat=0
split_feature=73 64 28 70 71 29 54 6 64 70 71 54 17 7 6 46 20 65 46 5
split_gain=44.6683 19.9714 14.6102 11.3552 9.11701 8.81308 8.07189 11.3824 6.3796 8.19002 4.25392 2.99586 5.86615 2.75881 1.43385 1.36804 1.66596 1.12958 1.68425 0.913755
threshold=1.0000000180025095e-35 0.33974868059158331 -0.14217477291822431 -1.0952866077423093 -0.20435738191008565 0.90275782346725475 -0.74737527966499318 -0.1155889183282852 1.0851777791976931 -0.18503021448850629 0.21227926015853885 -1.1313368678092954 -1.3899459838867185 -0.89154380559921254 -0.18441438674926755 0.47425743937492376 0.69470852613449108 1.0218834280967715 -0.27212189137935633 1.0715390443801882
decision_type=2 2 2 2 2 2 2 2 2 2 2 2 2 2 2 2 2 2 2 2
left_child=1 10 -3 -2 6 14 7 -5 19 -10 -1 12 -6 -14 -4 17 -17 -13 -19 -8
right_child=3 2 5 4 11 -7 8 -9 9 -11 -12 15 13 -15 -16 16 -18 18 -20 -21
leaf_value=0.051570647477763965 0.10138006002756739 0.20732710095139284 -0.027773637836514938 0.13388413444071978 0.072506823675438384 0.12476377381280279 -0.037388155035892726 -0.02539032665448171 0.10933780814879435 -0.026505196425806645 -0.031816282684736207 -0.041737791779864676 0.03634847631005942 -0.03622658068443467 0.027988967062001442 -0.025748617155317774 0.03772816627678633 0.031576976173505036 -0.028769487266264701 0.0099556104039563442
leaf_weight=1.5625043362379054 1.0246876515448082 2.9498787373304367 1.7533045411109922 1.7825546115636828 1.1002241075038908 1.3334712423384187 6.5426136255264264 1.4248337410390366 1.2469308115541937 1.58271973952651 2.7971208281815052 30.488287158310413 0.80002303794026364 5.209610901772975 1.0052783451974394 1.4849271588027471 0.77027424052357663 0.91290292888879809 1.9831837341189373 0.75514172390103329
leaf_count=34 20 45 35 39 25 22 170 35 26 38 69 792 20 130 20 39 20 21 47 20
internal_value=0.00267382 0.0887829 0.135503 -0.0157495 -0.019628 0.0531787 0.0156026 0.0739111 -0.00784656 0.0462755 0.00211577 -0.0307229 -0.00089327 -0.0227579 -0.00541258 -0.036487 0.000861932 -0.0389617 -0.00652475 -0.0318798
internal_weight=68.5105 11.4016 7.04193 57.1089 56.0842 4.09205 13.3348 3.20739 10.1274 2.82965 4.35963 42.7494 7.10986 6.00963 2.75858 35.6396 2.2552 33.3844 2.89609 7.29776
internal_count=1667 225 122 1442 1422 77 328 74 254 64 103 1094 175 150 55 919 59 860 68 190
is_linear=0
shrinkage=0.05


Tree=24
num_leaves=31
num_cat=0
split_feature=5 41 28 22 32 65 6 21 68 42 17 18 19 53 30 57 1 30 8 68 68 9 9 57 26 30 57 18 38 43
split_gain=67.033 12.527 10.1857 9.84102 8.21331 8.55159 7.84483 10.3487 8.46915 6.94318 6.56616 6.49329 7.49221 6.27582 6.13079 6.01109 7.64951 5.93837 6.77049 5.92075 6.3518 4.91938 4.89757 4.78907 5.20277 7.27011 5.28141 4.74604 5.63207 4.73853
threshold=-0.39234712719917292 0.27223992347717291 0.85225245356559765 -0.58561167120933522 1.0625736713409426 0.96046456694602977 0.69194555282592785 0.73648732900619518 0.078722577542066588 -0.02410259377211332 1.2657044529914858 0.81223589181900036 0.10174839943647386 0.16167036443948749 0.24762317538261416 0.17255386710166934 0.43789788335561758 0.78985351324081432 0.3256854116916657 -0.82993051409721363 1.0244560241699221 0.16934225708246234 -0.19029042869806287 0.43625086545944219 -0.1546080335974693 -0.51446720957756031 -0.053613217547535889 0.17169215530157092 -0.9446672499179839 0.061997296288609512
decision_type=2 2 2 2 2 2 2 2 2 2 2 2 2 2 2 2 2 2 2 2 2 2 2 2 2 2 2 2 2 2
left_child=14 2 4 -3 5 27 7 8 15 -8 -11 12 -4 -10 19 -5 -17 22 -19 -1 23 -22 -16 24 25 26 -21 28 -2 -9
right_child=1 3 11 6 -6 -7 9 29 13 10 -12 -13 -14 -15 17 16 -18 18 -20 20 21 -23 -24 -25 -26 -27 -28 -29 -30 -31
leaf_value=0.016116290519866718 0.00018215039439344668 -0.037712073367996923 0.014597629822826676 0.026125066601688396 -0.0089169894807339355 -0.0077743071777586006 -0.018992840098824005 0.0034049949034148982 -0.0056263878822010475 0.034894076341458011 -0.01421833224737739 0.034503349214620525 -0.039675864076083617 -0.046980386761990622 -0.01123998030959969 0.020139007998604477 -0.043732455347920821 -0.036743042705801914 0.0089623454524135737 -0.050820764293643211 -0.021757992185402603 0.035148193998212264 -0.059070711757204353 -0.047448359063269469 -0.032196550745256118 0.023314849502532695 0.0077645998857797539 0.024114154132211955 0.051398918543916032 0.057834297462638552
leaf_weight=11.333218127489088 5.9176578819751731 12.241421639919279 11.017002582550054 18.353343367576599 12.155810236930845 10.983137518167494 8.6146199703216535 7.4156751036643973 18.14701372385025 44.675973653793335 7.4334937632083884 8.0155102014541608 12.842111587524412 18.216830939054489 7.159162074327468 8.0288958847522753 8.9511494636535627 21.137571454048157 12.258781582117079 8.0798297226428968 5.9858106970787031 7.4639006853103638 29.236723661422729 19.72197413444519 31.9864014685154 13.143661797046656 6.2698516845703152 42.75310343503952 57.50892835855484 8.0286916792392713
leaf_count=38 20 41 37 62 41 37 29 25 61 151 25 27 43 61 24 27 30 71 41 27 20 25 98 66 107 44 21 145 196 27
internal_value=5.29699e-05 0.013574 0.0233699 0.00362785 0.0295672 0.0336016 0.00728062 -0.00235379 -0.0104308 0.0209205 0.0277523 -0.00190763 -0.0150359 -0.027046 -0.0248811 0.00694271 -0.0140909 -0.0363371 -0.0201932 -0.0169192 -0.021089 0.010069 -0.0502144 -0.0264397 -0.0188044 -0.00264058 -0.0263847 0.0379141 0.0466974 0.0334962
internal_weight=495.077 321.3 161.193 160.107 129.319 117.163 147.866 87.1416 71.6972 60.7241 52.1095 31.8746 23.8591 36.3638 173.777 35.3334 16.98 69.7922 33.3964 103.985 92.6514 13.4497 36.3959 79.2017 59.4797 27.4933 14.3497 106.18 63.4266 15.4444
internal_count=1667 1085 546 539 439 398 498 293 241 205 176 107 80 122 582 119 57 234 112 348 310 45 122 265 199 92 48 361 216 52
is_linear=0
shrinkage=0.05


Tree=25
num_leaves=31
num_cat=0
split_feature=17 5 10 5 22 67 17 62 23 65 58 68 38 45 44 14 45 6 45 47 16 42 70 35 64 16 26 32 29 23
split_gain=31.8999 21.3685 13.0622 11.3371 10.9669 11.1186 8.96077 7.67388 8.80525 7.06242 10.9387 6.44949 6.43331 6.39606 6.46681 5.77318 5.33421 5.22548 7.54507 4.69827 5.74545 4.25163 3.87518 5.59959 3.76685 3.67893 5.69171 3.48377 3.26047 2.79074
threshold=0.056390184909105308 0.40342618525028234 -0.44082763791084284 -1.3806633949279783 -0.13876393437385556 0.20637232810258868 -0.56726250052452076 -0.60379490256309498 0.42016289383172994 0.17973875254392627 -0.1379575505852699 1.0701508522033694 -0.68200549483299244 0.32792171835899359 0.20595928281545642 -0.13795647025108335 -0.050308018922805779 -1.0599517226219175 0.25266930460929876 0.37102476507425314 0.33933798968791967 -0.94375523924827565 -0.25398903340101237 -1.0000000180025095e-35 -0.51057714223861683 0.85622555017471325 -0.1458058878779411 0.26568280160427099 -1.8239674568176267 -0.78144264221191395
decision_type=2 2 2 2 2 2 2 2 2 2 2 2 2 2 2 2 2 2 2 2 2 2 2 2 2 2 2 2 2 2
left_child=3 2 -2 6 7 25 24 -4 9 10 -9 13 -3 16 -15 -11 -7 18 -5 21 -21 -14 23 -23 -1 -6 -27 -8 -19 -30
right_child=1 12 4 17 5 11 27 8 -10 15 -12 -13 19 14 -16 -17 -18 28 -20 20 -22 22 -24 -25 -26 26 -28 -29 29 -31
leaf_value=0.018803102799935387 -0.025766677524601253 0.037708007171000549 0.0023998518098505717 -0.025614472332552554 -0.026147620716412162 0.035890337419642239 0.083872800462728311 0.03336708179236713 0.00092870201959140218 -0.0058793978208057339 0.13977256517650263 -0.0084255054414652045 0.02483775743630301 0.066448634954067873 -0.018661119314208979 0.06841807731489373 0.13207297309790614 0.0051195767035952695 0.048276769629179747 -0.034961214461670408 0.042476109675988992 -0.032699948753167445 -0.0428481288883127 0.039650928485301662 -0.039855578164508569 -0.025938195764645594 0.053661906566035825 0.011571138266403816 0.0020305152720450233 -0.036200077606743375
leaf_weight=4.1766072213649759 7.6742810457944861 5.3563681691884986 4.8452030941843978 7.8562728166580182 10.303350880742075 3.6884105503559113 3.8592010587453833 4.3469242602586773 3.9065023139119139 3.5100241750478745 8.1411823630332965 3.93704929947853 3.0938741266727403 3.2921033948659897 3.9518567323684692 7.7888185232877714 3.3850554674863833 5.5712250024080268 4.6698928624391556 2.8515528514981252 5.5914289653301239 5.5231138840317726 19.933207005262382 3.5379653051495534 5.0476185306906709 3.3445300310850143 3.8482678681612006 3.0942763388156891 5.0061223134398452 70.16838625818491
leaf_count=29 53 37 33 58 75 24 24 25 24 21 44 27 23 20 27 44 20 42 33 23 40 42 155 26 38 23 25 20 39 553
internal_value=-0.00016991 0.0173615 0.033477 -0.0196683 0.0404106 0.0204225 0.0181186 0.061108 0.0709379 0.0819341 0.107954 0.0466705 -0.00946153 0.0613819 0.0233865 0.0467359 0.0925768 -0.0263449 0.00346553 -0.016453 0.0153896 -0.0250433 -0.0310166 -0.00331684 -0.0140544 -0.00800587 0.0180009 0.0571989 -0.0309553 -0.0336609
internal_weight=231.301 121.851 75.9636 109.45 68.2893 35.7506 16.1777 32.5387 27.6935 23.7869 12.4881 18.2545 45.8875 14.3174 7.24396 11.2988 7.07347 93.2719 12.5262 40.5311 8.44298 32.0882 28.9943 9.06108 9.22423 17.4961 7.1928 6.95348 80.7457 75.1745
internal_count=1667 831 485 836 432 241 111 191 158 134 69 118 346 91 47 65 44 725 91 309 63 246 223 68 67 123 48 44 634 592
is_linear=0
shrinkage=0.05


Tree=26
num_leaves=31
num_cat=0
split_feature=28 16 74 28 34 29 31 34 41 42 38 8 50 16 68 7 2 26 45 33 54 57 48 31 11 18 56 66 17 7
split_gain=25.1453 17.3349 15.7842 12.2903 12.9641 10.9446 7.21304 6.94544 6.55792 9.5437 6.5161 6.08202 6.47762 5.43562 5.14622 6.1978 5.0066 4.66916 4.14597 5.33997 4.69074 4.04496 4.0295 4.45552 3.93685 6.38603 6.77167 3.80657 6.11023 3.48068
threshold=-0.067906912416219697 0.22151827067136767 -0.46865808963775629 1.0563936829566958 -0.38487850129604334 0.52945023775100719 1.0446186661720278 1.0000000180025095e-35 -0.57283285260200489 -0.31186144053935999 0.3336199820041657 0.18619321286678317 0.13735622912645343 -1.0296536087989805 0.2689929753541947 -0.38026134669780726 -1.185676574707031 -0.25143157690763468 -1.3340264558792112 0.76448622345924389 -0.092289865016937242 0.3098344504833222 -1.0000000180025095e-35 -0.0038911809679120775 1.0000000180025095e-35 0.43363270163536077 0.14205000549554828 0.99689251184463512 0.92009004950523388 1.3636766076087954
decision_type=2 2 2 2 2 2 2 2 2 2 2 2 2 2 2 2 2 2 2 2 2 2 2 2 2 2 2 2 2 2
left_child=7 2 -2 4 5 -4 24 8 9 13 -5 14 16 -1 -6 -16 -13 -8 -10 21 -21 -20 23 -23 27 -26 -27 -3 -29 -9
right_child=1 6 3 10 11 -7 17 29 18 -11 -12 12 -14 -15 15 -17 -18 -19 19 20 -22 22 -24 -25 25 26 -28 28 -30 -31
leaf_value=0.039491280121211385 -0.012477927942908758 -0.036257247282144009 0.12957055742457491 0.095764600440495812 -0.030718969557300271 0.016123586873732096 -0.0082278839796471881 -0.035604542391348117 0.029619681208373546 0.064015530084268399 0.015203839854779286 0.0081464957748746802 -0.011974886571343451 -0.025849675907690207 0.061440011911765118 -0.024798258934940299 0.087627880412840448 0.051031020695366185 -0.04322440246866327 0.050877920747100118 -0.024019412741374271 0.048858378637155586 -0.039826969847216266 -0.016523734879611236 -0.027733571143185393 0.061290428889795578 -0.0090171397353956146 0.044707094236567102 -0.027910891756427081 0.016866380846926248
leaf_weight=3.5035532265901574 15.328242532908915 19.97791758924723 3.9809945076704008 12.550334379076959 9.9999642968177849 4.277509406208992 5.0776655524969101 43.9426274523139 3.4437804073095313 6.0425115525722495 3.6025296300649634 3.3435085117816916 4.4019024074077597 9.9918028265237808 3.4963564276695251 3.1054203361272803 4.8168058693408957 7.4471809267997724 20.594410225749016 3.5082453787326813 3.0668161809444419 3.5908259749412528 4.9711646512150756 5.204275742173194 8.4442170113325137 5.7468375712633115 6.5050543993711472 3.8046393841505033 6.2959143668413162 2.8287569731473914
leaf_count=23 101 145 22 67 68 26 33 329 23 39 22 22 30 70 22 21 30 47 155 24 22 24 37 36 57 36 44 26 45 21
internal_value=-0.000206259 0.0144656 0.0316337 0.0442518 0.027261 0.0788986 -0.00442388 -0.0177024 -0.00680216 0.0167762 0.0797312 0.0105077 0.0354228 -0.00733224 -0.0092865 0.0229484 0.0595066 0.028175 -0.0173234 -0.0218846 0.0173844 -0.0296781 -0.00785784 0.012433 -0.0128541 0.003868 0.0260976 -0.0241143 0.00100589 -0.0321444
internal_weight=242.892 132.203 68.9036 53.5753 37.4225 8.2585 63.2994 110.689 63.9174 19.5379 16.1529 29.164 12.5622 13.4954 16.6017 6.60178 8.16031 12.5248 44.3795 40.9357 6.57506 34.3607 13.7663 8.7951 50.7746 20.6961 12.2519 30.0785 10.1006 46.7714
internal_count=1667 864 431 330 241 48 433 803 453 132 89 193 82 93 111 43 52 80 321 298 46 252 97 60 353 137 80 216 71 350
is_linear=0
shrinkage=0.05


Tree=27
num_leaves=31
num_cat=0
split_feature=40 17 42 62 43 19 40 29 69 43 42 20 10 5 31 1 16 34 5 57 7 42 18 59 42 14 53 30 70 28
split_gain=37.9513 11.4235 9.59937 13.6621 9.33355 7.4895 6.7127 8.87232 12.9192 14.6483 7.40618 6.94212 6.27558 5.42265 6.33623 4.75184 5.03986 4.53912 4.53403 5.38122 4.34244 4.27014 3.98431 3.93062 2.41364 2.40224 1.71356 1.6618 4.57115 2.51568
threshold=0.61198359727859508 -0.02597918082028627 0.61473804712295543 0.53333193063735973 0.087690845131874098 0.45893575251102453 -0.70715901255607594 -0.31360016763210291 0.72047299146652233 0.40815992653369909 0.35583528876304632 -0.92039275169372547 0.10250127315521242 -0.46213956177234644 -0.0094808777794241888 0.43789788335561758 0.79389503598213207 -0.13263908028602597 -1.2372208237648008 0.33057457208633428 -0.0033067938638851042 0.87096899747848522 -0.45041660964488978 -0.44203150272369379 0.36866009235382086 -0.51187413930892933 0.26381130516529089 0.80441921949386608 -0.19882198423147199 1.1298999190330508
decision_type=2 2 2 2 2 2 2 2 2 2 2 2 2 2 2 2 2 2 2 2 2 2 2 2 2 2 2 2 2 2
left_child=6 4 3 12 13 21 24 8 9 23 17 -9 26 -2 -15 25 -17 -11 19 -13 -10 22 -6 -8 -1 -4 -3 -20 29 -29
right_child=1 2 15 -5 5 -7 7 11 20 10 -12 18 -14 14 -16 16 -18 -19 27 -21 -22 -23 -24 -25 -26 -27 -28 28 -30 -31
leaf_value=-0.035066102064677716 0.067822182146962479 0.01202675828590871 0.014879870192874857 0.12302544707806938 0.012408270637033491 0.0112860262593779 0.023501678734163419 0.037525423131287643 0.11420684247132591 0.057567673795286135 0.10555840810158662 -0.02503464236581468 0.055675146817933001 0.038967087649925972 -0.0379458092813241 -0.014984544460698794 0.051319913080388337 -0.018000244669290739 -0.041781753000749329 0.05947769650479319 0.016001183087511504 0.1389687897109354 0.08995053196455674 -0.036841994006587844 0.012708911990635006 -0.037250664442240213 -0.036397480459732144 0.05245813552338853 -0.039631676045387414 -0.014280956347877681
leaf_weight=36.589836977422237 3.3000586852431288 2.3478349223732931 2.1990095674991599 3.0839233696460715 3.131296642124652 3.226756624877452 2.5279869362711969 3.7230225577950469 2.6972815915942192 2.3200590088963509 2.5783975645899773 3.5514260679483405 3.8501998633146286 4.1999752297997466 4.5210011377930668 5.2044274359941465 4.5606506392359734 4.1225744932889921 22.957073852419853 2.2628418952226639 2.1576285585761061 4.5788039043545723 3.6880411803722373 15.111512847244741 2.3543203696608535 9.7003142163157481 3.7027608826756477 2.0073568299412727 6.3914425596594793 2.0281997099518776
leaf_count=390 25 21 20 24 25 27 24 35 22 20 21 34 34 36 42 46 39 37 236 20 21 31 27 153 25 92 35 20 65 20
internal_value=0.0017356 0.0331274 0.0135478 0.0458756 0.0571768 0.0829405 -0.0153764 -0.00640627 0.013494 -0.00122977 0.047565 -0.0209928 0.0127633 0.0218699 -0.000706818 -0.00699738 0.0178728 0.0132911 -0.0273461 0.0117581 0.0807494 0.100679 0.0604852 -0.027397 -0.0319321 -0.0272102 -0.0185665 -0.0343004 -0.0156139 0.0227412
internal_weight=174.676 61.2951 34.6491 12.9847 26.6459 14.6249 113.381 74.4368 31.5154 26.6605 9.02103 42.9214 9.9008 12.021 8.72098 21.6644 9.76508 6.44263 39.1983 5.81427 4.85491 11.3981 6.81934 17.6395 38.9442 11.8993 6.0506 33.3841 10.427 4.03556
internal_count=1667 524 311 114 213 110 1143 728 298 255 78 430 90 103 78 197 85 57 395 54 43 83 52 177 415 112 56 341 105 40
is_linear=0
shrinkage=0.05


Tree=28
num_leaves=31
num_cat=0
split_feature=40 20 43 14 31 40 55 34 53 48 47 29 26 23 53 58 30 20 17 26 7 30 70 26 10 19 34 10 45 18
split_gain=12.2265 11.2251 8.22349 7.19925 9.26507 8.79508 6.8291 10.6803 6.39407 6.22526 5.46232 5.41827 4.74398 4.26839 3.76302 3.32607 6.48382 9.12473 5.20737 5.68064 3.10898 5.43718 2.95225 3.90733 4.89391 3.02174 1.41231 1.94649 0.853585 0.885247
threshold=-1.5390157103538511 0.053057307377457626 -1.2623901963233946 1.3296704292297366 0.20105939358472827 0.86200103163719188 1.4556875824928286 -0.034545981325209134 -0.46468627452850336 -1.0000000180025095e-35 -1.414254307746887 0.28886671364307409 -0.075388751924037919 0.42016289383172994 0.58482599258422863 -0.31023398041725153 0.8420703411102296 0.1650207340717316 0.80006647109985363 0.33831192553043371 -1.0783943533897398 -0.20721255242824552 -1.0000000180025095e-35 -0.48028726875782007 -0.34330706298351282 0.43986698985099798 -0.70718437433242787 0.20002185553312304 -0.50674122571945179 -1.0000000180025095e-35
decision_type=2 2 2 2 2 2 2 2 2 2 2 2 2 2 2 2 2 2 2 2 2 2 2 2 2 2 2 2 2 2
left_child=1 9 8 6 -5 12 10 -8 -2 -1 11 -4 -6 -10 -3 16 18 -18 28 -20 21 -17 -22 24 -24 -26 -25 -28 29 -12
right_child=2 14 3 4 5 -7 7 -9 13 -11 15 -13 -14 -15 -16 20 17 -19 19 -21 22 -23 23 26 25 -27 27 -29 -30 -31
leaf_value=0.025270438665235248 -0.028180583948811618 -0.034170375170011424 -0.0264942331835357 -0.026534715288570005 0.13123036327378199 -0.027279526160509798 -0.033092030733190114 0.08317328181364643 0.012822093711024106 0.14476716180032706 -0.026322485516394968 0.07940497529277582 0.020576729787701729 0.10756355376844023 0.039967816575836722 0.062298789266733684 0.1011912623548849 -0.028639537217814533 -0.02867258983108914 0.073060256945916432 -0.039340996332364681 -0.031857273071533583 0.073138249672017749 0.011318862248250107 -0.034311651007976021 0.035589386782006807 -0.038004713842193838 0.014980143031516647 -0.040274752552762035 0.016932511160055449
leaf_weight=2.47043277323246 1.7237997576594351 3.259440615773201 1.4639513120055192 4.2496791258454305 2.3616888299584389 1.5498428791761396 2.9192323051393032 3.2478054314851752 2.3662983551621428 2.1195390820503217 1.4550072774291041 1.7706397324800489 1.9746757894754408 2.2357048988342285 1.8723226711153982 1.7491314709186552 2.0447811670601364 1.8104098699986932 1.8172043971717351 1.9241866692900655 37.706011895090334 2.5277469381689945 1.4996803551912306 1.5859202891588253 3.428103361278775 1.4275606051087377 13.805480480194101 1.4281597770750529 9.6067014746367949 1.3506865501403833
leaf_count=28 24 44 20 59 24 20 42 39 28 20 21 21 25 24 21 22 26 26 26 25 555 36 20 22 51 20 202 20 137 19
internal_value=-0.00361617 0.0474326 -0.00846946 -0.0119511 0.0263569 0.0628512 -0.0162898 0.0311996 0.0429234 0.0964774 -0.0199147 0.0365377 0.0941399 0.0698334 -0.00501425 -0.0224579 -0.00435621 0.046881 -0.0186044 0.0280224 -0.0278667 0.0111587 -0.0307443 -0.0157085 0.0159452 -0.0111926 -0.0278926 -0.0324206 -0.0337003 -0.00652151
internal_weight=120.752 9.72174 111.03 104.704 10.1359 5.88621 94.5684 6.16704 6.3258 4.58997 88.4014 3.23459 4.33636 4.602 5.13176 85.1668 20.009 3.85519 16.1538 3.74139 65.1578 4.27688 60.8809 23.1749 6.35534 4.85566 16.8196 15.2336 12.4124 2.80569
internal_count=1667 113 1554 1478 128 69 1350 81 76 48 1269 41 49 52 65 1228 280 52 228 51 948 58 890 335 91 71 244 222 177 40
is_linear=0
shrinkage=0.05


Tree=29
num_leaves=22
num_cat=0
split_feature=73 64 70 28 71 14 29 59 64 38 32 44 64 19 19 55 26 6 4 26 74
split_gain=39.6777 16.0403 10.4248 9.56652 8.77567 8.42275 7.57633 7.19289 7.18663 6.2048 4.70458 3.71198 3.61765 3.11852 6.53421 2.64009 2.47211 1.47672 1.13098 0.989138 0.660044
