tree
version=v4
num_class=6
num_tree_per_iteration=6
label_index=0
max_feature_idx=75
objective=multiclass num_class:6
feature_names=Column_0 Column_1 Column_2 Column_3 Column_4 Column_5 Column_6 Column_7 Column_8 Column_9 Column_10 Column_11 Column_12 Column_13 Column_14 Column_15 Column_16 Column_17 Column_18 Column_19 Column_20 Column_21 Column_22 Column_23 Column_24 Column_25 Column_26 Column_27 Column_28 Column_29 Column_30 Column_31 Column_32 Column_33 Column_34 Column_35 Column_36 Column_37 Column_38 Column_39 Column_40 Column_41 Column_42 Column_43 Column_44 Column_45 Column_46 Column_47 Column_48 Column_49 Column_50 Column_51 Column_52 Column_53 Column_54 Column_55 Column_56 Column_57 Column_58 Column_59 Column_60 Column_61 Column_62 Column_63 Column_64 Column_65 Column_66 Column_67 Column_68 Column_69 Column_70 Column_71 Column_72 Column_73 Column_74 Column_75
feature_infos=none [-1.5447756052017212:4.6864843368530273] [-1.3920965194702148:1.4269504547119141] [-1.4503970146179199:1.6017783880233765] [-2.8588864803314209:2.5183200836181641] [-3.8107707500457764:1.9395600557327271] [-1.8694056272506714:3.6146993637084961] [-3.0407893657684326:3.7202243804931641] [-3.6433324813842773:3.1199932098388672] [-3.1801962852478027:6.6324257850646973] [-1.241889476776123:9.6246881484985352] [-6.7631840705871582:3.7041957378387451] [-0.80819958448410034:10.798158645629883] [-0.07467661052942276:26.927141189575195] [-4.2183332443237305:4.232205867767334] [-0.23276343941688538:4.2962074279785156] [-2.5920979976654053:2.6809146404266357] [-3.4441332817077637:2.0682163238525391] [-1.713068962097168:3.7898833751678467] [-3.0320124626159668:3.7331533432006836] [-3.6316945552825928:3.131495475769043] [-3.2013812065124512:6.6667265892028809] [-1.2558833360671997:10.016210556030273] [-6.5892024040222168:3.4241764545440674] [-0.75531834363937378:9.8977041244506836] [-3.1124308109283447:11.595115661621094] [-4.2520046234130859:4.8142008781433105] [-0.24568614363670349:4.0702338218688965] [-2.5812065601348877:2.7028546333312988] [-3.4277455806732178:2.040489673614502] [-1.70088791847229:3.7956171035766602] [-3.0380957126617432:3.7373936176300049] [-3.6296088695526123:3.1252024173736572] [-3.1767659187316895:6.6334443092346191] [-1.4709092378616333:9.865849494934082] [-6.5489006042480469:3.3965098857879639] [-0.76924508810043335:9.4855546951293945] [-5.6820244789123535:8.1827287673950195] [-4.6263093948364258:4.1991257667541504] [-0.24588385224342346:4.0669612884521484] [-2.3188149929046631:2.5944163799285889] [-2.9636096954345703:1.9497995376586914] [-1.5919474363327026:3.7517635822296143] [-3.0455248355865479:3.749727725982666] [-3.6443333625793457:3.1391959190368652] [-3.1868109703063965:6.6501121520996094] [-1.3635256290435791:10.184229850769043] [-5.8774509429931641:3.4059979915618896] [-0.77272367477416992:8.7187070846557617] [-6.8339405059814453:4.3430166244506836] [-3.962498664855957:3.8886580467224121] [-0.24476191401481628:4.0856027603149414] [-2.0842430591583252:2.5052351951599121] [-2.5718169212341309:1.8586159944534302] [-1.4897009134292603:3.7342658042907715] [-3.0398736000061035:3.7541458606719971] [-3.6350600719451904:3.1416735649108887] [-3.2036564350128174:6.6726350784301758] [-1.6381983757019043:10.43550968170166] [-4.3305425643920898:2.6419596672058105] [-0.72457098960876465:8.1155157089233398] [-7.9283814430236816:2.0054905414581299] [-4.4182615280151367:4.2035360336303711] [-0.23882177472114563:4.1872224807739258] [-1.8474061489105225:2.3345930576324463] [-2.1733055114746094:1.6998512744903564] [-1.3824012279510498:3.6030230522155762] [-3.0511353015899658:3.7755048274993896] [-3.6499016284942627:3.1601283550262451] [-3.1800408363342285:6.619013786315918] [-1.4331847429275513:9.7243518829345703] [-3.2249736785888672:2.1913034915924072] [-0.70773530006408691:6.7965569496154785] [-5.9993038177490234:0.30111774802207947] [-4.3455362319946289:4.2642073631286621] [-0.24263916909694672:4.1213459968566895]
tree_sizes=3301 3315 3315 3309 3312 3329 3423 3421 3415 3435 3419 3419 3411 3421 3414 3420 3405 3419

Tree=0
num_leaves=31
num_cat=0
split_feature=4 28 62 29 7 69 34 29 71 34 29 69 74 21 45 54 21 47 26 21 26 69 64 28 30 16 58 55 46 5
split_gain=14.3157 10.1354 7.94598 10.5712 7.38725 13.5422 8.24873 7.41023 12.5657 7.52684 7.0984 7.07235 6.90227 5.15018 4.70444 9.30778 4.68034 7.60914 3.54916 3.53903 5.83557 9.01274 4.91198 3.17883 2.68189 2.12193 2.21826 1.85994 1.16392 1.86463
threshold=-0.30981004238128657 1.6067373156547549 0.10903090238571168 -0.85491314530372609 -0.29892094433307642 0.43728017807006841 -0.27277208864688868 0.90712586045265209 0.42059773206710821 -0.034545981325209134 -1.7060277462005613 0.28980447351932531 1.9954238533973696 -1.0042470693588255 -1.3005809187889097 0.15140817314386371 0.45425939559936529 1.0000000180025095e-35 -0.2426294460892677 0.41873413324356085 0.074247661978006377 -0.17614059150218961 0.78495633602142345 1.0761983990669253 0.77089050412178051 -1.5609834194183347 -0.52557957172393788 1.2861406803131106 0.26301801204681402 0.5633523464202882
decision_type=2 2 2 2 2 2 2 2 2 2 2 2 2 2 2 2 2 2 2 2 2 2 2 2 2 2 2 2 2 2
left_child=2 12 3 10 11 6 -6 8 9 -8 -1 -5 14 -4 15 -2 24 -18 -7 25 23 -22 -23 -21 -15 -16 -27 28 -28 -30
right_child=1 -3 13 4 5 18 7 -9 -10 -11 -12 -13 -14 16 19 -17 17 -19 -20 20 21 22 -24 -25 -26 26 27 -29 29 -31
leaf_value=-2.3818455348093939 -2.4625353226654005 -2.3753916907238182 -2.3810022719215072 -2.4704576871608781 -2.2747885356720077 -2.3957482920820614 -2.4055273931919459 -2.450068079338505 -2.450068079338505 -2.276961766217851 -2.4735861560677854 -2.3839927627345769 -2.3810022719215072 -2.475700058343854 -2.4223354767187275 -2.3636283302172032 -2.3709840323972911 -2.4608794194013091 -2.4684069289674553 -2.4724242848598847 -2.3521221983143796 -2.4663185786961108 -2.3929186205287092 -2.4195527634483271 -2.42810003560996 -2.4239159629319795 -2.4739623600541822 -2.431834013671593 -2.4671788301195368 -2.4128743408770257
leaf_weight=2.0155055969953537 4.5108934789896002 3.7430818229913703 2.4953878819942501 3.8390582799911526 2.8792937099933651 1.9195291399955747 2.3034349679946908 2.2074585109949112 2.2074585109949112 3.167223080992696 6.2384697049856168 3.6471053659915924 2.4953878819942465 9.8855750709772128 2.3994114249944678 3.2631995379924774 3.5511289089918128 4.0310111939907074 2.9752701669931403 11.805104210972788 2.8792937099933615 6.0465167909860593 2.3994114249944687 3.071246623992919 3.7430818229913703 2.4953878819942465 40.406088396906853 3.071246623992919 2.5913643389940253 1.9195291399955747
leaf_count=21 47 39 26 40 30 20 24 23 23 33 65 38 26 103 25 34 37 42 31 123 30 63 25 32 39 26 421 32 27 20
internal_value=-2.43495 -2.447 -2.41543 -2.40008 -2.38444 -2.36759 -2.34218 -2.37465 -2.35364 -2.31829 -2.44794 -2.42738 -2.45061 -2.43757 -2.4532 -2.4177 -2.44632 -2.41631 -2.43822 -2.45685 -2.44145 -2.41534 -2.4433 -2.46127 -2.4631 -2.4642 -2.46638 -2.46876 -2.47128 -2.44439
internal_weight=150.203 93.0972 57.106 33.3998 25.1458 17.6597 12.7649 9.88558 7.67812 5.47066 8.25398 7.48616 89.3541 23.7062 86.8587 7.77409 21.2108 7.58214 4.8948 79.0846 26.2016 11.3252 8.44593 14.8764 13.6287 52.883 50.4836 47.9882 44.917 4.51089
internal_count=1565 970 595 348 262 184 133 103 80 57 86 78 931 247 905 81 221 79 51 824 273 118 88 155 142 551 526 500 468 47
is_linear=0
shrinkage=1


Tree=1
num_leaves=31
num_cat=0
split_feature=23 17 30 38 57 2 10 14 4 32 50 10 8 29 41 52 9 4 4 55 14 59 14 33 66 20 43 17 46 38
split_gain=10.2391 15.4731 11.1707 9.11915 8.50156 8.24303 8.69237 7.65888 7.63399 7.25984 7.1949 14.5083 9.21304 6.30518 6.90143 5.79993 7.87206 5.85921 5.66582 5.13803 4.88761 4.39571 4.36129 6.74801 5.80855 6.73628 7.23179 6.65714 4.65853 4.55034
threshold=0.42016289383172994 -0.5494437813758849 1.2103361487388613 -0.84835794568061818 -0.45755347609519953 0.51576875988394033 0.20002185553312304 1.7316318154335024 -0.11137202754616736 -0.22508294135332105 -0.054347943514585488 0.060706742107868202 0.083898942917585387 -1.6028725504875181 0.044789494946599014 -0.8200317621231078 -0.73881590366363514 -0.70203524827957142 0.31263439357280737 0.22355347126722339 -1.0000000180025095e-35 -1.2465512156486509 0.32009266316890722 0.98619702458381664 -0.66150888800621022 -0.37842996418476099 0.0092086114455014485 1.1880424022674563 -0.42703083157539362 0.027181264944374565
decision_type=2 2 2 2 2 2 2 2 2 2 2 2 2 2 2 2 2 2 2 2 2 2 2 2 2 2 2 2 2 2
left_child=4 5 3 -3 9 6 -2 13 -8 -1 12 18 20 14 -6 -11 19 -18 -12 -17 -5 -15 23 24 25 -23 -27 -26 -24 -29
right_child=1 2 -4 10 7 -7 8 -9 -10 15 11 -13 -14 21 -16 16 17 -19 -20 -21 -22 22 28 -25 27 26 -28 29 -30 -31
leaf_value=-1.6493342921149139 -1.6546603476471053 -1.5326166841448694 -1.6594489579324574 -1.5602409548696927 -1.5661568031354109 -1.581076802561078 -1.5609270481272268 -1.5950380634373957 -1.6464132288288511 -1.6471388921723009 -1.6498011664056282 -1.5156397270545887 -1.6602936346400092 -1.6076144763048443 -1.6511106766692989 -1.6720403360932266 -1.6233688187178366 -1.5570650626302314 -1.5832606642889526 -1.6012337878652672 -1.632185363782896 -1.6624308705061115 -1.6263305784489641 -1.6008563994683593 -1.6604700553704854 -1.5602409548696927 -1.633356627874325 -1.5899827248204421 -1.6703140299560681 -1.6534388493921663
leaf_weight=12.467098653316496 36.267923355102539 5.6668630242347708 5.4779675900936118 4.7223858535289756 4.1556995511054984 4.9112812876701346 4.3445949852466583 6.9891310632228842 4.5334904193878156 6.0446538925170925 5.1001767218112963 5.2890721559524527 7.9336082339286795 5.6668630242347708 3.7779086828231812 3.7779086828231829 4.9112812876701399 11.33372604846954 6.0446538925170898 4.5334904193878174 3.9668041169643429 6.4224447607994106 6.9891310632228842 7.5558173656463614 59.313166320323944 4.7223858535289756 8.1225036680698377 5.4779675900936109 34.945655316114426 4.1556995511054993
leaf_count=66 192 30 29 25 22 26 23 37 24 32 27 28 42 30 20 20 26 60 32 24 21 34 37 40 314 25 43 29 185 22
internal_value=-1.6313 -1.61778 -1.59656 -1.58718 -1.63766 -1.63682 -1.64384 -1.64301 -1.60171 -1.61817 -1.59915 -1.57666 -1.6232 -1.64545 -1.60433 -1.6053 -1.59477 -1.5755 -1.61275 -1.63436 -1.58981 -1.64789 -1.64971 -1.6436 -1.64755 -1.62359 -1.6033 -1.65426 -1.66304 -1.61688
internal_weight=295.621 94.2588 44.2015 38.7236 201.363 50.0573 45.146 158.294 8.87809 43.0682 33.0567 16.4339 16.6228 151.305 7.93361 30.6011 24.5564 16.245 11.1448 8.3114 8.68919 143.372 137.705 95.77 88.2142 19.2673 12.8449 68.9468 41.9348 9.63367
internal_count=1565 499 234 205 1066 265 239 838 47 228 175 87 88 801 42 162 130 86 59 44 46 759 729 507 467 102 68 365 222 51
is_linear=0
shrinkage=1


Tree=2
num_leaves=31
num_cat=0
split_feature=52 62 50 74 26 56 69 68 52 65 5 38 70 5 26 41 1 47 59 41 30 30 20 41 64 30 46 35 30 5
split_gain=9.03378 8.89146 8.41323 9.90607 7.82198 7.24654 8.19429 6.29176 6.29083 5.78697 6.73203 8.61667 7.45857 9.87661 6.59005 8.90309 5.98813 6.34455 6.09387 7.50495 6.27056 7.97468 5.54573 5.70127 5.51651 5.30771 5.10895 5.05344 7.04623 5.04741
threshold=1.6629800796508791 0.89823085069656383 -0.29833506047725672 1.1685228347778323 -0.55950656533241261 0.3690344244241715 -1.0000000180025095e-35 -0.16248620301485059 -1.9025996923446653 -0.14200071245431897 0.48163571953773504 0.2985984086990357 -0.19882198423147199 -0.98330271244049061 0.91925325989723217 0.4646288007497788 1.0000000180025095e-35 0.72808045148849498 0.63066121935844432 -0.66633024811744679 0.91847166419029247 1.3257627487182619 0.52248558402061474 -0.027431258931756016 -0.44215314090251917 0.089598752558231368 0.15035697817802432 0.41288688778877264 0.36964565515518194 -0.25802317261695856
decision_type=2 2 2 2 2 2 2 2 2 2 2 2 2 2 2 2 2 2 2 2 2 2 2 2 2 2 2 2 2 2
left_child=1 2 3 8 5 6 -3 -5 -1 10 12 -12 13 -4 16 -16 17 18 19 -11 -21 -22 -10 -24 -14 -9 27 28 -6 -20
right_child=-2 4 9 7 26 -7 -8 25 22 14 11 -13 24 -15 15 -17 -18 -19 29 20 21 -23 23 -25 -26 -27 -28 -29 -30 -31
leaf_value=-1.6323263417249205 -1.6078266673472967 -1.68463633834896 -1.5778573940013416 -1.6028076312151143 -1.620244056954995 -1.5641098376163367 -1.5970176159382343 -1.6965095244416128 -1.70103010836992 -1.6027101386384459 -1.5993657260843934 -1.6757380929866585 -1.6872551910833851 -1.6647742780482664 -1.6617103112717031 -1.5780962063939259 -1.6817658126038664 -1.6950000334618567 -1.5780962063939259 -1.6845571417095537 -1.5956538847259447 -1.6789570166426135 -1.6329833249105112 -1.6907863216931927 -1.6260882409660766 -1.6327216535929008 -1.6141626435811613 -1.6950000334618567 -1.6804598827580279 -1.6541652788764976
leaf_weight=4.0647951662540427 7.2057732492685309 4.6190854161977759 4.6190854161977768 4.9886122494936016 8.8686439990997403 4.4343219995498648 4.2495585829019538 5.7276659160852414 41.756532162427902 4.0647951662540356 12.379148915410044 4.6190854161977759 17.552524581551552 7.5753000825643522 9.0534074157476407 3.8800317496061316 47.668961495161057 8.1295903325080854 3.8800317496061325 19.400158748030673 4.619085416197775 5.17337566614151 6.6514829993247995 8.6838805824518168 3.6952683329582241 5.3581390827894211 5.1733756661415091 8.1295903325080854 8.6838805824518186 4.2495585829019529
leaf_count=22 39 25 25 27 48 24 23 31 226 22 67 25 95 41 49 21 258 44 21 105 25 28 36 47 20 29 28 44 47 23
internal_value=-1.65954 -1.66104 -1.66489 -1.67834 -1.6407 -1.61011 -1.64051 -1.64415 -1.68743 -1.65835 -1.64449 -1.61983 -1.65783 -1.62811 -1.66478 -1.63254 -1.66931 -1.65712 -1.64904 -1.659 -1.66848 -1.63733 -1.69177 -1.66559 -1.67556 -1.66596 -1.65504 -1.66469 -1.64952 -1.61285
internal_weight=289.155 281.949 237.791 77.2311 44.1585 13.303 8.86864 16.0744 61.1567 160.559 50.4404 16.9982 33.4422 12.1944 110.119 12.9334 97.1856 49.5166 41.387 33.2574 29.1926 9.79246 57.0919 15.3354 21.2478 11.0858 30.8555 25.6821 17.5525 8.12959
internal_count=1565 1526 1287 418 239 72 48 87 331 869 273 92 181 66 596 70 526 268 224 180 158 53 309 83 115 60 167 139 95 44
is_linear=0
shrinkage=1


Tree=3
num_leaves=31
num_cat=0
split_feature=40 61 8 10 10 40 34 57 17 65 22 31 66 38 34 32 66 34 74 9 55 55 52 9 46 66 53 33 45 40
split_gain=16.3917 9.28192 7.94755 11.0899 7.96216 10.7688 9.97501 7.93628 8.70277 9.20189 7.75992 7.44538 8.85302 6.97125 9.13235 9.68184 6.48315 5.91755 5.64165 7.88586 5.40109 5.9219 5.27305 7.08557 5.23908 5.84899 6.46759 4.86076 4.8598 4.81408
threshold=-1.1317635774612425 1.0000000180025095e-35 1.4974200129508974 -0.14826592057943341 -0.13433440774679181 0.40800347924232488 -0.25875878334045405 -0.14743787795305249 0.60137176513671886 0.21847975254058841 0.063038270920515074 -0.86515074968338002 -0.57775375247001637 0.71885719895362865 0.10558702051639558 0.16760393977165225 0.1463790833950043 0.11960032209753992 -0.31906796991825098 -0.3556330651044845 0.535557121038437 0.89520207047462474 0.0858648717403412 -0.24082536995410916 -0.11721297726035117 0.051406767219305045 -0.32849827408790583 1.1107864975929262 0.1385610103607178 -0.66466316580772389
decision_type=2 2 2 2 2 2 2 2 2 2 2 2 2 2 2 2 2 2 2 2 2 2 2 2 2 2 2 2 2 2
left_child=24 -2 4 -4 5 6 10 27 13 16 -3 -7 28 17 15 -15 -10 20 -14 -20 -9 -22 23 -8 -1 26 -26 29 -13 -6
right_child=1 2 3 -5 7 11 22 8 9 -11 -12 12 18 14 -16 -17 -18 -19 19 -21 21 -23 -24 -25 25 -27 -28 -29 -30 -31
leaf_value=-1.725536312821035 -1.7176277601734988 -1.686959031053723 -1.6878472933395794 -1.5909763812564068 -1.6655298708327877 -1.5855131749582512 -1.6254644699841891 -1.7160726439758287 -1.651715676125491 -1.6750753719175209 -1.5950105252215816 -1.5745818104942635 -1.6302639676857298 -1.5811123523406965 -1.7100883479469344 -1.6818861336500535 -1.575875879089071 -1.6583181064674581 -1.6372806175562244 -1.7044154516161008 -1.6422431889827214 -1.7054711009227843 -1.7103189521743531 -1.6907628487438835 -1.6286912572889476 -1.717228326518454 -1.6949121021272127 -1.6540438441677898 -1.6575007563456743 -1.7096982698172847
leaf_weight=20.212507635354996 10.925679802894591 3.641893267631529 4.9165559113025665 5.8270292282104474 6.737502545118331 4.1881772577762595 4.7344612479209909 23.67230623960495 8.5584491789340991 18.93784499168396 4.5523665845394135 3.82398793101311 6.0091238915920284 4.3702719211578351 4.0060825943946829 4.1881772577762604 4.1881772577762595 8.7405438423156721 5.4628399014473024 12.564531773328776 5.8270292282104474 7.101691871881485 16.570614367723465 14.20338374376297 4.9165559113025656 10.561490476131437 8.9226385056972521 4.9165559113025656 3.8239879310131073 37.87568998336792
leaf_count=111 60 20 27 32 37 23 26 130 47 104 25 21 33 24 22 23 23 48 30 69 32 39 91 78 27 58 49 27 21 208
internal_value=-1.67978 -1.67458 -1.67237 -1.63228 -1.67454 -1.66203 -1.67883 -1.68177 -1.67289 -1.65225 -1.63229 -1.64213 -1.65225 -1.68445 -1.65281 -1.62556 -1.6211 -1.6936 -1.66835 -1.68294 -1.70235 -1.67637 -1.69056 -1.67257 -1.70726 -1.69089 -1.66958 -1.69763 -1.60875 -1.70288
internal_weight=284.978 240.365 229.439 10.7436 218.696 79.5754 43.7027 139.12 89.5906 31.6845 8.19426 35.8726 31.6845 57.9061 12.5645 8.55845 12.7466 45.3416 24.0365 18.0274 36.601 12.9287 35.5085 18.9378 44.6132 24.4007 13.8392 49.5297 7.64798 44.6132
internal_count=1565 1320 1260 59 1201 437 240 764 492 174 45 197 174 318 69 47 70 249 132 99 201 71 195 104 245 134 76 272 42 245
is_linear=0
shrinkage=1


Tree=4
num_leaves=31
num_cat=0
split_feature=53 41 22 58 57 44 17 32 49 53 55 62 69 55 17 68 71 23 43 53 32 62 66 20 20 4 23 66 53 32
split_gain=29.897 9.77749 10.5581 12.5177 13.2348 9.4352 11.9481 9.65505 8.83908 8.01962 10.413 9.73999 8.37678 7.04624 6.94037 7.27885 9.76015 9.03246 10.5747 7.02733 5.44435 6.86902 5.31971 4.71982 4.82897 4.55009 4.48306 4.44171 4.57975 4.04592
threshold=-0.71301311254501332 -1.2794575095176695 -0.13876393437385556 -0.15231391787528989 0.33946324884891516 0.96930211782455455 -0.094900332391262041 0.79248526692390453 3.2253210544586186 1.0655370354652407 0.13387586921453479 -0.54439276456832875 0.22660053521394732 -0.338333249092102 1.0468378663063052 0.3555134385824204 -0.20435738191008565 0.42016289383172994 0.062464552000164993 0.10924873501062395 0.45775400102138525 0.40604162216186529 -0.28311525285243982 0.68987283110618602 0.010280503425747158 -0.11137202754616736 -0.38090757280588144 -0.45710650086402888 0.29056257009506231 0.22073000669479373
decision_type=2 2 2 2 2 2 2 2 2 2 2 2 2 2 2 2 2 2 2 2 2 2 2 2 2 2 2 2 2 2
left_child=20 2 22 29 -5 7 -7 8 9 11 -11 12 27 -8 15 16 -13 18 26 -20 -1 -22 -2 24 -12 -14 -18 -3 -29 -4
right_child=1 5 3 4 -6 6 13 -9 -10 10 23 14 25 -15 -16 -17 17 -19 19 -21 21 -23 -24 -25 -26 -27 -28 28 -30 -31
leaf_value=-1.7987870711447878 -1.7235946124341313 -1.7955368875833873 -1.7157183315154321 -1.6160658217517245 -1.7408171389326821 -1.6635570394191703 -1.6947873826465873 -1.7846724892926182 -1.6818605419438659 -1.7632072243063381 -1.7352335901708402 -1.7863174690040622 -1.6593634549903218 -1.7648601255851111 -1.7967455936886327 -1.7801758900968179 -1.782285083587785 -1.7673488910670974 -1.7431624904322083 -1.6566427511643291 -1.7862315257151797 -1.7172277849882285 -1.7906202907435722 -1.7516824291845909 -1.6596866618619266 -1.734986940420771 -1.7234509620663707 -1.7108876452030193 -1.7694399252575217 -1.7834339106585642
leaf_weight=40.134451389312744 4.459383487701416 3.7733244895935067 3.4302949905395499 5.3169572353363019 3.6018097400665283 5.3169572353363064 3.9448392391204896 24.698123931884766 3.4302949905395499 11.834517717361452 3.9448392391204816 11.663002967834471 3.7733244895935059 12.349061965942377 15.093297958374022 27.956904172897339 5.3169572353362975 13.206635713577269 3.7733244895935041 7.0321047306060791 9.0902817249298078 4.6308982372283927 5.488471984863283 3.6018097400665274 6.1745309829711914 4.6308982372283918 5.6599867343902668 5.8315014839172363 5.8315014839172363 3.4302949905395508
leaf_count=234 26 22 20 31 21 31 23 144 20 69 23 68 22 72 88 163 31 77 22 41 53 27 32 21 36 27 33 34 34 20
internal_value=-1.75672 -1.74833 -1.72002 -1.69581 -1.65986 -1.75236 -1.72204 -1.75645 -1.75139 -1.75362 -1.72888 -1.75938 -1.7316 -1.74535 -1.76695 -1.76045 -1.74837 -1.73522 -1.71609 -1.68323 -1.78968 -1.76191 -1.76038 -1.70077 -1.68465 -1.6944 -1.75179 -1.75435 -1.73894 -1.74879
internal_weight=268.421 214.565 25.7272 15.7794 8.91877 188.838 21.6109 167.227 142.529 139.098 25.5557 113.543 23.8406 16.2939 89.7022 74.6089 46.652 34.989 21.7824 10.8054 53.8556 13.7212 9.94786 13.7212 10.1194 8.40422 10.9769 15.4363 11.663 6.86059
internal_count=1565 1251 150 92 52 1101 126 975 831 811 149 662 139 95 523 435 272 204 127 63 314 80 58 80 59 49 64 90 68 40
is_linear=0
shrinkage=1


Tree=5
num_leaves=31
num_cat=0
split_feature=64 47 54 54 14 65 16 22 74 55 29 54 34 33 11 16 11 57 58 58 7 2 66 22 33 74 57 18 10 21
split_gain=25.4506 12.6376 11.5901 10.9122 10.9074 10.1917 13.0904 9.36019 9.28122 9.06419 8.85852 10.0315 8.75928 7.53943 7.20575 6.46345 7.27665 10.1523 6.28255 6.12937 6.0457 6.02406 5.58916 4.86656 5.0354 4.61699 4.38557 4.30514 4.08676 3.97435
threshold=-1.0383758544921873 1.0000000180025095e-35 1.6963962912559511 -0.31639803946018213 -0.12860852852463719 0.21068435162305835 -0.27674613893032068 0.25042602419853216 -0.028198265470564362 0.13854651153087619 -1.3451524376869199 -1.0036108493804929 0.021507220342755321 0.90722456574440014 -1.0000000180025095e-35 1.0000000180025095e-35 0.56398186087608349 0.19477555900812152 0.24966446310281756 -0.080532066524028764 0.66693812608718883 -1.0000000180025095e-35 0.45921447873115545 -0.13876393437385556 -0.40881511569023127 0.28760313987731939 0.056013589724898345 -1.6426312327384947 -0.42689613997936243 -0.11217009648680686
decision_type=2 2 2 2 2 2 2 2 2 2 2 2 2 2 2 2 2 2 2 2 2 2 2 2 2 2 2 2 2 2
left_child=-1 5 3 4 10 28 8 18 14 -9 -3 22 -10 15 -7 27 17 25 23 -19 21 26 -12 24 -8 -17 -6 -5 -2 -26
right_child=1 2 -4 13 20 6 7 9 12 -11 11 -13 -14 -15 -16 16 -18 19 -20 -21 -22 -23 -24 -25 29 -27 -28 -29 -30 -31
leaf_value=-1.8261488614750185 -1.7702985817031605 -1.663208551574312 -1.7011755832826532 -1.7610996706925592 -1.780780451912962 -1.6890484895504667 -1.8299254415796036 -1.8066488510554255 -1.8157059831812765 -1.7104198682279304 -1.8280363420709176 -1.7064524831604022 -1.7389383591191985 -1.7389439793726531 -1.7674530557330987 -1.817348505697395 -1.817348505697395 -1.6783239049624725 -1.7622999849681118 -1.7688671552796469 -1.8216231932533575 -1.7988171282863996 -1.7500096457852072 -1.8260888954725722 -1.8097555865834172 -1.7531801235166951 -1.7126755232688964 -1.8147179666115114 -1.81610072631691 -1.7540111809773224
leaf_weight=34.751412630081177 4.8451488763093939 3.842704281210902 5.1792970746755591 3.5085560828447369 4.1768524795770681 6.3488157689571381 4.6780747771263149 3.675630182027815 7.6854085624217969 4.8451488763093948 3.6756301820278177 6.1817416697740528 5.5134452730417252 6.5158898681402198 6.0146675705909747 6.0146675705909782 6.014667570590972 3.6756301820278168 6.8500380665063849 4.009778380393981 4.8451488763093939 6.5158898681402215 3.5085560828447342 22.722077488899235 4.1768524795770654 3.6756301820278168 5.3463711738586426 26.063559472560883 38.761191010475159 7.8524826616048751
leaf_count=208 29 23 31 21 25 38 28 22 46 29 22 37 33 39 36 36 36 22 41 24 29 39 21 136 25 22 32 156 232 47
internal_value=-1.78692 -1.78077 -1.76789 -1.77229 -1.75176 -1.79152 -1.78097 -1.79483 -1.75215 -1.74946 -1.72341 -1.74824 -1.78239 -1.78582 -1.72275 -1.79241 -1.77314 -1.75711 -1.80384 -1.71784 -1.77705 -1.76244 -1.78986 -1.81153 -1.79073 -1.79196 -1.73895 -1.80766 -1.81071 -1.7735
internal_weight=261.471 226.72 102.751 97.5713 38.0929 123.969 80.3626 54.8003 25.5623 8.52078 17.2086 13.3659 13.1989 59.4784 12.3635 52.9625 23.3904 17.3757 46.2795 7.68541 20.8843 16.0391 7.18419 39.4295 16.7074 9.6903 9.52322 29.5721 43.6063 12.0293
internal_count=1565 1357 615 584 228 742 481 328 153 51 103 80 79 356 74 317 140 104 277 46 125 96 43 236 100 58 57 177 261 72
is_linear=0
shrinkage=1


Tree=6
num_leaves=31
num_cat=0
split_feature=21 29 62 5 6 19 41 58 46 5 47 69 18 29 45 65 38 48 45 45 62 38 46 59 31 55 19 71 3 58
split_gain=9.65481 15.3586 8.23851 7.47677 8.9649 10.56 12.8314 7.15595 8.14259 8.38466 9.84788 6.34353 5.35754 6.34515 4.37048 6.40434 7.97153 6.1997 4.32389 4.31972 4.21068 5.46069 3.43862 3.38586 3.37816 3.15628 2.91274 4.11711 2.60929 1.95689
threshold=0.45425939559936529 1.3284833431243899 -1.1978163123130796 -0.51579895615577687 -0.68566161394119252 -0.16056112200021741 -0.26207385957241053 -0.1379575505852699 1.0000000180025095e-35 0.48163571953773504 1.0000000180025095e-35 -0.099217936396598802 0.24873346090316775 0.6887192726135255 -0.60019198060035694 -0.14200071245431897 -0.14792657643556592 -1.0000000180025095e-35 0.8335397243499757 0.1385610103607178 -0.043717481195926659 1.0000000180025095e-35 0.40384429693222051 0.36248809099197393 0.20385424047708514 -0.14776815474033353 -0.64192688465118397 -0.20435738191008565 -1.0000000180025095e-35 -0.52557957172393788
decision_type=2 2 2 2 2 2 2 2 2 2 2 2 2 2 2 2 2 2 2 2 2 2 2 2 2 2 2 2 2 2
left_child=3 2 11 4 5 25 -7 18 12 10 -10 -2 -9 23 15 -5 17 -17 -4 -8 21 -6 26 -14 -18 -1 27 -16 -29 -28
right_child=1 -3 7 14 20 6 19 8 9 -11 -12 -13 13 -15 22 16 24 -19 -20 -21 -22 -23 -24 -25 -26 -27 29 28 -30 -31
leaf_value=0.028067090358982156 0.11341963062798775 0.11006774633429389 -0.032970761698796855 -0.037319168507479419 -0.026925205679877981 0.12896812325338175 0.050368967696885251 -0.023047114283861747 0.14931664415925389 -0.014898941149411871 0.0043774169421443654 0.00091574781521429165 0.088531127027519266 -0.030993186667319692 0.039031844795160295 0.0042144719965078337 -0.03566380407387737 0.12190781449833568 0.0330690851719425 -0.032038190653092026 -0.040040407777527709 0.047856897582451569 0.020510942124441843 0.0042608095697908126 0.031873508863587516 -0.035944876364581005 0.0071636832751141985 0.020071233596547056 -0.038474392422863907 -0.03433483313751215
leaf_weight=2.3293251544237137 2.112258605659008 3.1433320418000212 14.424096100032331 4.4809160977602014 4.0848476812243462 3.8391235992312422 2.074980445206168 9.8593556806445175 2.3085572123527518 2.1088159158825874 1.9109786897897718 2.1247764825820914 2.6892660036683074 2.1106082201004028 3.0799232348799706 1.9195681661367419 3.5575088486075375 1.9566389024257649 2.1190593615174285 2.3357826843857765 7.1441906318068487 3.7583012729883194 3.4662508815526953 1.9170166701078413 2.1642896384000778 3.7099001854658118 2.7020051255822173 1.9788747578859327 5.3931271955370885 43.074896670877934
leaf_count=24 21 32 151 47 42 39 21 103 23 22 20 22 27 22 32 20 37 20 22 24 75 38 36 20 22 39 28 21 57 458
internal_value=-0.000631809 0.0179666 0.00902453 -0.00917471 0.0119222 0.0389984 0.0726608 0.00117205 0.0189422 0.0628309 0.0970901 0.0679493 -0.00043472 0.0314422 -0.0175943 0.007064 0.0293509 0.0764409 -0.0231087 0.00887327 -0.0147173 0.0102686 -0.0234304 0.0604757 -0.00917628 -0.0107757 -0.0264503 -0.00235201 -0.0222386 -0.0317846
internal_weight=149.879 46.8281 43.6848 103.05 29.2765 14.2891 8.24989 39.4478 22.9046 6.32835 4.21954 4.23704 16.5762 6.71689 73.774 14.0789 9.59801 3.87621 16.5432 4.41076 14.9873 7.84315 59.6951 4.60628 5.7218 6.03923 56.2288 10.4519 7.372 45.7769
internal_count=1565 485 453 1080 302 147 84 410 237 65 43 43 172 69 778 146 99 40 173 45 155 80 632 47 59 63 596 110 78 486
is_linear=0
shrinkage=0.05


Tree=7
num_leaves=31
num_cat=0
split_feature=23 16 38 8 65 64 21 47 57 38 34 46 10 26 55 57 16 57 62 20 10 45 64 17 55 68 53 28 38 7
split_gain=9.37383 16.9993 11.0478 9.98726 8.76062 13.0295 7.85612 8.57668 8.87321 8.58624 13.2643 13.924 7.71458 6.85685 6.83023 5.79771 5.72205 7.19974 6.27516 6.0759 15.3511 7.30913 9.51258 5.62334 5.33164 5.14754 5.51496 4.94487 4.28827 3.39285
threshold=0.42016289383172994 -0.77273011207580555 -0.84835794568061818 0.083898942917585387 1.0100720524787905 -0.45149742066860193 -0.11907774209976195 0.72808045148849498 -0.41360402107238764 -0.42809914052486414 -0.10461248084902762 0.13627434521913531 -0.10647137463092803 -0.63872584700584401 0.57852759957313549 -0.0017626278568059204 -0.13688238710165021 -0.69754740595817555 -0.20495188236236569 0.39229546487331396 -0.10647137463092803 0.059865513816475875 0.23756479471921924 0.76173946261405956 -0.11180364340543746 0.57687121629714977 0.26597307622432714 -1.2257233858108518 -0.32303440570831293 0.71295344829559337
decision_type=2 2 2 2 2 2 2 2 2 2 2 2 2 2 2 2 2 2 2 2 2 2 2 2 2 2 2 2 2 2
left_child=6 4 -3 13 5 15 7 9 -9 -1 11 23 -10 -4 28 -2 19 18 -18 21 -21 22 -8 -11 -17 26 -15 -19 -5 -12
right_child=1 2 3 14 -6 -7 16 8 12 10 29 -13 -14 25 -16 24 17 27 -20 20 -22 -23 -24 -25 -26 -27 -28 -29 -30 -31
leaf_value=-0.031670199100375877 -0.016935925686897581 0.081866656898385612 0.093470762503414406 0.020930797634947887 0.046120444053171977 -0.03986351423345659 0.056977429301684368 0.086424628886406105 0.052669226268681715 0.089507142615984372 -0.021417055299507645 -0.026881110274348859 -0.033616056140845341 0.068195500771823778 0.039240828701808825 -0.00096330192667963609 0.054794816712286747 0.016419577384315088 -0.018996191412475855 -0.034714637261935966 0.070437109367068304 -0.033123199977785886 -0.032629250354428374 0.021767219447887298 0.074791444371488811 -0.020695458949635717 0.0042828405381028223 -0.029957035983063207 -0.035643544488823613 0.020473435841083978
leaf_weight=16.53288272023201 6.2234701514244088 8.3114323168992978 4.4990871995687511 3.8240819722414043 5.1376775056123725 24.534241199493408 5.9025925546884555 5.1545875519514075 3.7990402728319159 8.2014015913009661 22.153917923569683 5.0914251357316962 4.6541681736707678 6.913367226719858 5.5861320048570624 3.9550809711217871 4.628945454955101 5.6296740621328345 5.1308349668979627 5.0246060490608215 7.597187474370001 15.215041711926458 4.323595866560936 5.8260635137557975 4.5419713258743259 3.8408941924571982 6.1342741250991821 70.42331425845623 11.499017894268034 5.257047325372695
leaf_count=88 33 42 23 20 27 131 31 27 20 43 118 27 25 36 29 21 24 30 27 27 40 81 23 31 24 20 32 376 61 28
internal_value=-0.0002263 0.0126333 0.0321699 0.0207391 -0.00985692 -0.018147 -0.00635047 0.00617963 0.0407042 -0.00178925 0.00927093 0.0401827 0.00663171 0.0439542 -0.00392949 0.0182807 -0.0140931 -0.0211812 0.0178419 0.00202012 0.0291018 -0.012008 0.0195602 0.0646933 0.0431417 0.0262753 0.0405912 -0.0263556 -0.0211074 -0.0129452
internal_weight=295.547 95.0007 50.6083 42.2969 44.3924 39.2548 200.546 76.6705 13.6078 63.0627 46.5299 19.1189 8.45321 21.3876 20.9092 14.7205 123.876 85.8128 9.75978 38.063 12.6218 25.4412 10.2262 14.0275 8.49705 16.8885 13.0476 76.053 15.3231 27.411
internal_count=1565 499 263 221 236 209 1066 407 72 335 247 101 45 111 110 78 659 457 51 202 67 135 54 74 45 88 68 406 81 146
is_linear=0
shrinkage=0.05


Tree=8
num_leaves=31
num_cat=0
split_feature=52 62 11 50 74 62 52 47 22 4 31 44 21 7 26 38 17 30 74 59 53 65 14 58 33 70 22 62 31 20
split_gain=8.18487 8.1559 8.52793 9.71229 9.13523 10.4312 8.39289 7.34033 7.20518 7.52409 6.63797 8.99845 6.52561 7.07273 6.31375 8.08088 7.40094 8.35304 5.81259 5.71603 7.2013 5.61961 7.68974 9.14128 7.40125 7.26229 5.70338 7.01457 4.78687 7.39801
threshold=1.6629800796508791 0.89823085069656383 1.4013720750808718 -0.29833506047725672 0.83610033988952648 -0.38315834105014795 0.44649980962276464 -1.057198494672775 0.29366935789585119 1.4757449030876162 -0.94433635473251332 0.14962255209684375 0.62004363536834728 0.84774616360664379 -0.43627656996250147 0.44744005799293524 -0.20551031827926633 0.64007371664047252 0.038286242634058006 -0.44203150272369379 0.60293018817901622 0.63967019319534313 -0.88579177856445301 -0.19538303464651105 -0.69625422358512867 -0.1160713993012905 0.048623830080032356 -0.18797983974218366 0.65101987123489391 0.13749490678310397
decision_type=2 2 2 2 2 2 2 2 2 2 2 2 2 2 2 2 2 2 2 2 2 2 2 2 2 2 2 2 2 2
left_child=1 2 3 4 -1 -6 -7 -3 9 10 11 -5 13 14 15 -9 -16 -18 -11 -4 -21 22 23 -12 25 -24 -26 -28 -23 -30
right_child=-2 7 19 8 5 6 -8 12 -10 18 21 -13 -14 -15 16 -17 17 -19 -20 20 -22 28 24 -25 26 -27 27 -29 29 -31
leaf_value=-0.033669811297749722 0.049115537308339667 0.074935899898760316 0.075926920130638675 0.0020800480066032827 -0.02926381375149403 0.070807847385834774 -0.013899104109700924 0.08488465151556529 -0.03213710158214126 0.0020181188851031359 -0.014601121244352755 0.074283053654784312 -0.028196556784902127 -0.032860845587753817 -0.026890911964690359 -0.001279710957435905 0.072661973315961664 -0.014035655259552438 0.086257932887570707 -0.015699620505450384 0.055444866360938039 -0.030100008947930343 0.066200374202305706 0.071767237235358744 -0.021472013947739468 -0.010664512762230204 0.061606777492020072 -0.01336745647708425 0.053512567541713622 -0.021987398525160361
leaf_weight=50.372779950499535 7.4295061081647864 4.1435658633708945 3.7182845473289516 12.079060912132265 10.334368079900743 6.3617292344570142 4.3841893076896667 7.4182732701301557 14.594736471772192 3.6997568607330313 4.4556798189878464 5.7658511847257605 7.6231635957956305 4.4444736093282691 7.2011176645755794 3.977368488907814 5.445615231990816 4.3984923809766769 3.7263417989015579 8.8390855193138105 4.6245632767677298 27.316756516695023 5.8013864457607269 7.1139838397502881 35.766120478510864 5.1664626300334842 4.3102616667747498 6.8899255692958814 4.2527328878641111 7.546277329325676
leaf_count=277 39 22 20 65 56 34 24 39 79 20 24 31 41 24 39 21 29 24 20 48 25 149 31 38 194 28 23 37 23 41
internal_value=0.000566317 -0.000882949 -0.00459144 -0.00728231 -0.0222898 0.00519676 0.0380075 0.0184798 4.02933e-05 0.00376003 0.000706265 0.0281133 0.0110388 0.0206976 0.0298991 0.057134 0.00953406 0.0362021 0.0495092 0.0283594 0.0108813 -0.00401178 0.00453009 0.0399899 -0.00310975 0.0321271 -0.0118367 0.0181702 -0.0189242 0.00728
internal_weight=289.202 281.772 237.12 219.938 71.4531 21.0803 10.7459 44.6521 148.485 133.891 126.464 17.8449 40.5085 32.8853 28.4409 11.3956 17.0452 9.84411 7.4261 17.1819 13.4636 108.62 69.5038 11.5697 57.9342 10.9678 46.9663 11.2002 39.1158 11.799
internal_count=1565 1526 1287 1194 391 114 58 239 803 724 684 96 217 176 152 60 92 53 40 93 73 588 375 62 313 59 254 60 213 64
is_linear=0
shrinkage=0.05


Tree=9
num_leaves=31
num_cat=0
split_feature=41 57 44 32 6 10 53 42 9 45 9 42 32 53 10 26 38 18 41 43 38 62 38 14 22 41 9 44 62 46
split_gain=19.1253 9.07526 8.31703 10.6732 10.9253 7.83483 10.7861 10.9044 7.93895 11.8112 9.85753 8.28662 9.39726 5.86222 5.36539 5.309 5.21095 4.55198 4.04964 4.56663 5.66333 5.89848 5.27644 4.83066 5.72345 5.8171 3.85635 3.52927 4.96067 3.55006
threshold=-0.028629971668124195 -0.62545043230056752 0.8797605335712434 0.87124568223953258 0.88745391368865978 -0.036813829094171517 0.56428962945938121 0.53137618303298961 0.083481814712286009 -1.0000000180025095e-35 -0.48172524571418757 -0.17212341725826261 0.20661269128322604 -0.013698727358132599 -0.30151253938674921 -0.040180183947086327 0.88520964980125438 0.30568902194499975 -1.9776913523674009 0.70713973045349132 -0.27050206065177912 -0.060689523816108697 -0.47187608480453486 -0.86709588766098011 -0.12434949725866316 -0.6144871413707732 -0.16919318586587903 -1.5658468604087827 -0.0097733980510383827 0.094026464968919768
decision_type=2 2 2 2 2 2 2 2 2 2 2 2 2 2 2 2 2 2 2 2 2 2 2 2 2 2 2 2 2 2
left_child=18 14 3 5 -5 8 16 -8 9 10 -3 -10 15 -4 -2 -13 -7 -9 -1 23 22 -22 -21 24 -20 -26 -11 28 -25 -29
right_child=1 2 13 4 -6 6 7 17 11 26 -12 12 -14 -15 -16 -17 -18 -19 19 20 21 -23 -24 27 25 -27 -28 29 -30 -31
leaf_value=-0.037245497437179934 0.034675157370709468 0.099745372214460032 0.034756085838393923 0.085237674722214635 -0.0098678682257986386 -0.02972536250887662 0.073989182202115283 0.02729076128621017 -0.018178996079505599 -0.034536478941863381 0.0076546648663584644 0.059113763871473816 0.10007261133955195 -0.025756002854955298 -0.024357697552566521 -0.00099441609062569524 0.020125304219522872 -0.029675586168397966 -0.027407874668765975 -0.0044628077985446575 0.020663057230861783 -0.044021854537126391 0.066992492737804929 0.039442494365265056 -0.0055745228495537981 0.07208940455228495 0.018669401164434281 -0.033452947332398071 -0.030147728447517765 -0.0068590537235713638
leaf_weight=17.320862725377083 3.6655919998884228 3.9609014689922333 4.2380686402320888 10.348196566104887 3.8527467101812354 22.415727913379673 6.9862817823886898 6.0171606391668302 3.5957101732492474 10.98753985762596 7.4613069891929626 6.6931639611721074 7.9204101413488379 16.723859563469887 23.321590512990952 6.9685599654912931 5.9866813570260993 6.0116647630929947 5.3915961831808081 4.370497927069664 5.9770766049623489 6.2842591404914838 4.9288849681615847 4.5309378653764725 4.5135353505611411 3.8689841777086249 4.0208498686552057 44.392633885145187 3.8087156713008863 18.187665030360222
leaf_count=97 20 21 23 56 21 124 38 33 20 60 40 36 43 92 129 38 32 33 30 24 33 35 27 25 25 21 22 246 21 100
internal_value=-0.000661287 0.0106584 0.0159716 0.0213051 0.0604836 0.0151382 0.00039025 0.0286947 0.0284235 0.00872472 0.045048 0.0479792 0.0593184 -0.0124962 -0.015387 0.0304772 -0.0188907 -0.00127192 -0.0153923 -0.0115159 0.00871978 -0.0133093 0.0362374 -0.0167089 0.00982034 0.0341344 -0.0200065 -0.0219264 0.00783564 -0.0259534
internal_weight=284.752 161.176 134.189 113.227 14.2009 99.026 47.4175 19.0151 51.6084 26.4306 11.4222 25.1778 21.5821 20.9619 26.9872 13.6617 28.4024 12.0288 123.576 106.255 21.5607 12.2613 9.29938 84.6941 13.7741 8.38252 15.0084 70.92 8.33965 62.5803
internal_count=1565 881 732 617 77 540 260 104 280 143 61 137 117 115 149 74 156 66 684 587 119 68 51 468 76 46 82 392 46 346
is_linear=0
shrinkage=0.05


Tree=10
num_leaves=31
num_cat=0
split_feature=52 47 35 26 44 49 57 40 74 34 28 52 26 33 1 54 19 58 5 68 62 30 30 52 16 41 19 56 5 57
split_gain=23.4795 10.298 12.5931 12.1989 11.127 8.2262 7.8694 6.63574 6.53982 8.08301 6.2389 9.72231 9.96026 9.13648 6.23033 6.21887 6.02556 5.76906 5.30707 8.88783 6.58449 6.10838 7.25594 6.106 9.16171 5.76011 5.41586 5.25329 6.68834 4.92114
threshold=-0.58237066864967335 0.72808045148849498 -0.38274605572223658 -0.40106800198554987 0.86632910370826732 3.2253210544586186 0.12613535672426227 -1.2369408607482908 -1.2747827172279356 -0.18869227916002271 -0.23472392559051511 -1.2061896324157713 -0.45388084650039667 -0.19249989092350003 1.0000000180025095e-35 1.574939012527466 0.69240978360176098 -0.080532066524028764 0.88916689157485973 0.36412802338600164 -0.78200134634971608 -0.40343777835369105 0.64007371664047252 0.93408638238906871 0.29373039305210119 1.3933101296424868 0.49707293510437017 0.23075645416975024 -0.16192708164453504 -0.11879673227667807
decision_type=2 2 2 2 2 2 2 2 2 2 2 2 2 2 2 2 2 2 2 2 2 2 2 2 2 2 2 2 2 2
left_child=10 4 -3 -4 5 7 14 17 9 -9 11 -1 -13 -14 -5 27 18 -2 20 23 21 -10 -23 24 -20 26 -22 28 -6 -29
right_child=1 2 3 6 15 -7 -8 8 16 -11 -12 12 13 -15 -16 -17 -18 -19 19 -21 25 22 -24 -25 -26 -27 -28 29 -30 -31
leaf_value=-0.037118625332277999 -0.0090103330091027868 -0.013148001581954949 -0.0037843300664102582 0.07850920813295395 0.015452178515093876 0.048372185069628759 0.11586577684606288 -0.027383229966609884 -0.022140771779649741 0.060364134444856922 -0.042266538299793557 -0.036336596859759991 0.095312633736694241 0.0083839796162834771 -0.00027505060800457073 -0.019401904856961284 -0.032773752583252623 0.069098898714843537 0.056941237876108157 -0.020555539432000829 -0.027635984228628143 0.088423726318685725 -0.0055677810743324091 0.081462730729459823 -0.039705781544688366 0.036668189479687974 0.016819228550811499 0.060329989983210403 0.10825972401795876 -0.0060774476390301107
leaf_weight=18.366059735417366 3.8248036950826645 9.7109431773424166 6.5170868486166045 4.0351604223251289 3.5384087562561035 6.5659837573766699 6.5071667134761819 3.3884376138448715 4.3124947845935822 6.2211251407861692 30.901713520288467 6.2438812404871014 3.460695534944537 10.075202301144595 4.9887230843305588 3.8288378566503516 24.700410321354866 4.4258412420749647 4.1267491430044192 9.0761929899454099 51.901735544204719 3.677645429968825 3.460922434926033 4.685385450720787 3.7483998239040375 3.5996389985084525 7.1910412311553946 3.5094030052423504 4.6575021892786079 6.8962411582469896
leaf_count=110 22 56 38 23 20 37 37 20 25 36 184 37 20 59 29 22 145 25 24 53 304 21 20 27 22 21 42 20 26 40
internal_value=-0.000963686 0.00776151 0.0334017 0.0535851 0.00272573 -0.00242717 0.0764309 -0.00516808 -0.00802174 0.0297588 -0.0258741 -0.0118543 0.0122618 0.0356369 0.0392721 0.0346978 -0.0112553 0.0358296 -0.00542466 0.0158773 -0.0117696 0.0217776 0.0477698 0.041778 0.0116488 -0.0181429 -0.0220363 0.0462551 0.0742295 0.0196449
internal_weight=268.144 199.096 31.7591 22.0481 167.337 144.907 15.5311 138.341 130.09 9.60956 69.0476 38.1458 19.7798 13.5359 9.02388 22.4304 120.481 8.25064 95.7802 21.6367 74.1435 11.4511 7.13857 12.5605 7.87515 62.6924 59.0928 18.6016 8.19591 10.4056
internal_count=1565 1155 183 127 972 844 89 807 760 56 410 226 116 79 52 128 704 47 559 126 433 66 41 73 46 367 346 106 46 60
is_linear=0
shrinkage=0.05


Tree=11
num_leaves=31
num_cat=0
split_feature=64 47 54 54 14 65 16 22 55 38 23 34 33 16 11 40 70 4 7 31 57 68 38 26 11 55 28 29 14 17
split_gain=23.7628 11.4653 9.97002 9.5644 9.48747 9.46394 11.8402 8.50505 7.96375 7.91853 7.67348 7.14103 6.85299 5.97688 6.67901 9.40321 6.59379 5.69256 5.56162 7.03437 5.21065 5.04406 7.36742 5.01371 4.5951 4.11861 4.10821 3.98517 3.9051 3.61458
threshold=-1.0383758544921873 1.0000000180025095e-35 1.6963962912559511 -0.31639803946018213 -0.12860852852463719 0.21068435162305835 -0.27674613893032068 0.25042602419853216 0.13854651153087619 0.079713616520166411 0.42016289383172994 0.09157371893525125 0.90722456574440014 1.0000000180025095e-35 0.56398186087608349 0.13886287808418277 -0.060904351994395249 -0.39081309735774988 0.66693812608718883 0.20385424047708514 0.20613327622413638 -0.099187664687633501 -0.20045892894268033 -0.58591303229331959 1.0000000180025095e-35 0.84989607334136974 -1.1937310695648191 0.11682923138141633 -0.025781166739761826 -1.4581947922706602
decision_type=2 2 2 2 2 2 2 2 2 2 2 2 2 2 2 2 2 2 2 2 2 2 2 2 2 2 2 2 2 2
left_child=-1 5 3 4 11 26 9 23 -9 10 17 21 13 25 15 16 -15 -7 19 20 -6 -3 -23 27 -11 29 -2 -8 -12 -5
right_child=1 2 -4 12 18 6 7 8 -10 24 28 -13 -14 14 -16 -17 -18 -19 -20 -21 -22 22 -24 -25 -26 -27 -28 -29 -30 -31
leaf_value=-0.036788310592993 0.019220119114616005 -0.0051763547133418727 0.079937306212881948 0.016984374794793446 -0.029382988211750168 0.028791577040113238 -0.016402447623614699 -0.017656306397337476 0.071759570785142432 0.027840910056844775 0.051186886705725104 0.11201422278156913 0.046831731753504129 0.010545914425719534 -0.028097614052320252 -0.020480983140961584 0.084679012221959699 0.12334605744885037 -0.032434765487492759 0.060257441926987267 0.039379090174838288 0.0099471415143909166 0.097384788361885966 -0.021991850947653227 -0.032560501522174323 0.021652439682539742 -0.026888399630155348 0.049769071373647868 -0.01306647599834878 -0.034060522524211947
leaf_weight=33.822758615016937 4.7867482155561438 4.5188830643892315 5.5053745955228797 3.4817335903644588 6.2327487617731148 3.4260392338037491 3.4733930677175513 3.6455621868371946 5.1265204697847366 6.0296483933925611 3.4334056228399277 4.2263741791248313 6.7157046347856513 5.5865434557199514 5.9022149592638007 5.7394239157438269 6.4005723446607607 4.1776146441698092 4.7501060664653769 6.6858553737401953 3.4563200920820236 4.8053131103515625 4.4050015211105329 38.38384336233139 4.7041416764259338 4.5942591726779929 38.188029512763023 4.0098830461502075 4.3926522731781006 21.117797330021862
leaf_count=208 29 26 31 21 37 20 21 22 29 35 20 24 39 33 36 34 37 24 29 39 20 28 25 232 28 28 232 24 26 128
internal_value=0.0016992 0.00754688 0.019691 0.0155591 0.0344447 -0.00274494 0.00733441 -0.00597686 0.0365954 0.03433 0.0561507 0.0601919 0.00279845 -0.00356591 0.0147863 0.0298028 0.0536019 0.0890402 0.010829 0.0245236 -0.00346466 0.0377172 0.057208 -0.0147259 0.000850714 -0.0184175 -0.0214323 0.0207423 0.0177281 -0.0264546
internal_weight=261.724 227.902 104.124 98.6189 39.0806 123.777 80.8027 54.6392 8.77208 26.1635 15.4297 17.9556 59.5382 52.8225 23.6288 17.7265 11.9871 7.60365 21.125 16.3749 9.68907 13.7292 9.21031 45.8671 10.7338 29.1938 42.9748 7.48328 7.82606 24.5995
internal_count=1565 1357 615 584 228 742 481 328 51 153 90 103 356 317 140 104 70 44 125 96 57 79 53 277 63 177 261 45 46 149
is_linear=0
shrinkage=0.05


Tree=12
num_leaves=31
num_cat=0
split_feature=4 28 71 21 30 33 5 68 73 10 21 31 38 4 58 32 4 62 16 65 4 7 19 34 50 14 45 53 10 8
split_gain=12.5213 8.95639 6.96455 11.8041 8.41898 10.5392 8.0247 8.80698 8.43439 6.50728 7.47064 9.90847 6.98598 6.89004 6.8819 7.25876 5.20281 7.88334 5.03026 4.79105 10.6396 3.47756 3.23932 6.37222 3.14055 2.96734 2.90912 2.71819 2.47014 1.82913
threshold=-0.30981004238128657 1.6067373156547549 0.42059773206710821 -0.88582971692085255 0.025839249603450302 -0.61188635230064381 -1.6598328351974485 0.89186614751815807 1.0000000180025095e-35 -0.036813829094171517 0.61609628796577465 0.5387626886367799 -0.33178980648517603 0.56959605216979992 -1.0000000180025095e-35 0.1527434438467026 -1.0000799894332884 0.041142731904983527 0.75854903459548961 -0.11955925077199935 -0.70203524827957142 0.12590835243463519 -0.60751032829284657 -0.16066568344831464 0.668899565935135 0.22661326080560687 1.5560616850852969 -1.1634602546691892 0.032843719236552722 -0.62955716252326954
decision_type=2 2 2 2 2 2 2 2 2 2 2 2 2 2 2 2 2 2 2 2 2 2 2 2 2 2 2 2 2 2
left_child=2 9 4 -4 16 -6 -7 8 -8 22 13 12 -12 28 18 -16 17 21 -15 -10 -21 -1 23 -2 -18 -14 29 -5 -11 -24
right_child=1 -3 3 27 5 6 7 -9 19 10 11 -13 25 14 15 -17 24 -19 -20 20 -22 -23 26 -25 -26 -27 -28 -29 -30 -31
leaf_value=0.016205244254788639 0.056267188618839364 0.053502355327763332 0.071085873786083192 0.020160599230326731 -0.02399705324855874 -0.0079273365026800002 0.0019305232069140707 -0.0128780637164929 0.04084065057678371 0.0072690543107805042 0.12387419821263448 -0.033739514316460058 -0.016568934271629712 -0.033614863563322876 0.10393900792846203 -0.012641572543636629 -0.034434973938122108 -0.018979880682525964 0.033374778822559854 0.17704986145159654 0.036088428774466698 0.09512957472324568 -0.0026924155547634609 -0.026280269093473904 0.022460134646275279 0.053974759850559821 0.016127734041454272 -0.035159177241057084 -0.042410567179643005 -0.041176413518801407
leaf_weight=2.9617361500859278 2.3906902298331261 3.9843663796782485 2.810580454766753 1.9671494886279131 3.4016595259308842 2.8483058437705084 2.0531261265277871 1.9155726581811912 2.9877489209175128 2.7019753977656427 2.2144202664494514 2.8403818160295486 2.2879661768674833 6.9755176305770856 2.3122384995222083 1.9106336906552313 7.5232917293906194 4.4477760493755341 3.376795157790184 4.3569485172629365 2.613536171615114 2.8633023351430893 3.56111717224121 6.530190669000147 2.5963898822665215 1.9641132876276968 2.1685232371091834 12.897450841963286 13.518721513450144 32.520995244383812
leaf_count=30 25 39 28 20 35 29 21 20 30 29 22 30 24 74 24 21 79 46 36 41 27 27 38 69 26 20 23 136 145 351
internal_value=-0.000528587 -0.0120439 0.0174125 -0.00845641 0.0286154 0.0507123 0.0663595 0.0810658 0.0958862 -0.0156085 -0.000711938 0.0362981 0.0674604 -0.0126866 0.011907 0.058871 0.00540344 0.0291247 -0.0107486 0.113314 0.135356 0.0632546 -0.0279951 -0.000716754 -0.0191304 0.020089 -0.0341766 -0.0270289 -0.0341936 -0.0375533
internal_weight=149.503 91.2586 58.2446 17.6752 40.5694 20.1769 16.7752 13.9269 12.0114 87.2743 40.1028 9.30688 6.4665 30.7959 14.5752 4.22287 20.3925 10.2728 10.3523 9.95823 6.97048 5.82504 47.1715 8.92088 10.1197 4.25208 38.2506 14.8646 16.2207 36.0821
internal_count=1565 970 595 184 411 203 168 139 119 931 425 96 66 329 155 45 208 103 110 98 68 57 506 94 105 44 412 156 174 389
is_linear=0
shrinkage=0.05


Tree=13
num_leaves=31
num_cat=0
split_feature=35 55 50 28 6 5 14 4 69 69 28 6 70 25 55 6 57 21 56 29 70 60 52 55 34 16 20 41 31 3
split_gain=9.04716 11.5091 12.3492 7.82979 10.7317 8.90366 8.40443 7.06369 6.57172 8.9839 6.30998 5.93539 5.57265 5.21132 6.09124 6.08002 8.02613 5.2611 8.55294 6.21172 5.91063 5.33949 5.18948 5.02241 4.79073 4.60774 5.41392 4.43189 5.23257 4.93026
threshold=1.0000000180025095e-35 -0.30096757411956782 -1.2917112708091734 -0.27014406025409693 1.0352505445480349 0.19264613091945651 -1.0260109305381773 0.22194198518991473 0.62052258849143993 -0.1242055371403694 0.57193896174430858 0.71360778808593761 -0.69532549381256092 1.0000000180025095e-35 0.090905219316482558 1.6456314325332644 1.216971814632416 -0.21381158381700513 -0.17587721347808835 -1.2708940505981443 0.10459680110216142 1.0000000180025095e-35 -0.98609626293182362 0.49679011106491094 -0.13263908028602597 -0.67087277770042408 0.20147394388914111 0.29651333391666418 0.4157921969890595 -1.0000000180025095e-35
decision_type=2 2 2 2 2 2 2 2 2 2 2 2 2 2 2 2 2 2 2 2 2 2 2 2 2 2 2 2 2 2
left_child=12 2 -2 5 6 27 -5 -7 9 10 -8 25 -1 15 -15 16 17 18 21 -19 -20 -14 -4 -11 -13 -9 -27 28 29 -3
right_child=1 3 22 4 -6 7 8 11 -10 23 -12 24 13 14 -16 -17 -18 19 20 -21 -22 -23 -24 -25 -26 26 -28 -29 -30 -31
leaf_value=0.035529843120564918 0.060518347634286401 -0.035821539468556401 0.010026154113487732 -0.010683339716824296 -0.019757269486342845 0.0792515203881064 0.092134477044115065 -0.036724466194355362 0.097262694896226617 -0.027787501568390934 0.011040291931548466 0.079653952592119048 0.057465453669924241 -0.01944631095727628 0.047028439615224911 0.029035149899666921 0.02917977425714062 0.024396199871324797 -0.033970522120534939 -0.029877734185009577 0.020443769839629297 -0.0043932434068658342 -0.035002463415180249 0.039534652058102783 0.0097405589317337976 0.047479005842760019 -0.022773867110315003 -0.031225307008348066 0.040072939671278653 0.016539059620180048
leaf_weight=5.8814043849706641 3.8913118839263907 8.3860503286123294 7.8778208047151557 5.1100255250930777 6.8934727162122718 4.3282873481512096 7.3263816833496112 5.7980692684650448 7.0295140892267218 5.2997055798769015 3.7929900139570236 3.9335024654865265 6.3202775418758375 5.2494677603244764 7.0879693031311035 7.0451692193746558 8.2818985134363157 4.9213593900203696 18.777117550373081 77.356239020824432 5.9247568249702445 6.41250841319561 26.119504675269127 3.9475317746400833 5.5112292468547803 5.0350421965122205 4.1965037137269974 13.791555792093275 6.0498050451278678 7.7869957685470608
leaf_count=31 20 44 41 27 37 22 38 31 36 28 20 20 33 28 37 37 44 26 100 416 31 34 140 21 29 26 22 74 31 41
internal_value=-0.00022937 0.00882621 -0.0145087 0.017367 0.0346625 0.00648692 0.0464484 0.0267496 0.0571057 0.0393422 0.0676655 0.0147181 -0.00862874 -0.0106186 0.0194067 -0.0134842 -0.0160316 -0.0193752 -0.00369908 -0.0263774 -0.0206316 0.0282607 -0.0245801 0.00200502 0.0436963 -0.00508198 0.0164387 -0.0100031 0.00394492 -0.0111159
internal_weight=295.363 142.105 37.8886 104.217 39.3996 64.817 32.5061 28.8026 27.3961 20.3666 11.1194 24.4743 153.258 147.377 12.3374 135.039 127.994 119.712 37.4347 82.2776 24.7019 12.7328 33.9973 9.24724 9.44473 15.0296 9.23155 36.0144 22.2229 16.173
internal_count=1565 748 201 547 207 340 170 150 143 107 58 128 817 786 65 721 684 640 198 442 131 67 181 49 49 79 48 190 116 85
is_linear=0
shrinkage=0.05


Tree=14
num_leaves=31
num_cat=0
split_feature=9 38 74 6 21 58 28 32 33 35 53 58 42 5 7 43 57 50 34 58 32 68 9 8 50 30 69 70 10 68
split_gain=7.80029 9.44375 7.64593 7.50656 15.6851 7.92472 7.65571 8.18752 7.75043 7.94156 7.07879 6.88296 6.9004 6.48729 6.48376 8.49367 6.49132 6.46674 7.14137 5.59026 9.41938 6.65517 5.09932 7.48567 4.58281 4.52366 4.51562 4.50516 9.10204 4.12899
threshold=0.55546888709068309 0.99027433991432201 -0.019887701608240601 -1.5151324868202207 -0.12845247238874433 -0.1379575505852699 -0.2111106067895889 -0.10768564045429228 0.49911984801292425 -0.78056240081787098 0.97582590579986583 -0.38201586902141565 -0.42648407816886896 -0.37586359679698939 -0.17760754376649854 -0.30985888838768 0.20613327622413638 -0.26347973942756647 -0.076585881412029252 0.12045711278915407 0.14159814268350604 0.18434507399797442 -0.42383085191249842 -0.15379574149847028 -0.080489426851272569 0.89868426322937023 0.73272180557250988 -0.088487878441810594 0.088569760322570815 0.50345987081527721
decision_type=2 2 2 2 2 2 2 2 2 2 2 2 2 2 2 2 2 2 2 2 2 2 2 2 2 2 2 2 2 2
left_child=1 3 -3 4 -1 -6 11 8 17 -10 13 12 -5 -9 16 -16 -15 18 -8 -2 -21 -22 23 24 -13 -17 -24 28 -19 -12
right_child=19 2 -4 6 5 -7 7 10 9 -11 29 22 -14 14 15 25 -18 27 -20 20 21 -23 26 -25 -26 -27 -28 -29 -30 -31
leaf_value=-0.015340025285531862 -0.021754327900683594 -0.03718467964390916 0.012337303515379738 0.074852750672023044 0.012824292652209666 0.10613452232416268 0.052960682656291384 -0.031758392685091563 0.047915381508728733 -0.032370748553221126 0.054617530160135187 0.075348315369962865 -0.0024641285790180547 0.061716797595615047 0.044419470450097184 -0.035648991381419713 -0.012184209029502929 0.12105904435123627 -0.0318640502017669 -0.027344148405241527 0.083484497398563798 -0.001666675101133561 -0.031422758865415228 -0.015120707985863631 0.0011164007458236674 0.013674293871566762 0.022146126044411574 0.028866417494243235 0.019732050999023702 -0.0013261892076341071
leaf_weight=7.3537741452455547 52.901399210095406 20.591495081782341 11.571271747350691 3.7524093091487885 3.6865288466215143 6.5868525207042667 3.78580242395401 14.421784669160841 4.0206732004880905 6.9708935320377332 8.4191122055053693 3.7362243384122849 7.1920177638530713 7.3796364217996544 5.2561707347631446 15.013179674744615 4.1612783521413803 5.9416130632162112 4.2043970376253155 7.4349738955497733 4.1813149154186231 4.0498136132955551 31.512601584196091 15.583486557006834 3.7605721205472973 5.9240112751722327 3.7577572166919699 7.0922459512948981 3.9231679290533066 5.0039415359497061
leaf_count=40 287 114 63 20 20 34 20 79 21 38 45 20 39 39 28 82 23 31 23 41 22 22 171 85 20 32 20 38 21 27
internal_value=0.000534111 0.0051176 -0.0195333 0.00940589 0.0395756 0.0767585 0.00608029 0.0147679 0.033603 -0.00145572 0.00409613 -0.00667611 0.0280922 -0.0043978 0.00660917 -0.00729137 0.0362237 0.0485104 0.00974686 -0.014074 0.0116101 0.045947 -0.0135608 0.00462732 0.0426256 -0.0217062 -0.0252622 0.0652159 0.086287 0.0351164
internal_weight=289.17 220.603 32.1628 188.44 17.6272 10.2734 170.813 101.518 35.9388 10.9916 65.5791 69.2951 10.9444 52.1561 37.7343 26.1934 11.5409 24.9472 7.9902 68.5675 15.6661 8.23113 58.3506 23.0803 7.4968 20.9372 35.2704 16.957 9.86478 13.4231
internal_count=1565 1193 177 1016 94 54 922 547 192 59 355 375 59 283 204 142 62 133 43 372 85 44 316 125 40 114 191 90 52 72
is_linear=0
shrinkage=0.05


Tree=15
num_leaves=31
num_cat=0
split_feature=40 61 22 42 71 66 40 42 44 44 74 68 6 44 68 31 46 30 68 66 8 53 66 26 40 40 66 71 21 20
split_gain=14.1052 8.39448 7.02049 8.10755 9.43267 8.06447 10.791 6.94144 6.70188 6.41509 6.9637 7.22273 13.1489 10.0601 7.64596 7.53316 6.39937 6.2836 10.7164 6.25803 6.66204 5.57074 5.44586 6.01247 6.04071 5.27193 6.12048 4.9892 4.69141 4.32935
threshold=-1.1317635774612425 1.0000000180025095e-35 -0.16759281605482099 -0.81924679875373829 -0.41267585754394526 -0.60542288422584523 0.37152789533138281 -0.65866827964782704 -0.031699389219284051 0.7316434681415559 -0.88418626785278309 -0.76363566517829884 0.30970348417758947 1.0000000180025095e-35 0.39821186661720281 0.13538214564323428 -0.37070029973983759 -1.0479030013084409 0.33378958702087408 1.470258414745331 0.94800660014152538 -0.13286320865154264 -0.15748252719640729 0.074247661978006377 -0.033245425671339028 0.3499258160591126 0.080322224646806731 0.21227926015853885 0.22778629511594775 0.21672492474317553
decision_type=2 2 2 2 2 2 2 2 2 2 2 2 2 2 2 2 2 2 2 2 2 2 2 2 2 2 2 2 2 2
left_child=17 -2 5 29 -5 6 28 -6 -8 10 -9 12 -12 16 25 -16 -13 18 -1 20 -7 -11 -18 24 -24 26 -15 -27 -3 -4
right_child=1 2 3 4 7 19 8 9 -10 21 11 13 -14 14 15 -17 22 -19 -20 -21 -22 -23 23 -25 -26 27 -28 -29 -30 -31
leaf_value=0.05804254409496698 -0.037622826205092941 -0.03674230359324334 0.0059116836416225442 -0.018304462308222396 0.080931330230568463 -0.0252050396253948 0.011282147802710855 -0.010792933394104242 0.10358742380575028 0.029718960223271848 0.00095272443998899734 0.053522199906329372 0.12221618041809662 0.0017541509631722888 0.022134701285715236 0.092353996523538803 -0.039634861031958839 -0.036311511791389812 -0.041297530097736346 0.02937835641123962 0.030747245198817809 -0.0236148302959386 -0.018949119283703166 -0.02353631932082801 0.053762276278319289 0.028684542744332936 0.071395796575586562 -0.035743318546255058 0.026342965574500367 -0.03752737673622078
leaf_weight=4.5065103620290738 10.526975408196448 5.9950076192617434 11.270553648471834 15.699703216552733 3.9143140017986289 50.960100263357162 3.7793057411909103 11.356327936053274 3.8300102502107611 6.3858795613050487 3.8137641251087171 4.2506731748580959 4.4565235078334808 5.630327984690668 7.1747841835021999 9.747035399079321 7.6721734404563966 34.001575708389282 4.3893780708312988 6.4410826265811911 5.0781922936439505 13.630611807107924 3.6670869290828758 8.0414426773786527 7.538048282265656 4.6271389424800855 6.3285593688488007 5.4892145991325378 4.1735994219779968 10.207772508263586
leaf_count=25 60 33 62 86 21 281 20 62 20 34 21 23 23 31 39 51 42 195 25 35 27 76 20 44 40 25 34 30 23 57
internal_value=-0.000662677 0.00405737 0.00610936 0.0124355 0.0171521 -0.00579194 0.0230869 0.0221638 0.0643778 0.0193575 0.0250129 0.0302676 0.0724316 0.0243499 0.0409481 0.0654776 0.00295599 -0.0267422 0.00980648 -0.0142434 -0.0196845 -0.00599523 -0.00665986 0.00779319 0.0303633 0.0201222 0.0412735 -0.00634508 -0.0108093 -0.0154842
internal_weight=284.584 241.686 231.159 150.902 129.424 80.2573 17.7779 113.724 7.60932 109.81 89.7931 78.4368 8.27029 70.1665 38.9971 16.9218 31.1694 42.8975 8.89589 62.4794 56.0383 20.0165 26.9188 19.2466 11.2051 22.0752 11.9589 10.1164 10.1686 21.4783
internal_count=1565 1320 1260 821 702 439 96 616 40 595 485 423 44 379 210 90 169 245 50 343 308 110 146 104 60 120 65 55 56 119
is_linear=0
shrinkage=0.05


Tree=16
num_leaves=31
num_cat=0
split_feature=53 42 19 69 6 38 58 26 43 67 53 34 43 53 62 8 4 30 10 64 20 54 26 14 26 33 16 41 41 28
split_gain=26.2275 10.4555 6.74907 10.2833 9.80532 8.48291 7.67279 6.7249 9.23966 6.5923 6.17631 6.86116 6.95981 9.97604 7.77574 7.74013 6.82353 6.31282 6.05506 5.67639 5.52581 5.4746 5.40759 7.04802 5.29799 5.21305 4.93719 4.98646 4.33312 4.51044
threshold=-0.71301311254501332 -0.16010004281997678 0.16081455349922183 0.74742034077644359 0.055240938439965255 1.0252959132194521 0.063031638041138663 0.22388406842947009 0.18999795615673068 0.4053614884614945 1.0009558796882632 -0.49698489904403681 0.69546097517013561 0.066825103014707579 -0.62076693773269642 0.20739602297544482 0.58936229348182689 0.068986758589744582 -0.12040288746356963 -1.0667101144790647 -0.40000425279140467 0.24361120164394381 -0.65633016824722279 0.35748443007469183 0.030236951075494293 -1.0597223639488218 -1.0391551256179807 1.2120087146759035 0.78527697920799266 0.5536576807498933
decision_type=2 2 2 2 2 2 2 2 2 2 2 2 2 2 2 2 2 2 2 2 2 2 2 2 2 2 2 2 2 2
left_child=19 2 3 4 9 7 24 -4 -9 18 11 -3 14 -14 16 -15 17 -13 -2 -1 -12 -20 -22 28 -6 -16 -27 -28 29 -24
right_child=1 10 5 -5 6 -7 -8 8 -10 -11 20 12 13 15 25 -17 -18 -19 21 -21 22 -23 23 -25 -26 26 27 -29 -30 -31
leaf_value=0.0096438898042165537 0.072625012582743786 -0.045508794340847578 -0.021505653192919156 -0.027080221361047197 0.12670701715504928 0.055233195371771231 0.013154761044849967 -0.013873866674259022 0.067306922028987262 -0.015916410464223939 -0.022432779136291402 0.0050765660069683957 -0.028614305733080672 0.0058722812522210184 0.021594358957420789 0.079605049250884768 -0.027860183220186109 0.090103463419564878 0.04125668429883339 -0.038881082146922624 -0.020821891204531227 -0.030095945100929906 0.026437475963565604 -0.0072015643903571821 0.046367267259446905 0.019561499725665718 -0.034041525541948024 0.012309841660664032 0.02136887356189944 0.10966221934117829
leaf_weight=6.5329653024673453 6.2825682759284964 9.8927477151155454 21.475790768861771 5.396345689892768 5.4673789739608747 6.0688374191522589 4.4998012185096732 7.2117398083209974 5.3485963493585587 7.7079696506261817 6.1675066500902203 4.3881493210792524 5.9390061050653484 6.9725771844387037 6.6496568918228141 6.6573513299226761 3.4444127976894379 3.6097953617572784 4.9760342389345187 44.90264156460762 4.0944502353668275 3.9439079463481903 3.5384300351142866 5.9221635460853568 5.6890378296375275 5.4154437184333792 42.433082297444344 6.1788955479860297 6.6414362639188766 4.2959950566291809
leaf_count=39 35 59 125 31 30 34 26 42 30 45 36 25 35 40 39 37 20 20 28 275 24 23 20 34 32 31 252 36 38 24
internal_value=-0.000915291 0.00674669 0.020422 0.0337345 0.0427132 0.00536319 0.072163 -0.00485158 0.0231097 0.0204118 -0.00203497 -0.00797878 -0.00348217 0.0222581 -0.0106754 0.0448656 0.0256294 0.0492014 0.0386765 -0.0326514 0.0172878 0.00985487 0.0277775 0.0380499 0.0929233 -0.0178263 -0.0229824 -0.0280206 0.0558317 0.079321
internal_weight=267.745 216.309 84.068 43.963 38.5667 40.105 15.6562 34.0361 12.5603 22.9105 132.241 101.581 91.6884 19.5689 72.1194 13.6299 11.4424 7.99794 15.2025 51.4356 30.66 8.91994 24.4925 20.398 11.1564 60.6771 54.0274 48.612 14.4759 7.83443
internal_count=1565 1251 481 250 219 231 88 197 72 131 770 594 535 112 423 77 65 45 86 314 176 51 140 116 62 358 319 288 82 44
is_linear=0
shrinkage=0.05


Tree=17
num_leaves=31
num_cat=0
split_feature=65 47 10 66 34 65 17 38 10 46 34 53 68 44 32 45 5 33 4 38 67 45 10 34 29 29 54 65 53 71
split_gain=22.4035 11.188 9.53655 11.3027 9.47903 8.84308 12.1473 8.29706 8.08286 7.73719 8.36585 7.73014 7.2307 7.26168 7.89594 8.49506 8.13151 9.18576 6.64364 6.35339 5.34567 4.88832 4.5735 5.40541 4.55301 8.1634 4.48424 4.74503 4.36495 4.26662
threshold=-0.88185951113700856 1.0000000180025095e-35 -0.44082763791084284 0.34928579628467565 0.09157371893525125 0.24021255970001223 0.44705542922019964 -0.84835794568061818 -0.16219743341207501 0.23485274612903598 0.21769341081380847 0.3456863015890122 -0.31867274641990656 -0.28353524208068842 -0.025953212752938267 -0.58543661236762989 0.63033911585807811 -0.057118978351354592 0.63277071714401256 0.053447443991899497 0.26926039159297949 -0.045389443635940545 0.22788486629724505 -0.17467898875474927 -0.37609814107418055 -0.97990894317626942 1.5211322307586672 0.044853812083601959 0.94718325138092052 0.21227926015853885
decision_type=2 2 2 2 2 2 2 2 2 2 2 2 2 2 2 2 2 2 2 2 2 2 2 2 2 2 2 2 2 2
left_child=-1 2 3 -2 11 -4 7 -7 19 10 20 12 -3 -14 -15 -16 17 -17 -5 -6 -9 -22 -8 -24 25 -10 27 28 -13 -19
right_child=1 4 5 18 8 6 22 9 24 -11 -12 26 13 14 15 16 -18 29 -20 -21 21 -23 23 -25 -26 -27 -28 -29 -30 -31
leaf_value=-0.034576767490251688 -0.027830931335356791 -0.012556189876021152 -0.025988099298308649 0.11371276566609829 0.015371466160355597 0.071777956966029718 -0.02802796572925156 -0.028344033043121733 -0.0089929697316378249 0.072451106527317399 0.057535558643685661 0.033685740773297501 0.075690152948936579 -0.016386170507094924 -0.021516634741982107 0.0085153431213223912 -0.0085966448757252463 0.13411801967881629 0.016540755416623549 0.10024051388710031 -0.021422088014767894 0.04330938388480194 -0.027442629049176638 0.048623049877647206 -0.0046792435342266478 0.083452174555399952 0.030719754889145037 -0.036802324299976617 -0.029188021473998405 0.044268788570801298
leaf_weight=35.785810723900795 3.5066135078668577 10.960790559649466 39.141453951597214 3.5742565840482712 3.5698878318071383 5.9442596286535254 26.344627633690834 14.945413053035741 3.8602828532457352 3.4731791019439688 4.5495050847530356 5.5589736700058037 6.9235816895961753 9.3319027423858625 4.2304487228393581 4.0985838472843161 3.7853295505046836 4.1350990682840374 3.5046126395463943 7.2733161300420761 4.2173718959093094 5.9456357508897764 3.4527260214090347 4.0590203404426566 8.8594041466712934 4.5900283753871935 4.5098807364702216 14.134138241410254 3.8082554787397385 3.7340023964643478
leaf_count=224 21 65 242 21 21 34 159 88 23 20 26 33 40 55 25 24 22 23 21 41 25 35 21 24 52 26 25 85 23 21
internal_value=0.00162771 0.00748697 -0.00273069 0.0405022 0.0195219 -0.00713619 0.00319604 0.0219315 0.0437769 0.0111472 0.00183903 0.00998754 0.0221634 0.0327198 0.0204093 0.0375541 0.0537549 0.0726185 0.073607 0.0759564 -0.0100701 0.0169349 -0.0184363 0.0145435 0.0205714 0.0447384 -0.0105859 -0.0194426 0.00777454 0.101282
internal_weight=261.808 226.023 122.659 10.5855 103.364 112.073 72.9317 39.0754 28.1529 33.1311 29.6579 75.211 47.1997 36.2389 29.3154 19.9835 15.753 11.9677 7.07887 10.8432 25.1084 10.163 33.8564 7.51175 17.3097 8.45031 28.0112 23.5014 9.36723 7.8691
internal_count=1565 1341 737 63 604 674 432 228 163 194 174 441 275 210 170 115 90 68 42 62 148 60 204 45 101 49 166 141 56 44
is_linear=0
shrinkage=0.05


end of trees

feature_importances:
Column_38=20
Column_53=17
Column_10=16
Column_34=16
Column_55=15
Column_62=15
Column_4=14
Column_26=14
Column_57=14
Column_30=13
Column_41=13
Column_58=13
Column_5=12
Column_21=12
Column_66=12
Column_68=12
Column_14=11
Column_16=11
Column_29=11
Column_32=11
Column_33=11
Column_65=11
Column_28=10
Column_45=10
Column_46=10
Column_52=10
Column_69=10
Column_74=10
Column_17=9
Column_20=9
Column_22=9
Column_40=9
Column_44=9
Column_47=9
Column_54=9
Column_6=8
Column_9=8
Column_31=8
Column_7=7
Column_8=7
Column_50=7
Column_64=7
Column_71=7
Column_19=6
Column_42=6
Column_43=6
Column_70=6
Column_11=5
Column_23=5
Column_35=4
Column_59=4
Column_18=3
Column_56=3
Column_1=2
Column_2=2
Column_3=2
Column_49=2
Column_61=2
Column_67=2
Column_25=1
Column_48=1
Column_60=1
Column_73=1

parameters:
[boosting: gbdt]
[objective: multiclass]
[metric: multi_logloss]
[tree_learner: serial]
[device_type: cpu]
[data_sample_strategy: bagging]
[data: ]
[valid: ]
[num_iterations: 500]
[learning_rate: 0.05]
[num_leaves: 31]
[num_threads: 0]
[seed: 42]
[deterministic: 0]
[force_col_wise: 0]
[force_row_wise: 0]
[histogram_pool_size: -1]
[max_depth: -1]
[min_data_in_leaf: 20]
[min_sum_hessian_in_leaf: 0.001]
[bagging_fraction: 0.8]
[pos_bagging_fraction: 1]
[neg_bagging_fraction: 1]
[bagging_freq: 5]
[bagging_seed: 400]
[bagging_by_query: 0]
[feature_fraction: 0.8]
[feature_fraction_bynode: 1]
[feature_fraction_seed: 30056]
[extra_trees: 0]
[extra_seed: 12879]
[early_stopping_round: 0]
[early_stopping_min_delta: 0]
[first_metric_only: 0]
[max_delta_step: 0]
[lambda_l1: 0]
[lambda_l2: 1]
[linear_lambda: 0]
[min_gain_to_split: 0]
[drop_rate: 0.1]
[max_drop: 50]
[skip_drop: 0.5]
[xgboost_dart_mode: 0]
[uniform_drop: 0]
[drop_seed: 17869]
[top_rate: 0.2]
[other_rate: 0.1]
[min_data_per_group: 100]
[max_cat_threshold: 32]
[cat_l2: 10]
[cat_smooth: 10]
[max_cat_to_onehot: 4]
[top_k: 20]
[monotone_constraints: ]
[monotone_constraints_method: basic]
[monotone_penalty: 0]
[feature_contri: ]
[forcedsplits_filename: ]
[refit_decay_rate: 0.9]
[cegb_tradeoff: 1]
[cegb_penalty_split: 0]
[cegb_penalty_feature_lazy: ]
[cegb_penalty_feature_coupled: ]
[path_smooth: 0]
[interaction_constraints: ]
[verbosity: -1]
[saved_feature_importance_type: 0]
[use_quantized_grad: 0]
[num_grad_quant_bins: 4]
[quant_train_renew_leaf: 0]
[stochastic_rounding: 1]
[linear_tree: 0]
[max_bin: 255]
[max_bin_by_feature: ]
[min_data_in_bin: 3]
[bin_construct_sample_cnt: 200000]
[data_random_seed: 175]
[is_enable_sparse: 1]
[enable_bundle: 1]
[use_missing: 1]
[zero_as_missing: 0]
[feature_pre_filter: 1]
[pre_partition: 0]
[two_round: 0]
[header: 0]
[label_column: ]
[weight_column: ]
[group_column: ]
[ignore_column: ]
[categorical_feature: ]
[forcedbins_filename: ]
[precise_float_parser: 0]
[parser_config_file: ]
[objective_seed: 16083]
[num_class: 6]
[is_unbalance: 0]
[scale_pos_weight: 1]
[sigmoid: 1]
[boost_from_average: 1]
[reg_sqrt: 0]
[alpha: 0.9]
[fair_c: 1]
[poisson_max_delta_step: 0.7]
[tweedie_variance_power: 1.5]
[lambdarank_truncation_level: 30]
[lambdarank_norm: 1]
[label_gain: ]
[lambdarank_position_bias_regularization: 0]
[eval_at: ]
[multi_error_top_k: 1]
[auc_mu_weights: ]
[num_machines: 1]
[local_listen_port: 12400]
[time_out: 120]
[machine_list_filename: ]
[machines: ]
[gpu_platform_id: -1]
[gpu_device_id: -1]
[gpu_use_dp: 0]
[num_gpu: 1]

end of parameters

pandas_categorical:null
