tree
version=v4
num_class=6
num_tree_per_iteration=6
label_index=0
max_feature_idx=75
objective=multiclass num_class:6
feature_names=Column_0 Column_1 Column_2 Column_3 Column_4 Column_5 Column_6 Column_7 Column_8 Column_9 Column_10 Column_11 Column_12 Column_13 Column_14 Column_15 Column_16 Column_17 Column_18 Column_19 Column_20 Column_21 Column_22 Column_23 Column_24 Column_25 Column_26 Column_27 Column_28 Column_29 Column_30 Column_31 Column_32 Column_33 Column_34 Column_35 Column_36 Column_37 Column_38 Column_39 Column_40 Column_41 Column_42 Column_43 Column_44 Column_45 Column_46 Column_47 Column_48 Column_49 Column_50 Column_51 Column_52 Column_53 Column_54 Column_55 Column_56 Column_57 Column_58 Column_59 Column_60 Column_61 Column_62 Column_63 Column_64 Column_65 Column_66 Column_67 Column_68 Column_69 Column_70 Column_71 Column_72 Column_73 Column_74 Column_75
feature_infos=none [-1.5447756052017212:3.5535275936126709] [-1.3920965194702148:1.4269504547119141] [-1.4503970146179199:1.6017783880233765] [-2.8588864803314209:2.4446806907653809] [-3.8107707500457764:1.9711242914199829] [-1.8694056272506714:3.0662887096405029] [-3.0407893657684326:3.3706927299499512] [-2.9670743942260742:2.7703325748443604] [-1.9536185264587402:2.7073769569396973] [-1.1861633062362671:9.8336610794067383] [-6.7631840705871582:4.1228904724121094] [-0.80819958448410034:10.798158645629883] none [-4.2463769912719727:5.4006986618041992] [-0.23276343941688538:4.2962074279785156] [-2.5920979976654053:2.6087019443511963] [-3.4441332817077637:2.0984742641448975] [-1.713068962097168:3.2395882606506348] [-3.0320124626159668:3.3834071159362793] [-2.9554500579833984:2.8026721477508545] [-1.9678677320480347:2.7194836139678955] [-1.5874154567718506:10.189184188842773] [-6.5892024040222168:3.8247110843658447] [-0.75531834363937378:9.8977041244506836] [-3.1124308109283447:11.595115661621094] [-4.6481013298034668:4.7965970039367676] [-0.24568614363670349:4.0702338218688965] [-2.5812065601348877:2.630490779876709] [-3.4277455806732178:2.1117236614227295] [-1.70088791847229:3.245966911315918] [-3.0380957126617432:3.3871138095855713] [-2.9542021751403809:2.7967865467071533] [-1.9504896402359009:2.7093603610992432] [-1.6530822515487671:10.019996643066406] [-6.5489006042480469:3.7943258285522461] [-0.76924508810043335:9.4855546951293945] [-5.6820244789123535:8.1827287673950195] [-4.0309429168701172:4.8995571136474609] [-0.24588385224342346:4.0669612884521484] [-2.3188149929046631:2.5143821239471436] [-2.9636096954345703:1.9767696857452393] [-1.5919474363327026:3.1233429908752441] [-3.0455248355865479:2.7537505626678467] [-2.966055154800415:2.8093836307525635] [-1.957195520401001:2.7153429985046387] [-1.6592609882354736:9.9166603088378906] [-5.8774509429931641:3.4059979915618896] [-0.77272367477416992:8.7187070846557617] [-6.8339405059814453:4.3430166244506836] [-4.0060677528381348:5.1173076629638672] [-0.24476191401481628:4.0856027603149414] [-2.0842430591583252:2.4515373706817627] [-2.5718169212341309:1.8829351663589478] [-1.4897009134292603:3.2118690013885498] [-3.0398736000061035:3.4029080867767334] [-2.9574613571166992:2.8121914863586426] [-1.9691200256347656:2.722118616104126] [-1.6381983757019043:10.062243461608887] [-4.3305425643920898:2.6419596672058105] [-0.72457098960876465:8.1155157089233398] [-5.9416069984436035:2.0054905414581299] [-4.6728420257568359:4.5684347152709961] [-0.23882177472114563:4.1872224807739258] [-1.8474061489105225:2.2773215770721436] [-2.1733055114746094:1.7211114168167114] [-1.3824012279510498:3.104480504989624] [-3.0511353015899658:3.4225804805755615] [-2.9689733982086182:2.8080530166625977] [-1.9551589488983154:2.6993920803070068] [-1.584894061088562:9.8346853256225586] [-3.2249736785888672:2.1913034915924072] [-0.70773530006408691:6.7965569496154785] [-7.574409008026123:0.30111774802207947] [-4.3455362319946289:4.3306922912597656] [-0.24263916909694672:4.1213459968566895]
tree_sizes=3298 3312 3328 3300 3317 3297 3423 3419 3396 3416 3414 3410 3396 3421 3420 3420 3423 3407

Tree=0
num_leaves=31
num_cat=0
split_feature=5 22 29 41 14 4 18 26 65 9 26 45 8 68 17 4 41 14 33 9 38 46 17 58 62 6 64 33 9 64
split_gain=27.4287 14.052 19.7626 9.67755 9.76678 14.7381 17.4632 15.6044 6.63457 9.11992 5.74634 7.23117 4.99458 5.09387 4.2977 3.65136 3.46937 2.64184 2.46403 2.38483 2.52788 2.13867 5.39865 2.02553 1.99779 1.88505 4.29632 1.56866 1.15222 0.945314
threshold=-0.93209829926490773 -0.29732282459735865 -0.72218894958496083 -0.47633869946002955 -0.13795647025108335 0.21302764862775805 -0.89588055014610279 -0.066586613655090318 -1.112179636955261 -0.26437564194202418 -0.45388084650039667 0.23938944190740588 1.4535264372825625 -0.0062996638007462016 -0.14062367379665372 1.0777059793472292 0.86259219050407421 -1.119490325450897 0.38581204414367681 1.1977049708366396 -2.4724831581115718 -0.52560922503471363 0.61650070548057567 0.5511482059955598 0.49090182781219488 -1.3958531618118284 0.33161012828350073 -0.75315341353416432 0.51082146167755138 -0.83792689442634571
decision_type=2 2 2 2 2 2 2 2 2 2 2 2 2 2 2 2 2 2 2 2 2 2 2 2 2 2 2 2 2 2
left_child=1 -1 -3 4 10 6 -6 14 9 -5 11 -2 19 -14 -8 28 24 -12 -4 20 -10 22 -22 25 -11 26 -23 -27 -7 -29
right_child=3 2 18 8 5 15 7 -9 12 16 17 -13 13 -15 -16 -17 -18 -19 -20 -21 21 23 -24 -25 -26 27 -28 29 -30 -31
leaf_value=-2.3223587501691823 -2.479263742694636 -2.3414556812850966 -2.4892927589829501 -2.3842904178525419 -2.4792637426946365 -2.4958256018400293 -2.3836420965834328 -2.273037464255149 -2.4357535896161377 -2.4971079170104731 -2.4452833816771959 -2.3746903468623479 -2.4878650826488427 -2.3974671909933876 -2.4725285117470741 -2.4183830919385692 -2.4262746370717978 -2.4994265278264578 -2.4377492363377935 -2.4357535896161377 -2.4943018185259751 -2.4222680833333121 -2.4153510771800741 -2.448386521218064 -2.448386521218064 -2.4608928914866217 -2.4943018185259751 -2.4646039332340641 -2.4531240872937059 -2.4976161977515678
leaf_weight=3.6629651337862006 2.9115876704454449 3.287276402115821 5.6353309750556928 3.5690429508686075 2.9115876704454422 4.7900313287973386 1.8784436583518984 3.0994320362806338 1.8784436583518971 5.917097523808474 2.3480545729398736 2.066288024187088 1.878443658351898 2.7237433046102515 2.066288024187088 1.878443658351898 2.8176654875278482 9.6739848405122721 2.7237433046102524 1.8784436583518971 3.8508094996213833 2.6298211216926495 2.9115876704454422 2.5358989387750617 2.5358989387750626 3.5690429508685986 3.8508094996213913 2.7237433046102444 1.878443658351898 47.618546739220648
leaf_count=39 31 35 60 38 31 51 20 33 20 63 25 22 20 29 22 20 30 103 29 20 41 28 31 27 27 38 41 29 20 507
internal_value=-2.45777 -2.39667 -2.42893 -2.46547 -2.44355 -2.41932 -2.38088 -2.34264 -2.47392 -2.444 -2.47061 -2.42916 -2.47972 -2.43309 -2.4237 -2.4675 -2.46738 -2.48868 -2.47211 -2.48293 -2.48446 -2.48608 -2.45918 -2.4889 -2.48301 -2.49074 -2.46418 -2.49376 -2.48471 -2.49599
internal_weight=143.701 15.3093 11.6464 128.392 35.5026 18.5027 9.95575 7.04416 92.889 14.8397 16.9999 4.97788 78.0493 4.60219 3.94473 8.54692 11.2707 12.022 8.35907 73.4471 71.5687 69.6903 6.7624 62.9279 8.453 60.392 6.48063 53.9113 6.66847 50.3423
internal_count=1530 163 124 1367 378 197 106 75 989 158 181 53 831 49 42 91 120 128 89 782 762 742 72 670 90 643 69 574 71 536
is_linear=0
shrinkage=1


Tree=1
num_leaves=31
num_cat=0
split_feature=50 5 41 17 6 72 28 45 41 20 42 32 29 21 33 45 33 31 33 62 28 52 26 20 18 50 70 45 38 68
split_gain=12.4454 11.6184 11.1077 10.0893 9.96005 9.21071 9.17752 10.2777 13.008 8.64809 8.05035 12.811 7.15063 8.02572 7.75777 8.17121 9.42788 7.69371 5.60442 5.43974 6.00314 5.9798 5.11162 6.59136 4.90373 4.09182 3.96482 3.82499 3.76443 3.59629
threshold=-2.7164214849472041 1.0964398980140688 -1.2452949881553648 -0.65366613864898671 0.26994369924068456 1.0000000180025095e-35 1.2403494715690615 0.072653617709875121 0.77928367257118236 -0.29027257859706873 0.58107271790504467 0.045748401433229453 0.4820727556943894 -0.23749502003192899 0.81451833248138439 -0.10736207291483878 0.073847331106662764 -1.011411130428314 0.27103258669376379 0.62243515253067028 -1.1883989572525022 -0.60756206512451161 0.32070763409137731 0.6359369456768037 1.386744022369385 -0.17634149640798566 -0.033320827409625046 0.12921600043773654 -0.67325010895729054 0.3723681122064591
decision_type=2 2 2 2 2 2 2 2 2 2 2 2 2 2 2 2 2 2 2 2 2 2 2 2 2 2 2 2 2 2
left_child=-1 2 5 -3 -5 9 12 -8 -9 -2 11 -6 13 14 15 -4 -17 -15 -7 24 -21 25 -14 -24 29 -22 27 -11 -23 -19
right_child=1 3 6 4 10 18 7 8 -10 26 -12 -13 22 17 -16 16 -18 19 -20 20 21 28 23 -25 -26 -27 -28 -29 -30 -31
leaf_value=-1.5048462723650118 -1.5154420141584892 -1.5904789767093213 -1.6019854431494469 -1.4825259022835546 -1.5732706734494484 -1.5462812448646375 -1.5905585408888039 -1.5596656779321729 -1.4562605868302456 -1.5303510350249447 -1.5815631522947564 -1.4831336310200061 -1.6051713422314435 -1.5353131458166631 -1.5084173976482556 -1.5109475012115976 -1.5786418189906766 -1.5857912421465548 -1.4717150556777054 -1.611450591139032 -1.5606105685520835 -1.5404375462006579 -1.5888205791098282 -1.5241562137153397 -1.5491896891073773 -1.4900049903220933 -1.6093254904212253 -1.5920518406004338 -1.5960912593155476 -1.6096209526907148
leaf_weight=6.727096199989318 5.1442500352859541 8.7056539058685285 9.2992212176322955 6.9249519705772427 7.3206635117530841 6.3313846588134748 7.1228077411651638 7.9142308235168439 4.154971182346344 3.9571154117584246 10.288500070571898 7.3206635117530823 38.581875264644623 7.7163750529289237 6.5292404294013968 8.5077981352806109 10.68421161174774 50.651077270507812 4.3528269529342651 4.1549711823463467 3.9571154117584229 3.9571154117584264 15.828461647033693 4.1549711823463431 5.9356731176376334 3.9571154117584273 7.3206635117530796 4.154971182346344 6.9249519705772329 24.138404011726379
leaf_count=34 26 44 47 35 37 32 36 40 21 20 52 37 195 39 33 43 54 256 22 21 20 20 80 21 30 20 37 21 35 122
internal_value=-1.56749 -1.56912 -1.5731 -1.5446 -1.53179 -1.54564 -1.57701 -1.54477 -1.51816 -1.56592 -1.54828 -1.52559 -1.58014 -1.57416 -1.55357 -1.56562 -1.54724 -1.58071 -1.51017 -1.58438 -1.5631 -1.55081 -1.59475 -1.57388 -1.59043 -1.5204 -1.58499 -1.56101 -1.57515 -1.59392
internal_weight=302.719 295.992 255.432 40.5604 31.8548 31.2612 224.171 19.192 12.0692 20.577 24.9298 14.6413 204.979 146.413 35.0205 28.4912 19.192 111.393 10.6842 103.676 22.9513 18.7963 58.5653 19.9834 80.7252 7.91423 15.4328 8.11209 10.8821 74.7895
internal_count=1530 1496 1291 205 161 158 1133 97 61 104 126 74 1036 740 177 144 97 563 54 524 116 95 296 101 408 40 78 41 55 378
is_linear=0
shrinkage=1


Tree=2
num_leaves=31
num_cat=0
split_feature=10 38 74 62 69 30 50 52 8 54 30 40 67 57 65 20 22 52 68 70 72 10 10 40 68 16 5 74 22 20
split_gain=10.3893 9.66893 8.87759 8.59122 12.8547 8.30331 11.8131 7.68418 8.82457 6.10339 13.1332 9.06869 7.54067 7.23197 6.86624 6.55089 6.59429 6.38971 6.4893 6.31144 6.9553 5.91089 13.3583 5.81987 5.49466 4.81766 6.03611 4.70244 7.28339 4.48509
threshold=0.21395335346460345 0.92898660898208629 -1.2623168826103208 -0.67168307304382313 -0.35056374967098231 1.4755424261093142 -0.24605209380388257 0.14751745015382769 0.11068148910999299 1.0911998152732851 0.85773527622222911 -0.55452802777290333 0.54521700739860546 -0.049662610515952103 0.66589120030403148 1.0703998804092409 0.16393937915563586 0.71067824959754955 0.49297258257865911 -0.30915607511997217 -1.0000000180025095e-35 -0.078608360141515718 -0.16219743341207501 -0.46316190063953394 -0.27485056221485132 0.05467005446553231 0.94177421927452099 -0.25258346647024149 -0.095520600676536546 0.1735760644078255
decision_type=2 2 2 2 2 2 2 2 2 2 2 2 2 2 2 2 2 2 2 2 2 2 2 2 2 2 2 2 2 2
left_child=1 3 -2 4 -1 9 -7 8 -6 12 11 -11 13 15 -13 16 23 18 21 20 -14 22 27 -5 -23 -4 -27 28 -15 -3
right_child=2 29 25 5 7 6 -8 -9 -10 10 -12 14 19 17 -16 -17 -18 -19 -20 -21 -22 24 -24 -25 -26 26 -28 -29 -30 -31
leaf_value=-1.5749846590267178 -1.6229146292526102 -1.6969405530337547 -1.7013550976285772 -1.6247888708350615 -1.5884321035928304 -1.5655125627547051 -1.6639961667754439 -1.682281861323323 -1.6751959700028889 -1.6724906032055507 -1.6919888159857532 -1.5570150476403422 -1.6054383984987284 -1.5947848899746151 -1.6408065759657295 -1.5841313814505018 -1.6074883471235728 -1.6976212929980015 -1.6126706811676594 -1.6991598288502234 -1.6869809778375429 -1.6542006593387091 -1.5827501486584024 -1.6755499960757152 -1.7047977861358841 -1.6812508540788282 -1.6197332986302988 -1.6836593809334635 -1.6823669152754563 -1.6602515350996934
leaf_weight=7.3865789175033596 5.170605242252349 18.651111766695976 26.591684103012085 7.0172499716281953 6.2785920798778552 4.801276296377182 6.2785920798778516 9.0485591739416105 4.4319473505020142 4.0626184046268472 6.4632565528154364 6.0939276069402695 3.6932894587516785 3.6932894587516785 4.6166118234395981 3.6932894587516776 6.6479210257530204 12.741848632693289 5.5399341881275168 21.975072279572487 4.9859407693147677 8.4945657551288622 4.8012762963771811 18.097118347883224 12.557184159755709 21.605743333697323 3.8779539316892615 14.773157835006714 4.0626184046268472 14.403828889131544
leaf_count=40 28 101 144 38 34 26 34 49 24 22 35 33 20 20 25 20 36 69 30 119 27 46 26 98 68 117 21 80 22 78
internal_value=-1.66166 -1.65681 -1.68049 -1.6525 -1.62696 -1.65688 -1.61696 -1.64959 -1.62249 -1.66002 -1.63576 -1.61075 -1.66405 -1.65748 -1.58834 -1.63955 -1.64814 -1.66718 -1.65945 -1.68538 -1.65014 -1.66568 -1.65046 -1.66053 -1.68501 -1.68682 -1.67069 -1.66759 -1.63788 -1.68141
internal_weight=282.537 225.291 57.246 192.236 27.1457 165.09 11.0799 19.7591 10.7105 154.01 21.2364 14.7732 132.774 102.119 10.7105 35.4556 31.7623 66.6639 53.922 30.6543 8.67923 48.3821 27.3303 25.1144 21.0517 52.0754 25.4837 22.5291 7.75591 33.0549
internal_count=1530 1220 310 1041 147 894 60 107 58 834 115 80 719 553 58 192 172 361 292 166 47 262 148 136 114 282 138 122 42 179
is_linear=0
shrinkage=1


Tree=3
num_leaves=31
num_cat=0
split_feature=40 52 17 64 9 69 68 53 53 22 20 32 53 20 44 45 32 53 9 1 8 6 33 70 6 20 55 50 53 71
split_gain=12.269 16.4268 16.799 9.66389 9.82561 7.89442 7.59569 10.9807 9.90128 7.94396 9.24135 9.34269 12.4152 8.44911 7.18414 7.50878 6.60629 6.39828 8.00217 7.46699 8.88892 5.66574 5.12201 6.85108 4.508 4.27658 4.26274 4.20565 4.85488 4.19732
threshold=-0.42526975274085993 -1.0785751938819883 -1.2517673969268797 0.5386905074119569 0.23410554975271228 1.0732390284538271 -0.41193507611751551 -0.068552184849977479 -0.54926335811614979 0.16393937915563586 -0.24563607573509214 -0.32464802265167231 0.88071036338806163 0.33724367618560797 0.91669639945030224 0.12921600043773654 0.45924007892608648 0.3316351473331452 -0.30902306735515589 0.43789788335561758 0.26282083988189703 0.97821578383445751 -0.65701332688331593 -0.033320827409625046 -0.78903698921203602 0.4209373146295548 -0.32852469384670252 0.70375490188598644 0.96825975179672252 0.42059773206710821
decision_type=2 2 2 2 2 2 2 2 2 2 2 2 2 2 2 2 2 2 2 2 2 2 2 2 2 2 2 2 2 2
left_child=5 2 -2 4 -4 14 7 8 -3 10 24 12 13 -12 22 -16 21 29 -19 20 25 -9 23 -1 -8 -20 -26 28 -11 -13
right_child=1 6 3 -5 -6 -7 9 16 -10 27 11 17 -14 -15 15 -17 -18 18 19 -21 -22 -23 -24 -25 26 -27 -28 -29 -30 -31
leaf_value=-1.7139793202525333 -1.7114296399216564 -1.6679795937689084 -1.5568395849631427 -1.671333798963047 -1.6510763590961024 -1.6436308132631094 -1.658403740497532 -1.7148906361001139 -1.5697721993817633 -1.7229156583972682 -1.5821611655233616 -1.711122119793457 -1.7123908221667437 -1.6708323493592263 -1.6312644527024711 -1.7054619599349301 -1.6382751069186652 -1.7176070754891128 -1.703966927263195 -1.6856674837427994 -1.5912961222077897 -1.6508744472596759 -1.7132374628404794 -1.630094251934483 -1.67830510848528 -1.6368089078298473 -1.7257858354409314 -1.6639173553058422 -1.6686835772578408 -1.6699474122515283
leaf_weight=3.9938111007213593 5.6276429146528271 5.8091797828674316 6.8984009921550768 6.1722535192966452 5.6276429146528244 5.0830323100090018 3.6307373642921474 11.98143330216408 4.1753479689359683 25.596698418259624 6.8984009921550733 18.516760557889942 3.6307373642921439 4.538421705365181 5.8091797828674299 5.9907166510820389 5.264569178223609 5.0830323100090054 3.993811100721361 10.347601488232611 6.3537903875112534 3.8122742325067511 65.71634629368782 3.8122742325067511 6.1722535192966523 3.6307373642921448 16.88292874395847 3.9938111007213584 4.3568848371505728 8.3506959378719312
leaf_count=22 31 32 38 34 31 28 20 66 23 141 38 102 20 25 32 33 29 28 22 57 35 21 362 21 34 20 93 22 24 46
internal_value=-1.68419 -1.67689 -1.63943 -1.61742 -1.59368 -1.69922 -1.68271 -1.66086 -1.62034 -1.68798 -1.68071 -1.67133 -1.6377 -1.61354 -1.70295 -1.66774 -1.68205 -1.68097 -1.66514 -1.65325 -1.63068 -1.69844 -1.70873 -1.67165 -1.7053 -1.67033 -1.71341 -1.70845 -1.71482 -1.69831
internal_weight=277.751 187.346 24.3259 18.6983 12.526 90.4054 163.02 31.0428 9.98453 131.977 98.0299 71.344 15.0676 11.4368 85.3223 11.7999 21.0583 56.2764 29.409 24.3259 13.9783 15.7937 73.5224 7.80609 26.6859 7.62455 23.0552 33.9474 29.9536 26.8675
internal_count=1530 1032 134 103 69 498 898 171 55 727 540 393 83 63 470 65 116 310 162 134 77 87 405 43 147 42 127 187 165 148
is_linear=0
shrinkage=1


Tree=4
num_leaves=31
num_cat=0
split_feature=54 41 64 49 55 42 27 66 58 8 69 4 6 69 46 45 41 32 31 30 14 14 19 28 66 40 64 18 22 26
split_gain=12.8274 13.0319 15.6114 10.4397 8.26961 9.51971 8.7084 8.6477 11.9748 11.6209 10.1342 7.19718 6.90761 6.87589 6.64382 6.39088 6.31625 5.99184 8.10574 6.1607 5.05951 5.18848 5.70029 5.26699 4.97739 3.77778 6.50164 7.88451 5.05452 4.24518
threshold=-0.68050849437713612 -1.6759224534034727 0.25022479146718984 -1.2454617992043493 1.1058511137962344 -0.26563835144042963 1.0000000180025095e-35 -0.43018525838851923 -0.18102665990591046 0.35283988714218145 -0.31038753688335413 0.59013748168945324 0.071144893765449538 0.32851079106330877 -0.30028715729713434 0.2944763600826264 -0.052603645250201218 0.52871257066726696 0.45911137759685522 0.68734359741210949 1.9185907840728762 -0.63339734077453602 -0.054521091282367699 -0.60339713096618641 -0.72731652855873097 0.20756462216377261 0.34185865521430975 0.32797601819038397 -0.38380946218967432 -0.72674730420112599
decision_type=2 2 2 2 2 2 2 2 2 2 2 2 2 2 2 2 2 2 2 2 2 2 2 2 2 2 2 2 2 2
left_child=20 2 12 -3 6 -6 7 8 9 11 14 16 -2 -7 -10 -8 -5 25 -19 -20 21 22 -1 -24 -12 29 27 -27 -28 -9
right_child=1 3 -4 4 5 13 15 17 10 -11 24 -13 -14 -15 -16 -17 -18 18 19 -21 -22 -23 23 -25 -26 26 28 -29 -30 -31
leaf_value=-1.7041229242242613 -1.5479919008735812 -1.6201420131574906 -1.7012404940249044 -1.6473857927079858 -1.69340390974141 -1.6561052001910819 -1.6744485858069105 -1.6755064855729809 -1.6988694561047923 -1.6965074057769445 -1.716618110437778 -1.6675395935445994 -1.6482382240876918 -1.5769248957155686 -1.619965684631405 -1.6007989546338062 -1.556741892494073 -1.619433689863478 -1.7068743617555586 -1.6484518731555926 -1.6473857927079858 -1.7043792784044065 -1.6926568750835183 -1.6242083766279531 -1.6586105227386423 -1.6269240229173632 -1.6557530183334654 -1.710472015993395 -1.7147528229363658 -1.7238133108877138
leaf_weight=8.1868549436330813 4.1843925267457944 7.0952742844820014 4.0024624168872824 4.3663226366043091 6.913344174623492 7.6410646140575391 6.9133441746234876 5.2759731858968761 3.6386021971702576 6.185623735189437 19.284591645002365 5.2759731858968726 3.8205323070287704 4.1843925267457962 6.1856237351894361 4.3663226366043091 4.7301828563213366 4.3663226366043117 13.280898019671442 5.6398334056138983 4.3663226366043082 65.494839549064636 4.1843925267457962 6.0036936253309232 3.8205323070287731 6.1856237351894361 3.6386021971702531 3.8205323070287704 20.012312084436424 25.28828527033329
leaf_count=45 23 39 22 24 38 42 38 29 20 34 106 29 21 23 34 24 26 24 73 31 24 360 23 33 21 34 20 21 110 139
internal_value=-1.67938 -1.67207 -1.62374 -1.67563 -1.67827 -1.64781 -1.6822 -1.68568 -1.66996 -1.64096 -1.6887 -1.61755 -1.58697 -1.62222 -1.64821 -1.64179 -1.59269 -1.6953 -1.67377 -1.68874 -1.69503 -1.69787 -1.67463 -1.65092 -1.70653 -1.70308 -1.69104 -1.65867 -1.70505 -1.71559
internal_weight=278.353 190.117 12.0074 178.11 171.014 18.7388 152.276 140.996 53.4875 20.5581 32.9293 14.3725 8.00492 11.8255 9.82423 11.2797 9.09651 87.5084 23.2871 18.9207 88.2361 83.8698 18.3749 10.1881 23.1051 64.2213 33.6571 10.0062 23.6509 30.5643
internal_count=1530 1045 66 979 940 103 837 775 294 113 181 79 44 65 54 62 50 481 128 104 485 461 101 56 127 353 185 55 130 168
is_linear=0
shrinkage=1


Tree=5
num_leaves=31
num_cat=0
split_feature=64 45 11 44 64 22 66 17 62 2 54 20 55 18 59 71 21 71 31 23 26 21 74 6 45 21 10 29 50 45
split_gain=35.2152 15.478 14.5674 11.958 12.3486 10.1296 10.0206 9.99468 14.5576 8.01703 7.43208 10.2246 7.0299 6.9147 6.8816 7.98305 6.85064 7.89802 6.22655 4.71223 4.5385 4.37032 4.20238 4.06552 8.20516 7.26206 4.52923 3.98055 3.89206 2.5593
threshold=0.2324405983090401 -0.35525259375572199 0.56398186087608349 -0.41113223135471338 0.83891180157661449 -0.05227727256715297 -0.84098416566848744 -0.33830967545509333 0.31269538402557379 -1.185676574707031 0.68164071440696727 0.1274516507983208 0.16750506311655047 -0.7731647491455077 0.36248809099197393 0.42059773206710821 0.66198304295539867 0.21227926015853885 0.21410183608531955 0.42016289383172994 0.4615419209003449 0.064962547272443785 0.02166511490941048 0.3138165026903153 0.31759297847747808 0.42613528668880468 0.26967939734458929 0.88830962777137767 -0.26347973942756647 0.14249587059020999
decision_type=2 2 2 2 2 2 2 2 2 2 2 2 2 2 2 2 2 2 2 2 2 2 2 2 2 2 2 2 2 2
left_child=6 3 5 -2 21 9 29 8 20 12 11 -4 -3 14 15 -8 17 27 -6 -11 -7 -5 -23 26 -25 -26 -15 -9 -21 -1
right_child=1 2 10 4 18 7 13 16 -10 19 -12 -13 -14 23 -16 -17 -18 -19 -20 28 -22 22 -24 24 25 -27 -28 -29 -30 -31
leaf_value=-1.9605388403664437 -1.9460244501409296 -1.8603182548704453 -1.8205144383042295 -1.9500729630708957 -1.7737424283217527 -1.7971740602625779 -1.9358740694118182 -1.9784043607965527 -1.9546323568721042 -1.9733784521507312 -1.9487201273214598 -1.9201639281769844 -1.953603682050955 -1.9784076444434353 -1.9550087252874684 -1.8538358294771642 -1.8801482686454889 -1.8974696534169571 -1.8892035298453962 -1.9630822904116543 -1.8957273193476907 -1.8476894159488719 -1.927830569141429 -1.9652003532298945 -1.8732215686273965 -1.9613489662430335 -1.9206441144943562 -1.927000713929667 -1.8957273193476907 -1.9829174727549024
leaf_weight=30.035799786448479 5.1785861700773266 2.9591920971870413 5.3265457749366742 3.1071517020463961 3.6989901214838019 2.9591920971870405 5.9183841943740862 11.540849179029474 3.6989901214838028 26.040890455245972 2.9591920971870413 5.0306265652179718 3.5510305166244507 17.903112187981609 6.9541014283895484 5.0306265652179718 3.6989901214838019 5.178586170077323 3.1071517020463943 3.2551113069057465 3.4030709117650986 2.9591920971870422 3.2551113069057465 10.801051154732706 5.6224649846553785 2.9591920971870422 3.5510305166244498 4.8826669603586188 3.4030709117650977 28.408244132995605
leaf_count=203 35 20 36 21 25 20 40 78 25 176 20 34 24 121 47 34 25 35 21 22 23 20 22 73 38 20 24 33 23 192
internal_value=-1.93856 -1.91822 -1.92779 -1.88098 -1.86082 -1.93667 -1.95752 -1.91756 -1.87791 -1.95397 -1.88159 -1.86312 -1.90656 -1.94277 -1.91757 -1.89433 -1.93499 -1.94651 -1.8135 -1.96406 -1.83704 -1.90405 -1.8825 -1.95404 -1.93728 -1.90292 -1.96852 -1.96339 -1.92768 -1.972
internal_weight=226.378 109.194 87.888 21.3062 16.1276 74.5716 117.184 35.3623 10.0613 39.2093 13.3164 10.3572 6.51022 58.74 17.9031 10.949 25.3011 21.6021 6.80614 32.6991 6.36226 9.32146 6.2143 40.8369 19.3827 8.58166 21.4541 16.4235 6.65818 58.444
internal_count=1530 738 594 144 109 504 792 239 68 265 90 70 44 397 121 74 171 146 46 221 43 63 42 276 131 58 145 111 45 395
is_linear=0
shrinkage=1


Tree=6
num_leaves=31
num_cat=0
split_feature=5 29 4 45 14 55 10 18 17 41 9 38 54 68 57 71 33 46 61 35 69 20 46 45 26 67 57 53 53 34
split_gain=24.4681 10.0304 9.25384 12.407 12.2016 8.91737 9.00076 7.50643 11.255 6.56645 7.02161 6.38804 5.86819 9.159 5.17551 4.73101 11.2689 4.346 4.34494 5.39487 4.60262 7.52699 3.83956 3.69047 2.96472 3.91791 2.89969 2.37487 3.29292 1.72268
threshold=-0.93209829926490773 -0.74738973379135121 0.22698034346103671 -0.19441886246204373 -0.36230707168579096 -0.0062455178704112759 0.060706742107868202 -0.90083321928977955 -0.046151181682944291 -2.2557862997055049 -0.67552447319030751 -2.4724831581115718 1.4158693552017214 0.32742235064506536 0.071815643459558501 -0.41267585754394526 0.40101794898509985 0.16443960368633273 1.0000000180025095e-35 1.0000000180025095e-35 -0.43826533854007715 0.54517585039138805 -0.074965085834264741 -0.49788796901702875 -0.33065086603164667 -0.77355504035949696 -0.72470715641975392 -0.0077539810445159665 -0.50224602222442616 0.24572000652551654
decision_type=2 2 2 2 2 2 2 2 2 2 2 2 2 2 2 2 2 2 2 2 2 2 2 2 2 2 2 2 2 2
left_child=1 14 3 4 -2 6 -3 -6 23 -5 -11 -4 18 -14 -1 16 -12 -7 19 -13 21 -20 -10 -9 25 -22 -17 28 -27 -28
right_child=2 5 11 9 7 17 -8 8 22 10 15 12 13 -15 -16 26 -18 -19 20 -21 24 -23 -24 -25 -26 27 29 -29 -30 -31
leaf_value=0.15670730794827401 -0.025649787249215541 -0.0016929441048002592 0.055607650777763133 0.062180279126160691 -0.0038082496679105343 -0.037373649543470208 0.12752681924289574 0.053581271814330839 0.063531233196823952 0.05649904074190281 -0.035607378310863427 0.053081011410385931 -0.027027308154169871 0.073365448274779907 0.042089045435951149 0.022311066462250718 0.085180940632312019 0.038525967900835435 -0.023917021316856718 -0.032503666869654439 0.03927093481859157 0.060485998638609012 -0.016268835236187305 0.18748733053737626 -0.042890649542497938 -0.03293826509876905 -0.038726554627429771 -0.040539978386889657 0.034135362618390994 0.00015933092025437494
leaf_weight=2.1858874484896686 3.8072019368410102 2.3104326203465471 1.9193190708756436 2.2046372070908538 2.4906325787305823 4.5367402434349033 2.1491801291704178 1.9755847156047823 2.166757330298422 2.383575819432731 3.5682595670223227 3.0095024034380904 4.1677426919341078 3.1675837561488152 2.9242459759116173 1.8805938735604311 2.4052021726965904 1.9174099490046499 8.0555948093533498 2.499977245926857 1.8934461250901229 2.729430451989173 2.2594229876995104 1.9820420071482638 35.780295692384243 2.6128691285848618 20.338342614471923 8.2013735175132716 2.7089431956410399 3.2774072512984267
leaf_count=21 41 24 20 23 27 48 22 20 23 25 38 32 45 34 28 20 25 20 87 27 20 29 24 20 388 28 218 89 29 35
internal_value=0.000412186 0.0567372 -0.00705388 0.00940311 0.0465573 0.0253042 0.0725327 0.0718685 0.0923603 -0.00657297 -0.012706 -0.0179152 -0.0205096 0.0199256 0.108741 -0.0195263 0.0182685 -0.0126818 -0.025131 0.0152188 -0.0289023 0.000763297 0.0273048 0.144934 -0.0350465 -0.0153375 -0.0287364 -0.0251611 0.0012029 -0.0335427
internal_weight=143.51 16.0239 127.486 50.7397 14.6816 10.9138 4.45961 10.8744 8.38381 36.058 33.8534 76.7461 74.8268 7.33533 5.11013 31.4698 5.97346 6.45415 67.4914 5.50948 61.982 10.785 4.42618 3.95763 51.1969 15.4166 25.4963 13.5232 5.32181 23.6157
internal_count=1530 163 1367 539 155 114 46 114 87 384 361 828 808 79 49 336 63 68 729 59 670 116 47 40 554 166 273 146 57 253
is_linear=0
shrinkage=0.05


Tree=7
num_leaves=31
num_cat=0
split_feature=50 16 28 38 38 28 62 38 28 4 43 50 26 14 12 4 14 56 26 17 6 74 34 7 21 46 33 8 46 58
split_gain=11.0401 8.92755 9.12997 7.80727 11.5616 10.9351 10.623 7.91312 14.664 9.04325 7.3916 7.51677 9.82515 6.27569 6.18312 6.01434 8.47599 9.25936 6.27172 5.84491 5.413 5.71047 5.06236 9.2444 5.01865 4.68861 4.20441 4.11062 4.13533 4.44699
threshold=-2.7164214849472041 -1.3781725764274595 1.2403494715690615 0.94649741053581249 1.6688173413276675 -0.55578947067260731 -0.40861639380455012 -0.52440840005874623 -0.60339713096618641 -0.36290784180164332 0.81785586476326 -0.27219356596469874 0.083049803972244277 0.815533608198166 1.0000000180025095e-35 1.1994043588638308 -0.10056470334529875 0.21137531846761706 -0.1546080335974693 -0.20147594809532163 -0.14163838326930997 -0.011577137513086198 -0.034545981325209134 -0.7711600363254546 -0.92036810517311085 -0.24395664036273954 0.13663262128829959 -0.30928304791450495 -0.34253504872322077 0.12045711278915407
decision_type=2 2 2 2 2 2 2 2 2 2 2 2 2 2 2 2 2 2 2 2 2 2 2 2 2 2 2 2 2 2
left_child=-1 -2 3 7 5 -5 -7 8 9 -3 11 -4 26 -11 20 22 17 18 -17 -16 21 -10 23 -9 -24 -8 -13 -25 -29 -30
right_child=1 2 10 4 -6 6 25 15 14 13 -12 12 -14 -15 19 16 -18 -19 -20 -21 -22 -23 24 27 -26 -27 -28 28 29 -31
leaf_value=0.0593801574002987 -0.027180942993682317 -0.0029589485612022941 -0.029393431699419426 0.088206081332396033 -0.017932794451209731 0.06896867327693082 0.027510505444100539 0.045827275716127484 0.042763485290851277 0.093127722254515849 0.08555442061926033 0.032870509018104253 0.083655737774626815 0.015123721364976739 0.052576131653022801 0.017231902482650229 -0.022466044653850988 -0.012518947166332943 0.10618363890833699 -0.013903740107472249 -0.039278778527158782 -0.024189478072168261 0.024600874137115827 -0.038607824601386141 -0.027721119963633314 -0.034105550347446958 -0.026879375096546716 0.024828452088217934 -0.020362752646132212 0.016786623940462854
leaf_weight=7.0076870620250693 26.643838152289391 6.1070014834404018 5.5526291429996553 7.1761924475431469 12.050355017185209 5.1822499483823803 4.0101245641708392 7.1458412557840338 4.7846109867095947 8.2589748948812467 4.0677733123302451 4.8522609621286374 5.2411803454160681 4.1924975514411917 6.150011733174324 4.0262383669614783 8.9776311218738538 5.3107892721891394 4.0424603968858746 5.5277673006057721 14.327304095029831 6.1263597011566162 4.2006032168865195 9.9993894249200803 59.573079094290733 7.2779005467891658 4.9347184151411057 8.7128783762454969 31.698012709617615 9.8507994860410673
leaf_count=34 135 31 28 36 61 26 20 36 24 41 20 24 26 21 31 20 45 27 20 28 73 31 21 51 303 37 25 44 161 50
internal_value=0.00144978 -0.000117011 0.00265069 -0.000322693 0.0209569 0.0406987 0.0161354 -0.00403948 0.0120032 0.0470266 0.0310318 0.0167905 0.0346238 0.0699401 -0.00637965 -0.00987601 0.0136522 0.0377645 0.0685918 0.0224929 -0.0200871 0.00629564 -0.0139589 -0.00429603 -0.0239482 -0.0117587 0.0030449 -0.0108908 -0.00473097 -0.0113675
internal_weight=303.009 296.001 269.358 244.709 35.6968 23.6465 16.4703 209.012 55.4745 18.5585 24.6486 20.5808 15.0282 12.4515 36.9161 153.538 22.3571 13.3795 8.0687 11.6778 25.2383 10.911 131.181 67.4069 63.7737 11.288 9.78698 60.2611 50.2617 41.5488
internal_count=1530 1496 1361 1238 180 119 83 1058 280 93 123 103 75 62 187 778 112 67 40 59 128 55 666 342 324 57 49 306 255 211
is_linear=0
shrinkage=0.05


Tree=8
num_leaves=31
num_cat=0
split_feature=57 18 71 4 56 6 5 68 40 8 40 30 52 68 45 46 67 68 68 4 34 29 45 4 54 6 26 17 65 14
split_gain=8.20905 9.0259 9.80324 9.08188 9.14607 8.78687 8.06056 6.99657 7.1655 10.2387 8.82683 7.0111 6.49927 6.35451 6.32716 8.21817 6.11692 6.05084 5.99574 7.85085 6.96933 5.60952 5.5576 5.41311 5.24176 5.07279 4.6936 4.03701 3.72999 3.79571
threshold=-0.051637914031743996 0.02723965980112553 -0.20435738191008565 0.3560426682233811 0.058934221044182784 1.8479948639869692 -0.1345713213086128 0.45439420640468603 -0.12744446098804471 0.23678226768970492 -1.3474301695823667 1.5450733304023745 0.57610300183296215 -0.080085784196853624 0.3436607718467713 -0.25803926587104792 0.65503647923469555 -0.2677341997623443 -0.41193507611751551 -0.67374241352081288 -0.020532682072371241 0.2996190488338471 0.047569356858730323 0.44092138111591345 -0.49793088436126703 -0.30616153776645655 0.90164896845817577 0.22684387862682345 0.34509675204753881 0.815533608198166
decision_type=2 2 2 2 2 2 2 2 2 2 2 2 2 2 2 2 2 2 2 2 2 2 2 2 2 2 2 2 2 2
left_child=1 14 24 6 13 7 -4 11 10 12 -9 17 21 -5 15 25 23 18 19 -2 -20 -10 -17 -12 -3 -1 -21 -18 29 -19
right_child=5 2 3 4 -6 -7 -8 8 9 -11 16 -13 -14 -15 -16 22 27 28 20 26 -22 -23 -24 -25 -26 -27 -28 -29 -30 -31
leaf_value=0.0020501428759333033 0.033539747818833829 0.033991357860379337 0.039524822655700259 0.064668587025664248 0.099122078625887622 0.054322152915506461 -0.02989433625183174 -0.022749143595802712 0.0007448986806352564 -0.046829695231651453 0.10973539520438676 0.034189557142619877 -0.031944566705145394 -0.01528977874916169 -0.023132078382337475 -0.020147656206814926 -0.016420715490888173 -0.021202381245960654 0.062797741679713762 -0.035348403020447471 -0.0096787618424522114 0.070868288854113962 0.032088698449340862 0.022341821885832131 -0.030623972038938435 0.076499510235531032 0.020307960390331541 0.043186100353189177 -0.036408119877304822 0.017184735863747393
leaf_weight=3.6974984556436539 6.0789914429187801 3.6974246501922599 9.4512718319892866 3.7417235672473907 8.6242523938417417 4.6762332767248145 6.0526840537786475 6.0437569022178677 5.7305997759103793 10.431557402014731 3.9630965739488628 6.0034142434597006 4.2205361127853385 4.5843548476696032 21.987741529941559 16.6152528077364 4.7654757648706418 35.480229601264 5.5721956640481949 20.934223741292957 6.2330959290266019 4.7201066464185715 6.1813237220048896 3.7497162669897079 8.6729123294353467 5.2525980919599551 3.8935567140579215 4.8227100074291229 39.437470808625221 7.0297595411539069
leaf_count=20 33 20 51 20 46 25 33 33 31 57 21 32 23 25 119 90 26 193 30 114 34 25 33 20 47 28 21 26 216 38
internal_value=-0.000803002 0.0107741 0.02708 0.0411751 0.0654714 -0.00703616 0.0122546 -0.00893082 0.00719097 -0.0111757 0.0265886 -0.0149177 0.0155457 0.0237245 -0.00307429 0.0110999 0.044125 -0.0175359 -0.00219213 -0.0137442 0.0267633 0.0358395 -0.00523045 0.0746882 -0.010213 0.0490398 -0.0261719 0.0148077 -0.0254104 -0.0146053
internal_weight=282.346 98.559 44.8246 32.4543 16.9503 183.787 15.504 179.11 48.4476 25.1028 23.3448 130.663 14.6712 8.32608 53.7344 31.7467 17.301 124.66 42.7121 30.9068 11.8053 10.4507 22.7966 7.71281 12.3703 8.9501 24.8278 9.58819 81.9475 42.51
internal_count=1530 532 242 175 91 998 84 973 262 136 126 711 79 45 290 171 93 679 232 168 64 56 123 41 67 48 135 52 447 231
is_linear=0
shrinkage=0.05


Tree=9
num_leaves=31
num_cat=0
split_feature=40 70 33 42 33 64 4 58 21 5 52 21 18 23 18 5 14 20 14 41 35 43 4 14 50 42 45 16 62 50
split_gain=11.3949 8.50092 9.27136 12.1801 10.2992 9.59619 8.66781 7.81045 7.49761 10.9738 8.1005 6.8333 7.83114 10.5006 8.34852 9.5346 6.75388 6.73126 6.18621 8.06739 5.7628 5.5555 9.2939 8.61738 4.62307 4.60982 4.41216 5.91943 6.98522 4.34126
threshold=-1.7072285413742063 -0.033320827409625046 -0.65701332688331593 0.030670423991978172 -0.95181015133857716 0.24449761211872104 -0.057111565023660653 -0.36765947937965388 0.1957148686051369 0.46971139311790472 -0.75174975395202626 0.18831390142440799 0.73629507422447216 -0.78144264221191395 0.2600145041942597 0.088834516704082503 0.058350309729576118 0.10885306447744371 -0.89513975381851185 -0.21083000302314756 1.0000000180025095e-35 -0.024893759749829766 0.33511361479759222 -0.38100296258926386 0.16349770128726962 -1.2678512930870054 0.57827141880989086 -0.10875771567225455 0.058114772662520416 -1.0000000180025095e-35
decision_type=2 2 2 2 2 2 2 2 2 2 2 2 2 2 2 2 2 2 2 2 2 2 2 2 2 2 2 2 2 2
left_child=-1 11 4 5 -3 6 29 20 9 24 -10 12 13 -2 21 -16 17 -12 19 -13 -5 25 -23 -24 -9 -15 -20 28 -28 -4
right_child=1 2 3 7 -6 -7 -8 8 10 -11 16 18 -14 14 15 -17 -18 -19 26 -21 -22 22 23 -25 -26 -27 27 -29 -30 -31
leaf_value=-0.041643803435443556 0.066704244501452598 -0.0008475551766382232 0.068599503417712718 0.02575774913455238 0.093385543135084639 -0.03668873384852999 -0.012781677985277571 -0.039305383931921081 0.1173911916931709 0.050853314466341074 0.0028232813962429416 -0.028958019237999278 -0.024849920577817475 0.024722936349823248 -0.014495097333682195 0.073755615288552553 -0.018602917607985974 0.089699094458112139 -0.030661055341229856 0.062776086570471179 -0.03813003508379785 -0.018446127267098687 -0.010003631392775571 0.070228528237842744 0.02322803954368494 -0.031637984384390312 0.068358476842708335 -0.026522765591942762 -0.018635798028332883 0.0012793317859950788
leaf_weight=15.309110254049299 6.6303721070289603 4.963652491569519 5.6803274154663086 5.5010787546634656 5.9131394773721677 19.867632403969765 17.30251732468605 7.5748260915279406 3.7416969537735012 9.7675933390855771 3.6449766308069211 3.5841064006090164 18.071358039975166 3.6266202479600933 4.4989695847034437 6.9992799609899521 3.6362944394350043 5.0269471555948257 45.577080249786377 4.2624686807394019 6.8288928121328354 12.812367558479314 5.094001904129982 7.653163790702818 3.7025611698627472 19.552398264408108 4.0243467688560512 9.2114478796720487 3.6381648629903793 3.7931958884000796
leaf_count=86 36 27 31 30 32 110 96 42 20 53 20 20 100 20 25 38 20 27 253 23 38 71 28 42 20 108 22 51 20 21
internal_value=-0.00109103 0.00142613 0.0122117 0.00698131 0.0539315 -0.0112322 0.00829716 0.0240518 0.035277 0.014505 0.0600654 -0.00603489 0.00350762 0.0114247 0.00435005 0.0408284 0.035127 0.0572508 -0.0174523 0.0223375 -0.00983219 -0.00490366 0.0109924 0.0397709 -0.0185549 -0.0221619 -0.0227249 -0.000772915 0.0296705 0.0443403
internal_weight=277.491 262.181 106.945 96.0685 10.8768 46.6437 26.776 49.4249 37.0949 21.045 16.0499 155.236 84.9385 66.8672 60.2368 11.4982 12.3082 8.67192 70.2976 7.84658 12.33 48.7386 25.5595 12.7472 11.2774 23.179 62.451 16.874 7.66251 9.47352
internal_count=1530 1444 587 528 59 258 148 270 202 115 87 857 468 368 332 63 67 47 389 43 68 269 141 70 62 128 346 93 42 52
is_linear=0
shrinkage=0.05


Tree=10
num_leaves=31
num_cat=0
split_feature=53 66 57 14 45 32 52 53 41 64 41 66 59 62 66 14 57 33 10 42 57 66 68 43 58 9 46 19 5 33
split_gain=13.858 10.6883 11.8324 10.97 9.75839 9.67465 9.68833 8.83471 7.9416 7.71416 9.82774 8.51713 7.62205 7.48435 7.26968 6.3217 6.02101 10.0687 9.58964 7.57473 8.80003 8.80116 8.3255 8.31303 7.5039 8.12913 5.42315 5.09793 4.70345 4.1481
threshold=0.63076230883598339 0.47466927766799932 0.31674763560295111 -0.025781166739761826 -0.17966352403163907 0.54208698868751537 0.68250367045402538 -1.9287070631980894 0.53475195169448864 0.52542772889137279 -1.5093052983283994 1.4617832303047182 1.0000000180025095e-35 -0.086147587746381746 1.8508955836296084 -0.19404411315917966 0.57995092868804943 -0.16944584250450132 -0.12040288746356963 0.60244745016098034 -0.090155392885208116 -0.78664308786392201 0.26936760544776922 0.16243591904640201 -0.29587760567665095 0.49610255658626562 -0.14537823200225827 0.055239630863070495 0.82638904452323925 0.38581204414367681
decision_type=2 2 2 2 2 2 2 2 2 2 2 2 2 2 2 2 2 2 2 2 2 2 2 2 2 2 2 2 2 2
left_child=7 2 3 8 -4 6 -3 -1 15 10 12 -11 -9 -7 27 -2 18 -18 -12 20 21 23 26 -20 -19 29 -21 -13 -5 -26
right_child=1 5 4 28 -6 13 -8 9 -10 11 16 14 -14 -15 -16 -17 17 24 19 22 -22 -23 -24 -25 25 -27 -28 -29 -30 -31
leaf_value=-0.043986518935146761 0.068934219976784547 0.039135201311991656 0.059101074399564794 0.10269915671112069 -0.01882716651758759 0.081951676871097834 -0.036131498482102412 0.092945595594014913 -0.026264568867693152 -0.026533604086058787 -0.026488793157524906 0.0014324350753248298 0.0096591716883372078 -0.003316761611294964 -0.030749243023144354 -0.0080137029861192168 -0.023703624009234502 -0.0059907413731214131 0.0017408466720879598 0.020469770436797253 -0.025947104637484994 -0.022407243210713731 -0.015971678788132906 0.092411318083189684 0.11857720655476703 0.00090407963025437008 0.096843516869728238 0.07871997360958094 0.028917018269327327 0.03484193293403736
leaf_weight=13.433369278907774 7.3035724163055447 4.5465653985738781 4.4388553053140667 9.3731190562248212 14.375305294990538 3.8825963735580444 19.120207294821739 4.1880945563316327 5.0720724910497657 49.95075561106205 35.518350392580032 3.7818048298358899 6.4007180631160736 5.2843245565891248 3.9692807346582413 3.6516528874635723 8.1492789685726184 5.6538788229227093 4.6968600153923017 5.2901502698659888 20.850595250725753 5.9893748760223309 4.7142708152532569 4.5749692469835281 4.2968943417072278 3.8197780102491379 4.4065044075250617 4.0103243738412857 4.0056849867105475 3.657986581325531
leaf_count=75 39 25 24 50 78 21 106 22 28 277 196 21 35 29 22 20 45 31 26 29 115 33 26 25 23 21 24 22 22 20
internal_value=0.000843666 0.0181229 0.032866 0.0521508 0.00161343 -0.00386047 -0.0206718 -0.0063086 0.0220612 -0.00333365 0.00395258 -0.0175954 0.0477784 0.0373066 0.0194697 0.0447606 -0.00059232 0.0202428 -0.00694747 0.0070379 -0.00534775 0.022661 0.0364077 0.0511211 0.0409626 0.0622124 0.0609857 0.0456388 0.0841558 0.0882629
internal_weight=278.407 81.054 48.2203 29.4061 18.8142 32.8337 23.6668 197.353 16.0273 183.92 122.208 61.7122 10.5888 9.16692 11.7614 10.9552 111.619 25.5778 86.0411 50.5227 36.1118 15.2612 14.4109 9.27183 17.4285 11.7747 9.69665 7.79213 13.3788 7.95488
internal_count=1530 442 261 159 102 181 131 1088 87 1013 671 342 57 50 65 59 614 140 474 278 199 84 79 51 95 64 53 43 72 43
is_linear=0
shrinkage=0.05


Tree=11
num_leaves=31
num_cat=0
split_feature=65 52 19 47 45 18 43 65 6 30 5 70 41 19 42 42 32 8 16 42 18 16 30 42 57 56 5 26 8 62
split_gain=31.4168 17.6453 11.4122 10.7081 9.8222 12.9106 12.885 8.54958 9.50696 8.70393 7.33754 7.08724 11.5858 8.57979 6.28825 7.7955 6.26023 5.58925 7.22061 7.80214 5.20338 5.07698 7.17145 4.37145 5.56868 6.52433 3.87491 3.45232 6.61304 3.13926
threshold=0.2397400960326195 0.064319532364606871 0.97983384132385265 1.0851361453533175 0.14249587059020999 0.63971829414367687 0.73563644289970409 -1.2361980676650999 0.3138165026903153 -0.6807364523410796 0.2217555716633797 -0.21261373907327649 0.41817976534366613 0.20453273504972461 -0.9808940291404723 0.93268889188766491 0.19732491672039035 0.3688348531723023 0.71446156501770031 -0.29930374026298517 0.02723965980112553 -0.44663493335247034 -1.2075765132904051 -0.79840630292892445 0.051569439470767982 0.23970171809196475 0.46620428562164312 0.16226907819509509 0.030705906450748447 -0.34921424090862269
decision_type=2 2 2 2 2 2 2 2 2 2 2 2 2 2 2 2 2 2 2 2 2 2 2 2 2 2 2 2 2 2
left_child=7 2 3 4 5 6 10 -1 21 16 -2 12 29 20 -6 -16 -10 27 19 -19 -14 22 -9 -11 -25 -26 -24 -13 -29 -3
right_child=1 11 -4 -5 14 -7 -8 8 9 23 -12 17 13 -15 15 -17 -18 18 -20 -21 -22 -23 26 24 25 -27 -28 28 -30 -31
leaf_value=-0.037841370584467182 0.1295327596786553 0.022683166334889315 -0.022098751669656885 0.1157138812535282 0.057183940928137035 -0.0049875629545670054 -0.011314958357744154 0.050529708594472693 0.084400330767394852 -0.041299846861597711 0.045368089454414826 -0.042398732665940832 0.11552333143339906 -0.011535147592821954 -0.025423547884054206 0.044023824949293092 0.0070530996313741632 -0.016103027487150114 -0.022631049506913685 0.073225886306222468 0.023780749359712763 -0.041649938259191707 -0.038587976573056501 -0.02750368855960475 -0.012208147640160054 0.066552007864624715 0.01913476801312583 0.032593818885425035 -0.040793267621730113 -0.031000804715742916
leaf_weight=41.355696275830269 7.9543425142765098 3.1745337694883347 6.4812061786651602 4.1515704393386832 4.6476783156394985 5.7909304946660987 2.973433092236518 3.5246752947568885 4.6225803196430224 5.6076159030199095 5.8829099535942078 14.653994008898737 4.1569996327161771 2.9917518198490143 11.785945340991022 4.9136101752519599 5.2661580145359039 3.5596978962421417 8.5508365631103498 5.1311938166618365 3.1198703944683075 20.634699180722237 8.8947052955627424 6.0327213704586002 4.4439619630575162 4.6252644509077072 3.403209224343299 5.1227473616600019 5.1709696054458618 7.3999833613634127
leaf_count=287 52 21 44 27 31 38 20 24 31 38 39 99 27 20 79 33 36 24 58 34 21 142 61 41 30 31 23 34 35 50
internal_value=-0.000901516 0.0169272 0.0374644 0.0457767 0.0367428 0.0590348 0.0801309 -0.0202217 -0.00895855 0.0114037 0.0992195 -0.00116379 0.0220649 0.0574766 0.0115554 -0.00365684 0.0476404 -0.0128848 0.00873775 0.0387516 0.0838152 -0.0258966 -0.00409757 -0.00729666 0.00711008 0.0305795 -0.0223766 -0.0275893 -0.00461941 -0.0143172
internal_weight=226.025 117.614 54.5816 48.1004 43.9488 22.6016 16.8107 108.411 67.0556 30.5983 13.8373 63.0326 20.8431 10.2686 21.3472 16.6996 9.88874 42.1894 17.2417 8.69089 7.27687 36.4573 15.8226 20.7096 15.1019 9.06923 12.2979 24.9477 10.2937 10.5745
internal_count=1530 786 363 319 292 149 111 744 457 207 91 423 139 68 143 112 67 284 116 58 48 250 108 140 102 61 84 168 69 71
is_linear=0
shrinkage=0.05


Tree=12
num_leaves=31
num_cat=0
split_feature=4 9 62 6 30 66 10 41 9 19 22 17 67 52 41 74 29 59 45 6 64 3 33 38 32 67 8 58 20 70
split_gain=21.4922 10.9627 14.6272 17.1398 12.358 9.66425 9.80974 9.39626 7.06101 6.76814 8.53525 9.4781 5.85299 9.34497 12.6256 4.58055 7.4054 4.44739 3.89169 3.79809 5.90126 3.76383 5.7551 3.73896 2.49274 2.38321 1.53136 1.50753 1.34054 1.53992
threshold=0.095980178564786925 -0.13877410441637036 -0.63773894309997547 -0.22910987585783002 -0.71041759848594654 -1.1867232918739317 0.10250127315521242 -0.14759935438632962 1.1839672327041628 0.45986595749855047 -0.38380946218967432 0.41040952503681188 0.1927621737122536 0.28507588803768164 0.52336442470550548 0.25436088442802435 -0.89086621999740589 0.36248809099197393 -0.18654933571815488 -1.5151324868202207 0.42836819589138037 1.0000000180025095e-35 0.18126907199621203 -1.715141713619232 0.9774976670742036 0.39128193259239202 -0.30928304791450495 -0.09488844126462935 0.54517585039138805 -0.76428422331809986
decision_type=2 2 2 2 2 2 2 2 2 2 2 2 2 2 2 2 2 2 2 2 2 2 2 2 2 2 2 2 2 2
left_child=1 5 3 4 -3 17 27 -8 15 19 11 -11 26 -14 -15 21 -17 -1 -18 20 -2 22 -4 -21 28 -26 -12 -7 29 -25
right_child=9 2 8 -5 -6 6 7 -9 -10 10 12 -13 13 14 -16 16 18 -19 -20 23 -22 -23 -24 24 25 -27 -28 -29 -30 -31
leaf_value=0.1473162822356317 0.052985436789505069 0.0041671022058089886 -0.036196324077457313 -0.023136738244409288 0.15852095325745935 0.010364461258439865 0.11480700260275822 0.0011554386118913821 0.065513064830509282 0.096698302485683174 0.0057014221763846086 -0.01824638125034626 -0.028641575552116494 0.1189444298427435 -0.029432220044312753 0.077294198266585207 0.037709398450917232 0.033357847254574843 -0.03154118051586835 0.023333852425255652 -0.033754443065015884 -0.042318160323300852 0.04235874069515802 0.0040981590232349657 -0.023789280098036256 0.033376898392706966 -0.041027147827983099 -0.035168037054300043 0.0028519854671927125 -0.03957123353378264
leaf_weight=2.5985298454761532 3.0126912817358962 1.9206616282463072 3.8514010384678903 3.2614792883396131 3.3793189153075218 2.4904250949621201 3.3248640298843393 3.1737432852387419 2.1032963246107093 3.5345216095447567 1.8419879153370882 2.5156212598085403 4.6732691898941976 2.6170226037502289 1.8342119455337522 2.2122370973229408 1.9437051638960836 2.1009739860892296 5.8073645681142789 2.5614836588501921 2.8964494839310646 12.820400156080721 3.4905073568224907 1.9334779158234585 3.4002847522497168 2.1129326447844505 9.2941118255257589 3.3755638375878316 2.0107922181487075 40.972829155623913
leaf_count=25 32 20 41 35 33 26 32 33 21 37 20 28 51 27 20 22 20 21 62 27 32 136 36 21 37 23 102 36 22 452
internal_value=0.000543218 0.0238323 0.00922294 0.0635664 0.112125 0.056311 0.028706 0.0668587 -0.0066917 -0.0153619 0.00558442 0.0530958 -0.0104333 0.018205 0.06362 -0.0136757 0.0131877 0.111161 -0.0118508 -0.0246556 0.0117369 -0.0269462 0.00175132 -0.0288559 -0.031909 -0.00011969 -0.033465 -0.017143 -0.0357233 -0.0375548
internal_weight=143.066 57.8545 40.7904 8.56146 5.29998 17.0641 12.3646 6.49861 32.2289 85.2117 26.3107 6.05014 20.2606 9.1245 4.45123 30.1256 9.96331 4.6995 7.75107 58.9009 5.90914 20.1623 7.34191 52.9918 50.4303 5.51322 11.1361 5.86599 44.9171 42.9063
internal_count=1530 599 426 88 53 173 127 65 338 931 285 65 220 98 47 317 104 46 82 646 64 213 77 582 555 60 122 62 495 473
is_linear=0
shrinkage=0.05


Tree=13
num_leaves=31
num_cat=0
split_feature=5 50 41 17 6 72 43 17 41 20 71 32 65 27 21 5 31 67 18 68 41 41 7 31 19 70 47 71 36 5
split_gain=10.0573 9.92426 10.0555 9.38461 9.12319 8.11953 7.96226 7.80284 9.34073 7.53541 7.4865 6.82399 5.50902 5.31531 6.11672 11.6952 5.12753 7.61824 5.49191 6.62663 4.49436 8.67395 8.25031 11.1705 7.11338 5.35868 5.21465 6.49883 6.06476 4.95678
threshold=1.0964398980140688 -2.7992029190063472 -1.2452949881553648 -0.65366613864898671 0.26994369924068456 1.0000000180025095e-35 0.44086091220378881 1.3507634997367861 0.11491255834698678 -0.29027257859706873 0.42059773206710821 0.25788123905658727 0.88274645805358898 1.0000000180025095e-35 -0.92036810517311085 0.018340636510401968 -1.0882677435874937 -0.30048663914203638 1.6830780506134035 1.146184027194977 0.76549881696701061 1.3825219273567202 0.16355721652507785 0.30819293856620794 -0.38984936475753779 -0.51603251695632923 0.37102476507425314 0.21227926015853885 -1.0000000180025095e-35 0.78395226597785961
decision_type=2 2 2 2 2 2 2 2 2 2 2 2 2 2 2 2 2 2 2 2 2 2 2 2 2 2 2 2 2 2
left_child=1 -1 5 -2 -5 9 -7 13 -9 -3 11 12 -6 14 15 -4 17 -16 19 20 24 22 23 -22 25 -18 -26 -28 -29 -24
right_child=3 2 7 4 10 6 -8 8 -10 -11 -12 -13 -14 -15 16 -17 18 -19 -20 -21 21 -23 29 -25 26 -27 27 28 -30 -31
leaf_value=0.060556354201820754 -0.020959977200697734 0.048843495616899685 -0.02705211383276376 0.080682874591262832 -0.037496259096907424 0.0087264100863401178 0.092076074250456497 -0.032361809160696413 0.049851482620618164 -0.015302089059397089 0.062879735720422894 0.042352273394692934 0.027233492073709006 -0.038826036420597058 -0.031633776159025039 0.069558222852574556 0.049722121633817187 0.046434123516849141 0.036796672054084066 -0.048215901829111674 -0.0059800548991745927 -0.037729598299664463 -0.022713041477820325 0.0739861717478391 -0.032940059493475699 -0.0048664410761594312 -0.02753561751307898 0.042160570944600795 -0.024591107275963833 0.033938735545468737
leaf_weight=5.1332552880048743 8.6059484630823118 5.3813417255878493 4.9539342671632749 7.5724605768918982 9.0792077630758339 5.5039321780204755 5.550780713558197 4.1035401523113242 10.685196742415426 15.229814827442169 6.3404315561056128 6.3454204797744742 4.0227138996124259 13.98709101974964 3.9165325760841361 5.9411839991807938 4.3894547969102886 8.0741353034973127 4.6048494428396216 11.991240873932837 7.5875678807497051 9.3762426227331144 14.240142226219179 8.8633263260126096 52.97558526694776 26.324348688125596 15.198733970522882 8.5169478952884656 4.4825705736875525 4.2116001397371283
leaf_count=24 44 26 25 36 46 27 27 21 53 78 31 31 20 72 20 29 22 40 23 62 38 48 73 44 271 134 78 43 23 21
internal_value=0.00136245 -0.00231627 -0.00380717 0.023782 0.0355982 0.0221412 0.0547442 -0.00755043 0.0264343 0.00293075 0.0198416 0.00342092 -0.0171003 -0.010062 -0.00781865 0.0270489 -0.0100094 0.0204625 -0.0122299 -0.013782 -0.0108481 0.00259788 0.0141806 0.0388745 -0.0161451 0.00425691 -0.0238225 -0.0061519 0.0190305 -0.0087023
internal_weight=303.19 261.223 256.09 41.9662 33.3602 31.6659 11.0547 224.424 14.7887 20.6112 25.7878 19.4473 13.1019 209.635 195.648 10.8951 184.753 11.9907 172.763 168.158 156.167 44.2789 34.9026 16.4509 111.888 30.7138 81.1738 28.1983 12.9995 18.4517
internal_count=1530 1322 1298 208 164 158 54 1140 74 104 128 97 66 1066 994 54 940 60 880 857 795 224 176 82 571 156 415 144 66 94
is_linear=0
shrinkage=0.05


Tree=14
num_leaves=31
num_cat=0
split_feature=42 57 67 71 18 44 57 52 55 50 6 54 45 53 17 26 74 19 70 19 59 7 74 26 26 62 56 31 71 4
split_gain=8.83937 6.66334 6.8281 6.64534 9.08467 7.40349 7.32267 6.68085 6.57067 7.328 6.54332 5.96184 6.67825 5.39168 5.34029 5.14225 4.81358 6.16222 7.69834 6.91138 8.47221 8.0088 6.04298 6.92587 6.34989 8.61887 4.90306 4.41535 5.557 5.66632
threshold=2.0107824802398686 -0.051637914031743996 0.52456709742546093 -0.20435738191008565 0.02723965980112553 0.59583875536918651 -0.61310505867004383 0.85088834166526806 -0.20008008927106855 -0.12405855208635329 1.8479948639869692 -0.52013269066810597 0.39628830552101141 -0.89108431339263905 0.84074673056602489 -0.1370037570595741 -0.30244684219360346 -0.12707483768463132 0.22872266918420794 0.50404915213584911 0.36248809099197393 0.090118553489446654 0.22942918539047244 1.2889432907104494 -0.62992370128631581 0.13448895514011386 -0.0074092892464250317 0.53130993247032177 0.42059773206710821 0.088616319000720992
decision_type=2 2 2 2 2 2 2 2 2 2 2 2 2 2 2 2 2 2 2 2 2 2 2 2 2 2 2 2 2 2
left_child=1 2 3 5 7 -1 15 11 -4 -10 16 13 -13 -5 -8 -6 17 -3 19 20 21 -19 -18 24 25 -24 -21 -26 29 -29
right_child=-2 10 8 4 6 -7 14 -9 9 -11 -12 12 -14 -15 -16 -17 22 18 -20 26 -22 -23 23 -25 27 -27 -28 28 -30 -31
leaf_value=-0.027852289903573871 0.057120429937763888 -0.020342084668463427 -0.046014098229548064 0.023516486444056062 0.040073193149594802 0.034664257546385961 0.091917508005028292 -0.042451292651808997 -0.031523238499240637 0.03366851002551835 0.045221034431672372 0.06776820408048799 -0.0033824147095415551 -0.037394853028334077 0.024464087684133749 -0.030019363523488503 -0.026724462380913163 0.093002130836941158 0.07512660704919899 0.018826560456470971 -0.020479890368579313 0.0082914386471580077 -0.020537621748845988 0.053760235545093495 -0.027163528921326587 0.050346115413631536 -0.040658243606431187 0.057530111161868659 -0.040725045694072537 -0.0094328930000899362
leaf_weight=13.939466118812563 5.4429664909839621 16.803097099065781 8.8877667486667651 6.3384592682123211 4.9865765571594238 5.9701582789421073 8.7230617403984052 4.7673493921756736 6.6137991696596137 8.9754132777452451 4.661832556128501 7.3724307566881162 5.2910039871931076 6.2469045072793987 5.5567891448736182 3.7089720815420169 56.158158391714096 4.8840314298868233 3.743442863225936 4.6912070363760003 5.5118875205516806 5.7177874594926834 7.1516381651163092 3.7535612136125556 34.286241143941879 8.3348862081766111 8.5580113828182185 4.975856348872183 3.8399347364902487 6.1974868029356003
leaf_count=76 29 92 49 34 26 32 45 26 36 48 24 39 29 34 29 20 309 26 20 25 30 31 39 20 188 45 47 27 21 34
internal_value=-0.000780127 -0.00212093 0.00835454 0.0159813 0.0251061 -0.00834463 0.048077 0.00654021 -0.0140963 0.00577759 -0.00782595 0.0170554 0.0399684 -0.00724472 0.0689879 0.0101635 -0.00949169 0.00358097 0.0159635 0.00619501 0.0274379 0.0519684 -0.0147108 -0.00462462 -0.00877309 0.018352 -0.0197531 -0.0174894 0.00492042 0.0226642
internal_weight=282.09 276.647 97.3782 72.9012 52.9915 19.9096 22.9754 30.0161 24.477 15.5892 179.269 25.2488 12.6634 12.5854 14.2799 8.69555 174.607 49.9095 33.1064 29.3629 16.1137 10.6018 124.698 68.5396 64.786 15.4865 13.2492 49.2995 15.0133 11.1733
internal_count=1530 1501 523 390 282 108 120 162 133 84 978 136 68 68 74 46 954 271 179 159 87 57 683 374 354 84 72 270 82 61
is_linear=0
shrinkage=0.05


Tree=15
num_leaves=31
num_cat=0
split_feature=40 70 18 54 45 68 43 56 21 5 21 70 35 30 43 57 67 16 20 23 44 31 41 66 33 62 33 7 57 62
split_gain=10.7029 8.03838 7.06415 6.45624 12.5424 7.96196 8.00245 7.59131 11.2928 6.77652 11.7051 6.66235 6.23672 6.40737 6.23697 6.17929 6.05877 6.04027 6.29972 5.8432 7.12638 5.71949 8.19048 5.65436 10.0958 7.63494 5.41619 6.58574 5.30536 4.73293
threshold=-1.7072285413742063 0.31147325038909918 0.67246082425117504 -0.61076855659484852 0.23299538344144824 -1.1434270143508909 -0.28276392817497248 0.19385759532451632 0.4212013185024262 0.83796247839927684 0.15426880866289142 -1.0000000180025095e-35 0.41288688778877264 -1.0380093455314634 0.94305369257926952 0.19477555900812152 0.093267682939767851 -0.41394938528537745 -0.23596473038196561 0.42016289383172994 0.22647921741008761 -0.26753267645835871 0.24526948481798175 1.1010878682136538 0.75222328305244457 0.27026528120040899 0.35736234486103063 -0.25476470589637751 0.1537890434265137 -0.018259419128298756
decision_type=2 2 2 2 2 2 2 2 2 2 2 2 2 2 2 2 2 2 2 2 2 2 2 2 2 2 2 2 2 2
left_child=-1 2 3 4 12 11 -7 15 -9 17 16 -5 14 -14 -2 -6 -11 29 -19 20 -20 22 -4 24 25 26 27 -3 -15 -8
right_child=1 23 21 5 7 6 9 8 -10 10 -12 -13 13 28 -16 -17 -18 18 19 -21 -22 -23 -24 -25 -26 -27 -28 -29 -30 -31
leaf_value=-0.040971150784971738 -0.036273872767493325 -0.0093607696538950506 -0.025883011725056922 -0.0073044511988276427 0.096173814430764157 -0.028217393903016693 -0.0024638616834050863 -0.018808289362167378 0.065084010909910978 0.099597954593701826 -0.012051064950070609 0.080333431582373716 -0.024342511541745965 -0.0012933449599979729 0.028030865732427124 0.026849231540556781 0.015806087443466194 -0.023290425543135703 0.042616936011122743 0.068475157753089363 -0.020865360208946873 -0.026348756201047315 0.046653993262130357 -0.018927460121854343 -0.02526301515308052 -0.0054340494907232882 0.11469418399916043 0.06775678111946247 0.07251295438112132 -0.043956218929466669
leaf_weight=14.844015583395956 15.891007259488108 3.8081843554973656 6.9954464286565763 3.595320537686348 6.7821099609136599 31.914030104875565 13.390377178788187 9.8258510529994947 5.4320437908172599 4.6146738082170504 9.2434286028146726 3.9347971230745307 4.6569755673408499 4.0168903321027738 4.0498496592044821 7.3251926451921463 4.2278027981519699 9.8542288690805417 6.9881014823913672 4.4296146780252448 8.971328914165495 41.52498771250248 6.6532278805971146 5.2407801002264014 4.8513106256723395 4.4983541816472998 3.8102719485759726 7.3720043301582372 5.0501834750175476 13.398158714175219
leaf_count=86 88 21 39 20 36 178 74 54 29 24 51 21 26 22 22 40 23 55 38 24 50 231 36 29 27 25 20 39 27 75
internal_value=-0.00106224 0.00134287 -0.00181592 0.00305655 0.0157791 -0.0040192 -0.0076582 0.0390897 0.0132248 0.0013324 0.0271612 0.042539 -0.00509528 0.0200029 -0.0224991 0.0643371 0.0652113 -0.00718532 0.00804548 0.0235713 0.00780528 -0.0172745 0.0102472 0.0254453 0.0353693 0.0509587 0.0671627 0.0428771 0.0429348 -0.0240511
internal_weight=277.191 262.347 232.766 177.592 63.0301 114.562 107.032 29.3652 15.2579 75.1177 18.0859 7.53012 33.6649 13.724 19.9409 14.1073 8.84248 57.0318 30.2433 20.389 15.9594 55.1737 13.6487 29.5809 24.3401 19.4888 14.9905 11.1802 9.06707 26.7885
internal_count=1530 1444 1283 977 344 633 592 159 83 414 98 41 185 75 110 76 47 316 167 112 88 306 75 161 132 105 80 60 49 149
is_linear=0
shrinkage=0.05


Tree=16
num_leaves=31
num_cat=0
split_feature=54 64 41 46 45 17 69 58 19 41 45 46 4 38 74 66 71 26 56 31 6 26 26 46 52 10 9 38 46 67
split_gain=11.0318 11.2413 14.2587 6.37977 7.7829 13.6912 9.16798 9.16426 11.3759 10.7459 9.31652 8.96684 7.71237 7.04137 6.88143 5.89374 5.366 5.05351 4.70482 7.48577 5.47269 4.58853 4.58434 5.27074 4.31495 4.70674 7.66467 6.8503 3.93713 3.56078
threshold=-0.68050849437713612 0.58360305428504955 -1.7205734848976133 0.47425743937492376 0.50498646497726452 -1.2850513458251951 -0.34174458682537073 0.13481349498033526 -0.60425472259521473 -0.56054633855819691 -0.18654933571815488 -0.10313034802675246 0.80330348014831554 0.14100135862827304 -0.069751080125570283 -0.48053801059722895 1.0000000180025095e-35 -0.34825514256954188 0.32654474675655371 0.56018933653831493 0.77969124913215648 0.16226907819509509 -1.3913089036941526 0.3756790310144425 -0.71031653881072987 -0.036813829094171517 0.070234749466180815 -0.20921431481838224 -0.44111345708370203 0.367347002029419
decision_type=2 2 2 2 2 2 2 2 2 2 2 2 2 2 2 2 2 2 2 2 2 2 2 2 2 2 2 2 2 2
left_child=22 2 17 4 7 -6 15 8 -4 -10 12 -12 -11 -5 -13 -7 -8 -2 28 20 21 -20 -1 24 -24 26 -26 -28 -3 -9
right_child=1 18 3 13 5 6 16 29 9 10 11 14 -14 -15 -16 -17 -18 -19 19 -21 -22 -23 23 -25 25 -27 27 -29 -30 -31
leaf_value=0.027400279882871633 0.023618136766436301 0.021170429944190883 -0.032109208448410163 0.087883622455707092 0.10256707315626759 0.093444522124000229 0.030770555796752821 -0.043834352014258719 -0.019671505773011261 0.088486013325815918 -0.020141073327792483 -0.0098055405282626226 0.0065206611029599397 -0.00028226705748379154 0.069611325022997536 0.008900048940912288 -0.021437879078057248 0.1016873183388642 0.044195603508193355 0.053593178155719769 -0.043538879479178581 -0.021427700423090015 -0.032033128234808972 0.02424287051333341 0.049514029527371939 -0.026174817711034099 0.031538111810293486 -0.039753775517396707 -0.024771037607061355 -0.0020061058306585573
leaf_weight=5.3864673823118201 4.2896456271409988 4.5405615717172614 12.14931884407997 4.375595808029173 4.1887647211551657 3.8241485059261322 6.3053101450204876 12.953513383865358 11.681623622775069 9.3322698026895434 10.255005016922942 3.8454300165176303 4.2071001231670371 3.9021197855472565 6.8276207894087158 4.0065324157476452 14.155291318893431 5.1676792800426465 4.7684924155473727 5.6564172059297553 5.883980080485343 4.1094262003898621 38.937971264123917 6.3117372691631308 6.4422729611396816 17.108814686536789 4.4658645838499078 8.0274562090635264 37.118613436818123 8.1649807989597303
leaf_count=30 22 25 67 23 22 20 34 72 64 49 56 21 23 21 36 22 78 26 26 30 33 23 220 35 35 95 25 45 207 45
internal_value=0.000802594 0.0074896 0.0158291 0.0108577 0.00748145 0.0277012 0.0134934 -0.00102968 0.00922834 0.0205612 0.0343669 0.0123445 0.0652171 0.0507715 0.0426092 0.056094 -0.00466477 0.0719215 -0.00989997 0.00945343 -0.00978702 0.0147256 -0.0139036 -0.0169401 -0.0206802 -0.00788217 0.00912963 -0.0138211 -0.0193848 -0.0284843
internal_weight=278.39 191.709 129.632 120.175 111.897 32.48 28.2913 79.4169 58.2984 46.149 34.4674 20.9281 13.5394 8.27772 10.6731 7.83068 20.4606 9.45732 62.0775 20.4183 14.7619 8.87792 86.6806 81.2941 74.9824 36.0444 18.9356 12.4933 41.6592 21.1185
internal_count=1530 1045 701 653 609 176 154 433 316 249 185 113 72 44 57 42 112 48 344 112 82 49 485 455 420 200 105 70 232 117
is_linear=0
shrinkage=0.05


Tree=17
num_leaves=31
num_cat=0
split_feature=64 2 70 17 22 65 64 19 45 29 54 30 18 4 69 21 20 45 4 16 14 74 30 30 50 69 43 17 21 6
split_gain=29.8068 13.2171 12.3227 11.204 13.885 11.1516 9.15139 9.85629 8.60665 7.9593 7.7117 7.52902 9.08183 6.9462 6.61266 5.91329 5.44796 6.2253 5.40836 6.24461 5.28019 4.89308 4.6655 4.17524 3.805 3.78148 3.59383 3.58718 3.27773 3.26052
threshold=0.2224935591220856 -1.185676574707031 -0.21261373907327649 -0.11708945408463477 -0.023448387160897251 0.60872462391853344 -1.6572055816650388 -0.81075367331504811 -0.38132047653198237 0.3130593746900559 0.10256411880254747 -1.2262646555900572 -1.0838064551353452 -0.0075020969379693261 -0.35056374967098231 0.52580302953720104 0.027391168288886551 0.17348204553127292 0.37348338961601263 -0.95972168445587147 0.34813646972179418 -1.0000000180025095e-35 -1.0099771618843076 -0.56640917062759388 -0.28962124884128565 0.51861250400543224 0.25306414067745214 -0.93876445293426503 0.77595973014831554 0.17726229131221774
decision_type=2 2 2 2 2 2 2 2 2 2 2 2 2 2 2 2 2 2 2 2 2 2 2 2 2 2 2 2 2 2
left_child=6 2 13 4 8 -6 -1 9 -3 -8 15 12 -9 -2 -4 20 17 -12 -13 -20 22 -7 -5 -21 -14 -24 -16 -10 -17 -22
right_child=1 3 14 10 5 21 7 11 27 -11 16 18 24 -15 26 28 -18 -19 19 23 29 -23 25 -25 -26 -27 -28 -29 -30 -31
leaf_value=-0.04189378084818756 0.029399647804491544 0.059133720028597653 0.072002473755689911 0.030014388335020459 0.0088635695863773668 0.046251330065899536 0.071978180959516733 0.066639448945224847 0.013873140686310468 -0.016887124876861104 0.037480763836763041 -0.037673349448003962 0.027655478775499998 0.13039139007321046 0.023516211747712103 0.081607288267717751 -0.038194332814533036 -0.032180050122780475 0.03315045201636254 0.017366778226538069 0.064648140412835994 0.1323679526430635 -0.040103391281289008 -0.031667699168899111 -0.034380860480468976 0.014943085358026055 -0.031561915412519757 -0.038050086717170854 0.010483523604359083 -0.0014111236777849942
leaf_weight=30.629684582352638 3.4381571859121323 3.6027207672596022 3.1154759079217902 4.0351558029651722 5.8751665353775016 4.7404859513044348 5.2000639736652357 4.6084775179624549 4.5521834343671825 3.7115937769412994 5.9246799498796481 31.572659209370613 2.9166594147682181 4.8301072567701357 5.1873273551464063 3.2023034989833823 18.183960616588593 4.9947328120470047 6.3011266589164761 5.0315489172935548 3.3857282400131217 4.4821041822433463 10.564600467681883 16.750960871577259 6.02034106850624 3.6707455366849908 4.6919748485088348 8.2009767889976466 3.1862819492816925 3.180847093462944
leaf_count=219 22 23 20 26 38 30 35 30 30 26 39 221 20 30 34 21 125 34 42 34 22 27 72 116 42 24 31 55 21 21
internal_value=-0.000884468 0.0171823 0.0517833 0.00869466 0.0323909 0.0653568 -0.0189915 -0.0100473 -5.16103e-05 0.0369972 -0.00398652 -0.016196 0.0165479 0.0960996 0.0187339 0.0130827 -0.0221267 0.00559017 -0.023781 -0.00740443 0.00134583 0.0969578 -0.0126025 -0.0200761 -0.0133892 -0.0258599 -0.00313872 -0.0198552 0.0523545 0.0366916
internal_weight=225.789 113.046 21.263 91.7827 31.4536 15.0978 112.743 82.1134 16.3559 8.91166 60.329 73.2018 13.5455 8.26826 12.9948 31.2257 29.1034 10.9194 59.6563 28.0836 24.8371 9.22259 18.2705 21.7825 8.937 14.2353 9.8793 12.7532 6.38859 6.56658
internal_count=1530 745 137 608 203 95 785 566 108 61 405 505 92 52 85 207 198 73 413 192 165 57 122 150 62 96 65 85 42 43
is_linear=0
shrinkage=0.05


end of trees

feature_importances:
Column_45=23
Column_41=20
Column_4=16
Column_6=16
Column_26=16
Column_17=15
Column_33=15
Column_5=14
Column_14=14
Column_18=14
Column_20=14
Column_64=13
Column_68=13
Column_21=12
Column_46=12
Column_50=12
Column_57=12
Column_62=12
Column_30=11
Column_52=11
Column_70=11
Column_9=10
Column_19=10
Column_38=10
Column_42=10
Column_53=10
Column_66=10
Column_71=10
Column_8=9
Column_54=9
Column_67=9
Column_74=9
Column_10=8
Column_22=8
Column_31=8
Column_32=8
Column_40=8
Column_43=8
Column_69=8
Column_16=7
Column_29=7
Column_58=7
Column_65=7
Column_28=6
Column_56=6
Column_55=5
Column_7=4
Column_44=4
Column_59=4
Column_23=3
Column_34=3
Column_35=3
Column_72=3
Column_2=2
Column_27=2
Column_47=2
Column_1=1
Column_3=1
Column_11=1
Column_12=1
Column_36=1
Column_49=1
Column_61=1

parameters:
[boosting: gbdt]
[objective: multiclass]
[metric: multi_logloss]
[tree_learner: serial]
[device_type: cpu]
[data_sample_strategy: bagging]
[data: ]
[valid: ]
[num_iterations: 500]
[learning_rate: 0.05]
[num_leaves: 31]
[num_threads: 0]
[seed: 42]
[deterministic: 0]
[force_col_wise: 0]
[force_row_wise: 0]
[histogram_pool_size: -1]
[max_depth: -1]
[min_data_in_leaf: 20]
[min_sum_hessian_in_leaf: 0.001]
[bagging_fraction: 0.8]
[pos_bagging_fraction: 1]
[neg_bagging_fraction: 1]
[bagging_freq: 5]
[bagging_seed: 400]
[bagging_by_query: 0]
[feature_fraction: 0.8]
[feature_fraction_bynode: 1]
[feature_fraction_seed: 30056]
[extra_trees: 0]
[extra_seed: 12879]
[early_stopping_round: 0]
[early_stopping_min_delta: 0]
[first_metric_only: 0]
[max_delta_step: 0]
[lambda_l1: 0]
[lambda_l2: 1]
[linear_lambda: 0]
[min_gain_to_split: 0]
[drop_rate: 0.1]
[max_drop: 50]
[skip_drop: 0.5]
[xgboost_dart_mode: 0]
[uniform_drop: 0]
[drop_seed: 17869]
[top_rate: 0.2]
[other_rate: 0.1]
[min_data_per_group: 100]
[max_cat_threshold: 32]
[cat_l2: 10]
[cat_smooth: 10]
[max_cat_to_onehot: 4]
[top_k: 20]
[monotone_constraints: ]
[monotone_constraints_method: basic]
[monotone_penalty: 0]
[feature_contri: ]
[forcedsplits_filename: ]
[refit_decay_rate: 0.9]
[cegb_tradeoff: 1]
[cegb_penalty_split: 0]
[cegb_penalty_feature_lazy: ]
[cegb_penalty_feature_coupled: ]
[path_smooth: 0]
[interaction_constraints: ]
[verbosity: -1]
[saved_feature_importance_type: 0]
[use_quantized_grad: 0]
[num_grad_quant_bins: 4]
[quant_train_renew_leaf: 0]
[stochastic_rounding: 1]
[linear_tree: 0]
[max_bin: 255]
[max_bin_by_feature: ]
[min_data_in_bin: 3]
[bin_construct_sample_cnt: 200000]
[data_random_seed: 175]
[is_enable_sparse: 1]
[enable_bundle: 1]
[use_missing: 1]
[zero_as_missing: 0]
[feature_pre_filter: 1]
[pre_partition: 0]
[two_round: 0]
[header: 0]
[label_column: ]
[weight_column: ]
[group_column: ]
[ignore_column: ]
[categorical_feature: ]
[forcedbins_filename: ]
[precise_float_parser: 0]
[parser_config_file: ]
[objective_seed: 16083]
[num_class: 6]
[is_unbalance: 0]
[scale_pos_weight: 1]
[sigmoid: 1]
[boost_from_average: 1]
[reg_sqrt: 0]
[alpha: 0.9]
[fair_c: 1]
[poisson_max_delta_step: 0.7]
[tweedie_variance_power: 1.5]
[lambdarank_truncation_level: 30]
[lambdarank_norm: 1]
[label_gain: ]
[lambdarank_position_bias_regularization: 0]
[eval_at: ]
[multi_error_top_k: 1]
[auc_mu_weights: ]
[num_machines: 1]
[local_listen_port: 12400]
[time_out: 120]
[machine_list_filename: ]
[machines: ]
[gpu_platform_id: -1]
[gpu_device_id: -1]
[gpu_use_dp: 0]
[num_gpu: 1]

end of parameters

pandas_categorical:null
