tree
version=v4
num_class=6
num_tree_per_iteration=6
label_index=0
max_feature_idx=75
objective=multiclass num_class:6
feature_names=Column_0 Column_1 Column_2 Column_3 Column_4 Column_5 Column_6 Column_7 Column_8 Column_9 Column_10 Column_11 Column_12 Column_13 Column_14 Column_15 Column_16 Column_17 Column_18 Column_19 Column_20 Column_21 Column_22 Column_23 Column_24 Column_25 Column_26 Column_27 Column_28 Column_29 Column_30 Column_31 Column_32 Column_33 Column_34 Column_35 Column_36 Column_37 Column_38 Column_39 Column_40 Column_41 Column_42 Column_43 Column_44 Column_45 Column_46 Column_47 Column_48 Column_49 Column_50 Column_51 Column_52 Column_53 Column_54 Column_55 Column_56 Column_57 Column_58 Column_59 Column_60 Column_61 Column_62 Column_63 Column_64 Column_65 Column_66 Column_67 Column_68 Column_69 Column_70 Column_71 Column_72 Column_73 Column_74 Column_75
feature_infos=none [-1.5447756052017212:2.9870493412017822] [-1.3920965194702148:1.4269504547119141] [-1.4503970146179199:1.6017783880233765] [-2.8588864803314209:2.2330653667449951] [-3.5687768459320068:1.9535884857177734] [-1.8694056272506714:3.0054152011871338] [-3.0407893657684326:4.3960466384887695] [-3.6433324813842773:3.0522928237915039] [-3.1801962852478027:4.6699013710021973] [-1.3951359987258911:10.293401718139648] [-6.7631840705871582:5.3789758682250977] [-0.80819958448410034:10.798158645629883] none [-4.3865962028503418:5.6530938148498535] [-0.23276343941688538:4.2962074279785156] [-2.5920979976654053:2.4011871814727783] [-3.2646019458770752:2.0816640853881836] [-1.713068962097168:3.1785054206848145] [-3.0320124626159668:4.4093904495239258] [-3.6316945552825928:3.0637962818145752] [-3.2013812065124512:4.6931052207946777] [-1.6594877243041992:9.8288230895996094] [-6.5892024040222168:5.0263166427612305] [-0.75531834363937378:9.8977041244506836] [-3.1124308109283447:11.595115661621094] [-4.912165641784668:5.2719125747680664] [-0.24568614363670349:4.0702338218688965] [-2.5812065601348877:2.4225411415100098] [-3.2483162879943848:2.0949232578277588] [-1.70088791847229:3.1849555969238281] [-3.0380957126617432:4.4146628379821777] [-3.6296088695526123:3.0575873851776123] [-3.1767659187316895:4.6714024543762207] [-1.7231485843658447:9.8238096237182617] [-6.5489006042480469:4.9877753257751465] [-0.76924508810043335:9.4855546951293945] [-5.6820244789123535:8.1827287673950195] [-4.2410726547241211:5.1534633636474609] [-0.24588385224342346:4.0669612884521484] [-2.3188149929046631:2.3337748050689697] [-2.9636096954345703:1.961786150932312] [-1.5919474363327026:3.1580772399902344] [-3.0455248355865479:4.4289722442626953] [-3.6443333625793457:3.0712933540344238] [-3.1868109703063965:4.6827278137207031] [-1.7015087604522705:10.254643440246582] [-5.8774509429931641:4.8342218399047852] [-0.77272367477416992:8.7187070846557617] [-6.8339405059814453:4.3430166244506836] [-4.2239136695861816:5.3525805473327637] [-0.24476191401481628:4.0856027603149414] [-2.0842430591583252:2.2705574035644531] [-2.5718169212341309:1.8694244623184204] [-1.4897009134292603:3.1538829803466797] [-3.0398736000061035:4.4332671165466309] [-3.6350600719451904:3.0738387107849121] [-3.2036564350128174:4.6973772048950195] [-1.5233472585678101:10.105313301086426] [-4.3305425643920898:3.7146530151367188] [-0.72457098960876465:8.1155157089233398] [-5.9416069984436035:2.0054905414581299] [-4.5370659828186035:5.0436520576477051] [-0.23882177472114563:4.1872224807739258] [-1.8474061489105225:2.1127426624298096] [-2.1733055114746094:1.6133925914764404] [-1.3824012279510498:3.0491423606872559] [-3.0511353015899658:4.4578866958618164] [-3.6499016284942627:3.0919601917266846] [-3.1800408363342285:4.659203052520752] [-1.8331458568572998:10.289813041687012] [-3.2249736785888672:3.0245773792266846] [-0.70773530006408691:6.7965569496154785] [-7.574409008026123:0.30111774802207947] [-4.4785051345825195:5.0786428451538086] [-0.24263916909694672:4.1213459968566895]
tree_sizes=3326 3323 3321 3309 3309 3323 3420 3424 3416 3423 3424 3410 3409 3415 3419 3417 3413 3415 3421 3430 3425 3404 3416 3399

Tree=0
num_leaves=31
num_cat=0
split_feature=44 31 10 31 45 46 62 44 34 18 74 64 28 8 72 19 14 30 22 58 57 34 41 56 65 31 34 9 68 54
split_gain=15.0054 15.9442 10.453 7.96533 6.66722 8.45635 10.5715 7.24378 6.69736 6.4521 13.9692 11.1001 6.47474 6.23855 6.19564 5.68721 6.16052 5.02781 4.92467 5.30592 4.99896 5.05654 4.5075 6.51613 8.30921 8.11479 3.98952 3.75585 3.37459 3.26733
threshold=0.012698456179350616 0.94027999043464672 -0.13433440774679181 1.5937936902046206 -0.19195967167615888 -0.37070029973983759 -0.52742069959640492 -0.041399676352739327 -0.048559280112385743 0.35273933410644537 0.08814962208271028 0.31925150752067571 0.9661298692226411 -0.10729833692312239 -1.0000000180025095e-35 0.19569595903158191 -0.50252620875835408 0.16792391240596774 -0.22525057941675183 -0.42508496344089503 0.33946324884891516 -0.090599182993173585 -0.14130628854036328 -0.055489765480160706 -0.20176578313112256 -0.11102472618222235 -1.0000000180025095e-35 -0.30460746586322779 -1.1393070220947263 -1.1908900141716001
decision_type=2 2 2 2 2 2 2 2 2 2 2 2 2 2 2 2 2 2 2 2 2 2 2 2 2 2 2 2 2 2
left_child=1 4 -3 -4 5 8 14 18 -1 22 27 13 -13 -12 -7 16 -8 -17 20 -20 21 -6 23 24 -2 -26 -15 -11 -24 -25
right_child=9 2 3 -5 7 6 15 -9 -10 10 11 12 -14 26 -16 17 -18 -19 19 -21 -22 -23 28 29 25 -27 -28 -29 -30 -31
leaf_value=-1.700166379801523 -1.8344891857494714 -1.8113127981376762 -1.6924011523614166 -1.7899231435776097 -1.7399311664791166 -1.8049991330062052 -1.7859152125067019 -1.7562327267754487 -1.7945512927172473 -1.7953254042461269 -1.8011427390496206 -1.8431234892761426 -1.7692574396330372 -1.6919165430171834 -1.7225029716308498 -1.8162641274883535 -1.849630547737946 -1.7450447616895663 -1.7926964085082091 -1.8405488152763547 -1.8296586395417649 -1.8093611498269231 -1.7945512927172473 -1.8521651185871524 -1.8168354480724747 -1.7283677966910425 -1.7756929653838194 -1.835239346618438 -1.8408817982850927 -1.8167321450673177
leaf_weight=3.4564885944128036 5.5962196290493003 4.4440567642450324 6.583787798881529 3.4564885944128036 4.1148673743009558 3.7856779843568802 4.6086514592170724 3.9502726793289176 3.7856779843568793 7.0775718837976482 3.4564885944128036 6.0900037139654142 4.1148673743009567 4.4440567642450333 4.9378408491611463 5.1024355441331846 12.180007427930835 3.4564885944128036 6.7483824938535646 26.00596180558205 6.2545984089374533 5.2670302391052237 3.7856779843568793 8.8881135284900683 3.9502726793289176 5.5962196290493003 3.2918938994407672 24.030825465917587 44.934351727366447 21.232715651392937
leaf_count=21 34 27 40 21 25 23 28 24 23 43 21 37 25 27 30 31 74 21 41 158 38 32 23 54 24 34 20 146 273 129
internal_value=-1.8085 -1.79444 -1.74743 -1.72135 -1.80227 -1.78749 -1.79876 -1.81409 -1.74196 -1.8189 -1.80488 -1.77461 -1.8126 -1.74239 -1.75438 -1.81546 -1.83192 -1.78399 -1.81975 -1.83055 -1.79711 -1.77535 -1.82668 -1.81506 -1.78907 -1.7624 -1.71986 -1.82607 -1.8371 -1.82829
internal_weight=254.628 108.139 14.4843 10.0403 93.6544 41.3133 34.0711 52.3411 7.24217 146.489 52.5057 21.3973 10.2049 11.1924 8.72352 25.3476 16.7887 8.55892 48.3908 32.7543 15.6365 9.3819 93.9836 45.2635 15.1427 9.54649 7.73595 31.1084 48.72 30.1208
internal_count=1547 657 88 61 569 251 207 318 44 890 319 130 62 68 53 154 102 52 294 199 95 57 571 275 92 58 47 189 296 183
is_linear=0
shrinkage=1


Tree=1
num_leaves=31
num_cat=0
split_feature=17 34 4 64 16 18 22 53 29 44 28 62 59 53 32 3 35 18 58 52 10 34 8 22 29 62 35 62 44 68
split_gain=20.4153 12.9518 13.4441 14.1495 13.2013 11.6867 10.2018 13.5561 11.2979 9.9237 8.9055 8.13439 8.08776 7.64746 6.93748 6.61612 5.68573 10.7174 8.61257 5.55695 5.52175 6.71745 7.85287 6.54293 5.21608 5.18445 5.09167 4.99217 5.34639 4.97353
threshold=1.202162563800812 -0.23073218017816541 -0.70281040668487538 -0.13439613580703733 -0.41546960175037378 0.18242289870977405 0.091867163777351393 -0.15961435437202451 -0.53469502925872792 0.47383803129196173 -0.10446964576840399 -0.45953252911567682 -0.17385836876928804 -1.2015604972839353 -0.80501160025596608 1.0000000180025095e-35 0.41288688778877264 0.72556424140930187 -0.20973940938711164 0.55455777049064647 0.22788486629724505 -0.52501147985458363 -0.22261197119951245 -0.42705279588699335 -1.0071258544921873 -0.086147587746381746 0.41288688778877264 0.84731471538543712 -0.11377915740013121 0.29970587790012365
decision_type=2 2 2 2 2 2 2 2 2 2 2 2 2 2 2 2 2 2 2 2 2 2 2 2 2 2 2 2 2 2
left_child=1 20 13 4 6 -2 7 8 -4 11 15 -6 19 29 -15 24 17 -7 -19 -12 21 22 -1 -23 -5 -24 -9 28 -17 -3
right_child=5 2 3 10 9 16 -8 26 -10 -11 12 -13 -14 14 -16 27 -18 18 -20 -21 -22 23 25 -25 -26 -27 -28 -29 -30 -31
leaf_value=-1.3160359621013649 -1.2884593827298858 -1.3250913193871376 -1.2685118556717041 -1.3794234631017754 -1.3653982980725405 -1.3999045145871656 -1.411239254570855 -1.4207991045006687 -1.3653982980725405 -1.3781818267003971 -1.3434145072420274 -1.3004201570666816 -1.4127145604090268 -1.367547702490959 -1.4137483565619196 -1.3572871182101407 -1.4027766332758631 -1.3737983461389622 -1.2938997561368357 -1.3977003758738302 -1.4193728436798214 -1.3501341196151975 -1.3569578114213448 -1.4061314374724403 -1.3126555398543462 -1.4147806657324176 -1.3585040678189724 -1.3381052377736669 -1.4065653140450314 -1.3919838606340726
leaf_weight=4.5215934514999416 6.5563105046749142 4.5215934514999372 4.7476731240749341 4.521593451499939 7.0084698498249081 6.3302308320999208 11.982222646474836 6.5563105046749115 7.0084698498249072 8.8171072304248792 8.3649478852748889 18.764612823724747 30.972915142774582 9.49534624814987 42.050819098949432 7.460629194974902 5.4259121417999259 5.6519918143749299 7.9127885401248852 8.5910275578498823 25.320923328399658 4.973752796649932 6.7823901772499093 51.546165347099304 7.2345495223999006 6.7823901772499058 4.9737527966499329 4.747673124074935 15.147338062524797 4.9737527966499329
leaf_count=20 29 20 21 20 31 28 53 29 31 39 37 83 137 42 186 33 24 25 35 38 112 22 30 228 32 30 22 21 67 22
internal_value=-1.38088 -1.38475 -1.3779 -1.37015 -1.35356 -1.34336 -1.37535 -1.35632 -1.32067 -1.33207 -1.38361 -1.31692 -1.39788 -1.39762 -1.40518 -1.36609 -1.36048 -1.34837 -1.32454 -1.37042 -1.39956 -1.39239 -1.36638 -1.40079 -1.33635 -1.38633 -1.39443 -1.37992 -1.39007 -1.35802
internal_weight=349.745 317.868 217.941 156.899 69.8586 31.8772 35.2684 23.2862 11.7561 34.5902 87.0407 25.7731 47.9289 61.0415 51.5462 39.1118 25.3209 19.895 13.5648 16.956 99.9272 74.6063 18.0864 56.5199 11.7561 13.5648 11.5301 27.3556 22.608 9.49535
internal_count=1547 1406 964 694 309 141 156 103 52 153 385 114 212 270 228 173 112 88 60 75 442 330 80 250 52 60 51 121 100 42
is_linear=0
shrinkage=1


Tree=2
num_leaves=31
num_cat=0
split_feature=28 52 45 28 17 30 3 22 19 5 58 74 52 30 50 34 10 52 72 34 30 36 50 17 45 52 8 45 16 38
split_gain=16.439 13.2868 14.5342 9.43741 9.27974 14.133 10.1498 7.76696 9.83738 9.09229 7.31664 7.31496 7.26814 7.55662 6.51107 5.6144 8.82351 6.14578 9.31163 8.18836 6.11246 6.1115 5.63566 7.18526 5.49174 5.38618 5.20518 5.00168 4.55713 4.54584
threshold=-0.55769383907318104 -0.75241270661354054 -0.65822979807853688 1.126472055912018 -0.29964654147624964 0.12642534822225573 1.0000000180025095e-35 0.14952493458986285 0.15337315946817401 0.18878823518753055 0.16352622956037524 -1.6487580537796018 1.1717475056648257 0.7752877175807954 0.10250091552734376 -0.20270557701587674 -0.16219743341207501 -0.33045646548271174 1.0000000180025095e-35 -0.53902477025985707 -0.47516722977161402 -1.0000000180025095e-35 0.041504139080643661 -0.2330789044499397 -0.3100027441978454 0.3454026877880097 0.25463739037513738 0.93240070343017589 0.49288415908813482 -0.36681137979030604
decision_type=2 2 2 2 2 2 2 2 2 2 2 2 2 2 2 2 2 2 2 2 2 2 2 2 2 2 2 2 2 2
left_child=7 2 -2 11 5 -4 -6 27 -9 -10 12 -3 13 25 -8 17 22 -13 19 -19 28 -21 23 -17 -20 -5 -24 -1 -18 -15
right_child=1 3 4 10 6 -7 14 8 9 -11 -12 15 -14 29 -16 16 20 18 24 21 -22 -23 26 -25 -26 -27 -28 -29 -30 -31
leaf_value=-1.5144022721175978 -1.516606120911645 -1.4459094844965581 -1.4655913508764205 -1.5060513589537197 -1.430570100859434 -1.3796191966053857 -1.5275714441554069 -1.5040348751894812 -1.3979465734945902 -1.4856867670935043 -1.5094620006185173 -1.5130641343201663 -1.4968487301023081 -1.4571099735259252 -1.4604986310992323 -1.4165501615335285 -1.4539331979128738 -1.5033363287131645 -1.4626194316805774 -1.4668182111591361 -1.5194620977865974 -1.4003399295889614 -1.4729629535822959 -1.4857879032598493 -1.5126362544322876 -1.4374171321785572 -1.532952404926009 -1.4758140879188342 -1.5136443984282788 -1.3829102400209048
leaf_weight=66.75229150056839 7.3469503223896018 7.9766889214515677 9.6559918522834796 4.8279959261417478 9.4460789859294909 9.8659047186374647 6.7172117233276349 15.323639243841173 4.6180830597877485 6.2973859906196594 5.4577345252037039 9.8659047186374647 5.8775602579116812 4.4081701934337669 5.8775602579116821 5.4577345252037039 6.5072988569736463 4.4081701934337643 7.9766889214515695 7.1370374560356149 45.551091998815536 7.5568631887435886 7.1370374560356122 9.0262532532215136 13.224510580301285 4.8279959261417389 5.6676473915576935 9.0262532532215101 4.6180830597877502 6.2973859906196523
leaf_count=318 35 38 46 23 45 47 32 73 22 30 26 47 28 21 28 26 31 21 38 34 217 36 34 43 63 23 27 43 22 30
internal_value=-1.48514 -1.47754 -1.45479 -1.48408 -1.44343 -1.41902 -1.46708 -1.50168 -1.47848 -1.44419 -1.45986 -1.48964 -1.44911 -1.43552 -1.49661 -1.49253 -1.50038 -1.47939 -1.47072 -1.44632 -1.51148 -1.42927 -1.47726 -1.45682 -1.49356 -1.47028 -1.50091 -1.50972 -1.47886 -1.40828
internal_weight=324.735 222.718 48.9097 173.808 41.5627 19.5219 22.0409 102.018 26.2391 10.9155 31.6968 142.111 26.2391 20.3615 12.5948 134.134 83.9651 50.1692 40.3033 19.1021 56.6765 14.6939 27.2887 14.484 21.2012 9.65599 12.8047 75.7785 11.1254 10.7056
internal_count=1547 1061 233 828 198 93 105 486 125 52 151 677 125 97 60 639 400 239 192 91 270 70 130 69 101 46 61 361 53 51
is_linear=0
shrinkage=1


Tree=3
num_leaves=31
num_cat=0
split_feature=40 38 6 4 7 74 4 70 17 55 44 32 54 20 29 14 20 26 32 9 17 26 55 14 38 20 7 7 6 12
split_gain=21.9662 15.7062 11.9717 10.6808 10.4271 9.93806 8.55082 9.14674 8.29624 9.30222 7.67086 10.4806 7.14955 7.52068 6.73072 7.27203 9.70856 9.6715 9.58723 7.52447 7.0244 5.96543 5.78227 6.00328 5.54691 5.44974 5.36145 5.11276 4.92813 4.31101
threshold=-0.076803609728813158 0.40366309881210333 0.43474100530147558 0.65757545828819286 0.21933369338512423 0.27929258346557623 0.096755344420671477 -0.12986316159367559 1.1803096532821657 0.43887336552143102 0.017548670992255214 0.21255686134099963 -0.93674412369728077 0.39378339052200323 0.27576220035552984 -0.70818090438842762 0.45701861381530767 -0.44507871568202967 0.66877222061157238 -0.35268929600715632 0.2813085168600083 -0.0049716166686266652 -0.45089749991893763 -0.0070852823555469504 0.80641117691993724 -0.28952874243259424 0.29695558547973638 1.0401742458343508 0.9625861942768098 1.0000000180025095e-35
decision_type=2 2 2 2 2 2 2 2 2 2 2 2 2 2 2 2 2 2 2 2 2 2 2 2 2 2 2 2 2 2
left_child=14 3 6 12 5 -4 7 -3 9 10 -5 -12 13 21 15 -1 17 24 19 -18 -21 -2 23 -19 25 -17 -27 -14 -6 -9
right_child=1 2 4 8 28 -7 -8 29 -10 -11 11 -13 27 -15 -16 16 18 22 -20 20 -22 -23 -24 -25 -26 26 -28 -29 -30 -31
leaf_value=-1.8859889130935756 -1.8515946792405913 -1.7726006954043121 -1.6905545062669383 -1.8392933223401657 -1.7906127373727572 -1.818092849939106 -1.8738891915175422 -1.818092849939106 -1.8829916613952649 -1.8571020474624622 -1.7196513542674225 -1.8237206941424378 -1.8756916036521745 -1.876562871564704 -1.8835217268739439 -1.8915264158866483 -1.8603348764171397 -1.8043820201940404 -1.8824092920646167 -1.754901851130463 -1.8442384279041228 -1.7717234282543981 -1.8885637901971593 -1.8817897116731512 -1.7836554818174719 -1.7865399751429742 -1.8673178090085822 -1.8213996468080313 -1.8673178090085822 -1.8899635349655299
leaf_weight=17.934024900197983 3.9677046239376059 6.34832739830017 3.967704623937605 6.1896192133426764 3.491580069065094 3.1741636991500854 7.9354092478752127 3.1741636991500881 4.2851209938526145 7.9354092478752127 4.7612455487251264 5.3960782885551453 41.105419903993607 4.9199537336826316 39.994462609291077 3.8089964389801017 3.8089964389801034 4.1264128088951111 4.1264128088951102 6.8244519531726837 3.3328718841075897 4.7612455487251273 25.393309593200684 3.967704623937605 3.6502882540225974 3.3328718841075888 3.3328718841075897 3.9677046239376059 3.3328718841075897 3.1741636991500854
leaf_count=113 25 40 25 39 22 20 50 20 27 50 30 34 259 31 252 24 24 26 26 43 21 30 160 25 23 21 21 25 21 20
internal_value=-1.85211 -1.83711 -1.80912 -1.84858 -1.77489 -1.73606 -1.8348 -1.81058 -1.82403 -1.81283 -1.79231 -1.76741 -1.86079 -1.83016 -1.86691 -1.85869 -1.85084 -1.86273 -1.82065 -1.80162 -1.78086 -1.80422 -1.87717 -1.84139 -1.82911 -1.84956 -1.82361 -1.87034 -1.82519 -1.85425
internal_weight=245.522 121.888 34.5984 87.2895 13.9663 7.14187 20.6321 12.6967 28.5675 24.2824 16.3469 10.1573 58.722 13.6489 123.634 83.6392 65.7052 47.6125 18.0927 13.9663 10.1573 8.72895 33.4874 8.09412 14.125 10.4747 6.66574 45.0731 6.82445 6.34833
internal_count=1547 768 218 550 88 45 130 80 180 153 103 64 370 86 779 527 414 300 114 88 64 55 211 51 89 66 42 284 43 40
is_linear=0
shrinkage=1


Tree=4
num_leaves=31
num_cat=0
split_feature=54 65 5 16 74 19 54 44 4 67 68 65 61 46 21 32 31 47 66 65 40 57 54 41 30 69 50 10 33 50
split_gain=27.0201 14.4574 12.1496 11.5802 11.6518 10.1406 9.20547 8.45303 8.44793 9.68115 14.9665 8.11005 7.56589 12.6469 5.40757 6.89067 7.47219 5.04251 6.35644 4.49965 4.27984 4.04315 3.82453 3.72485 3.52545 4.12836 3.32396 3.05069 2.71803 1.95921
threshold=0.60719922184944164 -1.367539584636688 -1.2288035750389097 0.90753433108329784 0.5119883418083192 0.17383695393800738 0.19241625815629962 0.067915812134742751 0.87074148654937755 0.3218234926462174 -0.23664665967226026 0.19816432893276217 1.0000000180025095e-35 0.037695940583944328 1.2984760999679568 -0.83361798524856556 -1.1068994998931883 1.0000000180025095e-35 0.10998551174998285 1.2878733873367312 0.076535657048225417 -1.0000000180025095e-35 -0.11005135625600813 -0.73045983910560597 1.3194417953491213 0.079124834388494505 1.5925650000572207 0.11643278598785402 -0.16012620180845258 0.0066488366574049005
decision_type=2 2 2 2 2 2 2 2 2 2 2 2 2 2 2 2 2 2 2 2 2 2 2 2 2 2 2 2 2 2
left_child=2 7 6 4 8 21 17 -2 9 10 -3 -12 13 -4 15 16 27 -1 23 24 -18 -6 -16 -19 26 -26 29 -14 -11 -17
right_child=1 3 12 -5 5 -7 -8 -9 -10 28 11 -13 14 -15 22 19 20 18 -20 -21 -22 -23 -24 -25 25 -27 -28 -29 -30 -31
leaf_value=-2.0914301322532314 -2.0464891512389149 -2.0751115185919402 -2.0843904167490934 -2.0889542105315093 -2.0138117680257901 -2.0562320815877744 -1.9855110839411083 -1.9314776697191287 -2.0975414547203304 -2.0441157208713743 -2.0359652406160644 -1.9157844244236277 -2.0985690851636569 -1.962142682440877 -2.0721775806506173 -2.0880833735837547 -1.9758048555126266 -2.1007694284557199 -1.9924917360345857 -2.0402068233244059 -2.059672278130007 -1.9074939901538785 -2.003129201656126 -2.0360585619294138 -2.0167913747278754 -2.0892078657037141 -2.055597782373598 -2.0488290328817396 -2.1019781423644286 -2.1042292048979476
leaf_weight=6.2503886520862642 2.7927268445491782 4.3885707557201377 4.3885707557201377 9.841037452220915 3.058700829744339 3.4576618075370789 4.9205187261104575 4.2555837631225586 5.8514276742935172 2.6597398519515991 2.9257138371467653 3.3246748149394989 6.3833756446838397 2.6597398519515991 3.9896097779273987 51.598953127861023 2.6597398519515982 3.3246748149395025 3.5906488001346588 3.8566227853298178 2.7927268445491791 2.6597398519515973 2.6597398519515982 3.5906488001346535 2.6597398519515982 3.3246748149394989 5.1864927113056174 4.5215577483177185 3.8566227853298178 38.300253868103027
leaf_count=47 21 33 33 74 23 26 37 32 44 20 22 25 48 20 30 388 20 25 27 29 21 20 20 27 20 25 39 34 29 288
internal_value=-2.06296 -2.03097 -2.07313 -2.04329 -2.029 -1.98428 -2.03914 -1.9692 -2.04942 -2.03206 -2.0046 -1.9604 -2.07873 -2.03133 -2.08157 -2.08402 -2.05432 -2.05843 -2.03813 -2.0887 -2.01142 -1.94842 -2.0402 -2.06787 -2.09076 -2.05486 -2.0931 -2.0784 -2.07885 -2.09533
internal_weight=205.731 49.0722 156.659 42.0239 32.1829 9.1761 21.6769 7.04831 23.0067 17.1553 10.639 6.25039 134.982 7.04831 127.933 121.284 16.3574 16.7564 10.506 104.927 5.45247 5.71844 6.64935 6.91532 101.07 5.98441 95.0857 10.9049 6.51636 89.8992
internal_count=1547 369 1178 316 242 69 163 53 173 129 80 47 1015 53 962 912 123 126 79 789 41 43 50 52 760 45 715 82 49 676
is_linear=0
shrinkage=1


Tree=5
num_leaves=31
num_cat=0
split_feature=65 53 67 36 44 53 69 33 64 33 73 67 29 64 57 67 65 17 6 56 43 17 62 33 74 8 41 18 1 31
split_gain=32.0486 29.6731 14.3655 9.97716 15.7354 11.7893 8.02251 7.19991 11.0617 8.63912 8.17542 7.34589 6.23157 6.1911 5.81577 8.25014 5.48618 6.18543 3.98512 3.32496 3.15837 3.16004 2.64075 2.44168 1.94252 1.89415 1.85315 1.68399 1.04907 0.435772
threshold=0.52368327975273143 0.33055427670478826 0.70759958028793346 1.0000000180025095e-35 0.45779527723789221 0.086010392755270018 -0.16291185468435285 -0.03651753440499305 -0.5961824059486388 -0.24007937312126157 1.0000000180025095e-35 0.39738306403160101 -1.5914481878280637 0.022345955483615402 0.14983844012022021 0.6254696547985078 0.24848042428493503 -0.14196837693452832 -0.17234934121370313 -0.22656669467687604 1.2256830334663393 0.16700017452239993 0.17691907286643985 -0.097340919077396379 -0.89249682426452626 0.90522891283035289 1.2725424170494082 0.76601096987724315 1.0043759942054751 1.4647677540779116
decision_type=2 2 2 2 2 2 2 2 2 2 2 2 2 2 2 2 2 2 2 2 2 2 2 2 2 2 2 2 2 2
left_child=7 2 3 5 6 18 -5 8 24 10 -10 13 -9 -11 15 19 27 -18 -2 -3 26 -22 -8 -4 -1 -26 28 -12 29 -14
right_child=1 14 23 4 -6 -7 22 12 9 11 16 -13 20 -15 -16 -17 17 -19 -20 -21 21 -23 -24 -25 25 -27 -28 -29 -30 -31
leaf_value=-2.5922405495511827 -2.5687207275872739 -2.5724122265061538 -2.5398417837986247 -2.4159062327386627 -2.6166127144142011 -2.4955925644360977 -2.5945780969738896 -2.5635903200320582 -2.5253101693902815 -2.4452140989015954 -2.6397886170606082 -2.6098492528726451 -2.6421347561138022 -2.5773271664631134 -2.6397018420436109 -2.5156673407847348 -2.5144549532613607 -2.6179114086927022 -2.6376285353391729 -2.6362347906479822 -2.5521797309118868 -2.6286247489776611 -2.5144549532613607 -2.4048178613553537 -2.6414776252646095 -2.5899045085624128 -2.5899045085624128 -2.5899045085624128 -2.6065121967495282 -2.6087668973876759
leaf_weight=2.7237832993268993 2.2285499721765545 2.3936277478933334 1.815855532884598 2.4761666357517242 2.3936277478933334 1.6507777571678159 1.8983944207429888 2.641244411468505 2.3110888600349471 1.7333166450262063 8.3364276736974698 1.7333166450262067 37.390116199851036 1.8983944207429884 8.1713498979806882 2.0634721964597702 1.6507777571678159 2.5587055236101159 5.4475665986537942 4.3745610564947146 1.6507777571678155 1.8158555328845976 1.6507777571678159 1.8983944207429875 13.371299833059309 1.6507777571678151 1.6507777571678151 1.6507777571678151 2.8063221871852866 1.6507777571678151
leaf_count=33 27 29 22 30 29 20 23 32 28 21 101 21 453 23 99 25 20 31 66 53 20 22 20 23 162 20 20 20 34 20
internal_value=-2.59997 -2.56238 -2.52462 -2.54885 -2.51243 -2.58699 -2.47451 -2.6164 -2.60042 -2.57706 -2.59634 -2.52756 -2.6289 -2.49455 -2.61156 -2.58409 -2.61204 -2.56878 -2.61637 -2.61307 -2.63325 -2.58976 -2.54679 -2.44415 -2.62887 -2.63556 -2.63686 -2.63141 -2.63889 -2.64099
internal_weight=127.688 38.4631 21.4601 17.7459 8.41897 9.32689 6.02534 89.2245 39.6187 21.8728 16.5078 5.36503 49.6059 3.63171 17.003 8.83166 14.1967 4.20948 7.67612 6.76819 46.9646 3.46663 3.54917 3.71425 17.7459 15.0221 43.498 9.98721 41.8472 39.0409
internal_count=1547 466 260 215 102 113 73 1081 480 265 200 65 601 44 206 107 172 51 93 82 569 42 43 45 215 182 527 121 507 473
is_linear=0
shrinkage=1


Tree=6
num_leaves=31
num_cat=0
split_feature=44 31 21 40 55 67 54 66 14 38 38 34 33 26 21 18 74 67 18 10 38 34 66 40 69 58 9 70 33 8
split_gain=13.9259 14.0019 9.88991 9.65588 8.29605 7.57634 7.32717 6.25979 7.38241 7.27967 11.7267 7.71925 6.48075 6.44523 5.97491 7.93367 12.9953 11.2243 5.83982 5.47722 6.28796 5.27253 5.17276 7.60276 4.9293 9.06281 4.54891 3.76682 4.28613 3.60382
threshold=0.012698456179350616 0.94027999043464672 -0.96674826741218556 -0.66218423843383778 0.92929825186729442 0.21059615164995196 0.18875949829816821 0.21941550821065905 1.0492321252822878 0.088469009846448912 -1.0278434157371519 0.063547113910317435 0.74290364980697643 -0.0049716166686266652 0.42070780694484716 0.35273933410644537 0.08814962208271028 0.18149874359369281 -0.20608550310134885 0.21395335346460345 -0.42809914052486414 -0.06257257983088492 0.94030779600143444 -0.254932090640068 -0.33439531922340388 -0.19538303464651105 -0.30460746586322779 -0.29536432027816767 0.12436985224485399 0.68687716126441967
decision_type=2 2 2 2 2 2 2 2 2 2 2 2 2 2 2 2 2 2 2 2 2 2 2 2 2 2 2 2 2 2
left_child=1 4 6 -3 7 -5 -2 8 9 10 -1 19 -9 -11 15 22 26 -18 -15 20 -12 -19 27 -24 25 -16 -17 28 -4 -29
right_child=2 3 14 5 -6 -7 -8 12 -10 13 11 -13 -14 18 24 16 17 21 -20 -21 -22 -23 23 -25 -26 -27 -28 29 -30 -31
leaf_value=-0.023620196942066345 -0.0018413551146139056 0.10881885810243314 -0.024741353407624768 0.057248822081883921 -0.039386260203719839 -0.022631618843231355 0.085043847768874192 -0.016367306296040895 -0.028225901899996575 -0.025199576350229309 0.036936030589554407 0.0019245575268407986 0.037643798576771803 0.069349808669036409 0.054459855470580146 0.024898266369633236 -0.0059653605516688029 0.11742597996132785 -0.006619621504964467 0.018080697504402509 0.11629832806221677 0.029941634438447245 0.059305191715799226 -0.024563538063166867 -0.038324298651356364 -0.035175723093651683 -0.026102333241021548 -0.039944402965968913 0.030602349487055411 -0.00041135795810445574
leaf_weight=4.7309851795434907 5.249360188841818 4.6531326025724402 6.9965068697929365 5.9739847034215909 8.5443287491798383 4.4301208108663559 3.4473036825656891 28.882907927036285 5.9243138730525962 9.1601880639791506 5.3259005546569842 4.7870191335678092 5.8429169505834571 4.0239432901144028 3.7908399850130081 5.0068299770355233 5.8153473287820807 4.0578665733337393 4.7770516425371152 4.1439808309078208 7.7144377827644455 4.002733662724494 4.0277846455574036 4.9815370440483075 34.040685847401619 5.8570698052644712 15.989835783839226 29.819837048649788 5.2195639461278915 7.1169367283582678
leaf_count=29 32 27 43 35 52 26 21 176 36 56 32 29 35 24 23 30 35 23 29 25 46 24 24 31 209 36 99 184 32 44
internal_value=-0.001094 0.0123613 -0.0111872 0.0555218 0.00492495 0.0242334 0.037818 0.00976771 0.0208304 0.027813 0.0438918 0.0588243 -0.00648017 0.00285505 -0.0145563 -0.00724774 0.0114055 0.0472615 0.0316465 0.0736973 0.0888247 0.0820823 -0.0184355 0.0151105 -0.0296094 0.0018507 -0.0133618 -0.0247629 -0.000568333 -0.0325388
internal_weight=254.335 108.915 145.42 15.0572 93.858 10.4041 8.69666 85.3136 50.5878 44.6635 26.7023 21.9713 34.7258 17.9612 136.723 93.0348 34.8726 13.8759 8.80099 17.1843 13.0403 8.0606 58.1622 9.00932 43.6886 9.64791 20.9967 49.1528 12.2161 36.9368
internal_count=1547 657 890 88 569 61 53 517 306 270 161 132 211 109 837 569 211 82 53 103 78 47 358 55 268 59 129 303 75 228
is_linear=0
shrinkage=0.05


Tree=7
num_leaves=31
num_cat=0
split_feature=17 34 4 65 26 43 17 28 55 29 17 47 68 58 28 74 32 31 57 38 59 11 46 57 72 43 6 8 57 30
split_gain=18.2881 11.9916 12.3742 12.2664 12.3558 12.9445 9.14667 8.07288 7.34922 7.26758 8.13815 5.86829 6.74285 5.96955 6.6799 8.67906 5.67629 5.7008 5.52167 5.47687 5.2272 5.02279 7.58234 5.54261 5.03329 4.99443 5.53957 4.98987 4.8521 4.63278
threshold=1.202162563800812 -0.23073218017816541 -0.79427796602249134 0.27871727943420416 0.31190550327301031 0.85662969946861278 -0.96532434225082386 -0.90922820568084706 1.1455523371696474 -0.19398050010204312 -0.64593350887298573 0.72808045148849498 0.31244051456451422 0.22095171362161639 -0.015729041304439303 0.37901932001113897 -0.7095331847667693 -1.1143523454666135 0.38538803160190588 -2.2273321151733394 -0.44203150272369379 0.56398186087608349 0.19260485470294955 0.31477251648902899 1.0000000180025095e-35 0.16710741817951205 0.061821909621357925 0.15085516870021823 -1.0000000180025095e-35 -0.055509001016616814
decision_type=2 2 2 2 2 2 2 2 2 2 2 2 2 2 2 2 2 2 2 2 2 2 2 2 2 2 2 2 2 2
left_child=1 19 8 4 5 9 -5 -6 16 25 -11 12 13 14 -8 -16 17 -3 -12 -1 -21 22 23 24 -2 26 -4 -27 -13 -23
right_child=21 2 3 6 7 -7 11 -9 -10 10 18 28 -14 -15 15 -17 -18 -19 -20 20 -22 29 -24 -25 -26 27 -28 -29 -30 -31
leaf_value=0.026778735726773542 -0.0030949797595355368 -0.029879503106663541 0.040389906680788561 -0.050282602473056215 0.03432646758356208 -0.023166860458655958 0.05326258542453071 -0.019855354734892583 0.036919690273306938 -0.023459644006375367 0.056297121702054011 -0.0043978402195357005 -0.030190941687787923 -0.037733941879299362 -0.025489591006072416 0.049236401711402075 -0.033197356698561192 0.036375874572800795 -0.0026800382804784452 -0.051269460142454738 -0.017463309862757119 0.034500505602273905 -0.0038171653873219783 0.10078239740264844 0.060875672325955178 -0.0073783628373555125 0.10172223995267592 0.055357424889233155 0.060458063682427468 -0.029280034963813491
leaf_weight=5.1474797129631034 4.7863768339157158 5.0007867813110352 9.4172962903976494 9.8349634259939176 8.4675183445215207 8.3778031915426237 7.7524502873420742 24.224792316555977 4.4740040749311438 6.9662155359983471 11.496954753994943 4.9623839855194092 18.905319452285767 4.9368761479854575 10.916147321462633 4.7663993388414374 39.914907738566399 6.1170485466718656 5.6869253963232032 12.894581183791159 80.797377541661263 4.5830474197864532 5.7792440801858893 5.3888264596462241 7.15721195936203 5.2755782753229123 8.8341692239046079 6.2217876315116882 5.4891166090965253 4.8142626136541349
leaf_count=23 21 22 41 44 37 37 34 107 20 31 50 22 84 22 49 21 179 27 25 58 361 20 25 23 31 23 38 27 24 21
internal_value=-0.00174339 -0.00544204 0.0011244 0.00808932 0.0195918 0.0324932 -0.00812876 -0.00521961 -0.0190522 0.0414092 0.0198304 -0.000213305 -0.00784273 0.00756967 0.0182671 -0.00118813 -0.0245745 0.00656787 0.0377049 -0.0197938 -0.0226083 0.0333954 0.045483 0.061233 0.036981 0.0577122 0.0738181 0.028284 0.0319694 0.00215211
internal_weight=349.388 316.879 218.039 162.533 94.969 62.2767 67.5637 32.6923 55.5067 53.8989 24.1501 57.7287 47.2772 28.3719 23.435 15.6825 51.0327 11.1178 17.1839 98.8394 93.692 32.509 23.1117 17.3324 11.9436 29.7488 18.2515 11.4974 10.4515 9.39731
internal_count=1547 1406 964 716 416 272 300 144 248 235 106 256 210 126 104 70 228 49 75 442 419 141 100 75 52 129 79 50 46 41
is_linear=0
shrinkage=0.05


Tree=8
num_leaves=31
num_cat=0
split_feature=29 52 56 52 72 57 40 16 28 26 52 65 16 16 5 40 21 30 7 55 26 20 30 7 47 14 17 33 2 69
split_gain=15.9819 10.364 9.01399 9.93888 8.98755 15.9178 8.82344 9.97246 9.25475 8.41255 7.72994 8.66864 10.9028 7.57205 8.79831 6.94812 6.53318 6.19695 6.14083 7.48372 5.77203 5.71422 8.75345 5.73633 5.61476 5.44501 5.3247 5.2326 5.08036 4.97216
threshold=0.38832578063011175 0.4866072833538056 -0.34024536609649653 1.1820229887962344 1.0000000180025095e-35 -0.29657000303268427 0.14205020666122439 -1.202582776546478 -1.3483605384826658 0.3999269306659699 -1.4455081224441526 -0.13703990727663037 -0.84684258699417103 -0.41546960175037378 0.71731653809547435 -0.44687178730964655 -0.16299079358577725 -0.71838754415512074 0.33739332854747778 0.02458117995411158 0.66399112343788158 0.16427677124738696 0.17149666696786883 -0.10695758089423178 -1.0000000180025095e-35 0.84357741475105297 -0.16045939922332761 0.086110092699527754 1.0000000180025095e-35 0.8566797971725465
decision_type=2 2 2 2 2 2 2 2 2 2 2 2 2 2 2 2 2 2 2 2 2 2 2 2 2 2 2 2 2 2
left_child=1 6 9 4 5 -4 8 -8 -1 25 20 12 -12 -7 28 16 -14 -9 19 -6 26 22 23 -13 -20 -2 -10 -21 -15 -3
right_child=2 29 3 -5 18 13 7 17 10 -11 11 21 15 14 -16 -17 -18 -19 24 27 -22 -23 -24 -25 -26 -27 -28 -29 -30 -31
leaf_value=-0.029160113975822501 -0.036634193411153364 -0.033820072770376713 0.1020825299598615 -0.01479422857158817 0.039222974534260262 0.064687296324509355 0.033806375890158877 0.0011599439511774594 0.084977286801157306 0.031964619571234046 -0.016092008214625215 -0.045986240118675074 0.017309440537620652 0.020932948634390495 0.052220538537861017 0.0063585954068048709 0.086127093089751361 -0.03707133747285913 0.0044994231660804877 -0.043666319653638659 -0.0055357598065952814 -0.028424282343401431 0.055380062735951911 0.014978592148626114 0.067400151619848567 0.018637033466750368 0.015174571258294757 0.009954823471505973 -0.036865796668052807 0.011180642302818938
leaf_weight=13.479297950863836 16.728627890348442 39.413414970040321 9.2509147822856885 13.197015181183813 6.5501970052719143 8.6756946295499784 7.5903986543416968 15.459841430187224 7.285538613796235 8.9210181385278684 10.977067679166792 6.0246802270412436 6.0822675824165335 5.720102593302733 7.0264817327260962 9.0259168893098849 9.3641025573015195 32.307387292385101 6.7588041573762894 9.2197516262531298 4.234583929181098 18.947837457060814 5.8962862491607657 7.7715047001838711 6.8420166373252851 5.2565939724445334 4.8450409919023523 7.645956575870513 8.0103114843368513 6.7383865863084784
leaf_count=65 80 189 43 63 31 40 36 74 34 42 52 29 29 27 33 43 44 155 32 44 20 91 28 37 32 25 23 36 38 32
internal_value=0.00189789 -0.00656079 0.0163374 0.024354 0.0312828 0.0478783 -0.000462704 -0.0164174 0.0081106 -0.00676194 0.0139227 0.00678516 0.0243142 0.0280469 0.0104632 0.0423586 0.0617291 -0.0249277 0.0131367 -0.00262324 0.0439847 -0.00950396 0.00919479 -0.0129529 0.0385912 -0.0231831 0.0603765 -0.020161 -0.0130004 -0.027152
internal_weight=325.247 205.444 119.803 88.8972 75.7002 38.6835 159.292 55.3576 103.934 30.9062 90.4548 74.0897 35.4494 29.4326 20.7569 24.4723 15.4464 47.7672 37.0167 23.4159 16.3652 38.6403 19.6925 13.7962 13.6008 21.9852 12.1306 16.8657 13.7304 46.1518
internal_count=1547 981 566 419 356 181 760 265 495 147 430 353 168 138 98 116 73 229 175 111 77 185 94 66 64 105 57 80 65 221
is_linear=0
shrinkage=0.05


Tree=9
num_leaves=31
num_cat=0
split_feature=41 54 29 5 38 4 17 18 56 14 21 40 1 52 68 55 38 30 68 9 66 64 57 55 58 21 69 50 42 41
split_gain=24.1925 18.9961 8.83725 8.71022 8.17834 8.91144 8.76116 8.23516 7.82692 7.72576 7.52194 9.21291 7.04411 8.44548 7.0798 7.02806 6.43807 6.36174 5.4699 8.40171 5.36344 6.10263 5.27909 4.90231 4.80643 4.6188 3.89054 8.00222 3.87002 3.14847
threshold=0.30340577661991125 -0.93674412369728077 0.27576220035552984 -0.93455329537391651 0.46495085954666143 0.53665232658386242 1.1803096532821657 0.27047014236450201 -0.43491528928279871 -0.78296440839767445 0.41528031229972845 0.69378820061683666 1.0000000180025095e-35 -0.62479826807975758 -0.090198453515768037 -0.45930470526218409 -0.59445157647132862 -1.1012191176414488 0.27685844898223883 -0.15888997167348859 -0.085692398250102983 0.80093204975128185 0.071815643459558501 -0.71619391441345204 -0.12360117956995963 -0.050000907853245728 0.49215501546859747 -0.028206467628479 -0.59614685177803028 -0.21892113238573072
decision_type=2 2 2 2 2 2 2 2 2 2 2 2 2 2 2 2 2 2 2 2 2 2 2 2 2 2 2 2 2 2
left_child=2 3 9 -2 5 23 8 25 -7 29 11 -5 13 16 15 -15 -11 -16 -14 -20 -10 -22 -9 -3 -21 -6 -25 -28 -19 -1
right_child=1 4 -4 10 7 6 -8 22 20 12 -12 -13 18 14 17 -17 -18 28 19 24 21 -23 -24 26 -26 -27 27 -29 -30 -31
leaf_value=-0.042647244392698624 -0.0057404281683173753 0.021768470294223134 -0.029991727640131811 0.041352368101524227 0.035947086711864563 0.083348133093103488 -0.039945861512388853 0.090063018265796824 0.055535375987561621 0.035269032810048832 0.020860714575474004 0.14469790557461645 -0.030304495583725416 0.0085149813648748296 0.06346586685832753 0.091966861243213002 -0.030335061880321642 0.032041220534773457 -0.040847609603823193 0.069556331694400106 -0.024973241268599566 0.040223687377038783 0.017999031817803001 -0.039352793647201997 0.0038287451057163998 -0.023241599447566857 -0.039937272561480802 0.051076668965965293 -0.021647886421783648 0.0089711422345794319
leaf_weight=14.246327966451647 3.5487228780984905 5.3240321427583686 48.341809347271919 5.0359124690294248 4.8380535244941711 4.6267228126525941 4.3376355022191992 6.139796316623686 4.6994059383869251 4.3032118231058147 4.6702591031789771 5.1627912968397141 19.922652453184128 4.1598492413759232 3.4148362725973156 6.4158397167921084 12.058476120233534 3.8900674730539349 4.8499014079570779 4.0311818271875373 9.1491965055465609 4.5552665293216714 4.8982718586921692 19.009634956717495 6.4995932579040501 6.5799958258867282 4.2507132589817047 3.4737642258405677 9.7936439067125267 3.2809486985206595
leaf_count=92 22 34 310 31 30 28 28 37 29 27 29 31 126 26 21 40 76 24 31 25 57 28 30 121 41 41 27 22 62 21
internal_value=0.00025065 0.0190297 -0.0127621 0.0635254 0.00837564 -0.00146775 0.0191155 0.0333766 0.0314387 -0.00394493 0.0793768 0.101917 0.00280974 0.0159888 0.0324041 0.0627131 -0.0120432 0.0112283 -0.0136169 0.00852896 0.0147658 -0.00204054 0.0622355 -0.0190865 0.0328395 0.00271297 -0.0277142 0.00215552 -0.00524226 -0.0330221
internal_weight=245.509 100.3 145.208 18.4177 81.8825 59.4264 27.3682 22.4561 23.0306 96.8665 14.869 10.1987 79.3393 44.0359 27.6742 10.5757 16.3617 17.0985 35.3033 15.3807 18.4039 13.7045 11.0381 32.0581 10.5308 11.418 26.7341 7.72448 13.6837 17.5273
internal_count=1547 625 922 113 512 374 170 138 142 612 91 62 499 276 173 66 103 107 223 97 114 85 67 204 66 71 170 49 86 113
is_linear=0
shrinkage=0.05


Tree=10
num_leaves=31
num_cat=0
split_feature=53 6 10 19 2 57 41 10 52 40 6 14 10 20 17 17 58 30 62 68 32 28 5 17 40 69 18 64 5 10
split_gain=42.1185 15.9651 14.8982 13.4224 13.3014 15.212 10.1971 9.55007 7.97536 9.78826 9.33926 7.64222 7.6239 7.02116 5.94767 6.98838 5.48422 6.279 5.41787 5.18952 8.97334 4.80432 3.85513 2.76276 3.26931 2.47596 2.17296 2.28016 2.03245 3.37014
threshold=0.39540572464466101 -0.57680207490921009 -0.036813829094171517 0.098492622375488295 1.0000000180025095e-35 0.014533344190567734 0.88566702604293834 -0.31544405221939081 -1.5777630209922788 -0.0063312978018075219 -1.7550620436668394 0.36683237552642828 0.088569760322570815 -1.0167334079742429 -0.53969407081603993 -0.71788048744201649 -0.35330310463905329 -0.38914690911769861 -0.018259419128298756 0.17048683762550357 0.50270676612854015 -0.44914844632148737 0.49250794947147375 -1.2329401969909666 1.6361341476440432 -0.062961537390947328 -0.71510857343673695 -0.39904911816120142 -0.34184414148330683 -0.050745341926813119
decision_type=2 2 2 2 2 2 2 2 2 2 2 2 2 2 2 2 2 2 2 2 2 2 2 2 2 2 2 2 2 2
left_child=8 2 7 -4 5 12 11 -2 -1 10 -10 -7 -3 -6 15 19 17 -16 -5 26 25 22 -15 -11 28 -21 27 -12 29 -25
right_child=1 4 3 18 13 6 -8 -9 9 23 14 -13 -14 21 16 -17 -18 -19 -20 20 -22 -23 -24 24 -26 -27 -28 -29 -30 -31
leaf_value=-0.045197754459345464 0.071504501510233728 -0.034540732625281012 0.14702453223526829 0.072644230278772731 0.039885445974856257 0.13371769756078419 0.0051018005799268046 -0.020866488263162727 0.062406044199637502 0.0093475377288931086 -0.024995322702056465 0.026692900343309373 0.043231347168302375 0.04946982885575911 -0.024480813197902036 0.061423127158745573 -0.028553277413472217 0.064192298266594103 -0.010118054524065579 0.017505968174747991 -0.028135831389339467 -0.031974850160529554 -0.021664735298982638 -0.04046231738092787 0.0087548015986543357 0.086901659860727759 -0.040625388088909219 0.027617481392995753 -0.042600703330146678 0.010324531317894129
leaf_weight=19.033910408616066 3.5840372890233994 6.4476899504661578 6.1619765460491163 3.957546204328537 5.2452038824558285 5.8684622049331647 3.6932659745216361 6.3642364144325274 4.8738452047109595 4.2209505438804618 3.3045587837696102 2.9916658997535706 4.4636944979429245 3.088640093803412 3.1996440142393112 4.9328788667917243 25.001386404037476 2.9947046637535122 2.9273733496665955 2.7966387867927551 3.9870053976774216 17.908354029059407 2.7586700469255447 5.5759918540716171 4.2676881104707709 3.0675324201583845 5.7870182394981411 2.9481381177902222 28.353825911879539 5.8504083156585676
leaf_count=146 26 49 44 29 39 43 28 48 36 32 25 22 33 23 24 37 189 22 22 21 30 135 21 42 32 23 44 22 216 44
internal_value=0.00112177 0.0306133 0.0644921 0.0977715 0.014836 0.0420148 0.0773923 0.0159033 -0.0160744 -0.0107292 0.00230881 0.103952 -0.00176686 -0.00782195 -0.00371142 0.0132894 -0.0182883 0.0213527 0.0406345 0.000233462 0.0257692 -0.0195413 0.0176469 -0.0274195 -0.031072 0.0611784 -0.0210343 0.00019907 -0.0354546 -0.0157208
internal_weight=205.657 75.4608 22.9952 13.0469 52.4656 23.4648 12.5534 9.94827 130.196 111.162 62.8934 8.86013 10.9114 29.0009 58.0195 26.8238 31.1957 6.19435 6.88492 21.8909 9.85118 23.7557 5.84731 48.2689 44.0479 5.86417 12.0397 6.2527 39.7802 11.4264
internal_count=1547 562 169 95 393 175 93 74 985 839 473 65 82 218 437 202 235 46 51 165 74 179 44 366 334 44 91 47 302 86
is_linear=0
shrinkage=0.05


Tree=11
num_leaves=31
num_cat=0
split_feature=65 53 44 17 29 6 33 65 34 21 44 8 5 20 29 34 57 67 28 67 56 43 62 33 69 41 19 50 45 16
split_gain=29.5834 26.0483 11.8688 13.0812 9.78858 13.5827 6.99113 7.69245 7.91169 8.30368 10.2646 9.2293 6.27722 6.07625 5.89557 5.8877 5.59084 7.3635 4.3012 3.71522 3.15277 3.06043 3.13932 3.05241 2.18474 1.80266 1.78493 2.65478 1.45902 0.605523
threshold=0.52368327975273143 0.33055427670478826 0.3574338704347611 -0.89808416366577137 0.0046018408611416825 -0.046214917674660676 -0.03651753440499305 -0.38436822593212122 0.1476269140839577 -0.27844767272472376 -0.38091185688972468 0.44657865166664129 0.4213127493858338 0.20854149758815768 -1.5914481878280637 -0.048559280112385743 0.14983844012022021 0.6254696547985078 0.50376489758491527 -2.2467314004898067 -0.22656669467687604 1.2256830334663393 -0.26435405015945429 -0.11941383779048918 -0.76555368304252613 1.2725424170494082 -0.58146545290946949 0.11992856487631799 -0.1221175119280815 -0.40938866138458246
decision_type=2 2 2 2 2 2 2 2 2 2 2 2 2 2 2 2 2 2 2 2 2 2 2 2 2 2 2 2 2 2
left_child=6 2 3 -2 5 -5 7 23 9 19 -11 12 29 -4 -8 -15 17 20 -6 -9 -3 25 -23 24 -1 26 27 -16 -7 -12
right_child=1 16 13 4 18 28 14 8 -10 10 11 -13 -14 15 21 -17 -18 -19 -20 -21 -22 22 -24 -25 -26 -27 -28 -29 -30 -31
leaf_value=0.0080984729536929725 0.17263780722332228 0.025826023275391286 -0.025422973232887683 0.16959953597700145 -0.032612304251679956 0.044707160498844198 0.033812614543172727 0.033396747826190544 -0.036398609223570244 -0.019838242092579415 0.059812720827423477 -0.0015159714287701356 0.022109379078122833 0.095502849756649272 -0.035723514251642517 -0.011547020298249741 -0.039840129059714319 0.077461253621517026 0.043495587388956258 -0.036205750291948911 -0.036307116810030425 0.046765732580909984 -0.029151456046584687 0.02907991376752149 -0.038424811590412125 0.0092451153319225744 -0.043599339760975388 0.020885070595728375 -0.009815649094307384 0.17093756329292262
leaf_weight=2.6751696914434477 3.3375653997063646 2.4552532583475122 3.8231611400842658 2.4662943109869957 2.587393045425415 1.726626589894295 2.7376231029629698 2.1256443038582802 4.2175412327051154 2.7659892663359669 1.8109691217541719 2.3317186683416367 1.9045861214399336 2.1637749001383781 3.9030825719237319 1.8362647369503973 7.9006012827157965 2.2198227345943451 2.8891761153936386 4.1128595471382203 4.2323952615261087 1.6687645912170412 1.8330624774098385 1.632665567100047 13.614303693175316 1.6711707934737194 33.868935719132423 2.7228682711720467 1.6934163123369215 2.2168065160512844
leaf_count=33 38 29 45 27 30 20 32 26 51 33 21 28 23 25 49 22 99 25 33 50 53 20 22 20 169 20 424 34 20 26
internal_value=-0.000176269 0.0353368 0.0693395 0.0945411 0.0594935 0.0992319 -0.0163013 -0.000579306 0.0192039 0.0340329 0.0583922 0.083891 0.112836 0.0166357 -0.0288302 0.0538794 -0.0115637 0.0150062 0.00805501 -0.0111527 -0.0131038 -0.0332295 0.00937816 -0.0240581 -0.0307579 -0.0369033 -0.0389847 -0.0127726 0.0215976 0.142808
internal_weight=127.146 39.3317 22.5237 14.7005 11.3629 5.88634 87.8138 39.4083 21.4861 17.2686 11.0301 8.26408 5.93236 7.8232 48.4055 4.00004 16.8081 8.90747 5.47657 6.2385 6.68765 45.6679 3.50183 17.9221 16.2895 42.1661 40.4949 6.62595 3.42004 4.02778
internal_count=1547 466 260 168 130 67 1081 480 258 207 131 98 70 92 601 47 206 107 63 76 82 569 42 222 202 527 507 83 40 47
is_linear=0
shrinkage=0.05


Tree=12
num_leaves=31
num_cat=0
split_feature=44 31 21 10 55 54 52 9 32 66 22 38 19 64 22 14 21 17 4 9 18 21 67 74 22 16 52 65 4 70
split_gain=12.8845 12.3931 9.16843 8.68628 7.78078 6.43945 6.25105 8.47562 6.09236 5.6826 7.49823 11.6283 6.7977 7.79304 7.1001 5.7632 7.59529 6.60179 6.4089 5.48538 4.069 6.26384 7.40335 7.10918 10.0856 6.32979 5.73889 4.20229 3.82953 3.71836
threshold=0.012698456179350616 0.94027999043464672 -0.96674826741218556 -0.13433440774679181 0.92929825186729442 0.18875949829816821 1.3639976978302004 0.44998329877853399 1.3828160762786867 0.21941550821065905 -0.29732282459735865 0.027181264944374565 0.42963518202304846 -0.83732402324676503 -0.13876393437385556 0.91836094856262218 -0.022863553836941716 -0.097253728657960878 0.53045111894607555 0.42937670648097997 -0.039621219038963311 0.42070780694484716 0.12565027922391894 -0.061440519988536828 -0.13876393437385556 -0.12928121536970136 0.2920366525650025 0.79463431239128124 -0.36329534649848932 -0.25398903340101237
decision_type=2 2 2 2 2 2 2 2 2 2 2 2 2 2 2 2 2 2 2 2 2 2 2 2 2 2 2 2 2 2
left_child=1 4 5 -3 9 -2 20 -8 -5 12 11 -11 15 -14 -15 16 18 -18 28 -19 -4 22 29 25 -25 -24 -26 -23 -1 -22
right_child=2 3 6 8 -6 -7 7 -9 -10 10 -12 -13 13 14 -16 -17 17 19 -20 -21 21 27 23 24 26 -27 -28 -29 -30 -31
leaf_value=0.022512365811023657 -0.0017850222186883713 -0.0055784324613046624 -0.026470141673014255 0.097678726971305752 -0.038801833292996322 0.078730144351700213 0.06005552486214652 -0.028860814086657346 0.014985352220949478 -0.019016005154576625 -0.020691171206856596 0.082231585737161716 -0.0016155756986380599 0.11218245297944758 0.021766692520563888 -0.034702953937665953 -0.038477448170442637 -0.013519189378435346 -0.0071042707890372732 0.062562322259469436 0.016792671021867735 -0.041133536702654266 0.038957331595218921 -0.014526741200864935 0.10466205242184706 -0.029699550418711185 0.02010499492401463 0.0093582091551858374 0.08601070003443978 -0.033167382840788323
leaf_weight=5.194846346974372 5.2431402653455716 4.5968043357133856 59.617705807089806 7.3897962719202024 8.2973522245883924 3.6451652497053146 5.3729224354028684 3.8243066668510437 3.5949788838624954 5.4648656994104368 24.790024846792221 4.2960161119699478 5.1869563162326804 4.5312733054161063 4.5583039224147788 5.6599966138601294 7.7505523562431273 4.482060849666607 4.8232811391353598 3.428720623254776 4.2527675032615688 16.801709398627285 4.0704278647899601 4.6370918452739707 4.7877078205347079 9.0228930711746216 3.9601693451404572 4.9393537044525138 5.6041566729545549 14.106800869107245
leaf_count=31 32 27 372 40 52 21 33 24 21 33 152 26 31 26 27 35 47 27 29 20 26 105 25 28 27 56 23 31 33 87
internal_value=-0.00103744 0.0118218 -0.0108242 0.0516923 0.00474334 0.0358575 -0.0141292 0.0238786 0.0741242 0.00935446 -0.00621818 0.0290463 0.019777 0.047884 0.0734915 0.00793957 0.0164906 -0.00802702 0.0400738 0.0227767 -0.0170651 -0.00837638 0.00241283 0.0190494 0.04335 -0.00710585 0.0723724 -0.0297552 0.0599617 -0.0213251
internal_weight=253.932 109.65 144.282 15.5816 94.0684 8.88831 135.394 9.19723 10.9848 85.7711 34.5509 9.76088 51.2201 14.2765 9.08958 36.9436 31.2836 15.6613 15.6223 7.91078 126.197 66.5789 44.8379 26.4783 13.385 13.0933 8.74788 21.7411 10.799 18.3596
internal_count=1547 657 890 88 569 53 837 57 61 517 211 59 306 84 53 222 187 94 93 47 780 408 272 159 78 81 50 136 64 113
is_linear=0
shrinkage=0.05


Tree=13
num_leaves=31
num_cat=0
split_feature=17 17 52 65 29 22 71 68 40 10 57 33 20 7 56 6 53 57 68 65 41 19 70 14 30 65 22 71 19 30
split_gain=16.5406 10.871 8.26749 9.04298 8.1462 7.94285 7.63159 8.04996 7.50371 8.15832 11.9146 7.4575 7.24714 7.24381 7.41163 9.99611 7.48574 6.85709 6.29294 6.32542 6.82271 6.11424 5.92732 6.93225 6.23466 5.85316 5.27453 5.54456 6.34001 6.92968
threshold=1.1803096532821657 -1.0160907506942747 0.16409087181091311 0.48045405745506292 -0.39760279655456537 -0.41263835132122034 0.21227926015853885 -0.11192215234041213 0.14205020666122439 0.24181637912988665 0.063420886173844351 0.058151010423898704 0.30785787105560308 1.1243035197257998 0.46184092760086065 -0.098039798438549028 -1.2483075857162473 0.42489315569400793 0.43154676258564001 0.27871727943420416 -0.16258291900157926 0.16825577616691592 -0.019529065582901236 0.020958543755114082 0.64144784212112438 -0.20719896256923673 0.19276826083660129 0.42059773206710821 0.18964994698762896 0.45429189503192907
decision_type=2 2 2 2 2 2 2 2 2 2 2 2 2 2 2 2 2 2 2 2 2 2 2 2 2 2 2 2 2 2
left_child=1 4 3 5 18 25 7 -2 13 10 11 -10 -12 14 16 -16 -7 -8 19 20 -1 -9 -5 24 -24 -3 27 28 -4 -30
right_child=6 2 26 22 -6 8 17 21 9 -11 12 -13 -14 -15 15 -17 -18 -19 -20 -21 -22 -23 23 -25 -26 -27 -28 -29 29 -31
leaf_value=0.049599443734760718 0.092309107971531842 0.016343177093598945 -0.0094723313969372874 -0.024361720109391027 -0.041158283227777925 0.023357025999445225 -0.022396297564766438 -0.015661818449289974 0.10270659759612764 -0.024293552290531175 -0.025978748423349379 0.025391456268993147 0.039290168528139408 0.052046924186831593 -0.02409306478770834 0.050370040314562194 -0.03340136177427299 0.0408996806514519 -0.038671802446039183 -0.031241785447538167 -0.019335020624109005 0.04907643738119024 -0.047003995303873745 0.045166051759995593 0.024979131291000385 0.086635539146983354 -0.032940358591946765 -0.023579239462977356 0.002692444806617858 0.061045343594474159
leaf_weight=9.9081601649522799 6.4025136232376108 6.6607619225978851 35.030148655176163 29.734807014465332 32.039916560053825 6.6278190165758089 9.5832300782203657 5.2983986735343942 7.1999110430479067 5.5925987213850012 7.6375475525856 6.4251321852207184 7.4160119891166687 4.5969058126211158 7.1507041454315212 9.383048936724661 26.027897134423259 6.1906607002019873 8.2720423787832242 5.5138764381408683 4.6921751946210888 8.4836749732494336 5.5876211971044558 7.4734763652086249 4.6711101531982422 5.3329986780881864 21.58716131746769 27.448261588811874 13.687100827693941 7.1915249079465857
leaf_count=43 27 29 157 133 146 29 42 23 31 25 34 28 32 20 32 41 115 26 37 25 21 36 25 33 21 23 97 123 61 32
internal_value=-0.00168732 -0.00540789 -0.000814784 0.00680045 -0.0242724 0.0152795 0.0299571 0.0495691 0.00977066 0.027695 0.0383102 0.0704764 0.00661996 -0.00194728 -0.00792968 0.018628 -0.0215299 0.00340234 -0.00446098 0.0107736 0.0276264 0.0248125 -0.0110183 0.0114631 -0.0149204 0.0518606 -0.0114825 -0.00560095 0.00348469 0.0246633
internal_weight=348.847 312.889 252.463 147.518 60.4262 100.051 35.9585 20.1846 88.0576 34.2712 28.6786 13.625 15.0536 53.7864 49.1895 16.5338 32.6557 15.7739 28.3863 20.1142 14.6003 13.7821 47.467 17.7322 10.2587 11.9938 104.944 83.357 55.9088 20.8786
internal_count=1547 1393 1121 651 272 439 154 86 387 150 125 59 66 237 217 73 144 68 126 89 64 59 212 79 46 52 470 373 250 93
is_linear=0
shrinkage=0.05


Tree=14
num_leaves=31
num_cat=0
split_feature=29 53 53 56 26 72 57 41 28 50 70 47 22 40 66 53 17 56 42 52 41 47 54 24 29 30 21 66 17 45
split_gain=14.516 12.1809 8.08013 9.5933 10.093 9.33425 11.9068 8.94289 6.53258 7.4825 8.14651 7.16938 8.6209 6.2057 9.42873 11.1456 9.15475 7.41027 5.89485 5.8247 5.44978 5.39548 5.91065 5.33392 6.78809 5.3413 5.11081 4.87786 5.90111 5.62632
threshold=0.38832578063011175 -1.0526724457740781 0.95015564560890209 -0.34024536609649653 0.3999269306659699 1.0000000180025095e-35 -0.29657000303268427 0.14697737246751788 -0.59159040451049794 0.22449447959661487 -0.1160713993012905 1.0000000180025095e-35 -1.0000000180025095e-35 -0.32363376021385187 -1.3325470089912412 0.45025917887687689 -0.84261110424995411 0.16441294550895694 0.13246805220842364 0.47765767574310308 -0.41850213706493372 1.0000000180025095e-35 0.074093494564294829 1.0000000180025095e-35 0.62924540042877208 0.98388016223907482 0.45475290715694433 1.3196986317634585 -0.96532434225082386 0.37612262368202215
decision_type=2 2 2 2 2 2 2 2 2 2 2 2 2 2 2 2 2 2 2 2 2 2 2 2 2 2 2 2 2 2
left_child=1 8 3 4 -2 6 -5 26 11 10 -10 -1 -13 14 15 16 -3 -18 21 -9 -20 22 -16 24 -7 -26 -8 28 29 -15
right_child=2 13 -4 5 -6 23 7 19 9 -11 -12 12 -14 27 18 -17 17 -19 20 -21 -22 -23 -24 -25 25 -27 -28 -29 -30 -31
leaf_value=-0.039860324542862591 -0.027276410944893095 -0.0053738210861864946 -0.010055398131377567 0.092970928489868543 0.039075957936990174 0.070972047606359084 -0.029211072632949048 0.027683770373957303 -0.028989589255873673 0.084091427795289692 0.048599311396185119 -0.013478482794302511 0.063586472738546798 -0.018957957687958382 -0.02093511242759101 -0.030232032325896198 0.1116676802061478 0.022817148699613553 0.057293424286202523 0.092505676061102146 -0.015219314426764809 -0.027606261395979811 0.051575236968790295 -0.010446561647517363 -0.016589979841810019 0.041635344579507405 0.032335344300368198 0.015623922330581498 -0.030419623417053943 0.041102454706595959
leaf_weight=6.5965673774480846 16.291982263326648 5.2576828449964532 24.244833365082741 9.7852764427661878 7.5871450603008261 5.4072656780481365 7.09920582175255 11.213136777281763 5.1063785701990136 5.5028967559337607 6.7769348323345193 7.7614444494247445 5.3871392756700489 9.1741064488887769 5.2077310532331449 5.5818224549293509 5.0332282334566116 4.8943856805562973 4.4271085858345032 5.1222872436046591 4.3222552984952909 37.653273314237595 4.2409617155790329 15.093210399150847 8.4526123553514463 5.8087156116962424 4.7909756451845169 7.7063890993595114 68.693619683384895 5.3354307711124411
leaf_count=32 79 25 116 43 35 25 33 52 24 25 31 37 25 44 25 27 23 23 21 23 21 182 20 71 40 27 22 37 334 25
internal_value=0.00176532 -0.0063439 0.0154324 0.0218635 -0.00547094 0.0307854 0.0476235 0.0292592 0.0192234 0.0406702 0.0155963 -0.000711345 0.0203586 -0.0120911 -0.00156137 0.0264436 0.0478571 0.0739603 -0.0122564 0.0521736 0.0235848 -0.0192659 0.0134318 0.0115565 0.0281297 0.00829971 -0.0038272 -0.0208521 -0.024376 0.00435355
internal_weight=325.556 204.659 120.897 96.6518 23.8791 72.7727 38.0109 28.2256 37.1314 17.3862 11.8833 19.7452 13.1486 167.528 76.6184 20.7671 15.1853 9.92761 55.8513 16.3354 8.74936 47.102 9.44869 34.7618 19.6686 14.2613 11.8902 90.9095 83.2032 14.5095
internal_count=1547 981 566 450 114 336 173 130 174 80 55 94 62 807 367 98 71 46 269 75 42 227 45 163 92 67 55 440 403 69
is_linear=0
shrinkage=0.05


Tree=15
num_leaves=31
num_cat=0
split_feature=41 54 29 44 28 4 41 5 14 18 43 44 21 40 27 10 14 56 38 67 7 7 47 16 55 21 62 44 20 40
split_gain=21.9692 16.5625 8.32765 8.07553 9.59623 11.4195 12.5733 7.41509 7.28722 6.84964 9.62809 6.41901 6.1052 7.14305 5.57868 6.10393 6.69542 5.3743 4.63288 4.55555 5.27715 5.43647 6.44629 6.95331 5.57989 4.45718 4.08632 3.74497 4.33732 3.38592
threshold=0.30340577661991125 -0.93674412369728077 0.27576220035552984 0.29811264574527746 0.7638927996158601 0.42231784760952001 0.91593366861343395 -0.93455329537391651 -0.78296440839767445 0.44959130883216863 -1.3044341802597044 0.84991332888603222 0.41528031229972845 0.69378820061683666 1.0000000180025095e-35 0.36719995737075811 0.68466243147850048 1.0350790023803713 0.21979988366365436 0.7770579755306245 0.29695558547973638 0.12126021832227708 1.0000000180025095e-35 -0.51656669378280629 0.15629527717828753 0.20558301359415057 0.81337064504623424 -0.06602363288402556 0.65007188916206371 0.96399116516113292
decision_type=2 2 2 2 2 2 2 2 2 2 2 2 2 2 2 2 2 2 2 2 2 2 2 2 2 2 2 2 2 2
left_child=2 7 8 9 5 11 -7 -2 -1 -3 -11 -5 13 -9 15 17 -17 19 -12 20 21 22 23 -10 -23 -21 -22 -4 -29 -6
right_child=1 3 27 4 29 6 -8 12 14 10 18 -13 -14 -15 -16 16 -18 -19 -20 25 26 24 -24 -25 -26 -27 -28 28 -30 -31
leaf_value=-0.032413416471054793 -0.0056489630455567466 -0.022128387587563341 -0.044516301000008252 -0.014579933907937645 -0.041051510817242849 0.12115895751093778 0.012085275699059889 0.038476073435822156 -0.019183828319783856 0.079400395984016117 -0.022441397364732198 0.04928980406551231 0.019708327264580085 0.12767526882262664 -0.041751452066310271 -0.0010130755403288895 0.085508507057935057 0.045142113904017032 0.028084529882099113 -0.0066250294264593064 -0.037960495814572767 0.078572113109167771 -0.024776727042397518 0.065048491713613751 0.00057661120357107871 0.066932814358768286 0.017469368714454838 -0.025837236915508474 0.02168173748532214 0.012102465891609612
leaf_weight=17.107226878404617 3.5405653268098858 26.49635910987854 21.275404065847397 9.0262589007616061 4.8097354769706708 5.9953791350126249 4.6373436152935028 5.2079488486051542 3.9463877081871033 3.6368415057659176 10.10366925597191 5.5547324866056433 4.7504230588674536 5.7077366262674332 5.5049321055412284 4.1438061743974677 3.7983943372964859 5.3236233443021765 6.6752838194370261 3.6551476269960395 16.588325619697574 3.2804075032472593 17.238881140947342 4.2239676713943499 4.9712555557489395 3.2795322835445404 3.4764252454042426 20.559848636388782 5.3508192896842948 5.4722213447093964
leaf_count=113 22 168 140 57 30 35 28 31 25 22 64 34 29 31 35 26 23 33 40 23 106 20 109 26 31 20 22 135 35 34
internal_value=0.000249484 0.0179454 -0.0122992 0.00789499 0.0255486 0.0416797 0.078716 0.0585426 -0.00378343 -0.00571688 0.0156213 0.0113535 0.0725185 0.0919183 0.002709 0.00653281 0.0453012 0.00125979 -0.00189129 -0.00326103 -0.00834484 0.00383096 -0.00783738 0.0267079 0.0367246 0.0322131 -0.0279833 -0.0292817 -0.015583 -0.0141969
internal_weight=245.339 101.614 143.724 82.4078 35.4957 25.2137 10.6327 19.2067 96.5383 46.9122 20.4158 14.581 15.6661 10.9157 79.4311 73.9262 7.9422 65.984 16.779 60.6603 53.7257 33.6609 25.4092 8.17036 8.25166 6.93468 20.0648 47.1861 25.9107 10.282
internal_count=1547 625 922 512 218 154 63 113 612 294 126 91 91 62 499 464 49 415 104 382 339 211 160 51 51 43 128 310 170 64
is_linear=0
shrinkage=0.05


Tree=16
num_leaves=31
num_cat=0
split_feature=52 17 52 52 40 61 58 74 67 31 21 28 21 4 50 17 23 31 45 21 20 20 21 32 65 30 30 50 64 56
split_gain=34.082 23.6799 15.745 9.69855 10.1897 11.3971 9.67952 9.03462 8.80621 9.45303 6.96111 7.98497 6.00732 6.86851 5.91803 5.52223 5.86029 5.82189 5.45504 5.10884 4.68617 7.15244 3.84587 3.50855 3.47002 3.13259 4.42771 3.36617 3.27774 2.85107
threshold=0.51743361353874218 0.33577302098274237 0.8687875270843507 -1.5777630209922788 0.051038226112723357 1.0000000180025095e-35 -0.3389467447996139 0.013354551047086717 0.499693512916565 0.34499096870422369 -0.042599845677614205 0.52204617857933056 0.15870945900678637 -0.33849060535430903 0.81703463196754467 -0.043461512774229043 -0.38090757280588144 -0.97554478049278248 -0.47132822871208185 -0.17335226386785504 -0.1143299639225006 0.45701861381530767 0.30327726900577551 0.73861613869667064 0.93731456995010387 0.95419898629188549 1.3892473578453066 1.2875811457633974 0.1851165592670441 0.38170665502548223
decision_type=2 2 2 2 2 2 2 2 2 2 2 2 2 2 2 2 2 2 2 2 2 2 2 2 2 2 2 2 2 2
left_child=3 2 7 -1 5 -5 -4 22 14 12 11 -3 13 -10 15 16 -7 -18 -12 -8 -16 -22 -2 -19 -13 27 28 -6 -27 -11
right_child=1 10 6 4 25 8 19 -9 9 29 18 24 -14 -15 20 -17 17 23 -20 -21 21 -23 -24 -25 -26 26 -28 -29 -30 -31
leaf_value=-0.044848193352998215 -0.039065872070530056 0.071210389519540354 0.030641256957597531 0.072740368183055099 -0.031643118279628839 0.045999948927712621 0.052369945738489257 0.065815335622013582 0.12992719122486682 -0.038409739227052299 0.035209391806095253 -0.02996584463226893 0.0074045440345971566 0.025854415796170017 -0.024412295103010198 -0.041827495839579489 0.035374056175967374 -0.035628484242067486 -0.029438138571973495 0.15002821185173582 0.084280275299067592 -0.0068993508570469337 0.02566994521518742 0.020831464585073952 0.032793590127814728 -0.0084088268855610458 -0.036297638568094891 0.020818562635770848 0.061163919756807121 0.020213586587582356
leaf_weight=18.343833073973656 4.5080142915248889 5.2566469758749026 4.6905682086944571 4.7711012586951247 42.83243452757597 3.7709589749574652 3.4582478255033484 5.5537482872605324 2.9203074797987947 4.1793906837701789 3.1913351267576262 4.5016126483678818 4.3963104858994484 3.724473051726819 3.1875409856438637 15.608101129531862 3.7789900004863766 15.461986251175405 15.171237617731091 6.7913010045886031 3.5135721415281278 3.8422022834420204 3.0400699004530907 2.6171979531645766 2.690914548933506 2.7605724409222585 3.177327036857605 2.6170410737395278 2.6518915891647339 2.6468800902366638
leaf_count=146 34 37 34 34 330 28 25 39 21 32 24 34 33 28 24 118 28 118 113 46 25 29 22 20 20 21 24 20 20 20
internal_value=0.00108504 0.0329114 0.0653065 -0.0118106 -0.0067829 0.0052172 0.0989177 0.0226829 -0.000372494 0.0289515 0.00230227 0.0298692 0.0557641 0.0826058 -0.0108478 -0.0193508 -0.00460578 -0.0149667 -0.0169645 0.124662 0.0212044 0.0415278 -0.01304 -0.0267917 -0.00534904 -0.0231031 0.00418308 -0.0282391 0.0299015 -0.0160003
internal_weight=205.656 58.8537 28.0419 146.802 128.458 74.419 14.9401 13.1018 69.6479 17.8674 30.8117 12.4492 11.0411 6.64478 51.7805 41.2372 25.6291 21.8582 18.3626 10.2495 10.5433 7.35577 7.54808 18.0792 7.19253 54.0393 8.58979 45.4495 5.41246 6.82627
internal_count=1547 428 200 1119 973 558 105 95 524 134 228 91 82 49 390 312 194 166 137 71 78 54 56 138 54 415 65 350 41 52
is_linear=0
shrinkage=0.05


Tree=17
num_leaves=31
num_cat=0
split_feature=65 53 67 29 17 44 21 64 30 70 25 42 20 57 67 26 67 70 16 46 21 14 44 20 19 64 50 53 32 40
split_gain=27.06 22.6666 10.9702 11.5962 8.80996 8.44354 7.46716 6.65989 7.50285 7.33851 6.54146 5.94314 5.62307 5.34172 6.60104 5.26461 3.13208 3.06366 2.39428 2.06748 5.12514 6.40549 2.55426 2.01266 3.02854 1.35074 1.64424 2.79523 1.05782 0.426221
threshold=0.52368327975273143 0.33055427670478826 0.36828547716140753 0.44779966771602636 -0.92666119337081898 -0.65513336658477772 0.6239907741546632 -0.5961824059486388 -0.29927903413772577 -0.22640550136566159 1.0000000180025095e-35 0.43625809252262121 0.019951847381889824 0.14983844012022021 0.6254696547985078 -0.7707579731941222 -0.75149732828140248 -0.44707371294498438 -0.26458409428596491 0.094026464968919768 0.14341402053833011 -0.044477051123976701 0.92751604318618786 0.8509366810321809 1.3630661368370058 -0.53378698229789723 0.4859092384576798 0.2116600573062897 0.030887909233570102 -1.3148499131202696
decision_type=2 2 2 2 2 2 2 2 2 2 2 2 2 2 2 2 2 2 2 2 2 2 2 2 2 2 2 2 2 2
left_child=7 2 4 28 11 -6 -7 19 9 12 23 -2 -9 14 18 -11 -17 -14 -3 22 -21 -22 -1 25 -25 -10 29 -28 -4 -27
right_child=1 13 3 -5 5 6 -8 8 10 15 -12 -13 17 -15 -16 16 -18 -19 -20 20 21 -23 -24 24 -26 26 27 -29 -30 -31
leaf_value=-0.043098673744926513 0.018428354822547337 0.028761182342053666 0.065954685185753911 0.012784499255042112 0.072886624658982629 -0.034004083720336899 0.060612323070367707 0.10529855659624732 0.0087826885444491128 0.051022857742882559 0.052984598834890165 0.14014147401622237 -0.028347098078421881 -0.039564938706799786 0.071625884013125363 0.022790089444035811 -0.03385303657913314 0.047904427063934447 -0.029065113794115995 -0.037574861314813607 -0.028416345672204243 0.08329015207156773 0.0046689569363247323 0.044206306071538116 -0.029354301300349817 -0.008656878061983047 -0.034039882453460603 0.027401319426836199 0.1795351497638259 -0.042340692636149646
leaf_weight=25.112135455012325 2.0544712767005016 1.6434218809008605 2.0962931290268889 2.3567163124680519 3.1816503107547804 7.512378670275206 1.786366283893585 2.6231051012873676 1.6971220076084232 2.5896794572472581 2.0084015056490889 1.9355654940009115 1.7060641795396807 7.6252347379922858 2.3742369413375854 2.6094451695680618 7.5649011880159343 1.6370004191994665 4.9854819923639306 5.1810604557394964 1.7305243536829951 1.6900301873683927 2.9278826639056197 1.7447268366813653 1.8934865146875379 1.6152819842100274 3.1504511535167685 2.3830741569399834 2.7527273967862129 16.587114095687859
leaf_count=321 22 20 22 26 34 88 20 31 21 31 24 20 21 99 25 31 94 20 62 66 22 21 36 21 24 20 40 29 28 208
internal_value=-5.77944e-05 0.0332957 0.0637367 0.112223 0.0373146 0.0136657 -0.011707 -0.0158104 -0.00373542 0.0206075 -0.0185908 0.0937234 0.0618881 -0.0112044 0.0143697 -0.00178237 -0.0185862 0.0114239 -0.0128381 -0.0316897 -0.00893506 0.0331319 -0.0381219 -0.0251331 0.00784741 -0.0299694 -0.0329832 -0.00743552 0.150104 -0.0399581
internal_weight=126.756 40.3045 23.6762 7.20574 16.4704 12.4804 9.29874 86.4515 49.8099 18.7302 31.0797 3.99004 5.96617 16.6284 9.00314 12.764 10.1743 3.34306 6.6289 36.6416 8.60161 3.42055 28.04 29.0713 3.63821 25.433 23.7359 5.53353 4.84902 18.2024
internal_count=1547 466 260 76 184 142 108 1081 615 228 387 42 72 206 107 156 125 41 82 466 109 43 357 363 45 318 297 69 50 228
is_linear=0
shrinkage=0.05


Tree=18
num_leaves=31
num_cat=0
split_feature=44 31 21 40 67 52 9 45 46 62 72 19 44 69 57 54 52 14 70 38 74 18 32 6 69 29 21 68 34 18
split_gain=11.861 10.9317 8.51866 7.85731 6.65663 5.81806 7.61091 5.73076 7.07901 8.97407 6.94464 6.32717 6.27563 5.70424 9.05018 5.64948 5.56844 5.2765 5.15795 3.53114 3.49932 6.49484 3.34384 3.47419 4.78635 6.88087 6.6092 11.2558 5.2112 2.99703
threshold=0.012698456179350616 0.94027999043464672 -0.96674826741218556 -0.66218423843383778 0.070271406322717681 1.3639976978302004 0.44998329877853399 -0.19195967167615888 -0.37070029973983759 -0.56985080242156971 -1.0000000180025095e-35 0.19569595903158191 -0.041399676352739327 -0.88608214259147633 0.12119710072875024 0.18875949829816821 -0.34139485657215113 -0.50252620875835408 0.24251443892717364 -0.0078403031220659596 -0.41879475116729731 0.27047014236450201 -0.4966574609279632 0.77475553750991832 0.43287077546119695 -1.5914481878280637 0.22087845951318744 0.37311722338199621 -0.18869227916002271 0.42923033237457281
decision_type=2 2 2 2 2 2 2 2 2 2 2 2 2 2 2 2 2 2 2 2 2 2 2 2 2 2 2 2 2 2
left_child=1 7 15 -3 -5 13 -7 8 16 10 -10 17 18 14 -4 -2 -1 -11 20 -13 21 -9 -15 24 25 -24 27 28 -26 -27
right_child=2 3 5 4 -6 6 -8 12 9 11 -12 19 -14 22 -16 -17 -18 -19 -20 -21 -22 -23 23 -25 26 29 -28 -29 -30 -31
leaf_value=0.0064546611617853078 -0.00162208278694902 0.093596565647890165 -0.029057113738567286 0.054003057438855098 -0.018667391036167165 0.055809728937629137 -0.028273362705755062 0.039210203662804935 -0.0054587244065357077 0.015912999359039649 0.0817124864218082 0.049223605732076015 0.046010753232912906 -0.038942998048537319 0.066811316384766381 0.073070408034390993 0.090464034215468961 -0.041854532903452861 0.028243123602840349 -0.0095788123945539858 -0.026487217749725761 -0.032654682071661674 0.042598792172961288 -0.032465300167605807 0.098974095094549422 -0.03261748512999358 -0.020437819733215797 -0.021311456066438236 0.017943069187401101 -0.0057900801805373832
leaf_weight=3.4020359367132187 5.2256087958812696 5.1862271428108242 3.90835392475128 5.6545164883136732 5.2529912739992142 5.6013155430555326 3.7361459136009216 5.7352547794580442 3.4872041940689087 5.0535237044096002 5.0321661382913572 5.0168728679418564 4.1782526820898047 17.94457533955574 4.1365547925233841 3.8345634937286377 4.3045124709606162 11.96958422660828 6.01651707291603 3.953012600541113 31.212002873420715 4.9194402396678925 3.3166974633932034 22.427788570523262 4.0282470881938925 31.742704704403884 11.107794076204298 5.9520812183618537 4.1732910424470928 16.00025437772274
leaf_count=20 32 27 25 31 30 33 24 35 21 30 28 29 24 113 25 21 24 75 36 24 192 31 20 141 24 201 71 36 26 98
internal_value=-0.000994861 0.0112645 -0.0104608 0.0480671 0.0203768 -0.0137029 0.0226855 0.00454367 0.0180225 0.00762075 0.0492059 -0.00732701 -0.00652054 -0.0165856 0.0221735 0.0341113 0.0583792 -0.0247741 -0.0119518 0.0249479 -0.0182522 0.00607423 -0.0194234 -0.0155214 -0.0101868 -0.0188732 0.00742058 0.0291899 0.0641731 -0.02393
internal_weight=253.51 110.374 143.136 16.0937 10.9075 134.076 9.33746 94.2804 42.2189 34.5124 8.51937 25.993 52.0615 124.738 8.04491 9.06017 7.70655 17.0231 47.8832 8.96989 41.8667 10.6547 116.693 98.7489 76.3211 51.0597 25.2614 14.1536 8.20154 47.743
internal_count=1547 657 890 88 61 837 57 569 251 207 49 158 318 780 50 53 44 105 294 53 258 66 730 617 476 319 157 86 50 299
is_linear=0
shrinkage=0.05


Tree=19
num_leaves=31
num_cat=0
split_feature=17 34 4 64 22 17 8 1 28 71 59 57 3 10 34 40 47 22 58 56 67 40 17 43 41 30 58 59 70 14
split_gain=15.0428 10.9848 11.4698 11.8849 11.7802 9.77829 7.50763 7.18749 7.08146 6.87301 6.42712 6.21286 6.15312 5.89419 6.21046 7.50752 5.99348 5.82791 5.54541 5.99928 5.36161 5.29779 4.99382 4.8336 5.8748 4.98828 4.91531 4.78005 4.48987 5.73788
threshold=1.1803096532821657 -0.23073218017816541 -0.70281040668487538 -0.11631055921316145 -0.21083614230155942 0.44369359314441686 -0.013559706974774597 -1.2615365684032438 -0.10446964576840399 0.21227926015853885 -0.17385836876928804 0.42489315569400793 1.0000000180025095e-35 0.22788486629724505 -0.52501147985458363 -0.58958712220191944 -1.0000000180025095e-35 -0.42705279588699335 -0.16667029261589048 0.79616761207580578 0.49171525239944464 -0.67776605486869801 -0.26535415649414057 0.096099670976400389 -0.23630200326442716 -0.12009294703602789 -0.35330310463905329 -0.44203150272369379 -0.40569843351840967 0.25465708225965505
decision_type=2 2 2 2 2 2 2 2 2 2 2 2 2 2 2 2 2 2 2 2 2 2 2 2 2 2 2 2 2 2
left_child=1 13 18 4 6 7 22 -6 12 20 27 -11 -5 14 15 -1 -17 -16 19 -3 -2 -14 -4 24 25 -9 -25 -10 -19 -30
right_child=9 2 3 8 5 -7 -8 23 10 11 -12 -13 21 -15 17 16 -18 28 -20 -21 -22 -23 -24 26 -26 -27 -28 -29 29 -31
leaf_value=-0.03650664377094661 0.061472353871555065 -0.013358600406768976 -0.019161652504952349 0.039098617034730929 0.04935129654526705 0.057173358850683101 0.076962969144404925 -0.0056549959466533585 -0.018291356842382311 -0.021809545051660488 -0.031438396385495858 0.038199898871387278 -0.040345723487428375 -0.040289772441061619 0.027284587533559047 -0.0024309130736292232 0.062061539427965155 0.01937695699750239 -0.031632622605532679 0.039977009567570596 0.0040445108114445343 0.0097659468576593075 0.047864369348220137 0.016911687760134572 -0.02415339869396254 0.058528888073843134 -0.039230112815186249 0.032429679778704083 -0.042020857827545721 -0.003967683853249554
leaf_weight=4.6434542685747173 14.966404423117639 21.85502523183823 4.5712022185325623 12.110287889838217 5.175653100013732 7.8035144060850135 12.425594583153723 5.0442514121532449 8.5300678908824921 9.4820747971534711 29.201896920800209 6.3358687609434119 6.0119574666023281 23.79880678653717 5.058103695511817 6.6650268435478219 6.6586476862430546 4.4336911886930457 31.240124344825745 5.8540163338184348 5.6506195217370978 20.328399837017059 4.7656287252903002 4.5591243505477896 7.0377524495124808 6.0083327591419229 14.594247147440912 8.1289122253656387 30.589751318097115 14.759559929370878
leaf_count=21 62 99 20 52 22 33 52 22 38 42 134 26 27 110 22 30 29 20 142 26 24 89 20 20 31 26 65 36 140 67
internal_value=-0.00164355 -0.00522317 0.00108108 0.0081688 0.0229459 0.009219 0.0528278 -0.000716334 -0.00456897 0.0283161 -0.0176644 0.00306935 0.0111021 -0.0191366 -0.01177 0.013215 0.0318825 -0.0200457 -0.017534 -0.00109053 0.046648 -0.00272895 0.0163701 -0.0087826 0.00952684 0.0311974 -0.0256905 0.00689337 -0.0252972 -0.0299887
internal_weight=348.288 311.853 215.246 156.297 71.9853 50.2229 21.7624 42.4194 84.3115 36.435 45.8609 15.8179 38.4506 96.607 72.8082 17.9671 13.3237 54.8411 58.9492 27.709 20.617 26.3404 9.33683 37.2437 18.0903 11.0526 19.1534 16.659 49.783 45.3493
internal_count=1547 1393 954 687 311 219 92 186 376 154 208 68 168 439 329 80 59 249 267 125 86 116 40 164 79 48 85 74 227 207
is_linear=0
shrinkage=0.05


Tree=20
num_leaves=31
num_cat=0
split_feature=28 52 45 30 44 30 28 2 74 10 19 6 46 56 46 55 41 62 44 5 34 22 68 43 7 70 46 46 36 5
split_gain=13.2465 10.2149 12.0162 7.79313 7.20002 9.77089 9.98227 7.30704 7.29231 7.40493 7.52874 7.1034 9.33645 6.78086 6.56676 6.40442 6.26262 5.69614 5.35868 5.27507 6.63579 5.80711 7.68019 6.03047 4.93494 6.82012 6.51337 5.0829 4.74143 4.28086
threshold=-0.55769383907318104 -0.75241270661354054 -0.65822979807853688 1.5011011958122256 0.59434634447097789 0.07943014428019525 0.30800253152847296 0.51576875988394033 -1.6487580537796018 -0.19006043672561643 -0.032196903601288789 0.80930545926094066 -0.10313034802675246 -0.092761427164077745 0.13627434521913531 0.27773374319076544 -0.19944246113300321 0.35512550175189977 -0.010433106217533348 -0.67467302083969105 -0.37086518108844752 0.14952493458986285 0.36487713456153875 0.29277232289314276 -0.5731542408466338 -0.33673961460590357 -1.0000000180025095e-35 -0.384782925248146 -1.0000000180025095e-35 1.2746033668518069
decision_type=2 2 2 2 2 2 2 2 2 2 2 2 2 2 2 2 2 2 2 2 2 2 2 2 2 2 2 2 2 2
left_child=11 2 -2 4 8 6 7 -6 -3 10 13 19 -13 -10 24 -7 -12 -5 -15 21 -21 22 -1 -24 -4 -26 27 -27 -17 -11
right_child=1 3 14 17 5 15 -8 -9 9 29 16 12 -14 18 -16 28 -18 -19 -20 20 -22 -23 23 -25 25 26 -28 -29 -30 -31
leaf_value=-0.043953255644166744 -0.028877265776570755 0.035962619950578416 0.063124898013846742 0.064291106469167761 -0.033354108688338741 -0.023513137856812784 0.092046717493040775 0.048605623324088777 -0.014410347148563547 -0.021571874661242857 0.028052372526164184 0.054423770144753483 -0.01768916092382852 0.090225597277352729 0.069072308660863155 -0.0097402550477735279 -0.02903915645178879 -0.00070137307995260349 0.015080253057689522 0.012688106038737077 -0.034871723135919803 0.033538469045273543 -0.020434068501551314 0.051420588778347126 -0.035644779346637588 -0.0034710452341884194 -0.025024683575722535 0.055037250218950062 0.054548677522160985 0.018199218648508802
leaf_weight=10.154926776885992 7.2376584261655799 8.3813879489898664 5.7849668860435441 7.4259322881698591 4.1252543777227384 13.982705831527712 6.1685786843299857 4.8746839016675949 4.170637622475625 73.82589453458786 6.2995756715536126 7.3407293111085918 8.9414278268814069 4.8746575266122809 11.465038582682608 4.7015314251184464 13.312082424759865 5.5841716527938843 4.7868733853101704 8.0941447764635068 48.095232263207436 7.5505438148975363 5.1547023653984052 4.7112313956022263 4.6418498903512946 4.9505549967288998 4.2677602916956046 12.59163126349449 5.4415109157562238 6.6863717734813681
leaf_count=50 35 38 26 34 20 67 28 23 20 356 29 35 44 22 51 22 64 26 22 39 236 35 25 22 22 23 20 56 25 32
internal_value=0.00165899 0.00836807 0.0278377 0.00256303 -0.000534453 0.0178187 0.0478979 0.0114595 -0.00652607 -0.00993673 0.00963775 -0.0134021 0.0160905 0.0365962 0.0376664 -0.00224666 -0.0102292 0.0383362 0.0579009 -0.0192573 -0.0279186 -0.00124649 -0.0153365 0.0154528 0.0247547 0.0143694 0.02611 0.039229 0.0265494 -0.0180862
internal_weight=325.624 225.581 50.9395 174.642 161.632 39.2943 15.1685 8.99994 122.337 113.956 33.4438 100.043 16.2822 13.8322 43.7018 24.1257 19.6117 13.0101 9.66153 83.7608 56.1894 27.5714 20.0209 9.86593 32.2368 26.4518 21.8099 17.5422 10.143 80.5123
internal_count=1547 1061 233 828 768 185 71 43 583 545 157 486 79 64 198 114 93 60 44 407 275 132 97 47 147 121 99 79 47 388
is_linear=0
shrinkage=0.05


Tree=21
num_leaves=31
num_cat=0
split_feature=41 53 10 6 35 74 44 65 28 14 10 14 31 10 66 66 8 9 50 74 68 9 56 21 66 16 44 32 10 17
split_gain=20.2151 12.5213 9.86531 8.96781 10.5338 9.4808 12.341 7.61222 6.83944 6.91798 5.86538 6.32546 5.7861 11.0523 5.77348 5.76514 5.23658 4.79817 4.57993 7.13966 5.64152 9.42232 7.20088 5.57359 4.49629 3.39336 7.26206 4.95358 3.35649 3.22741
threshold=0.30340577661991125 -1.8200809359550474 0.3114739209413529 0.24992661923170092 1.0000000180025095e-35 0.15463412553071978 0.29811264574527746 1.0518839955329897 -0.069430392235517488 -0.78296440839767445 0.36719995737075811 1.0024923980236056 -0.14549372345209119 -0.17612894624471662 0.71222469210624706 -0.57600891590118397 0.59760209918022167 0.083481814712286009 -1.3788495063781736 0.71144187450408947 0.43004854023456579 -0.096579805016517625 -0.12444227561354636 0.094566989690065398 -1.0800352096557615 -0.94147861003875721 0.2481183931231499 -0.43312926590442652 0.088569760322570815 -0.78108629584312428
decision_type=2 2 2 2 2 2 2 2 2 2 2 2 2 2 2 2 2 2 2 2 2 2 2 2 2 2 2 2 2 2
left_child=8 -2 3 12 7 6 -6 24 9 -1 18 -12 13 -3 15 -4 -14 -7 -11 20 25 -22 -23 -21 -5 26 -20 -27 -15 -10
right_child=1 2 14 4 5 17 -8 -9 29 10 11 -13 16 28 -16 -17 -18 -19 19 23 21 22 -24 -25 -26 27 -28 -29 -30 -31
leaf_value=-0.03261011394106883 0.07625558200630804 0.070244201719123822 0.016982268783198098 0.030894708832805595 0.014640621830134093 -0.02880733819918338 0.12927546790705433 0.044962497026185939 -0.0035139885209125379 -0.041576089122308223 0.0015051312681691037 0.084369960284706252 -0.0358489885895419 -0.041581976361181772 -0.0050810835286373328 0.096392395349200383 0.023140846469503318 0.037876549819737648 -0.031779712658030861 0.078951460680442176 -0.027042229137926095 0.098685388844683017 0.010809953414235511 -0.003404743486924345 -0.026728146363182256 0.020746330439625902 0.048700867792436146 -0.03656138912476263 0.015939365404589081 -0.030867112098521172
leaf_weight=14.475957065820692 7.2590833902359 4.4097339063882819 4.2062849104404441 3.3227860182523754 4.4198950082063693 3.8129273653030378 4.812907412648201 5.8300215154886237 14.349330469965933 5.3417993783950797 4.8490302711725217 3.4509662538766861 21.164766311645511 5.2427602261304838 3.4562181234359732 5.8073487579822531 3.8118570595979682 5.23846335709095 4.6787368804216332 4.048811972141265 5.6770901083946237 3.3654256612062445 5.6126580089330647 3.3297883272171021 16.294581979513172 3.9733954370021776 4.5785072892904282 18.652069553732886 3.5617419481277466 46.084687784314156
leaf_count=98 41 27 25 20 27 24 26 35 94 34 30 20 135 33 21 34 24 31 30 25 36 20 35 21 100 25 28 120 22 306
internal_value=0.000238332 0.017062 0.0118132 0.00502576 0.0202733 0.0481462 0.0811915 -0.000816946 -0.0119179 -0.00243916 0.00440703 0.041326 -0.0125056 0.0135869 0.0498933 0.0676063 -0.0263019 0.00971446 -0.00136401 0.00330455 -0.00425755 0.0205506 0.0503389 0.0458154 -0.0159429 -0.015939 0.00889221 -0.0260451 -0.0190601 -0.0245354
internal_weight=245.12 102.651 95.3923 81.9224 43.7316 18.2842 9.2328 25.4474 142.468 82.0342 67.5583 8.3 38.1909 13.2142 13.4699 10.0136 24.9766 9.05139 59.2583 53.9165 46.5379 14.6552 8.97808 7.3786 19.6174 31.8827 9.25724 22.6255 8.8045 60.434
internal_count=1547 625 584 504 263 108 53 155 922 522 424 50 241 82 80 59 159 55 374 340 294 91 55 46 120 203 58 145 55 400
is_linear=0
shrinkage=0.05


Tree=22
num_leaves=31
num_cat=0
split_feature=53 17 52 33 30 38 22 28 52 40 6 34 70 52 62 38 17 6 26 32 68 38 14 44 11 35 70 40 52 5
split_gain=35.36 13.1488 14.4481 12.3509 8.78358 12.4899 8.05899 7.49271 7.45029 8.6989 7.98019 6.97273 6.38851 5.99209 5.6934 5.18839 4.73359 4.71832 4.66822 4.34099 6.89394 8.51782 7.11457 5.77651 4.49646 4.08821 4.39783 2.67849 5.10888 3.70791
threshold=0.39540572464466101 0.90159910917282116 0.89431032538414013 -0.084097020328044877 0.43367989361286169 -0.48063147068023676 -0.066691713407635675 0.52204617857933056 -1.5777630209922788 -0.0063312978018075219 -1.5367946624755857 -0.034545981325209134 0.39422380924224859 1.1415840387344363 -0.26435405015945429 -0.26174665987491602 0.33577302098274237 0.082661464810371413 1.975510358810425 0.52202537655830394 0.30869509279727941 0.21104449033737185 -0.94187939167022694 0.51823589205741893 1.0000000180025095e-35 1.0000000180025095e-35 -0.019529065582901236 1.5008555054664614 -0.034457320347428315 -1.4620292782783506
decision_type=2 2 2 2 2 2 2 2 2 2 2 2 2 2 2 2 2 2 2 2 2 2 2 2 2 2 2 2 2 2
left_child=8 2 4 16 6 -6 -2 13 -1 10 15 -7 18 -5 17 -10 -4 -8 19 20 22 23 -12 24 -22 -3 -27 29 -29 -11
right_child=1 25 3 7 5 11 14 -9 9 27 12 -13 -14 -15 -16 -17 -18 -19 -20 -21 21 -23 -24 -25 -26 26 -28 28 -30 -31
leaf_value=-0.044495512112455518 -0.031474060410882812 -0.027298581908720927 0.13336596186005692 0.093056204504696566 0.11643213953686347 -0.023916965005865112 0.093415566506415401 -0.014089236928097493 0.0019759796432751451 0.02083415369063598 0.043055474940480003 0.054613749563503358 0.05410373902254393 0.017613054979856768 -0.0096798252854596225 0.090357892356041747 0.039328430499774331 0.0053081280897215475 0.045918681457167349 -0.034706599245398054 0.10645706588445525 -0.0252498263048965 -0.032402520269724976 -0.0097967041137032931 0.023396843465628085 -0.017131826586144282 0.052876529950435618 -0.035190069969559014 0.047108737218556226 -0.034635038704095844
leaf_weight=17.64064022153616 11.002888768911362 11.187980681657793 6.3838747441768664 4.9637061804532987 3.532530650496482 5.1495800018310538 2.8652784451842308 4.8218985721468917 2.9464915990829468 2.6168772131204596 2.8229200392961458 4.3273553773760787 3.3881957381963721 5.7549420371651649 5.4617964029312134 2.9449437260627738 2.9849462807178497 2.7140572965145111 2.7068951874971381 14.323782630264757 3.1926502361893636 5.5283960476517668 18.548369519412525 2.8972067385911942 3.8670717626810074 3.8012568801641464 3.4349909871816626 2.900625541806221 2.6645152419805518 38.18265051394701
leaf_count=146 81 86 41 32 24 38 20 35 21 20 21 31 25 39 40 20 22 20 20 110 23 41 142 22 28 28 25 23 20 303
internal_value=0.00105354 0.0272713 0.0384734 0.066902 0.0169765 0.047939 -0.00258361 0.0357853 -0.0151934 -0.0101143 0.00200141 0.0137318 -0.00404683 0.0575096 0.0264296 0.0528562 0.110088 0.0578769 -0.00862219 -0.0123315 -0.00294871 0.0216672 -0.0209563 0.047644 0.0695075 -0.00929056 0.0184857 -0.0263144 0.00538715 -0.0306639
internal_weight=205.559 78.3871 59.9629 24.9094 35.0535 13.0095 22.044 15.5405 127.172 109.532 63.1669 9.47694 57.2755 10.7186 11.0411 5.89144 9.36882 5.57934 53.8873 51.1804 36.8566 15.4853 21.3713 9.95693 7.05972 18.4242 7.23625 46.3647 5.56514 40.7995
internal_count=1547 562 423 169 254 93 161 106 985 839 473 69 432 71 80 41 63 40 407 387 277 114 163 73 51 139 53 366 43 323
is_linear=0
shrinkage=0.05


Tree=23
num_leaves=31
num_cat=0
split_feature=65 53 44 17 29 6 33 64 34 33 42 29 20 57 71 34 28 70 57 46 43 38 6 34 70 41 4 1 33 62
split_gain=24.949 19.8175 8.76973 8.29603 7.2892 9.86751 6.73194 9.64939 7.87854 9.57653 6.27734 5.58921 5.37328 5.12436 5.9981 4.73223 3.89995 3.7727 3.4116 3.02769 2.92634 3.10958 2.8781 2.34915 2.24765 1.79202 1.45396 1.09071 0.60347 1.12392
threshold=0.52368327975273143 0.33055427670478826 0.3574338704347611 -0.89808416366577137 0.0046018408611416825 -0.046214917674660676 -0.03651753440499305 -0.5961824059486388 0.1476269140839577 -0.28913052380084986 -0.7954672873020171 -1.5914481878280637 0.20854149758815768 0.14983844012022021 -0.20435738191008565 -0.048559280112385743 0.50376489758491527 -0.074696112424135194 0.74241596460342418 0.13627434521913531 1.2256830334663393 -0.10414961352944373 -0.21786746382713315 0.16164021193981173 -0.22640550136566159 1.2725424170494082 0.48781785368919378 1.0043759942054751 1.1387456059455874 -0.34921424090862269
decision_type=2 2 2 2 2 2 2 2 2 2 2 2 2 2 2 2 2 2 2 2 2 2 2 2 2 2 2 2 2 2
left_child=6 2 3 -2 5 -5 7 19 9 10 -9 -8 -4 14 -3 -14 -6 -11 24 -1 25 -22 -21 -16 -12 27 -7 28 -13 -30
right_child=1 13 12 4 16 26 11 8 -10 17 18 20 15 -15 23 -17 -18 -19 -20 22 21 -23 -24 -25 -26 -27 -28 -29 29 -31
leaf_value=-0.03807425255939309 0.13549219746806124 0.066867126523720913 -0.025545183622235342 0.13669401408252382 -0.032503453597531498 -0.011657253321230316 0.032324210695215433 0.062773023063067354 -0.035964392700107227 0.12230136544593147 0.0138581296980627 -0.043307678405884162 0.082345153444779065 -0.039269101406209997 -0.028979109125406789 -0.011514974687217067 0.039260496559508667 0.02633627431090875 0.038293037588010781 -0.027711730688038328 0.04600965732180947 -0.029267120056928941 0.046581948180606264 0.028339122729292371 -0.038474295437831214 0.0097168175482606374 0.04079646202544765 -0.005396341249438337 0.012571864312871684 -0.032562989356680609
leaf_weight=13.226501233875753 4.2005842328071639 2.5239271745085725 3.8427273407578451 3.0718950182199505 2.5631743296980858 1.8212877288460707 2.8051882311701766 3.1215378120541617 4.0391825512051573 2.545395627617836 2.3106737509369868 31.493787318468094 2.4764608666300774 7.3376411125063887 4.8816572278738031 1.8328520059585569 3.0733382925391197 2.4200832396745691 1.938107706606387 1.6241287663578989 1.689522907137871 1.8483969941735257 1.6765944510698307 1.6573357060551641 5.9224720522761309 1.649304911494254 1.8432512953877447 2.671987257897853 1.5255405530333517 2.6756917014718047
leaf_count=173 38 29 45 27 30 20 32 36 51 27 28 418 25 99 58 22 33 27 23 21 20 22 21 20 73 20 20 34 20 35
internal_value=7.17521e-05 0.031607 0.0590228 0.0790083 0.0511343 0.0826879 -0.0153433 8.83683e-05 0.0211706 0.0350214 0.0105489 -0.0279958 0.0141981 -0.0107419 0.0139618 0.0477744 0.00664593 0.0877849 -0.00966305 -0.0279395 -0.0325191 0.00889827 0.0120821 -0.0126195 -0.0238767 -0.0363086 0.0178166 -0.0384837 -0.0407459 -0.0169077
internal_weight=126.31 41.1261 24.7256 16.5735 12.3729 6.73643 85.1841 38.8247 22.2975 18.2583 13.2928 46.3594 8.15204 16.4006 9.06292 4.30931 5.63651 4.96548 10.1713 16.5272 43.5542 3.53792 3.30072 6.53899 8.23315 40.0163 3.66454 38.367 35.695 4.20123
internal_count=1547 466 260 168 130 67 1081 480 265 214 160 601 92 206 107 47 63 54 124 215 569 42 42 78 101 527 40 507 473 55
is_linear=0
shrinkage=0.05


end of trees

feature_importances:
Column_17=31
Column_44=24
Column_52=24
Column_21=22
Column_30=20
Column_34=20
Column_40=20
Column_10=18
Column_28=18
Column_57=18
Column_65=18
Column_14=17
Column_29=17
Column_38=16
Column_41=16
Column_67=16
Column_6=15
Column_53=15
Column_22=14
Column_33=14
Column_70=14
Column_20=13
Column_56=13
Column_68=13
Column_74=13
Column_4=12
Column_18=12
Column_31=12
Column_32=12
Column_62=12
Column_64=12
Column_5=11
Column_16=11
Column_19=11
Column_50=11
Column_54=11
Column_46=10
Column_55=10
Column_58=10
Column_66=10
Column_7=9
Column_8=9
Column_9=9
Column_26=9
Column_45=9
Column_69=9
Column_43=8
Column_47=7
Column_72=6
Column_1=4
Column_35=4
Column_42=4
Column_59=4
Column_71=4
Column_2=3
Column_3=3
Column_36=3
Column_11=2
Column_61=2
Column_12=1
Column_23=1
Column_24=1
Column_25=1
Column_27=1
Column_73=1

parameters:
[boosting: gbdt]
[objective: multiclass]
[metric: multi_logloss]
[tree_learner: serial]
[device_type: cpu]
[data_sample_strategy: bagging]
[data: ]
[valid: ]
[num_iterations: 500]
[learning_rate: 0.05]
[num_leaves: 31]
[num_threads: 0]
[seed: 42]
[deterministic: 0]
[force_col_wise: 0]
[force_row_wise: 0]
[histogram_pool_size: -1]
[max_depth: -1]
[min_data_in_leaf: 20]
[min_sum_hessian_in_leaf: 0.001]
[bagging_fraction: 0.8]
[pos_bagging_fraction: 1]
[neg_bagging_fraction: 1]
[bagging_freq: 5]
[bagging_seed: 400]
[bagging_by_query: 0]
[feature_fraction: 0.8]
[feature_fraction_bynode: 1]
[feature_fraction_seed: 30056]
[extra_trees: 0]
[extra_seed: 12879]
[early_stopping_round: 0]
[early_stopping_min_delta: 0]
[first_metric_only: 0]
[max_delta_step: 0]
[lambda_l1: 0]
[lambda_l2: 1]
[linear_lambda: 0]
[min_gain_to_split: 0]
[drop_rate: 0.1]
[max_drop: 50]
[skip_drop: 0.5]
[xgboost_dart_mode: 0]
[uniform_drop: 0]
[drop_seed: 17869]
[top_rate: 0.2]
[other_rate: 0.1]
[min_data_per_group: 100]
[max_cat_threshold: 32]
[cat_l2: 10]
[cat_smooth: 10]
[max_cat_to_onehot: 4]
[top_k: 20]
[monotone_constraints: ]
[monotone_constraints_method: basic]
[monotone_penalty: 0]
[feature_contri: ]
[forcedsplits_filename: ]
[refit_decay_rate: 0.9]
[cegb_tradeoff: 1]
[cegb_penalty_split: 0]
[cegb_penalty_feature_lazy: ]
[cegb_penalty_feature_coupled: ]
[path_smooth: 0]
[interaction_constraints: ]
[verbosity: -1]
[saved_feature_importance_type: 0]
[use_quantized_grad: 0]
[num_grad_quant_bins: 4]
[quant_train_renew_leaf: 0]
[stochastic_rounding: 1]
[linear_tree: 0]
[max_bin: 255]
[max_bin_by_feature: ]
[min_data_in_bin: 3]
[bin_construct_sample_cnt: 200000]
[data_random_seed: 175]
[is_enable_sparse: 1]
[enable_bundle: 1]
[use_missing: 1]
[zero_as_missing: 0]
[feature_pre_filter: 1]
[pre_partition: 0]
[two_round: 0]
[header: 0]
[label_column: ]
[weight_column: ]
[group_column: ]
[ignore_column: ]
[categorical_feature: ]
[forcedbins_filename: ]
[precise_float_parser: 0]
[parser_config_file: ]
[objective_seed: 16083]
[num_class: 6]
[is_unbalance: 0]
[scale_pos_weight: 1]
[sigmoid: 1]
[boost_from_average: 1]
[reg_sqrt: 0]
[alpha: 0.9]
[fair_c: 1]
[poisson_max_delta_step: 0.7]
[tweedie_variance_power: 1.5]
[lambdarank_truncation_level: 30]
[lambdarank_norm: 1]
[label_gain: ]
[lambdarank_position_bias_regularization: 0]
[eval_at: ]
[multi_error_top_k: 1]
[auc_mu_weights: ]
[num_machines: 1]
[local_listen_port: 12400]
[time_out: 120]
[machine_list_filename: ]
[machines: ]
[gpu_platform_id: -1]
[gpu_device_id: -1]
[gpu_use_dp: 0]
[num_gpu: 1]

end of parameters

pandas_categorical:null
